{"hidden_weights1": [[0.6824212306409804, 0.07657327857662365, -0.567036255093309, 0.39931094930308886, -0.21145582531453697, -0.11508818659801866, -0.07902811960862512, 0.11397295327172635, -0.22106145820102394, 0.2357366242362517, -0.2622726495853881, 0.759006583760105, 0.9334067085429347, -0.7399213187357956, 0.10157064828602325, 0.1774323043735122, -0.1133035540243298, 0.3329359519129356, -0.7759092595101911, -0.282459179965256, 0.008770504347681703, 0.4328059257814989, 0.14452101022481217, -0.03680132434857641, 0.03642017542685296, -0.08910121003303556, -0.06426118237759865, 0.1505628981252495], [0.07493596982182418, -0.046726162392583745, 0.12271472383546068, 0.03071027199734076, -0.11895413182954392, 0.3148493298987703, 0.32562884768100675, -0.1376294523388139, -0.4399858864602579, -0.5758939480133812, -0.3277078924190044, 0.11470898867386357, -0.5718951379831215, -0.03380268779666164, -0.15370379330130082, 3.349450185625731, -0.5581354004034083, -0.029441090148752087, -0.06916567810002042, 0.43240251312407857, -0.4963662658567271, 0.06938720352830087, 0.20221107735335334, 0.207634559577079, 0.2245588617478536, 0.31569377670768906, 0.026573803685621265, 0.3360098826885623], [-0.05716625095421825, 0.19953927386190817, 0.288976430111714, -0.3088608604406552, 0.200739636527899, -1.269174457113801, 0.5637016143596687, -0.1368844388180568, 0.07020228056351935, 0.3825995579590744, 0.4720737621596023, -0.42451344403131047, 0.9490751427539739, 0.07686323969063201, -0.548419641522344, 0.19049376001045595, 0.13104700248115406, 0.034005873970016254, -0.1932042487164361, -0.03416061266594868, -0.2788286713258244, -0.16180259865305163, -0.09346152798966856, 0.3116568002241442, -0.06745408519243819, 0.020517912394351835, -0.19536770573957804, 0.06401980332436934], [-0.13512804713428153, 0.18562959737164655, 0.3257040797619813, -0.49456427512850915, 0.38404663256289656, 0.3691680850023639, -0.5337369742088582, 0.3296345732482035, 0.11697127181955118, 0.11360369496371034, -0.04232057116631925, 0.0833089367925234, 0.12736532655542593, -0.14286393016649748, 0.2435752904652659, 0.14680709114452234, 0.13960211683026408, -0.08323728151210108, 0.011699425656679849, 0.9729409991352928, -0.27584939583079704, -0.2817159814108055, 0.17615374822682303, -0.3879281688164443, 0.03206650201171717, 1.1608827500205166, 0.24792619725897097, 0.007347692520067868], [0.9438439055840125, 0.06333675155348129, -0.14146115259610184, 0.1022623585655249, -0.35806177712963233, -0.21018251011860759, -0.2681870468066495, 0.10760630157103056, -0.043719740035193355, 0.1859207482283953, 0.20634230930799038, 0.22684775945437582, 0.05618238041217047, 0.09458159027055564, -0.35064402881018797, -0.1476152127245812, 0.3432594570919692, 0.14816654987465325, -0.18553610146291766, 0.5702113371356774, 0.20031841992029198, -0.178398935518989, -0.004655300411703117, 0.07121574929178862, 0.08997617802584383, 0.056503535569807306, 0.8473149856281939, -0.016576341325033148], [0.7168583072084478, -0.03328792683939662, -0.08506613787067041, -0.09307265424904551, -0.020766088149544774, 0.03269075199677022, 0.3752952561878553, 0.03342113694973662, 0.3059431135297502, 0.1362097111181703, 1.7014741467740622, 0.6439091955353204, 0.9381078198202656, -0.03646794231870152, -0.050208506534773635, 0.36135584346061433, -0.06382556656434256, 0.029183315040718055, -0.6169180524009024, -0.0368284147063906, -0.09705829772046225, 0.015090785672467383, 0.002629559601579104, 0.787699667168536, 0.17157415385284, -0.0363780962800346, 0.2197856160555633, -0.29404295406500275], [-0.8085290733745996, -0.3526420205776129, -0.798255170977737, 0.7363502705161812, 0.2707071417028208, 0.06794111785409356, -0.31258008789646774, 0.22039613688996657, 0.026251489148465968, -0.030885158040176486, 0.06880371452230458, 0.3071714941698994, 0.5662873905338993, -0.0643820035461946, -0.20371695973606282, 0.09708986094431951, 0.10006116043775355, 0.21880229305373267, 0.8259749760588716, -0.3656945665620237, -0.23600231803762928, 0.747024073304858, -0.014165254930164316, -0.10853588494684664, -0.13145599192464694, 0.17929848928174782, 0.1697610972367276, -0.1671889607251509], [0.5163376573552744, 0.21066807196058546, -0.643683726866575, 0.30764177972778733, -0.4067180467770729, -0.4627958873617367, -0.7232174357103945, 0.21550967349996655, 0.05529570963815502, 0.08604248664268044, 0.19860233066267569, -0.18028124798308526, -0.31737325452507104, -0.3897941891860114, 0.3111754254660842, 0.03219801095293755, -0.18985727759389512, 0.3428527450083503, 0.8192880700225372, 0.3613027636786987, 0.877613340842023, 0.5175630891819352, 0.16278147338736865, -0.1785773616355743, 0.22495332124680764, -0.07981368092806782, 0.039746154023117264, 0.25264326117601466], [0.25021636859428875, 0.2462328348838604, 0.5321894693791043, -0.20184689385369503, 0.16904749976127623, -0.5617712677550876, -0.8574753797362469, -0.3891572814118088, -0.6570494277179378, 0.018289361177967985, -0.5383961682586876, -0.0006909275683983856, 0.14875997538890448, 0.22966315272802817, -0.41217942108254346, -0.16066203859422615, 0.29513167863378625, 0.07417688103065732, 0.08694954966170107, 0.6227776191442111, 0.1468033192399281, -0.30242791063253033, 0.2513024025437577, -0.1379326802730425, 0.03356688239287324, -0.007022296236410743, 0.3117366721792635, 0.0658098738690826], [0.45429881150103524, -0.05656052028937362, -0.5706889681002529, 0.3916858007615879, 0.10302870133949703, 0.328604017592173, -0.06579318685447427, 0.669504542481075, 0.3588529496376665, 0.0728620916975433, -0.1708999170207061, -8.152555693316098e-05, -0.023128470722197564, -0.12606099936718954, 0.4097022127276417, 0.08703273804431026, -0.19706697827701028, -0.24512887587329618, -1.6639877373253162, 0.15231681220268944, 0.6825235820018548, 0.15128298013888408, -0.06762296324221632, -0.004154750413500102, -0.013927546360779036, 0.20452472346339834, -0.22535528034283175, -0.3092573086764407], [0.14777721679826897, -0.33545616193653344, 0.1714264166290253, 0.23748055784176966, 0.13733396883564575, 0.27391117262673687, 0.05688423753345213, -0.13669449287767585, -0.38820455763007994, -0.6743525765372446, -0.12922874001981802, -0.18620373124613776, -0.28845354210806573, -0.156462201431191, 0.13588901483262644, 0.15459621403970492, -0.33407554846379284, 2.5512812471482675, -0.36862186293007493, -0.03180391520907517, 1.511374503652766, 0.014372951907739144, -0.0063431129929341105, 0.2529768356449795, 0.04922585983510698, -0.00957458164326679, 0.24832467337241634, 0.4421338683670776], [-0.14279206536331743, -0.1570933194311286, -1.5373344421053554, -0.10031028538579383, -0.0038648245581316266, -0.4557543698641536, 0.4385288178747888, -0.47824915686645153, -0.7934337186684673, 0.5833000620180531, 1.1059629432315345, 0.2433424966662078, -0.6292712966399522, -0.2181725539293022, -0.2725899890205593, 0.19611218973983155, 0.2677731609250403, 1.5573720342760922, 0.6742204938195009, 0.1792376355951962, -0.1237703376418614, -0.30796658914412595, 0.03559107706443348, -0.14267448672065047, 0.012367542140222954, 0.22364196232238526, 0.21860325043829992, 0.9089452432674957], [-0.6394600115235021, -0.2055390222409325, 0.2504635118378105, 0.11955449134146122, -0.10703094286574187, 1.0354512034922696, 0.10694201576885969, -0.010446071480064873, 0.09878758146784776, -0.07420889479194172, -0.12852339711512792, -0.034307592618994284, -0.32729214039526106, -0.057957787651540894, 0.8425151791225274, -0.2588162362598678, -0.3520716038623147, 0.234378805736567, -1.3714306116010866, 0.12207122358393407, -0.25271521728238205, -0.07084715724981745, -0.05068149059090672, 0.03631701353112671, 0.16968182455024233, 0.7074623208138233, -0.013113821958689174, -0.14986084675713704], [0.301272529670876, -0.25940652448487495, 0.44903360463129804, -0.2808258045798899, -0.12180791235882658, 0.028541448815715437, -0.5039548484891626, -1.3166356928448157, 0.07798617595456984, 0.17961686582157266, -0.10251418070144175, 0.10789172732165346, -0.5375355064497017, -0.298729364981465, 1.2144818257723577, -0.04062238455600967, 0.0818736460278364, 0.10437966935630162, 0.31983416131333614, -0.35449433214972387, 0.3396673472370624, 0.07554496664673964, -0.37432296289850375, 0.9751549455221715, 0.23203909109381432, 0.31325024036957844, -0.2628831707634933, 0.03132757197725506], [-0.3281401479305821, 0.8148426917623428, 0.22565631865457383, -0.258730096649774, 0.127438980087084, -0.5225923339320608, -0.3814840403667129, -0.6280337607931865, 0.41592858449173475, 0.3273825876458043, -0.15780588196943632, -0.0866915655726316, -0.28322104803397846, 0.6143674496989849, -0.1893289108944759, 0.028087884038573353, -0.1938421617592258, 0.013236899090339111, 0.44276533373751453, 0.0449032196206354, 0.6203613373412469, -0.37325387482190825, 0.6783159412290187, 0.12162797733601441, -0.14739500193335267, 0.06889523134727409, -0.18549078236531324, -0.07948660487748918], [-1.0518520256198742, 0.27316611897091947, -0.82362946877963, 0.7824793744749713, 0.05989714975122687, 0.569245116510117, 0.3510477304879007, 0.07858115116248421, -0.005532382078695237, 0.11637143491755798, -0.13673654754059453, 0.9471362794740743, 1.6765779169126205, -0.8292696183036451, -0.6257708790308377, -0.005323747276075988, 0.06760464936656053, 0.1220489397799593, 0.10094714701173092, 0.25033434348983535, 0.5473391606060615, 0.9259258007734256, 0.17502436165413254, -0.3617939912304303, -0.17270412440730445, 0.30879716238318805, -0.05479625552538543, 0.021876593443253385], [0.03557933338083203, 0.11672192026621112, 0.13855349484359736, -0.22771864002447934, -0.07977511179602598, -0.34741695554412566, 0.4863617093586978, -0.4546058548652067, -0.26490663548454163, -1.4768676010078556, 0.21572788561973189, -0.27509922107631446, 1.4100809541779713, 0.10130143413787637, -0.07947365432952816, -0.11307604360332478, -0.4016996144460444, -0.2649262768684772, -0.3981279988112551, 0.2570866004743694, -0.47769507899233127, 0.4697353953217693, -0.055720769068608254, 0.26921551427502466, 0.28898336423552173, 0.17186283949584952, 0.1248378949026654, 0.46932141277628187], [0.08243728531628262, -0.09903476998132485, -1.0902533671117407, 0.2642461845520501, -0.2607206135950482, 1.418802689116707, 0.851096706420917, 1.0187120854235145, 0.19593183805895312, -0.2006754881129344, -0.056221649433099784, 1.3235512540769785, 0.04678507314196244, 0.02571048536758872, 0.14455288089353624, 0.43131227651163695, 0.21928868093524967, -0.08873861153403921, 0.4203087442002643, -0.11499005636455971, 0.4017911851553512, 0.2945275276492477, -0.06032870724142939, 0.14867885236179879, 0.06012369817404113, -0.1588348145091214, 0.22326912061384066, 0.1005946194535859], [-0.501212472735107, 0.016895544393399114, -0.0978626673056695, -0.0012913439260374164, 1.7965893442551981, -0.17314880531202576, 0.7810338549885271, -0.287205806636024, -0.6482022979324167, 0.1182504734761854, -0.4899280011181314, 0.0992166795201635, -0.14409707983144615, -0.4269863997260606, -0.11385942475581948, 0.09156721302376726, 0.8386268425966036, 0.3128035007106448, -0.583007129743032, 0.10556185559528737, 0.09438747683367653, -0.11992021529760244, -0.2600076789954744, -0.09807927682984872, 0.09762583875253984, 0.28438766017942063, 0.9404294171017037, -0.09379141434526633], [0.1406896195999931, 0.22870990116473566, 0.04020206124301242, 0.3527138230060006, 0.021831232343595883, -0.5899087781298825, -0.050032949005987176, -0.5285612805696811, -0.3718323090314269, -0.15445418843275596, 0.025970928107882124, 0.4770776788479552, 0.6911860160543654, 0.35995271159146935, 0.32485504383106856, 0.15811244855035442, -0.08988718618883859, 0.07692715788002707, 0.09159110754082199, 0.3868687346567898, 0.06955309407757655, -0.09233662471526227, 0.006313786266009577, 0.6778901015873845, 0.06315871003368895, 0.225924025732844, -0.027470644218515507, 0.8383843212621345], [-0.10558003338030664, 0.7664548474729859, -0.15855774840201167, 0.11305091792396123, -1.5951288870452454, -0.6748166326682099, -0.19245509352063833, -0.3282994984545016, -0.12095052449416377, 0.05993753613322599, 0.06408454802826821, -0.06980449347101483, -0.3178992607487342, 0.9202086785759283, -0.6012530841990215, 0.21681738037675255, 0.030275163684626308, 0.15424117975465143, 0.09123263396428162, -0.12649286644620256, -0.09328759300998782, 0.15141929397926385, 0.8871965122116358, -0.20647374639652, 0.18710866632108036, 0.2776896561108542, 0.29569919004982964, -0.3079809925094177], [1.845988176752262, -0.04718218623091326, 0.08452396559553492, -0.18275183328377226, 1.3946911551075507, -0.17674754434615553, -0.5656823698031144, -0.3877397410681738, -0.6672936578832273, 0.31356988584600937, 0.29310160723377937, 0.0551246027642516, -0.13051233231634127, -0.19361575247271873, -0.2904746658129851, 0.056376819697452514, 0.6979784448613655, 0.2404916141294488, -0.3296133695930392, 0.033607086895554625, -0.22438855750425596, -0.1639339797221036, -0.04072291593448257, 0.060122431144124924, 0.03586712622013417, 0.060770622121701416, 0.5477713191025122, -0.15777067872223272], [0.1699268407668058, 0.4125967606667713, -0.4669386847517623, -0.00046277469415274266, 0.42548444996606555, 2.454349547507322, -0.28392335235038657, 0.08164874665474563, -0.1599699956711199, 0.09386012913040911, 0.2644298006799652, -0.4168093724599825, -0.025564901805788715, 0.4432651047978659, -0.12278528731826836, 0.4855374896922044, 0.27168492832369906, -0.04995473509849937, 0.11721837619692205, 0.32071159003427274, 0.2150659438685537, -0.02997089200166873, 0.6122657897230547, 0.34916191375154687, 0.09001461359415447, -0.01858967262779715, 0.09700464446645297, -0.1904060124039292], [-0.21583639338914143, 0.3699961489636853, -0.0707797800410178, -0.13696929236773145, 1.6184980744281992, -0.1935661172204958, -0.5455791918248487, -0.3481602440636919, 0.1141771132752035, 0.05224408908472389, -0.1518492417993151, 0.04500835476096611, -0.32208803070212383, 0.4788985402837328, -0.5009896851638986, 0.1733723557828128, 0.12321415874529111, 0.12439927672843015, 0.2410115084109976, -0.3692576806813272, -0.7272630950272154, 0.14272313949646034, 0.32971528639031566, -0.034150017840286, -0.0122744368830876, -0.1584235859807344, 0.2841807223607312, -0.1590847041669071], [0.0749182332484871, 0.07968105834364941, 0.17332943486750915, 0.1576448722028761, 0.1596464259290583, 0.5456442129277335, 0.16251443082113137, -0.2367512517115586, -0.3530085249700912, -0.08681230567782382, 2.9467440351867817, -0.044975496292381005, 0.5909432857648204, 0.006904216432977837, -0.02790757182888723, -0.13488466511445646, 0.1899261132758367, 0.12700854758041163, 0.25328931825525425, 0.04797205269169086, -0.43058683742523873, 0.3834359346175824, -0.04051016312528067, -0.2130417792581233, 0.22786489276707383, 0.17082434391147608, 0.40893686724507267, 0.3779236865559993], [0.015219490804524824, 0.13068119639711256, 0.28420388574996014, 0.19477840897794688, 0.22089839703581707, 1.1051969752418225, 0.1710076734198871, -0.4136372573740679, -0.7993799957451794, -0.8973022550832546, 0.43944267065293036, -0.07880240141806463, -0.13852678698248333, 0.15709684421402617, 1.7495670418838154, 0.010757017399132719, -0.4325376629613979, -0.16245976414173285, -0.18092874430714226, 0.05366570911627557, -0.025889777487047974, 0.013881507947689479, 0.05302052101395488, -0.008374090979306944, 0.1748081687251393, -0.408912963397626, 0.2551464371394494, 0.9636173371988771], [0.29396012819915257, -0.25982496565009355, 0.27450886249712714, -0.15222041156685012, 0.05604916796290356, -0.15503506510734397, -0.09000434613447479, 0.35426937395151914, -0.14860504597009414, -0.1371368446911549, -1.5823520792809442, 0.3145174985790818, 1.2422611475620566, -0.35600884298132857, -0.8364725625900581, 0.5637375828756745, 0.20855524544736176, 0.07714041698570727, -0.30333842805873523, -0.1579886836812824, 0.1963826134519305, -0.040183202809341186, -0.02501801350133909, 0.49156099980368934, 0.5667440775917845, 0.1822120323374392, 0.0842030796851394, 0.19913851210684338], [0.4105324413911813, -0.005407190941609284, -0.0357177125536583, 0.6662073865065148, -0.14162843882571904, 0.18046417431490977, 0.8013637866734853, -0.022172806470949814, 0.21442042541601566, 0.04821507142718447, 0.02771837126780349, -0.6904209936984208, -0.3371506479091057, -0.5986602345854763, 1.5330772895881024, -0.010690413781648651, -0.08130887167272066, 0.25083279899595845, -0.10837423665599215, -0.29155875065203335, 0.754216233531101, 0.48421794235630894, -0.003721383353527597, 0.29510557672820986, -0.08571382863965428, -0.10249962531474874, 0.1305743001432424, 0.15283362235619194], [-0.6262200079093754, -0.013647054606298897, 0.0018968571004049516, 0.2300427001173476, -0.17058386417108326, 0.43279481135858183, -0.36658962620894847, 0.18326128271097697, 0.23705575575049162, -0.056761689906819485, 0.13812022582621378, 0.023200876369225982, -0.11928017221090116, -0.33483286762684683, 0.6762059920591128, -0.11399502140688962, 0.3002955856060853, -0.22338460276798747, 1.3670052544028999, 0.27625191061208443, 1.284194220323506, 0.06373643528358112, -0.06954833161071672, -0.011676571478673865, 0.27079099036390064, 0.7397458018353575, -0.0494471803496787, 0.034483053144662046], [0.6183213029443239, 0.17732363601761333, -0.7266388541210409, 0.5214684671224898, -0.2140753473097016, 0.0004945767832625372, 0.17824300357459902, 0.4674214225241064, -0.00978470584969848, -0.12457325118729878, 0.20775327392533868, 0.2958462393004041, 0.3837059130818263, 0.7574377946010945, -0.47164343823514976, -0.2918836478588347, -0.10870240147754122, 0.11843174139684913, -2.3267215310908345, 0.6036368785290418, 0.413765565918749, 0.48749124591622217, -0.016483626637656082, -0.012797972484263287, 0.33951628139627443, -0.03307118537981288, 0.05099484579029585, -0.061874052454987345], [-0.291194844972073, -0.11998839028189373, 0.20689041054613894, -0.2170025055586801, -0.16702865518511406, 0.752285454185795, -0.20051138970535987, 0.4855183469308593, 0.23288626948512922, -1.2050218080014319, -0.0160689733446728, 0.8823775780705906, 0.9028304215924208, -0.1821701010968534, -0.21270992766927552, -0.16344356763014747, -0.20997160343837323, -0.13057765940110333, 0.40753506076325796, 0.08290370886164561, -0.05851826695139033, -0.18422187288518824, -0.12490982211068535, -0.06773664349426267, 1.520270291420489, -0.14308038655613453, -0.10883826224040119, -0.1851483662831003], [-0.20572115135949343, 0.3005721813884308, 0.2647380006067793, -0.0728906732107034, -0.29166493435816604, -0.30533325095981256, -1.4200122388606877, -0.08711835711821073, -0.7672845583986665, 1.1390412333960473, 0.3288806402860454, 0.12471496401549652, 1.1804634399382843, -0.06535565595209077, -0.1646630082389053, -0.13715558157405638, -0.18028929983494177, -0.3025380693858479, -0.7156572642637125, -0.03253740733185791, -0.03822553452004007, -0.12333795663484606, 0.0006713145278717525, 0.01760742919547712, 0.010844550949689875, 0.31823086646943655, -0.1446720010117295, 1.1276845075052975], [-0.23113776349162263, 0.1220376617451391, 0.39009429727995665, -0.43536093293976896, -0.22032449113819413, 1.0604539818066383, 0.5652178467756959, -0.08113490940576937, 0.16639926050727571, -0.5343652910348943, 1.3018909983146125, 0.21558449027556698, 0.650619612137026, -0.12379580548049676, -0.27050754437008084, -0.043792446457948137, -0.13724924100969568, 0.33425298965005434, -0.6048708990366971, -0.061180117466883795, 0.9612053993123776, -0.33317757760131295, 0.16832753582132592, 0.008060665496516956, 0.13608230962514392, 0.02353505600560382, 0.18411100826310778, 0.3134440501474054], [-0.3394592927596216, -0.09220454466767403, -2.060764612560552, -0.2736049797408527, -0.03768769471371772, 1.022238344863756, -0.12876894237768124, 0.2618327684302359, 0.0254599166195837, -1.479040018109838, 1.2147902874693113, -0.8468657765032268, 0.4895433229384211, -0.24236071351606733, -0.08341769671134128, 0.26250256955680784, -0.035860912129521, 0.2524964409423607, 0.12678171942066338, -0.05858103832977819, -0.5213106048508819, -0.25064960575610357, -0.007019913836212397, 1.4912701958826313, -0.3912641888653927, 0.12519444320418463, 0.055929722359892464, 0.13733636176837383], [0.5069879321581702, -0.12751167874855615, -0.4648250048341045, 0.3255053944140444, 0.37358012366783905, -0.0021161131074575266, -0.43212440743501707, 0.4764870461854323, 0.38554136701655745, 0.1197947713870055, -0.23191913358523772, 0.24316850896896927, -0.5492821349172125, 1.8469000357649723, -1.06681658014153, 0.04181532022897946, -0.018038238964130263, 0.24608268163584046, 0.15764524211174308, -0.09960375493900532, 0.5054650794235575, 0.46045137678925363, -0.08417265047599284, 0.09936274451031812, 0.07346748879865839, 0.13168321190547164, -0.16696779931637007, 0.24442124071767563], [0.13705339837241562, -0.2924729783273506, -0.3700901686775539, 0.02218653990233702, -0.16255785857663455, -0.9428892084810552, -0.6248810088091807, -0.041021261938649065, -0.14516564212668226, -0.24489512015425996, -0.051819634026517916, -0.2537106353786143, -0.2977897390537109, 0.23584390769787764, 0.15894144902670326, 0.2923531468875144, 0.1644970345228065, -0.009616542920055702, -1.0072245296696962, -0.6537089071292059, 0.27203014301953526, 0.25221042761391554, -0.095721809666784, -0.23649181352936854, -0.03661470968495828, 0.2679197049910163, 0.428761344134341, -0.11744019715133601], [0.04017432599313005, 0.10723726182519437, 0.1592276344546608, 0.0877770301775819, 0.15337484634866969, 0.1812609001383652, 0.4119767338833002, -0.10363070518553828, -0.29564170682258156, -0.0335020939718813, 0.16223943149529746, 0.24889626861749786, 0.1796118355481257, 0.3896652662161788, -0.20271246283880628, 0.09418765720445785, 0.19377945692832618, 0.12347577046383518, -0.27721173314673914, 3.992745363362937, 0.18643231685588763, -0.25047995302192855, -0.0639597232432437, 0.2336422426872365, 0.11820478332437229, 0.146575286173671, 0.29849751901819216, 0.35458851667907454], [0.18795533030212702, -0.08317133895113578, 0.2843073602809173, -0.006131196237085905, -0.17796002983926054, 1.1032799730381058, 0.2961935514226766, -0.3908871181473467, -0.5088084724956734, -0.6200157664105368, 0.5957399169432831, -0.06256968626305393, -0.38110232545133144, -0.22163370251665862, -0.8144708043189167, 0.5263242493492595, 0.8986803295579143, -0.21007122930054772, -0.6609903321502558, -0.1550272650581093, 0.0646889993550585, 0.1053481100810859, -0.0674991558511813, 0.10590300685763991, -0.542281396453249, -0.02285015056382102, -0.36394512481873975, 1.1200622729974141], [0.4004945503879586, 0.2730622618995314, 0.0041956072871427155, 0.13134937734085772, -0.6444100887637961, 0.19380487391472875, -2.066089099018012, 0.555503080851748, 0.19148907957175249, 0.06980453320503216, 0.34324681486142755, 0.2510030706598212, -0.2050807944375479, 0.4760607827922419, 0.04101598390814299, -0.13847803835410208, 0.23072415303421798, 0.29019607297880423, -0.0888567840786861, -1.0729678168273649, -0.40567632936333836, 0.1694412772079136, 0.1442565271706421, -0.3035923348833025, 0.21615380719017635, 0.5663393084447149, 0.041141856197145235, 0.08972434798800957], [0.10230306311845662, 0.25775874631494106, -0.21812589051460096, 0.351478512598753, -0.6366121780998615, 0.3249260477086464, -0.20838110338748042, -0.21423375016339372, -0.3168880422498894, -0.2620080126551305, -0.21936096144251307, 0.33088092909852396, -0.5200701910614448, 0.04508715495550089, -0.2168578982812821, 0.09490041797535613, 2.0544598608271936, 0.3824869514896652, -0.15169267414564008, 0.3718021748263587, -0.06073096972381937, -0.00948173523388748, 0.03428704236901905, -0.03574732557829764, 0.12919829197262164, 0.13356791975026566, 0.5805742834737581, 0.8311103956470629], [-0.022059706012530874, 0.16208418454113596, -0.20256877696596054, 0.1378545471346846, 0.265133243229991, -0.5730548694246518, 2.9768462499868753, 0.1677949164779717, -0.1931889929005057, 0.12186577367112914, 0.07407986532854527, 0.1421789042159837, 0.02332725307790516, 0.3376787367284455, -0.07401424388635142, 0.22217366448454726, 0.08464907826671017, 0.10798056883154566, -0.2933161641904638, 0.2896974504028499, 0.13067563319429265, 0.24842156459959758, -0.023896972875724606, 0.043208051546802705, 0.2580766017190945, 0.25000733158574967, 0.17826731957833503, 0.038321717878884075], [0.3220196959601359, -0.07773425714254224, -0.18069182727640914, -0.30238357604199984, 0.5038603004209768, -0.21825590991633964, -0.4507974380475633, 0.07906831557822795, -0.10601673383151324, -0.21187954225781946, 1.5337537083233497, -0.01703362285502271, 0.24021169610503953, -0.24104315057215048, -0.02692076414571206, 0.20552356413790862, 0.5694198747534319, 0.012899329595655883, -0.245245813783263, 1.4655787082056455, 0.14252771207110437, 0.030426952435692, -0.14671997038915685, 0.31688517132923244, -0.07404702538565866, -0.026112748055809324, 0.7096060410256299, -0.11280102381460354], [-0.2198633741410837, -0.16245709230379973, 0.39153828938398527, -0.26362356889687133, -0.02245274257327913, -0.926514773523144, 0.04596995603628221, 0.8572349568830365, 0.20539444628843134, 0.23884280920236467, 0.18158841160446254, 0.1097059226907242, -0.4452616269629439, 0.053260558932166954, 1.3218619643660943, 0.049282989490169224, 0.05587417372344619, 0.4321858127968261, 0.1069297126029527, -0.2553222413126666, 0.07360566138402656, -0.16512184825821938, -0.2838078820614825, 1.8461051773894226, 0.3131652150965458, -0.24910785090188378, -0.022665966339835017, -0.10109706517252502], [0.23238160210664524, 0.16957001685128942, 0.03226472295547033, 0.14666100009691782, 2.3434633335984105, -0.7069953651056358, 0.19294448557117233, 0.15890902873867122, 0.2511822388991615, -0.09225127127598697, -0.18842254236769568, -0.22012121514470823, -0.03030092316300985, 0.2724308577903417, -0.11824537333448878, 0.18575198179878616, -0.2139758801695767, -0.023618866648038268, 0.1662280370941923, 0.40467127172650963, 0.5985351066451843, 0.1264060772198801, 0.23544941169754885, 0.061981119050083, 0.16186254385002932, 0.23153495284462108, -0.10622248687837817, 0.3824762561734402], [-0.47828086180609625, 0.05164360650470654, -0.0833909649544863, 0.030990164683256452, 0.16180024028266618, 0.32665663142891904, -2.143451496110169, -0.2727199444488913, -0.08620467550519097, 0.07333346631633418, -0.11369843494768368, 0.118185488617163, 0.06596608512452239, -0.49944130094638156, 0.40907102850759003, 0.12796779965914443, -0.05433306528128938, 0.2812008834491486, -0.22017853476522548, -0.2994805840220066, 0.4004839566048507, -0.19822397232764274, -0.10274526269154388, 0.4452793481453946, 0.2953890794527496, 0.29655811247314684, 0.029863195478266966, 0.11391603183578053], [-0.7187143283419857, -0.15005208546364732, -0.011799705976046333, 0.2223916937900672, -0.25864125019989787, 0.09929272245964221, 0.27294143013735606, 0.044622506132557235, 0.2537240232322801, -0.005485055809953003, 0.4539067848332263, 0.8327607646013104, 0.38889761712066934, -0.07444616433869343, 0.06509018068105564, 0.22724664614217902, 0.033335555162538395, 0.22126961739552237, 0.7214795106109518, -0.16205642542596682, -0.40745440054842375, -0.05751771099166629, 0.27393802637283626, -0.2486199968851606, 0.7134792085697126, 0.13279967230920434, 0.1302687202818133, -0.12220799155809754], [-0.10016647014996316, 0.4797780481592466, -0.13670241268373096, 0.04302540180416753, 0.29481649663058723, 0.8122527124233644, 0.01813448925385945, -0.08315656767822717, -0.06050907567753322, -0.1504061273387166, -0.6005212754154536, -0.29274794497619683, 0.01698952404200993, 0.21172457258428065, -0.38101113362203387, 0.1875504255038301, -0.007386292884951068, 0.6687990202251646, -0.10294332536627648, 0.26075879006868913, 1.6016264890121537, -0.30715842547122213, 0.590983612309571, -0.26988685159214887, 0.284327626480402, 0.17612505692288286, 0.1586460713037989, 0.25776412792686826], [0.16662527178218173, 0.12551265111222737, -0.20657252976669763, -0.2758495620544125, 0.04534481077344908, 0.06432742565120458, 0.29747865509623767, -0.3647763802256957, -0.11005668416883213, 0.13513455259670407, 0.22869087788802603, -0.09227856256326077, -0.2721217302469634, -0.0485473150196332, -0.6292506200065506, 0.8503509121603388, -0.4284601466757318, 1.2498810513342535, -0.21641775082513162, 0.364479516887486, -0.060238473085769136, 0.2638725396253064, 0.039561127058275185, 0.22113872858535225, 0.10809908028089647, 0.40504316485372677, 0.08388562087148965, 0.6285794324714151], [0.577726618914106, 0.4666042844342784, -0.3039564098074423, -0.04876807202983401, 0.3874478262848377, 0.187372528717773, 0.38466239276924663, 0.13856308929545613, 0.19417142175127866, -0.1441969506023532, 0.06389386507880171, 0.10859941721162385, 0.08948324481358844, 0.4289445778875374, -0.13226728464830612, 0.15592011888214996, -0.1253986898311154, 0.12078010194757356, -0.07751148493212665, -0.011570437298687081, -2.102243082867164, 0.2886444085001049, 0.18862183640372815, 0.0008975086637010984, 0.16985838478694737, -0.10720613667110021, -0.132129946891966, 0.013805076620421979], [-0.2401336323897116, -0.16303624782543014, 0.2720149680682576, -0.19643575679707223, -0.28652615987576274, 0.01219724293171458, -0.2701848677638841, -0.5437829773972035, -0.6440323937254516, 0.12476046445777651, 0.05149050172555842, 0.09799495063294114, -0.22887635716745364, -0.2297046486202901, -0.3575069110080938, -0.15081487275177288, 1.4309966143689126, -0.24754156426796844, -0.7080960044190134, -0.010522075830804629, -0.4732300629076564, -0.052260235867765764, -0.037287887214345276, -0.006110422399812924, -0.04546455208090444, -0.02413836992847812, 1.1859530905559466, -0.03437583662882439], [-0.3086557539033546, -0.37411875049075255, -0.28226642305909216, 0.043055201462547495, -0.189104034144762, -0.48863029281050946, 0.15303565457996313, -0.027759880111630525, 0.09233318936301034, 0.011389334441687009, -0.021170760243038673, -0.31409956535164224, 0.40703539557759827, -0.013182197009143918, -0.43123207186900425, 0.03817294755253685, -0.16757250408048524, -0.048685478196218726, 0.31738627244010764, 0.5216787572773635, 1.062745494727279, -0.08399227559496919, -0.16419668089227157, 0.7282047549621741, 0.19070435417807508, -0.055058801379609085, -0.18130516753688286, -0.008102462331428634], [-0.15568511248936553, -0.05192301084688022, 0.145455780618315, -0.13114849166018477, -0.26214749253185143, -0.09356340321479215, 0.7134752245889979, 0.7282327758182989, 0.4049324487327512, 0.4470283779849582, 0.206774803113843, -0.12151466249324366, 0.5754049301055615, -0.3072933730814532, -0.15047827921227114, -0.185260557827289, -0.009951955789563845, 0.15077886361925816, 0.6405178564944699, -0.21828418133442856, -0.885892273437177, -0.16356122384549607, -0.031925799628205014, 1.0834220167319872, -0.04454577819984533, 0.13079153835886217, -0.2047255321325889, -0.17600168078961162], [-0.020213477841117464, -0.1936506483129184, 0.13755168858557806, 0.043957536558180604, -0.17200507322966288, 0.6350771212901444, 0.25631956318654175, 0.49653561112488825, -0.00846027498325635, 0.043455075001445256, 0.08254745194579688, -0.18079537594359452, -0.3007815302039645, -0.48127202090343735, 1.083558921582349, 0.36389750660532616, -0.11778543305037657, -0.07042871918787844, 0.20330757239418887, -0.17395110889866794, -0.30016291810171286, -0.5855082389173896, -0.07309553209633116, -0.11016969598135624, -0.1401362742348819, 1.5762625535905166, 0.07166037033299426, 0.016374542831205537], [-0.08627303272485852, 0.07632818551245629, -0.1269595238263144, -0.048371859763652554, -0.051555122894490164, 0.4978198771482209, -1.1868310844030772, 0.1490631551012971, 0.05755647740688561, -0.39996339064585357, 0.15346333927816702, 0.692868218705642, 0.6227431601587116, -0.09154159811272392, -0.5039303314882625, -0.28935378879363455, 0.0798208318955452, 0.053347488368300076, 0.30798694891431194, 1.8011704564359925, -0.3763952577936147, -0.013030166368256758, 0.09161561735743315, 0.09349033722628572, 0.5146610709136376, -0.07871628025022598, 0.09281141048871167, 0.10009696557477929], [0.007090194860589176, 0.3710863039332027, 0.12055579923818646, -0.0982909899340389, 0.15012261584389613, 0.2982487749746002, 0.8896247977420703, -0.30815698137983233, 0.07401208544275178, -0.01808928588177999, 0.08861378993716323, 0.012938825525403647, -0.00811876778104895, 0.5273640357352505, -0.026100348259953998, 0.03860850937404793, -0.00845605643721929, 0.24500253379843262, 0.8150145051648658, 0.1545396169380315, -0.793578104048577, 0.24612857060124635, 0.6076221033069337, 0.06470505889411277, 0.20717124057047748, 0.3551742599779694, 0.23306201373879512, -0.04627577583709742], [-0.06955059333055105, -0.11802829338831154, 0.04486625986255866, -0.09083716840676982, 0.11909619821307989, 0.28432531289826385, 0.9334777782069161, -0.042766265657155814, -0.26649756021116777, -1.0191762781196383, -0.5267977825436669, 0.3566547757219838, -0.3661459927695018, 0.06444322876011023, 0.3829877471520713, -0.3421974086274386, 0.8721776108107497, 0.21818026184873598, -0.2841278136927275, 0.0224135647385844, -0.22653729379422627, -0.169724904022099, 0.03625851943466531, 0.1126101291637592, 0.3375878176148784, 0.15503388583019112, -0.2525063626117053, 0.7079773009230491], [-0.09835881126255663, 0.08630266105496436, -0.2739625276565769, 0.2259378925194219, 0.0763687758854242, -0.30152045260335136, -1.4454148659095742, 0.12780402847408615, 0.06733882590328157, -0.08230934220824312, -0.00022577726012675144, 0.08858059972673883, -0.16993619040107905, -0.4364512709886149, 0.9149878470990433, 0.013719146367763798, -0.12982212850437908, 0.13677047277378132, -0.7819962021486251, 1.3789282367781137, -1.2817097408945277, 0.20632798569861852, 0.19990112443298788, 0.13035434067965063, 0.17461293825177676, 0.29837349953073444, 0.0009155473543989126, 0.2914542226290051], [0.03153774806646909, 0.04888406702121316, -0.06451277047764481, 0.12033626953248457, -0.035937792025844656, -0.11125871284502148, 0.2235793645932896, -0.12108531746115775, 0.01643763819191863, -0.021271945988884995, 2.3397478596640378, 0.24079760218313015, 0.35138079616162365, -0.12890423363780332, -0.03306218412256472, 0.18825184516209714, 0.23824738584442343, 0.09462768975754504, 0.2806774349170531, -0.38989179700418847, 0.24471354396713807, 0.2788613508739378, -0.01148178714554835, 0.6043418502657768, 0.288609139672503, 0.30447129307932946, -0.06527562561511312, 0.048733627175882435], [-0.08123707675351882, 0.24212266881497, 0.13697528034979362, 0.1259928113461175, 1.18655729229381, 0.5713221052521937, -1.0525356649054056, -0.357041282253995, 0.035465393753867626, 0.02098981439536133, 0.14890136720916305, 0.29106563420706316, -0.14547025819139991, 0.14405379444003985, 0.11305901657195166, -0.0015690946593044852, 0.17680653110623434, 0.26576653502294456, 0.0711536661176385, 0.22971843587452256, 0.44791277200785284, -0.09972067286477543, 0.3989363064122332, -0.1642225845349964, -0.07708412496096685, -0.18185514670135342, 0.06546830247860941, 0.08302611013069658], [0.7058270148120135, -0.2803555905403937, 0.35881156862952973, 0.6189301197904681, 0.4803591611286743, 0.32532331083055205, -0.3030699943916991, -0.5195124383859641, 0.2576024803219679, -0.030231568925754265, -0.1618230297200349, -0.45177637125027076, 0.1767107241029185, -0.6759804622628048, 0.374588260662998, 0.04291698551077745, 0.18677047392056453, 0.18668710988312137, 0.3432002925122197, 0.5976472652766767, 0.026618677868203593, 0.6008643829576323, -0.2025688158428317, -0.1572098533357474, -0.14139550906889176, 0.298048159045272, 0.08352562613487372, 0.043099850679256174], [-0.30301953754782884, -0.252012829628308, 0.19836934140444473, -0.2540503954611085, -0.33343584856233577, -0.17973384753123198, 0.043752517196471906, -0.44400660569115996, -0.9507975143295129, -0.321733422053284, 0.07660013361388351, -0.18944675560135976, 0.39729187483968387, -0.2933331117435565, -0.2576659958185421, -0.023070887800372385, -0.4293571190732188, 0.19540736395731315, -0.2838894629258964, -0.06069351363975268, -0.29586170089142466, -0.35630450467484526, -0.10483999853367462, -0.2765402190813683, -0.041084590730282144, 0.024120324667489132, -0.2106981046427398, 1.0397102068696433], [1.0887774759282398, -0.1443192189850714, 0.9840626769563738, 0.7376945253600394, -0.3019951327665935, 1.249386551401074, 0.5390978760559472, -0.7161866810054537, 0.2822622713158104, 0.4797961316170621, -0.009137943504886066, 0.29133311837626186, 0.06619783022075465, 0.38531204143303005, 0.06903769493092497, 0.14208131822448036, -0.19307005614175776, 0.1746431489970195, 0.23264026443580818, -0.03367626030083091, 0.9372076329427149, 0.6713681897541552, -0.031438433594284006, -0.168493064729758, 0.2736639327358906, -0.065215084258613, -0.24188287111242573, -0.07047293320842389], [-0.3385657809681439, 0.10426489386417712, 0.1020457323081975, 0.21388852543222994, 0.22857075597207735, -0.4753395760084213, -0.4246182861302471, -0.08300700325842666, 0.049834559115980226, -0.1349298502928828, 0.56600888523936, 0.2780304496414858, 0.09253755942464037, -0.07331046517856986, 0.5005759013884584, 0.27614571219843365, 0.2845270918717848, -0.07983114144133045, 0.01133803497030207, -0.8809513044634405, 1.7095122728241143, 0.12271594222242195, -0.01565047586320389, 0.09863729675356472, 0.1511733690547934, 0.12489484655969109, 0.1667775192965939, 0.08843486366567603], [0.8901977758083971, -0.19290631919395457, -0.8339430295172341, 0.5566660292902676, -0.15159026057547118, -0.39035486259589974, 0.128602899392423, 0.5132825140510675, 0.36941813708055293, 0.30923608771056715, -0.1884497284404807, -0.12440049662413365, -0.5068513944568057, -0.11898487748614718, 0.6211391953252375, 0.09123366006300615, -0.0013677026205382806, -0.27715074242230264, 0.7163548748247562, 0.10702803833904724, -0.3658936842212239, 0.7087263211332419, -0.1405012444653302, 0.059263940602377004, -0.16040737625542226, -0.26852878728580454, 0.05557788180544747, -0.19464347578723962]], "hidden_bias1": [-1.0345862273774984, -0.6662431450410886, -0.679469320740808, -0.08067827983476182, -0.30795899287574613, -0.04944052172966642, -0.5853511978712868, -0.7725948458022663, -0.44672820269731434, -0.746953234679667, -0.7661880496290213, -1.025102432500547, -0.9848824489499867, -0.9909633100344369, -0.9924579543033253, -1.0638906254271194, -0.9178361340417135, -0.5703209171555534, -0.8234325386447487, -0.24870804047087322, -0.6852419765567158, -0.9110185197583995, -0.34261545002776955, -0.4657508314047494, -0.15915699694122093, -0.7462658796178737, -0.5372784078572281, -0.9954443192604582, -0.24021482023883006, -0.9966573505929374, -1.2356411857751384, -1.0445500318157586, -0.5278350131044562, -1.282359327330151, -0.6943840833570615, -0.508332444827462, -0.25066523020280107, -1.3621092176664278, -0.2193980668557853, -0.3364188294201579, -0.19862850040115, -0.12105200094156911, -1.286358257594259, -0.5982726806620078, -0.6103470033571124, -0.7355704579195116, -0.5231043351110647, -0.2263917328547597, -0.4230732222225371, -1.30693672925074, -0.36209900440288717, -1.4069890541300216, -1.0464766242135979, -0.5684287716073959, -0.5195391164111026, -0.4936459283765546, -0.3325276148729482, -0.6548663632655692, -0.074465787941928, -0.5487726497243366, -1.2725557971281418, -1.0882230250776888, -0.09614559700745962, -1.5369708266762554], "hidden_weights2": [[0.18979611171353786, -0.08098376849751734, -0.14743483368400265, -0.33926060895965937, 0.012587110595682785, 0.06538337481397483, 0.3865258652284295, -0.45557702855091675, -0.23389941082831722, 0.03627819029210381, -0.00871943408979987, -0.0885561233719446, -0.21233411843928932, -0.29945073783348597, -0.6146804909417237, 0.4821680890499661, -0.21987893881158668, 0.6188234117405651, -0.2512340124560369, -0.2022857957030431, -0.5163462011977277, 0.3767108216722627, -0.06174734299315132, 0.17895236348258034, 0.2905549999990044, -0.030304866615861195, -0.03749050763622812, -0.582422971894062, -0.14484785231160024, 0.19412122932390208, -0.12647197804107277, -0.2777149629888292, 0.017821526580834756, -0.10309963172342289, 0.39041894322415027, -0.4124182021800501, -0.2608327174523457, -0.2350549717376807, 0.017566232094287114, -0.03988437272318576, 0.2244273827947815, 0.23517365553783287, -0.31102513772934637, 0.4297161853243613, -0.10481809199635271, 0.3816426209728988, -0.4069463538327424, -0.1366439625807631, 0.3116882944853835, -0.5940377855897587, -0.09388575172337321, -0.3363094736692105, -0.26259366332783507, 0.02199068321745178, -0.49783940615756783, -0.39476703292764903, -0.010966707292102395, 0.2753765947870257, 0.03828632400429725, -0.26426055612806615, -0.4631792361294503, 0.4135012833882029, -0.044147932903829984, -0.22381047045219257], [-0.08384143445481096, 0.06615468471008062, -0.34590739181857894, -0.0910461417879468, 0.35740182780689783, -0.15413587637532264, 0.09697334254657106, 0.4211754819390012, -0.3958038368978845, 0.023376678498582434, -0.15014829031336585, -0.04154339995569488, 0.2296159709623526, -0.0378210308153486, -0.3544465311656786, -0.40196346489890633, -0.31301572457688587, -0.397043423202045, -0.47390462265774314, -0.3143916782875196, -0.20536559626552758, -0.4219978172347205, 0.01573626338462781, -0.5577658056099666, -0.5234998906840991, 0.5811391126515318, -0.25602655419300235, -0.032103536319712245, 0.15431284066329232, -0.28788023564661563, -0.12629265323307548, -0.23998026192941194, -0.04775354414879934, 0.11673879615855165, -0.6879212346858671, -0.10211469121986969, 0.2519990178989976, 0.13356429821085322, 0.25793040484866586, 0.5383049726230645, 0.08107179522088859, -0.11585250003813496, 0.28430513171128863, -0.2557672642968605, 0.004528351551320772, -0.09352530353927364, -0.10587456340434694, -0.16708480302278153, -0.18851992961970224, 0.031695920710557116, -0.1543359004457792, -0.040537099751216374, 0.15982694229689226, 0.2434772347206049, -0.09914262608190623, 0.2541599939037753, 0.23269003624199108, -0.3648125527627515, -0.13841610390214312, 0.042542614819263226, 0.11572894933423869, -0.13585777346203148, -0.09985093395229262, 0.5392324364072962], [0.298032243602445, -0.24817648293962782, 0.3873710725083101, -0.4933132464582905, 0.1057556561205666, 0.06974875302284754, -0.08874175985712958, 0.2392606683827129, 0.14911884558539235, -0.649221326646996, 0.06530932797403215, 0.720611916371819, -0.5646290610779636, 0.24156460026219895, 0.08669219383885168, -0.3243803854015879, -0.39464530129264785, -0.34257301160677983, -0.6814565179974394, -0.02980681050110777, 0.6130311815573234, -0.27599025319886084, -0.41452402196828336, -0.4511897733641627, -0.10379283558358911, -0.4086066763695398, 0.15268863680743347, -0.3682024339380008, -0.039375295158676216, -0.17381098749230137, -0.05826383558179822, 0.410152781267947, -0.834963121854456, 0.01636855834834364, -0.5114268359273794, -0.11832253305913902, -0.5460167727028301, -0.6545963309811311, 0.43268120488413236, 0.2909555997980125, -0.019787760264965072, -0.19214130829306378, 0.21054541090904583, -0.25243997787034833, 0.3251730942851811, 0.04095418759467079, -0.48901271536691626, 0.0446955770804438, 0.11430453485450084, 0.33064228596834855, -0.1972175379617319, -0.13472749742187712, -0.7474050846322845, 0.17651297516138417, 0.39077491009950344, -0.22416830033541538, -0.20041583857977077, 0.2536979691799482, -0.30039020757895685, -0.2394060547518677, 0.3004740818727765, -0.5933867574173654, 0.1731945853740843, -0.5369790658207699], [-0.43341588161955136, -0.056212770938825526, 0.06183298345416082, 0.037653258259954754, -0.09905566775333981, -0.09693877702555277, -0.025763188998087782, -0.02801795754810557, -0.24206151544449175, -0.025650503050877543, 0.6803498112805751, 0.031190991661080247, -0.02925974057297556, -0.06950363736576315, -0.18701613901855457, -0.13317083545123856, -0.21853390316249657, 0.245808534192742, 0.04938654758466943, -0.007618372658573288, 0.07154496259468227, -0.06746163730567623, -0.1699613364394838, -0.22399131268169525, -0.14455404431011948, -0.08100337663377923, -0.07967509891299639, 0.18937080572767512, -0.12421289310000558, 0.24500199608625736, -0.17986854878801833, -0.21599374959969467, 0.09511959500159956, 0.08151930015465535, 0.02779035083566685, 0.03259480773034152, -0.1543830323526526, -0.04692963932288953, 0.049317349174363256, -0.1793926120360374, -0.30602069387595027, -0.16196117249255018, -0.057326778048385554, 0.054222453288412555, -0.02418914439314143, 0.1457000198966468, 0.461903474386597, 0.19861674579491304, -0.4441726981493311, -0.07548138242523414, -0.3204592637690339, -0.25335699743394086, -0.18498679137915888, -0.16354782731874368, -0.22617096127895328, 0.008781773874573982, -0.25831320408230696, -0.08332686782782461, 0.2786472765126641, -0.12538631247779508, 0.42890762742800564, -0.031032751533321655, -0.45055974325335474, -0.1425031111786734], [0.02305956051979091, -0.3605489809137489, -0.23496763729682008, -0.05020710310787852, 0.028019885499952796, -0.5545061493674578, -0.03224531449104496, -0.19581694414833883, -0.19060115525199203, -0.22191341814196672, 0.4035806076445895, -0.053452052623564415, 0.08801651944560604, 0.30581400073760595, 0.0036088767953718383, 0.7511639109660051, -0.028422628179494685, 0.13789171535251796, -0.3596720070991436, -0.017573468234208686, 0.6653007125749101, -0.5290447671999378, -0.18411728572243735, -0.7912039714066175, -0.3620725484940333, -0.04407948678879525, 0.17390795805918066, -0.24570943092110165, 0.1560461635268489, -0.2051331073588045, -0.6932820898246149, -0.055492340933121255, 0.04057150838982474, -0.04295462081523881, -0.23756750556144593, -0.12009982817731281, 1.3224674347619692, 0.39991709885812216, -0.1846650602071621, 0.4482649415384528, 0.07537852683666552, 0.27593631726792867, -0.1700213098029013, -0.07202058830391456, -0.030584104861434022, 0.14379647145158433, 0.07509628212207739, -0.03459343460250907, -0.11273300216742244, 0.5813764970535363, 0.19939082145513315, -0.02113429601453194, -0.6786787368774411, 0.21453962155580725, -0.138170454927682, 0.2106275282514532, -0.09633958865223713, -0.28766246787406646, -0.15582964720693337, 0.03159114793003651, -0.027781174554037114, 0.27493973076160216, 0.03304057424018444, -0.8832488082927866], [0.15573213959656707, -0.16632945692129014, 0.04735321382116486, -0.3082092579781938, -0.2927820197237387, 0.08976582036997079, 0.2676937691358536, -0.3731027583295953, -0.4948796946058094, 0.03817514010878312, -0.17408746687991894, 0.3931647193664239, 0.0572590251010735, 0.16002061120945651, -0.41484982710308554, -0.1704193803440637, -0.09816438248463093, -0.5970710641670125, -0.43136329729241674, -0.23808731594084512, -0.5353916993332996, 0.36138021019641475, -0.29240533383167516, 0.36536944786841186, 0.3156619354125257, -0.14855782956219493, -0.04167528680697127, 0.30081467769765025, -0.3067914806777404, -0.3162508203230676, -0.3302282496980868, -0.005459280970944332, -0.3580041781020782, -0.17931469596756014, -0.09987653759084839, -0.040624049660480784, -0.6602396606301689, -0.5588068657846841, 0.3871327753517884, -0.08088373912120027, 0.22601105485159712, -0.1833862189358403, 0.1402926733434142, 0.5522448334723427, -0.25845621398798163, -0.029319608756135793, 0.1923094123312076, -0.10839945417083491, 0.48270181863626765, -0.314703483821255, -0.47151393317000817, -0.12358022935926125, 0.07050096665939687, -0.10746958342608978, -0.3532772818978722, 0.021053808390576093, -0.3703656401197282, 0.17836937434358943, 0.07787740868801679, -0.4017488159890197, -0.4340662029517769, -0.15385303529258534, 0.38095182480686646, 0.37975511009341373], [-0.169882456155646, -0.047920433936022855, 0.09744493077595352, -0.032931449244552685, 0.04706639610897337, -0.1259633306577626, -0.09736544051052858, -0.13465564721461398, 0.19285531040270945, 0.012711386424848883, 0.06303190403038077, 0.09516091218511673, -0.2837430078244954, -0.13092763651797698, -0.17030756758256776, -0.15143401742621157, 0.379666818078623, 0.048647734021741176, 0.03750027857886013, 0.29408918906988085, -0.1923946440249797, -0.006831717443235967, -0.11682742039141415, -0.3106599953934897, 0.028775410090103072, -0.15582054005026344, -0.14281604429212696, -0.2747129260266377, 0.056511839057316535, 0.11226191326584377, -0.41468899918112195, 0.036641613800267835, 0.0028149707629351165, -0.33899094593887347, 0.16637800751406456, 0.0197232814764494, -0.07145992008118192, -0.6209424220663797, -0.07168187791591593, -0.07163235381993392, -0.23917357743688475, -0.20268204571351855, 0.029514791835808497, -0.3527877824337395, 0.051702153357270256, 0.17648785506327266, -0.16185660704000704, 0.12237812359401411, 0.06668841690717937, -0.13694883084712856, -0.18171419949071418, 0.17323317626098003, 0.02924238051520316, -0.17556813713463576, -0.4457375802293252, -0.024485173652041416, -0.2136247389397679, 0.032096097623479564, -0.05632077122148244, -0.3546286874468827, -0.2982150911113796, -0.2329008859064235, 0.0032917415475697846, -0.4221781457160804], [-0.23203682881191173, -0.15564065642397285, -0.027226134307703896, 0.4605732429687621, 0.060256949976346126, -0.5193009923438389, 0.058730496397392556, 0.11126328908341901, -0.15434445601396507, 0.3036376946752752, 0.09432628141086735, -0.2861892405759683, 0.13003550862532115, 0.06472907938823338, 0.14027442777867066, -0.3559842889770362, -0.1660516424293623, -0.7014984630136981, -0.06155458549478122, 0.19544911300228068, -0.0704512247196766, 0.3455478340162537, -0.14843380498950806, -0.017657917795327778, -0.10510130826118692, -0.21126125071799948, -0.14610827690206457, -0.5423140427052845, 0.0333749124426635, 0.3124804755223664, -0.6158987977369157, -0.05786284355797589, -0.026760231627121395, -0.17224646570987862, 0.4136354706845148, 0.03590778993647373, 0.022414056734353142, -0.44881800651975184, 0.33139395078147565, -0.04258844083268229, -0.8592074441171956, 0.028436864876603945, 0.025123269044143134, 0.06740329208812265, 0.26998144707319427, -0.43403857811380153, 0.08343965393140934, -0.1446113759583634, -0.0410583256480352, 0.08477101977229855, 0.10718133343003981, -0.23485089935131515, 0.146401600028832, -0.025624970334360536, 0.11897664154944101, -0.14064380771087465, 0.18833541132584283, -0.1893153254270183, 0.012877135152051269, 0.30403304440136036, -0.8253466953863937, -0.31610286906702556, -0.024700205781818176, 0.18935816858160467], [-0.13435024231763568, -0.1592960353140435, 0.04404511108928877, 0.0971463630367487, -0.00960048200134988, -0.21662847602145407, -0.238132165892075, -0.22104151537934782, 0.15324165585475463, 0.1634686477491985, -0.14181754472050997, -0.14826824706107058, 0.058094610738835005, -0.26380732822787595, 0.1221988887255445, -0.13482896592743696, -0.0555520513848293, -0.10538939431962169, -0.11746730850026575, 0.1463411308242502, 0.09134709332342386, -0.18074836781828274, -0.024621861749119414, -0.3546026055358889, -0.10981700949834143, -0.041238938802610495, -0.02895632530015481, -0.6226084557698571, 0.01333761408664754, 0.7724118485330879, 0.20300963574866426, 0.3747621189490377, -0.24235959505299387, -0.06516570584348105, 0.2740507074542903, 0.3078393519805101, 0.16021519602847742, -0.1760699664647781, 0.47599498931033035, -0.16722678240199484, 0.05442497138163961, -0.30022893719190313, -0.37188349129686665, 0.31897789331624093, 0.2778949985477352, 0.0010627453259325049, 0.45575775582460354, -0.16442697462832392, -0.911370061371144, -0.4856279973057128, 0.07356105551217351, -0.43015811672056026, 0.08806690604217968, -0.17479902068424719, -0.4849507231243994, -0.21327786838871912, -0.6174360951285646, 0.17119441486584, 0.03443355660001203, -0.5314060698189081, -0.29911391558408784, 0.0983549012578708, 0.6596851760845167, -0.26182478251085206], [-0.14656175684122152, 0.11261049863831128, -0.37085428746941523, -0.02047478625194645, -0.11329924843675826, -0.33335147056809467, -0.035466218236986806, 0.2639242895921667, -0.33374131766257253, -0.0938856850468632, -0.26244343287609495, 0.4163872340727139, 0.07329148526507066, 0.070187200173203, -0.1073976942575498, -0.03032994935947832, -0.2977260528657243, -0.11274579409475176, -0.09774580083584483, 0.2140714009958927, -0.13619849766309083, -0.07862312672301752, 0.10942572595217798, 0.027100003813357094, 0.18427060023424624, 0.37749256573980533, -0.06297696866774014, 0.006707264538361129, -0.1118418086099264, -0.31187332312127786, -0.04593381054595556, -0.34473974356510473, -0.2594797891146564, -0.06353166656158893, 0.049646146054653825, -0.28609363130459703, -0.0055707386134857895, 0.24873603979415473, -0.002479142554601507, -0.13709562086660437, 0.0560437063690927, -0.16978435411783058, -0.042437229989267515, -0.025210280165100917, -0.04167496596619273, -0.23370294773126513, -0.18800836376835153, 0.11580416755826535, -0.10628087926292848, 0.20773575129396935, -0.06860001790939879, -0.12112285188048892, -0.27457531380607425, -0.17276959766947445, -0.09782539044724135, 0.23147924651876642, -0.12472897476522975, -0.02104482971893838, -0.329006948617412, -0.238778170740609, 0.3657298939261526, -0.2298060082479388, -0.33185377056585613, -0.31497258618641616], [0.42472338963063017, 0.3887784193673508, -0.1725266112932719, -0.30515100539078116, 0.5967218257035012, 0.01475303594631261, -0.5855175078582486, -0.478123848183625, 0.6734662921543607, 0.054709025847052346, -0.027263559008073292, -0.377827587908236, -0.4331993743465699, 0.246167769887318, -0.18099552630483057, 0.047090907218672956, -0.39783704034436557, -0.0896881781370982, -0.3584621453651592, 0.18701831840681424, -0.01165389849518425, 0.1621268001551636, 0.07267396469072612, -0.23636863133632954, -0.5135194380061591, -0.39299433185466753, 0.32838138976297887, -0.603405974867772, -0.80715360521212, 0.9732590259266957, -0.4485845324923952, 0.25334444212194307, -0.29111018877364964, -0.27830276662448317, -0.2881203930363535, 0.21412208494956697, 0.3723870539635864, 0.34296328822705724, -0.1726576871045647, 0.1895771038985877, 0.17037477301343176, -0.5539329303302385, -0.506014107347317, 0.05282432315734019, -0.06226987345240787, -0.35273156845472725, 0.0505105210304298, 0.09857194463930527, -0.0004549734935289187, 0.09361314868589554, -0.18989552940387572, -0.6887433629124354, -0.3014096548527452, 0.02871274538007626, -0.1121996210829322, 0.43170436944120855, 0.019618900361243877, -0.052786391208090304, -0.006796521650162143, 0.1960545458938331, 0.37079799546538894, 0.42649464483010513, -0.22648538944093974, -0.6229599894015245], [-0.2782631676210181, 0.48693349685446513, -0.07405742363197075, 0.03146261070014348, -0.13728571789006977, 0.1269001131103625, -0.007613356624963759, -0.361137905716942, -0.08784725668723707, -0.0015170357423855399, -0.252703760123468, -0.32112540116832416, -0.08445597134806772, 0.007338140358605513, 0.2804301468577056, -0.2818584292431553, 0.07485674529198093, 0.2111997867998703, 0.22083840779911004, -0.12588519043244084, 0.20517386226955117, -0.08481588496855277, 0.17546665386698013, 0.34267983984626826, -0.13758751859795615, 0.20952368180219, -0.09662409440496557, 0.15003761295595217, -0.19175609702384303, 0.23482515738108944, -0.4474756123815255, -0.1887646203926502, -0.0015095936647287864, -0.282632578365409, 0.1402833039155594, -0.04589374237209551, -0.34489428718439025, 0.4753741623813684, 0.23370810913730258, 0.086399113084195, 0.048912837212135025, 0.05711848581438338, -0.20636116992854922, -0.008844541564714816, -0.1660966209481516, -0.09061206848238083, -0.27599951696081004, -0.043903627222092435, 0.19305734839679303, 0.4029419998751344, -0.17376318754828352, -0.34354886096994075, -0.5598294237865337, -0.1206982154260579, 0.28206743394363304, 0.020426349474087665, -0.37578839792623386, 0.09255501664043268, -0.3163480271953772, 0.13862825042790183, -0.22960194875058146, 0.4764443389433074, 0.024356790705177753, -0.07902622635868943], [-0.045448015479588835, -0.04967150018590794, -0.4632527335059602, 0.07993948090088035, 0.04681172488050325, -0.11066925988001025, 0.5548164724685167, -0.17558047228938017, 0.10576367661794345, -0.5268774543841986, 0.11807223961801837, 0.23998910435496645, -0.4285821146105111, 0.35649275854952234, 0.5415648519727155, 0.7931637964548927, -0.06837575303026744, 0.5867783905760251, -0.4438810152567253, 0.15407593894882868, 0.18629642376285296, -0.3017884688097298, -0.12148535950578158, -0.6067726021415267, 0.4033290267720497, -0.0379702634568859, -0.22429953924613863, -0.4737561997761258, -1.1629655403119776e-05, -0.18519384526491933, -0.5018092787646886, -0.22756370849433516, 0.24494114623025706, 0.6322395789490796, -0.06309750238365752, 0.0919661864465809, -0.20942812367691876, -0.11891173331218984, -0.21872647758290076, -0.0695955305445071, -0.09514177893130224, 0.374497701854383, 0.062316187874933836, -0.09567332464048604, 0.2596983794959457, -0.10946920176396902, -0.24691007724041977, -0.07958038106665863, -0.5454047696387736, 0.3172315305019762, 0.3212992027573121, -0.2767045786400008, -0.40981141335299004, -0.22524732115763269, -0.054899253047899825, -0.5160055294488411, 0.2475329601787673, 0.26876691993536683, -0.3972895134030677, -0.3882519322183762, -0.34798233464456596, -0.2836802699595077, 0.29348581144237423, -0.9046123515157214], [0.04435627192543406, 0.8142278551968057, -0.6042041094341857, -0.006094274882463749, -0.09709784579530716, -0.6305268727176672, -0.08533013727192666, -0.1819084407856835, 0.22172452541987314, -0.041409496316101496, 0.8607287026018582, 0.08270363408299115, 0.1238368751021948, 0.3151719907393897, 0.017019120103165038, -0.21107014587319217, -0.4197083865176436, -0.31282197582959986, 0.17763478505245212, -0.14680739440262078, -0.18106047516704551, 0.04116136842013318, 0.1467507376702599, 0.4168048549324773, -0.6315142028180689, 0.229978195714786, 0.043057470995513956, -0.2476955765604705, -0.23116335063424845, -0.5303430699202151, -0.5427893861460115, 0.17563045767252225, 0.022088922051677777, 0.08463597685510536, -0.1431912628089084, 0.1502627786599802, -0.23217809340040782, 0.11975038486709974, 0.11913499119388464, -0.10278276813895211, -0.2587575287979921, -0.41830864992206923, -0.14983207826432107, -0.1072992207601837, 0.2414173870655567, -0.4599712165276408, 0.018219956633140712, 0.15006739448286688, 0.08531130732681404, -0.3748630696927262, -0.23713490250250413, -0.4743507657531384, 0.2805491102685457, -0.05444332341377767, 0.00753841381703188, 0.024445408983822022, 0.2669210305109872, -0.11771575311037584, 0.4030822282481562, -0.17931119056012648, 0.3460447123007979, -0.24584881985646997, 0.26769752253272305, -0.9548264571196211], [-0.23030745149604062, 0.7939944490698293, 0.4035630563124707, 0.20124873464974044, 0.18244056871867229, 0.23686946649528387, 0.10174496263838277, -0.1311497787803802, -0.11460278310890959, -0.301190979177077, -0.045159766657445255, -0.05563287635389816, -0.32605375477423554, -0.5064588736417088, -0.26929243277963977, -0.08373394994905492, 0.2479639142485609, -0.5260816572522719, -0.21583908713741648, 0.07926906795421253, -0.182081234522733, -0.07049143683391994, -0.028785683896323137, 0.07985106677223493, 0.4005769961243801, -0.3212371624187422, -0.07807888778265991, -0.1559181673329779, -0.30500010026516977, 0.15597419499264129, 0.4842919927491408, -0.20771982252916024, 0.1791116282997705, -0.1806251967321402, -0.03622076775835651, 0.27147944503086735, 1.2314851493245569, 0.4252260587932956, -0.2618404829432657, -0.11396278698543806, 0.09023690585208329, 0.1469527125232215, -0.025830137076367467, 0.3550591667343123, -0.13742154995516503, 0.20408309821560783, -0.19603191917459917, 0.45301425967158393, 0.03584624264675641, -0.2958035843273298, 0.027609039252742565, 0.01468326522157123, -0.13306180700030087, 0.5967924074088157, -0.3767265854234761, -0.32579227107270403, 0.0359898755606055, 0.327197758230693, 0.0937150532330303, 0.045186655927683866, -0.021349536832031803, -0.19133227538753772, -0.3690959298635952, 0.4511979581655221], [0.04765570740660509, 0.08452730429472186, 0.007828249476610094, -0.26357504940574633, -0.2602104273381526, 0.16552441536853527, 0.023409327622480134, -0.25640764049903686, -0.2075561974455582, 0.10794020215028101, 0.4932297139349011, -0.031157099563447414, 0.23077623313668388, -0.06366296665195374, 0.0785480110849403, 0.10707109061661033, -0.2545788608693408, 0.5135845780562786, 0.31023942565418305, -0.014188689688060824, 0.0023632421741073472, -0.4774406074154701, 0.07505805556585038, -0.09914131647715048, -0.4976108035287331, -0.010437404091080765, 0.09046214334378791, 0.3721512958243121, 0.06529634378738347, 0.09828187341850768, -0.15228104606023624, -0.1009047292961244, 0.12917325658698084, 0.17146392411188616, -0.3203288382793969, -0.2670386878268692, -0.38214688534161534, 0.20455579407206473, -0.4862952252757031, -0.2933474789676275, 0.4496526345783464, -0.11697168064490308, 0.09758611150308749, -0.3018232989246273, -0.2714476211072398, 0.018613098044997823, 0.36181213441395765, 0.18575883021102635, -0.3356250324893663, 0.0735034937830788, 0.10421728782653403, 0.11679461255103925, 0.1909546917990029, -0.5654149479385034, -0.04614075887249423, 0.06698604044603951, -0.4162293095352458, -0.192006939252654, -0.6104447068925105, -0.005905591326935737, -0.11874171372434444, 0.24609774896888312, -0.03180603154887345, -0.0750459463621507], [-0.3860057573631558, 0.16333423553546272, 0.15872868617311925, 0.17858576980829538, -0.16789140295027274, 0.06184471312334424, -0.43436572023793685, -0.4590933817498723, 0.12036104131016925, -0.7225991768615089, 0.19527972394052598, -0.15956278682982986, 0.1043169365415499, 0.475635770546211, -0.33588182894919705, 0.07359444685691267, -0.14032685815973053, -0.8901139767345956, -0.2534494324033793, 0.08281911083126799, 0.013093366114406814, 0.06968399263114314, -0.41197580039427745, -0.22342003327289028, -0.02028129273824065, 0.17394606451473477, -0.21486991449938908, 0.41138307050600315, -0.2708902237344456, -0.48427595083531794, -0.18527895611226242, -0.22088012442668847, -0.005666465124007661, -0.1491698701053411, -0.5911808468914255, 0.05402404705021816, 0.5385675890342378, -0.337492068779983, 0.015510158053315319, -0.032964719707276116, 0.04675895096836856, 0.14965529151475188, -0.4121199227437992, -0.10247716092201105, -0.20156762294425815, 0.25318881001083476, -0.3238332494754232, 0.05652731855355115, -0.4322924054972179, -0.06675163459697195, -0.11114412977997609, -0.21638838073356445, -0.3732937560157278, 0.29523255806558757, -0.07314267947276362, -0.07667805674056648, -0.004395120070869644, -0.04019781196965137, -0.03484751709874748, 0.6869976942787418, -0.39473256633578346, 0.9475911369467803, -0.1185334097311581, -0.25204126468076354], [0.012194661115829576, 0.04446823355226568, 0.26496665542538994, -0.08338615251034917, 0.09966772938361422, -0.10248733126622557, -0.21948163832371073, -0.22637289246523792, -0.5143332858369225, 0.07435946903509398, 0.43234920802969895, 0.26641841248001613, 0.023301490071994842, 0.44555644988086357, -0.011218461164022635, -0.19533702258880004, -0.3110650090907593, -0.5825640370767977, 0.3333482825795772, -0.20162343569209393, -0.15478087337869834, 0.19264470075645945, -0.3233684459997341, 0.09174553134279041, 0.12080628855541707, 0.26654237494823485, -0.251495629074785, 0.47078070228565344, -0.22687055711962936, 0.05149606755092488, -0.12333937838240458, -0.14280589606085636, -0.23042114554074988, -0.2950510945517786, -0.44496533078809825, 0.41496834486507245, -0.0605717835573205, -0.37056868549270283, -0.05564679278854323, -0.545315457928283, 0.6722091683207043, 0.1936455720706916, 0.06023585170179775, -0.4289829789648011, -0.2047620331353217, -0.31683034650138164, -0.3028173596125952, -0.23467776567088194, 0.054222889502578524, -0.1045269775057133, -0.0959379383848587, -0.4237666553890393, -0.537955962647247, 0.18312661852853335, 0.03473050042010821, 0.050583728792507485, -0.10024830880228074, 0.05715723820256889, -0.057967521510548986, 0.19525804525004023, -0.15408010565637975, 0.15625371546585018, 0.17848756350816053, -0.8597947806392046], [0.26796409694166023, -0.05483887189531554, -0.11020909861968003, -0.06951620834206748, -0.05657561464428864, 0.1570770103567904, -0.43662422733449036, -0.3451540403978869, -0.4121839724408607, 0.23133672786176335, -0.17928442712113746, -0.13058447739236828, 0.3188726931848966, 0.17951028654235415, -0.20858879085488177, 0.20565984050241426, 0.34566501178210707, -0.1193829244208963, -0.20172292958205165, -0.04476571088566586, -0.24687736817456313, 0.36673919906131924, 0.01753736428767772, -0.07305422178735946, 0.33525938546358136, 0.3219607780499231, 0.05025656386684394, 0.24649611227906743, -0.18420080743473144, 0.3789806923222817, -0.3082202954292998, -0.21692240663471718, 0.08045908190019134, -0.28887471613734184, -0.21457262014385683, 0.19107840091984857, -0.5368892784876614, 0.33384634738629315, 0.03500694305855813, -0.14519410792250456, -0.4664578360747618, -0.506696204046866, -0.24054441169596755, -0.5082748310212966, -0.17728535143562832, -0.5319884846858802, -0.2760513709900326, -0.2147241190496164, 0.05851039044333685, 0.1395297841375966, -0.6143945963026279, -0.2533566756614122, 0.0686274327892442, -0.29442441782812195, -0.551865326479949, 0.15085516731359955, -0.4993543935092912, 0.17833501276101157, 0.015782528144767192, -0.007046030857712844, 0.3204795865841225, 0.27333679466835814, 0.1291994675471164, -0.2955178786421177], [-0.3077289116134473, 0.3481371406516999, 0.28390468793587026, 0.006070895196769954, 0.03474687779897737, 0.013661337612584439, 0.31776646521291985, 0.17740442021535346, 0.1716779503224211, -0.10993690457765562, 0.19317440656006715, 0.12218154858653286, 0.06853595422261277, -0.2294883494692016, 0.14124044177090778, 0.27943296198318485, 0.0003438755687938833, 0.45382354060172747, -0.23567624598558723, 0.11584600833147977, -0.1206775412404223, 0.1837333243370022, 0.4981034992864658, -0.2069453427739745, 0.30700296611878936, 0.21676459412034182, 0.0665924216163525, 0.07383115716496713, 0.252971628064125, -0.5329121259877265, -0.815015095069154, 0.36753744255187965, -0.29526968099265355, -0.13048080909208265, 0.20917695525324867, -0.3267311658948748, 0.024398453939523942, 0.2975999517562579, 0.08829126450040906, -0.3609721645322761, -0.4030172128583065, 0.45763689786781125, -0.5299190545635799, -0.5332012890725489, 0.08405019323973117, -0.060588120351749944, 0.1887015504330604, 0.15106328962129725, -0.0570945127957139, -0.20221016412017298, -0.31049253143384126, -0.4270779485226311, -0.07420348226745795, 0.009144374946813213, -0.2224093798289169, -0.18355565837131937, 0.20171647939345755, 0.06085406265308633, 0.3528172627940747, 0.043771745151565164, 0.9058797563670294, 0.20080177290481102, -0.02542546653079394, 0.2704350703368919], [-0.24088280335227102, 0.09306109243760664, 0.14778670883882353, 0.12399789311838112, -0.26743317149622564, -0.3951357010005266, -0.30884360153727153, -0.17104580185534513, 0.06900727598233573, -0.1863704591614438, 0.1460920191403248, 0.32485280759200724, 0.21910491958163655, -0.1361468469325071, -0.6417585644319053, -0.6351117910466518, -0.15499244598272488, 0.19134727119932637, -0.08946744621583747, 0.033277556196497624, -0.17577893843229705, -0.2215931333854116, -0.14338858706325713, -0.346865668212214, -0.19351229089220107, -0.09419148061853147, -0.28039385943024836, 0.18244248851483533, 0.0567909753800264, 0.026998347412940077, -0.2682375897558074, -0.3143717621754235, -0.4780113432927933, -0.08276183576220068, 0.5230595656445132, -0.14556353322555987, 0.6216404890058487, 0.03846350710306514, -0.2658637206074703, -0.16067944140971888, 0.35260619598782644, -0.3105717003896937, 0.07799059712547016, -0.3351707208611787, 0.356821937959488, 0.007878393880689906, -0.07268102033669752, 0.023743541894232847, -0.20026273211202877, -0.26019636518243366, 0.1566581996735016, -0.15764646330419477, -0.09938518409734237, -0.27669870120001744, -0.21168715348029624, -0.12745823021871447, -0.49151547669655893, -0.3052083010300479, -0.42643603329590707, -0.3226518022596602, 0.08305919625989426, 0.4992922594210665, -0.23735192584105147, 0.07914672158107795], [0.7187071391894375, -0.13876595445592935, -0.3364490739805039, 0.1904716152400449, -0.016849162798368206, 0.6048018123780128, -0.43534023139357075, -0.20992619653573458, -0.3173406896118627, 0.1360241284684479, -0.3256008387632922, -0.37026624669916686, -0.18133135962399488, -0.1880796991887687, -0.3308594745029907, 0.27688914305074497, -0.15171244909063952, 0.270185991612354, -0.16717374428184645, -0.1719507165271995, -0.3040993521712855, 0.012583588523843442, -0.37900714899826987, -0.3475794194549649, 0.13930461958579604, -0.17806201398486335, 0.1794354392316868, -0.31954642179933634, -0.5939916660489721, 0.6363364512900023, -0.5707085656672543, -0.3582863688903323, -0.08306907137064067, -0.09657436699905163, -0.6615154744981586, -0.36704322751161794, -0.40646151494528393, -0.261286436815727, -0.01475593247733648, -0.229460509119384, -0.22257682256307654, -0.17644256094883928, -0.21927712086570492, -0.2126114375763653, -0.16183274621269955, -0.5935656549755054, -0.027094851118132687, -0.1422569013964744, 0.2773850333714073, 0.15925675063494418, -0.30165320249687677, -0.05590030343547858, -0.2699598266216262, -0.07214937834797554, -0.2843381150333975, -0.4843773802595056, -0.5417929235162015, -0.05972210257965142, -0.3099928296440959, 0.18655532523659799, -0.39379222703641015, 0.610020406977513, 0.0066016991416471, -0.09275757823072522], [-0.05642595449519089, -0.15992048742733594, 0.2947587147915354, -0.24752071461842812, -0.24920367222780498, 0.21756764620151425, -0.14751073577371746, -0.012685046021839409, 0.44060076220409927, 0.1492506693422202, 0.054449249001824254, -0.11772879601654747, -0.19668042815240983, 0.17904715191758216, 0.014151606388555126, 0.14988936300522304, -0.26463599121457354, -0.3146143608578465, 0.06593907219399062, 0.061376264465506966, -0.25586104586931097, -0.16186911291121087, -0.39357474391666575, 0.345541282952476, 0.10024855184558405, -0.23464845539424167, -0.11041239701254914, 0.15218912748834545, -0.22804755869183588, 0.15078900844072285, -0.6326474552913992, 0.17531839342895758, -0.3280711770753493, -0.3518476431335979, -0.5449451770743768, 0.13973092100168666, -0.052948598877794205, -0.17565787660428492, -0.18717647915720098, -0.02855713196356219, -0.7518721355444494, 0.16845997916012154, 0.4040549993837527, -0.1342279792269652, 0.1282736339803245, -0.05165657593417025, -0.07663980496241574, -0.12314630487341202, -0.050750882430952445, 0.3443148383854023, 0.003470133046130216, 0.3029253184859497, -0.3497622953760789, -0.0732106076728674, -0.1260683225616351, -0.013307580338463763, 0.3688113636485802, 0.41337412300063187, 0.16997935151898466, 0.1671970726555036, -0.5319723420673389, -0.012884808256186582, 0.03635288415107977, -0.2612286435131021], [-0.026195436581594844, -0.5282144483402916, 0.0067552594866574014, -0.15271065952530816, -0.1618280478458969, -0.11257165853259322, -0.6438218890902416, -0.41698101957279105, -0.3050604120679074, 0.08665184282315513, -0.5246109510677915, -0.48854009770015455, 0.2098683873323172, 0.19133938583856128, -0.09726065177261138, 0.17010488607987162, -0.1267570885354076, -0.46266954028404506, -0.14874386945759804, -0.01184156973599093, -0.12832784757156554, -0.7307746124691005, 0.32466731355909845, -0.10677908821719492, 0.33756266339281804, 0.6743258537797235, 0.03505537836105696, -0.38947014867534024, -0.6469865344426612, 0.6897248206175092, -0.10560650259861994, 0.6378244279192845, 0.2109372864698192, 0.041304620715094255, 0.10275144813069594, -0.31107417821911454, 0.6700879633510363, 0.23186882668162018, -0.3603216488911535, -0.33483008759276744, 0.008070688416079589, -0.13714050469305808, -0.279128562786999, -0.020034074572411825, 0.4438306737433027, -0.25701577145817545, -0.2961706314974281, -0.1496208210670253, 0.3984337081970827, -0.11807115210434005, -0.26299402580048487, -0.2741247877154252, -0.3366020439963062, 0.5946925465421504, 0.26102618587271886, -0.27866632085940307, 0.16120313469526115, 0.18064163473880035, -0.28685027473462965, 0.021150527016481, 0.35271846042786237, -0.0815656909534213, -0.48619652856274526, -0.30334321708735806], [-0.15761050550397085, 0.529929288312338, -0.1960994572992971, -0.18805344014788306, 0.27238197668555214, -0.08122383596573574, -0.05447718159203575, -0.19292108269811423, -0.03855581060160558, -0.26451856560730247, -0.27598293659707546, -0.2772988171000588, -0.08852106218122413, 0.20946039140494302, -0.15029691144640306, -0.03185411873967504, -0.08457131294103892, -0.2836831283182756, -0.3529528166827829, -0.19344418214114836, 0.4376369218505415, 0.08887835893363524, 0.1475281678449415, -0.5593530130112923, 0.157971209560532, 0.11560972992950873, -0.04634366291177158, -0.16048281722682187, -0.26051873784399926, -0.03206687125652261, -0.18503620062464984, -0.07715945371057784, 0.22336158478739165, 0.06648887336900762, -0.46579468956067277, -0.15161639335463692, 0.05730075111990422, 0.0977501525883498, -0.05978074125488247, -0.06570119850231494, -0.029588661297395673, 0.22150721091425668, -0.17369623961831787, -0.5652008189302316, 0.012561861488536061, 0.23117518891814948, -0.12483871107256428, 0.032060127168141314, -0.006841765744388406, -0.4846822706612982, -0.3889326896461989, -0.08312807436365555, 0.0026806996113520666, 0.13424520108976173, 0.4153875837946037, 0.001969244735741559, -0.2188694821083348, 0.34625875422571134, -0.20579809685710862, -0.12313732083816444, 0.14507253212105523, 0.06319222756878674, -0.23826580931679972, -0.018466967636888966], [-0.10749301483376428, 0.03116786422408596, 0.35128316071201143, -0.1649143509206154, -0.16323171760818364, -0.30155424914445833, 0.08261222579025024, -0.33217311113848247, -0.043595359632978406, -0.07788521911077499, -0.5482504612383771, 0.04937731460750072, -0.103704720273695, -0.06925490868045266, 0.002550466802009436, -0.36366216903334336, 0.38369636071170665, -0.610083789577861, 0.38190378488672305, 0.15137322840830167, -0.16939907322537914, -0.7171127528678807, -0.4273609233928175, -0.011713742505275562, -0.07727334142489863, -0.1481469236113197, 0.2608383417894326, -0.8204783514189591, -0.37643293801358857, 0.43480846890754526, -0.1886523898538629, -0.3350128686412561, -0.34298207469312997, -0.12607540188208896, 0.16175770474759982, 0.23964694614754983, 0.3529518889017437, 0.16352157547653215, -0.5125808644242398, 0.2607441910445908, 0.5226138588005699, -0.454273638393498, -0.08020936890143614, 0.6648548823677124, 0.27777669379507597, -0.2569066572737854, -0.1307930591427089, 0.009919412781603527, -0.14149196935056957, 0.5113516132063218, 0.08765397293402907, 0.2722772984003146, -0.570935380366227, -0.09991196815575232, 0.05479287485662515, 0.19384028459922775, -0.08995623194753706, 0.03314053306188983, -0.020472531916406828, -0.02969134950808544, 0.08618612593493105, -0.11759339094874974, -0.05346945006641709, -0.33532230088454], [-0.380042432039965, 0.08545299961660918, -0.2745747548731845, 0.017435217760930287, 0.04253222572501494, -0.2299758243808909, -0.033665475104252815, -0.17037026584859255, -0.1777313607958478, 0.2589656410897494, 0.10751178894310175, -0.08673455892640375, -0.23080646030985286, 0.03617229337888442, -0.08126481250029381, -0.19635376278512112, -0.06378044938271492, 0.002456383804664659, -0.21982320034882297, -0.0925027414561419, 0.0054443318333763585, 0.09981887229796427, -0.2755092177349029, 0.05964338379446078, -0.04191369732915238, -0.13191381675681776, -0.34453451777840666, 0.09633740941431594, 0.170888762907778, -0.2766180592349325, -0.009036755342127601, -0.014015821580633388, -0.14339573448993387, -0.17422175695139552, -0.031954909071300185, -0.11808777348023923, -0.11766373179614058, -0.09504305659769971, -0.09187942060011144, -0.0467385310729566, -0.1057924810231309, -0.06622934886066865, -0.15422414746732602, 0.029719379943315548, -0.0704903633488743, -0.059139626329230414, 0.02208844899954235, 0.04333069717109802, -0.18782265290011893, -0.030001072308802952, 0.19038914045202834, -0.06779320846532455, -0.20158207309156662, -0.27030919929945485, -0.24021246912630737, -0.20233270792671088, -0.11953014732250263, 0.011891075355657997, 0.09155322194939025, -0.5035127936085538, -0.05036334878649223, -0.10430318777341971, 0.1636110350820516, -0.07041938338615637], [-0.006332494285481552, 0.6111724792085084, -0.12593811850615788, -0.1895581393589277, 0.07276678608016059, -0.26419003308576033, 0.23117383225389604, 0.08319054459946248, -0.1823805222824854, -0.2592851679279581, -0.19864635752069687, 0.8678075572320287, -0.3489740640016541, -0.07643326167722161, -0.44771514421214287, -0.17111081467120776, 0.1720045229412855, 0.13039858845390645, -0.644261398057379, -0.08670068405356973, -0.19082550768691234, 0.12234852628397154, 0.008148262068193112, -0.1845155628432155, 0.38068838561132934, 0.10579476128554845, -0.15655975687054377, -0.24250881463425455, -0.413842101510955, 0.6838155702497132, -0.18592453292155278, -0.13748323644767854, -0.30350883913312415, 0.8746285765381492, 0.3043558569990058, 0.14915479047690477, 0.3127935466126756, 0.1786698344383383, -0.15790197059622837, -0.25752766788226644, -0.25585079742413463, -0.12630811035422218, -0.2947218048847533, -0.2693364041385936, -0.10108160264982391, -0.43857144280907095, -0.22674969245175636, 0.34016794714857773, 0.2918139248700181, -0.12259223370694873, 0.1284749696542205, -0.1371762202250668, 0.19392877737668984, -0.1816289626200679, -0.006861276666608536, -0.45600132543858524, -0.5198825018914723, 0.04644823111341295, -0.19105057878388673, -0.020296694517543783, 0.2927456628726609, 0.1090047874671557, -0.5527927380274418, -0.009284826002371294], [0.052301429450942925, -0.10661424804809308, -0.2941401564253747, 0.010221168912184516, -0.06282838009649468, 0.16289080299736802, -0.029472818149687545, -0.2000781898965583, 0.28367867370136063, -0.0864502314982441, -0.2101154062807009, 0.030515863766978422, -0.06679688235473308, -0.0980237703461316, -0.11095416485549081, -0.35081279101279994, -0.03723805136971215, 0.15813121245674688, 0.18286736630612524, -0.5290512916927859, 0.225023757132901, 0.0011484129710920997, -0.20956341231158332, -0.12424647838780603, -0.056595567561741215, -0.15789316166357642, -0.18922980141399492, 0.24869879786434487, -0.12309428117180156, -0.24011923137959515, 0.6784207885958881, -0.26212185267085225, 0.05861489954367727, 0.23345969165151326, 0.13931361720788138, 0.4388200707129025, -0.8287186697015354, -0.6566557668774107, -0.11705462634912935, 0.10525773536410124, -0.006697570571215772, -0.025374486865062287, -0.30215275240905537, -0.3280262314929711, -0.18445240478484512, 0.21580760607145028, -0.22887260545574317, -0.1974555970898217, -0.11254922006596409, 0.7578229419050388, -0.18317632959205155, -0.23702723005210904, 0.39120512739527863, -0.0040467963501077875, 0.20600784350164258, -0.012770011099293923, -0.12318769773768229, 0.04613974061235575, -0.32313926337186927, -0.2006060146909924, -0.512472289011666, 0.2169386388407176, 0.10276307706431159, 0.3592281546327249], [-0.47974446940179244, 0.09041128242231707, -0.24903789579515098, -0.2270758783156482, 0.18183590697438604, 0.04303496873912239, 0.1016773098907705, -0.2440120874622753, -0.3678270983675443, -0.588245855488712, 0.3619745980916816, -0.0407489252890665, -0.132096785037546, -0.18687873696370327, -0.19974569107852846, -0.5658032378706015, -0.1414696922108725, 0.42158875553634745, -0.0357047562282549, 0.03791854192507451, 0.2774384107439555, -0.19907256976247126, 0.149592549825784, -0.628999034284047, 0.1223682641648407, 0.28401383444208667, 0.03009719870759876, -0.701603678375459, -0.1108743927171346, -0.13129636043181755, -0.4062639022922847, -0.02903829014324963, 0.15349814471568748, 0.07045559571680055, 0.44477426623847927, -0.2895039757603798, 0.33415392355027845, 0.007055932765065139, 0.17075668561632554, -0.15793724269764314, 0.2671282960927914, -0.30817987542657616, 0.6231544135623613, -0.3198935410450801, -0.6750921802766502, -0.45446984353061654, 0.12049487968910115, 0.18182462563558055, -0.03938186145532086, -0.2543617627086062, -0.13081645474558296, 0.07409011097635226, -0.0776023836906284, -0.011827127137997752, 0.21197204525197644, -0.048510254282144394, -0.10391228895721316, 0.06739542009300134, -0.28151029503462244, -0.4994159823645307, 0.1587568820158113, 0.43438101682644586, -0.3325869456301349, -0.006385153574190831], [-0.28020922766408446, -0.09927126702557874, -0.15792194213467475, 0.24215715518366668, -0.1331158019052286, -0.2529943454887335, -0.14974031673103388, -0.17214529323453467, 0.04651335325439032, -0.21359668389422695, -0.22512148804914794, 0.16237786402910592, -0.05589326155867651, -0.25298785500678933, 0.559137132043528, 0.13477018710582708, -0.17509393052310754, 0.25627621438363135, -0.21847753921906116, -0.05017966409323479, 0.051943853654327535, -0.3008698728227332, 0.28508986841335615, 0.15697235785163996, 0.027525017855508368, -0.1173409507429013, -0.03778800622360101, 0.3125148652212302, 0.29048307958716096, 0.004350626716273511, 0.4018495540206552, -0.1617872832577282, 0.1344544585935181, 0.45704213911557545, -0.31589164095830974, -0.7680088630537445, 0.6704517126005061, -0.5428381692960697, -0.190985437341823, -0.13110458872096203, 0.417147019062241, -0.18133431496330818, -0.4561597870521821, 0.1799858489497782, -0.3035498581462755, -0.06976082112551216, 0.3437993038322216, 0.1764018162619815, -0.3665180944591077, -0.6043951601275696, 0.031404483644234066, 0.13751862236542095, 0.23251549848501726, 0.32138462087792585, 0.35193817404645034, -0.1722159122345509, -0.16731765197501916, 0.33231655594585063, -0.35583203652880907, -0.11066176192789756, -0.42935135438634775, 0.1707231746560672, -0.13159138635284096, 0.0954649568414197], [0.0410551564234891, -0.24974204796515329, 0.42243656390768136, 0.14340318401459334, -0.26163090258176375, 0.5466498501671153, -0.18961185676231612, -0.10975380181528113, -0.052897094859762704, 0.08414123173592404, 0.10870195666859482, 0.10657166330942426, 0.4808556248550182, -0.27788542052096327, -0.4789466363892187, -0.3123690169700882, -0.20125308275534645, -0.3561973024708628, 0.33003326780328573, -0.12875004964958014, -0.02504852055070255, -0.1698654078657579, 0.11499672615278039, -0.08872405166293726, 0.637545343435631, -0.4162510049404442, -0.24400892314769632, -0.4690374523368059, -0.007633912213352818, 0.07428838102130894, -0.43726364786371275, 0.5830303628699269, 0.4410273607901632, -0.3620849398114904, -0.03640789876878016, 0.23804409058731263, -0.45221349855988324, -0.1239135409596152, 0.060858217644711686, -0.22967508120744445, 0.010799278753257563, 0.059406981428259654, -0.3216798425857933, -0.2845680337998429, -0.014828356825300978, -0.04553092761559942, 0.18016666133137016, 0.2038193410947711, 0.19984814210628768, 0.3555441869624727, 0.09318225246639059, 0.07988601904828935, 0.2823773557108296, -0.014641432841625883, 0.33096395833213316, -0.26784123870734283, -0.009897183157779156, 0.6844892512129902, 0.09100774291062991, -0.017642775133835976, -0.08944932219891136, -0.06167914081466184, 0.1659037658409895, -0.7403036058520006], [-0.5487149676909461, -0.27880099559056415, -0.04170947900358303, 0.28797501688216715, -0.08272580601914602, 0.1526485077002876, -0.2881726201284947, 0.26290728831146853, 0.0576251472880025, -0.20725991558401127, 0.02259888778317172, 0.020235917473768614, 0.1669236224787708, 0.0263686778361874, -0.36283636284868703, -0.1963276455217164, -0.30494473655975773, -0.18956173437401316, -0.22050855422564716, -0.2119498805559859, -0.27936388446076227, 0.2724454070153974, -0.09436378023983176, -0.3873879226682781, 0.4349405770478831, 0.21706257807912263, -0.6666749904394887, 0.23298338639383437, 0.4738103720378753, -0.4093374309379245, -0.14259743709535627, -0.2894480417039871, 0.40571779977439903, -0.35093512411119254, -0.13364878865732474, -0.2837115676045497, 0.5547667439644726, -0.3218795844528514, -0.04542365437593186, -0.054165574561236815, 0.19382709239815626, 0.5859339506679979, 0.1204569317720447, -0.15850434996896634, -0.3773882056771167, 0.36334167630632197, -0.04297893844166133, -0.18883964643515264, -0.4747203443398217, -0.32222880179424424, -0.020831467572842894, 0.43817874011351415, 0.2576348467624186, 0.4111823844149046, 0.08647055501500045, -0.13915238884197564, -0.29001454397842175, 0.2729528572512687, -0.03824988533876667, 0.47041451792581257, -0.3145841914011078, -0.12548540008221792, 0.035471885248214416, -0.3584783792616408], [-0.08681817642710318, -0.3816297962721742, 0.10985541859356414, 0.200901603159259, -0.203434352909768, -0.12876338505121382, 0.20170423535204687, -0.4359959535077037, 0.1617538942085776, -0.43498618549642387, -0.23296806050817248, -0.14355878711988074, 0.33489835247977817, -0.15549894430394112, -0.31638278373886747, -0.4826846223471294, -0.2454642419049494, -0.48254545632852797, -0.36021998427063107, 0.06214118749851848, 0.09361740964233181, -0.9330788783865812, -0.024324366158456942, -0.040383414836901194, -0.06755464121390531, -0.16287848487580678, -0.16432117775643365, -0.3143965126532377, -0.46125788272195556, 0.24430508540469575, 0.43753370289462945, 0.3488773604669478, -0.14223176835390525, -0.12235834371068405, 0.2787870771573786, -0.10082158166382695, -0.08149028798630088, 0.3372434559158963, 0.5333988149462733, 0.5405857584000568, -1.010028909909025, -0.309989842276163, -0.39955086709132587, -0.10978543838813237, 0.36013681716199475, -0.11533330473504268, -0.03571060858485511, -0.4321099614723287, 0.3600317802817975, 0.2028879107633542, -0.20428134334244819, -0.25518797344826016, 0.017257871281516863, 0.09330860943451386, -0.26235951067772306, 0.0069049355323954455, 0.3746996301720281, -0.34754649864360365, 0.22716335058451698, -0.03541543139845866, 0.2342472033953411, -0.37433691725162727, -0.5256335042066823, 0.2312142163398286], [-0.12608081695291284, 0.15723215870218435, -0.03148612628613538, 0.013128365880120096, -0.21547752673066933, 0.0714865256591851, -0.19289271324038923, -0.23930715189944646, -0.366865054959408, -0.26448564598632146, 0.009886077393314577, -0.23166242562838235, -0.4413532133428863, 0.08303426654449793, -0.37402764006143224, -0.109367039290161, -0.016901135644023936, -0.18303842652014043, 0.29650171787490487, 0.21499547057706164, -0.057760494117812075, -0.1163802951818751, -0.263275386668689, -0.07204922289307082, 0.10931459880191428, -0.16369808617572987, -0.33567539129706925, 0.06146934421536993, 0.0027669786112086755, -0.35973624480626376, -0.7966127406824963, -0.19315866191197426, -0.04822645618379215, -0.17892315086625168, -0.24318628206948717, -0.11251900993463859, -0.24718543680867516, -0.5470000293982812, -0.18116296049868394, 0.3876802952036512, 0.3028049421415498, -0.004175986984017683, 0.6619217168681846, 0.1419269191495334, -0.09593627341401816, 0.1827645199163493, 0.18734831077563402, 0.07384566636413191, 0.192891493856407, 0.01229783739688231, -0.14876202579871647, 0.2185600739307624, -0.05062776591411435, -0.07873709940442258, -0.11934601065770159, 0.16862829555656192, 0.1476635010717198, 0.4114182678270111, -0.12507325602787359, -0.09976941190788449, -0.2811003732514928, 0.17664031493914445, -0.04123868892517361, -0.16960286823394524], [-0.24965238419653998, -0.0879666276240921, 0.09388074805953524, -0.21949215060004867, 0.2036224418533498, 0.13264544497166741, 0.1561472222666802, -0.07220829829684196, 0.29783454911284846, -0.12404930365910866, -0.14333885019795842, -0.33249885486898456, -0.24749467373011463, 0.05734409837331615, -0.3430946733439707, -0.2824274431882373, -0.017464731876421117, -0.06716452316257382, -0.24952761109436994, -0.42296122890465193, -0.259766880689943, -0.24020675619239248, 0.3612791588492181, -0.21955920873197723, -0.03841168079908111, 0.03367932642114269, -0.3100166509012067, -0.18675105669526262, -0.3794061669081297, 0.07810982497581206, -0.2828196897571654, -0.13935442353774474, 0.019543863902613284, 1.0139453872590298, -0.04163339818320609, -0.2209098213587207, -0.25984888771945563, -0.49110312773237624, 0.26735073477557586, -0.03537166568174482, -0.24440787875361777, 0.1955202271249565, -0.10043521921495396, -0.0810775186814881, 0.10400620451281328, -0.1865007209174867, -0.05202291694100488, 0.005777600489035017, 0.337294436018075, -0.332306963444113, 0.11892586502505212, 0.514270188834316, -0.40849651306949525, -0.08195439096535992, 0.20567443439342484, -0.010777704922965557, 0.01580307963152132, 0.17177000953754232, 0.15992103291966236, -0.07642800591007118, -0.6845076018460401, -0.2191983076284671, -0.1760289376603195, -0.3285356587009652], [0.005625996609333305, -0.49958743113407994, -0.23921141623344339, -0.17318960140206707, -0.30894802958087225, 0.01413636632070537, -0.47636987474115855, -0.3447051909738734, -0.3134682677163883, -0.35766235021417725, 0.46128203086073294, -0.2848498602664745, -0.09658548172854532, -0.1910093700486692, 0.5337556799139417, 0.025393933871778417, 0.14484972580198738, -0.1038839976236176, -0.0034425712258829596, -0.12700642796829245, 0.18426644774911924, -0.6154238068669464, 0.23037947801792896, 0.18676264566726603, 0.08800964373072172, -0.23152517385252688, -0.01827793760217289, -0.46690249826341745, 0.02191374660755596, -0.4670374658498138, 0.6332367084919638, -0.1123398633035781, 0.22135398467536985, -0.34685501235092453, -0.1039586366578228, -0.3723433588945523, -0.5692693389916123, 0.5300932419472806, 0.08134366161587551, 0.3331206507398448, 0.26471526649264054, 0.01693230546919029, -0.4413045147306678, 0.11303058389513983, -0.04068543765259476, 0.38139371514607406, 0.3661567318441831, -0.33218939258460095, 0.002002382130582336, -0.13836984503224276, -0.21193231536126056, -0.08680780762556539, -0.22005643453666826, -0.5156122462682591, 0.2756664562688579, 0.2475605226171934, -0.4494066316200865, 0.08144380708757044, 0.08619419272298143, -0.2769660295363417, 0.30334834568528407, -0.05611637138838753, 0.1948696200520494, -0.6819663057979549], [-0.39878019149803673, -0.07324843213526076, 0.01438123486613085, -0.17016410691206704, -0.059140225411611874, -0.0032189081769760765, -0.1195478169062418, -0.13398918634325832, 0.0926161765024943, -0.1776218921715823, -0.39718237406440776, -0.016926752812248584, -0.30297851326478065, -0.20381697683080097, 0.13943935435821134, 0.18105426753093437, 0.0007726263119702455, -0.10031224173289291, -0.2685078971055369, -0.14279875461989894, -0.1286018891827377, -0.08478706957755178, -0.21152987720246824, -0.0945443189104115, -0.22216042293489446, 0.041511840618124296, 0.1822110463551835, 0.0759278354303018, -0.04120408995227082, -0.188167818809961, -0.028491280717794994, -0.20453419258053784, -0.0903476682533125, 0.28150612406890524, -0.2039865172602361, -0.30320435336004203, -0.01283700846500974, 0.018987459440136394, 0.043738213179560004, -0.06492567730427885, -0.23046276209990513, 0.1213822399189542, -0.2960223005630088, -0.12433151790419981, -0.39938079711928365, -0.21092491729616725, -0.09393518132903345, -0.013558101348594996, 0.05905316823067836, 0.35227999555523576, -0.22781542861162443, -0.10202300039750874, 0.09661442006692979, -0.31830491735234967, -0.1358249266590339, 0.11381794197568, -0.26923718880648295, -0.05901273833214997, -0.08749065832073424, -0.029456430785989376, -0.4669959881424443, 0.09578933183800997, 0.009364511407304195, -0.0712879809879398], [-0.23763511428037593, 0.03689627240855868, 0.32981451124474487, -0.6257650203305123, 0.14833161834910494, 0.0854780553262788, 0.34467928045187624, 0.12037908335140786, -0.2050544329259941, -0.1330537885643684, 0.30803856541926705, -0.3497526033184614, -0.25210674916880765, -0.5122960333500334, -0.06391139178730788, 0.12291485969407107, 0.05831010484044796, -0.7186478296234318, -0.032058858343227886, -0.21542701339322565, 0.5501592079622659, -0.2409576449722112, -0.3781165432679412, -0.0923807176115982, 0.062335572080766025, 0.017746411418727605, 0.22042619226499655, -0.1649457486607197, -0.042703587760466816, 0.30129490015434496, -0.7627408207444096, 0.04002808845176773, 0.0314904100500406, -0.5064656327746847, 0.2899336485585243, -0.34992430499754607, 0.02772732267295925, 0.039543378452705454, 0.1309985831349851, -0.2667922542259203, 0.3988879407813147, -0.17137605282052504, -0.008839679051061877, -0.22962016645820277, -0.22446854876599096, -0.10783208155507132, 0.23543952788249672, 0.2174610104668884, -0.1717286571732212, -0.5228137997111986, 0.24207565670267367, 0.49193966836621944, -0.3227884220580087, -0.3092520724173112, -0.14691732784445133, 0.003483422794372743, -0.43265047414222213, 0.4228048650820356, -0.4013011565753696, -0.0802531991742489, -0.013510260269558982, -0.07557083722847938, 0.0010056948129676096, 0.30082784888963937], [-0.027822990775559872, 0.04230527820900903, -0.03313212580990797, -0.12866152747417398, -0.02529289882941877, -0.08364800837218837, -0.34110869272722205, -0.09598876194265706, 0.1262891240533136, -0.2441819433912364, 0.20659791519353882, -0.24542766815464728, -0.09289481188234858, 0.022015197967949224, 0.0024687451440596397, -0.3327501042771088, 0.05312012865038199, -0.18973682568816852, -0.12609307995989333, -0.10594903146554145, -0.14766637749786504, -0.08665749218890764, -0.20608325047417994, -0.03582275166734151, 0.10412600721712709, -0.13177542108757306, -0.1055862003526972, -0.12334045162746361, -0.2165270159494886, -0.07186994897802887, -0.23576746232578466, 0.0732051692030269, -0.21863469689567352, 0.028371991188191302, 0.09337826752431642, -0.08975585228661989, 0.6352313441057158, -0.2328138485973419, -0.2291014409487026, 0.029563720096324454, -0.36437511321316896, -0.08350049446660261, 0.07398112452901479, -0.0940062146637064, -0.09766639815945696, -0.32053126196326187, -0.32302105961387234, 0.0608118234259533, -0.21076817109084045, -0.009705155066131295, 0.14994370667419615, -0.28769555452342643, 0.053339493730963, 0.193779398723864, 0.06261379126939744, 0.06477122004578556, -0.04604682576522492, 0.019201593400806516, 0.3103966784288571, 0.18193079595938935, -0.3529317337254146, -0.1078313305751075, -0.28720171169467, -0.15823282221300974], [0.29906579536898437, -0.22960513122446802, -0.056299752886340704, 2.417407767261147e-06, -0.2681690684803663, -0.15778942640908594, 0.12403726190871431, 0.07566986941827876, -0.24636463157317934, 0.09540067267598029, 0.5281181355826172, 0.5247036552858978, 0.03154342741326445, 0.406124927515768, 0.005701864219459235, -0.6584793902388754, -0.5299067933624768, -0.4535772639154413, -0.21684276925909776, -0.24382305159664697, 0.06110045726706542, -0.2572222161369144, 0.7961007956371222, -0.6596295697060645, 0.10991274363618055, 0.13826761028861545, -0.4072803391421702, 0.07219775736276068, 0.19046404195284, -0.11087166127979342, -0.5952629578828647, -0.016322758468101557, 0.24190713817993387, 0.15561295207870066, -0.2621544045108608, 0.2399096764794933, -0.188170264722913, -0.16240264741412097, 0.24934895148343178, 0.15706016606748102, -0.19099951730033843, -0.07511736606059895, 0.0008793459720386167, -0.6543290151863693, 0.37351680327023407, -0.521166633705113, 0.4397643179411576, 0.20986938118831167, -0.5354820236018135, -0.7601114435066466, 0.1909931530442285, -0.37198096346480364, -0.7162047371014949, -0.24469106180634667, 0.04750955477960072, -0.1260806513425882, -0.044461903384960894, -0.03882360807837069, -0.08100351853559914, 0.31236062812638005, 0.06796908151734705, 0.22439583676256827, 0.5777403395369627, -0.36636233464717305], [0.02806156245232176, -0.0664218384443211, -0.024808035228355438, 0.09516228976931108, 0.16575482239960582, -0.0076998378923253605, 0.016451981028972874, -0.6148501002597591, -0.04158407794593029, 0.022184686407477252, -0.54685322037965, -0.37895028240088713, 0.6985797449487767, -0.12638597039518357, -0.7480518043902041, 0.1770828568060618, 0.3907088701946567, 0.5322919939231261, -0.030076802712814762, -0.08620188972815955, -0.2541362450400171, 0.9740071961401439, -0.11391161823453647, -0.3963194376396991, -0.21048620300030624, 0.25480417457952503, 0.280756803288122, -0.4064258687970869, -0.35480110490412703, 0.2205095857050605, 0.15597865255233473, -0.26312387246396063, 0.031525061456308144, 0.298505964810869, -0.5279153053656693, -0.07348569069732262, 0.4780977818714647, 0.00744306753204133, 0.1070223917757443, 0.09028709376612576, -0.05328473954610288, 0.16088922115682414, -0.04801160051173512, 0.11830489918827125, 0.08353490742990027, -0.07729486557397786, -0.14388112551691762, 0.1335609572782844, 0.09413332525066737, -0.10517257927426363, 0.0018894614715098314, 0.40704015231326, 0.16417827913100444, 0.27070568908547066, -0.3368868239090399, 0.20334150504632328, -0.17352449182679183, -0.3421835772392067, -0.07921946435300545, 0.05072782386913606, 0.07410443852185229, -0.06304941020559081, -0.6099422774075881, -1.0359794830627003], [-0.09661935751141065, 0.2634508084555341, -0.12266437971820092, 0.11787824731221776, 0.06164882124782885, -0.15515382626671706, -0.07863390905648768, -0.012350677935955541, 0.14319670634003173, 0.13323714199735198, -0.03884954115998804, -0.041190357942015504, -0.13431082394701552, 0.052830296401556294, -0.1630909688381814, -0.2157147175888325, 0.01020379653400007, -0.08707729400485506, 0.03485806099080246, 0.07155373044720548, -0.14302672068570918, 0.42979155480535974, -0.20439218329360856, -0.12124886450875685, -0.012694856684095533, -0.2530476318675767, 0.3496388935487219, 0.3086561005869949, -0.4737914197169141, -0.1408656336041291, -0.24985989645492906, -0.39090186256683074, -0.14514779102954445, -0.06024910752879384, -0.055354456388004784, -0.01025646845901425, -0.23559109050808466, 0.27929526240765573, 0.06263998834272046, 0.057743569758432055, 0.06185818079969961, -0.18214574736126354, -0.04905031115876303, -0.15892443697821068, 0.3462751318310623, -0.05409359739572662, 0.2169794997665867, 0.016843093648244153, -0.20241700505026863, -0.44293312957155717, -0.2084121672825889, -0.3772315736603934, 0.15758501748921216, -0.24463436205364422, -0.5020458236688291, -0.10708757173886138, 0.19625456731053623, 0.153104296138043, -0.06135124490918212, -0.011451082468902514, -0.25109979899482293, 0.15844000416809498, -0.3834525942660745, -0.5355009920420191], [0.2918617288680503, -0.2561998391260844, 0.030774914787901217, -0.1850219586272059, -0.219976190830422, 0.14642260108148525, 0.07693398542962708, 0.20063959547208435, 0.004695077389233469, 0.03974543307574447, -0.3380784279373323, -0.752099740191302, -0.4302783982986607, -0.1679790198249871, 0.3756594574113736, 0.16144586778707942, 0.6263943418373482, -0.04594931662523181, -0.5139514076169074, 0.21838800136583614, -0.37983217012075987, -0.16700958184642425, 0.2899518892750228, 0.15537240465874305, 0.4060362764535254, -0.20168838682188991, -0.051594032764302716, 0.5480626522270247, -0.033170767633466776, -0.4806288485202749, -0.4639856610504752, 0.28697496403026207, 0.004271208095807315, 0.6498657049831758, -0.21131150719323233, -0.07325360152179815, -0.049222015785668975, 0.02451060714051614, -0.10397885974591395, -0.4650133704865833, -0.028167376436656733, 0.0246276114450155, -0.2561406698021861, 0.41943191331355545, 0.07925134935055508, -0.23612616997481156, -0.37648128765725186, -0.18274135277852294, -0.0967919201106056, -0.06915340800993097, 0.007111437762952327, -0.1124581428323642, -0.1835615536396089, -0.38523369097147586, -0.3358886536672324, -0.36039557667735483, -0.32458617295939923, 0.20924654096752748, 0.14563918930255906, -0.013347299695467215, 0.42658777852459595, -0.09474435392564627, 0.043816101829802334, 0.508624902520923], [0.29999871219127544, -0.4361874258773155, 0.03264304377893428, 0.07041017320115256, -0.06943054083478636, 0.33855216063338006, -0.4711504037313652, 0.34865243572743243, -0.06539963449909095, 0.6137830783563646, 0.21314242893425067, 0.3991842872400549, -0.008283072047421215, -0.3242517000456741, -0.5503209491123977, -0.3388840861232723, 0.14551966059908902, 0.19677706632041694, -0.043549538273126374, 0.12494051291953832, -0.07500063853017117, -0.38526327046349274, -0.08567855349198723, -0.49321808334799816, 0.1678644157095324, -0.1531482362264302, 0.07189387119936926,