{"hidden_weights1": [[0.29847163417904754, 0.0828519424667899, -0.28000852525693964, 0.280952743360679, -0.024576508545193682, -0.1750651701523614, -0.05745989793301429, 0.09327181969050143, 0.2058775510297883, 0.05724388107027744, 0.03782245005339912, -0.011629690558008476, -0.1814705959904421, -0.017917629228923256, 0.29221452767672235, 0.03657379868091912, 0.02228309610213001, 0.08125613717677044, -2.4969903570019887, 0.1001923873841194, 0.013540303551707692, 0.28438043166488, -0.0016343993043850392, -0.22151636211086406, 0.06551881310204952, -0.030312992802052737, 0.01334812340017967, -0.1614012964087875], [0.04043342986669587, 0.4784604859959191, -0.04636197702176488, 0.1701480056159845, 0.10443361526013673, 2.595458892533763, -0.037582176626700686, -0.19927836316466455, -0.020964613676165013, 0.11357196359890225, 0.07143300141717061, -0.16609162708916472, -0.12521271611073334, 0.31795415343473393, -0.15370254724835966, -0.015612166245306248, -0.11387375385262576, 0.08479654094742589, 0.04485106763795457, 0.11868139898845351, 0.027353168901450946, -0.162144700198035, 0.3106059887426952, -0.08528741119745338, -0.20381219038803416, 0.04578697894940636, -0.10003071401506185, 0.05717080934265028], [0.7359891526327106, -0.4269187114498801, -0.7821870919702204, 0.8068702142109403, -0.9865961089774563, -0.6557732827196159, 0.06982198048044443, 0.5976505920559366, 0.6484223875441804, 0.44545680633038437, -0.5306141852384036, -0.673742020426183, -0.5102619754276769, 1.1005105824083206, -1.0124005456365164, -0.4975249356496321, -0.398547326268181, -0.5941693328985868, -1.1105264094557128, 0.03835296539488488, 0.9849465069510095, 0.6628214478330643, -0.37331677717212786, -0.5301935882058796, -0.7939897240567309, -0.20684870359042506, -0.6067608083494395, -0.2755345003079384], [-0.8749350498792637, -0.14425240635471734, -1.8359483980818636, -0.6777479294129535, -0.6049849966913329, -0.8393551573593737, 0.7586148486012375, -0.9285521341135067, -1.338686554922209, 0.7819504717802951, 1.57932960389949, -0.5052136437563794, -1.1494689364751667, -0.49320395338642403, -0.6619882847576024, -0.4313028575001099, -0.5907576677721614, 2.1372977653400915, 1.0463412004095844, -0.42544966908348697, -0.7356450258310362, -0.8036258118743957, -0.39593853147532415, -0.7036153392763269, -0.5674746135361702, -0.2781655191597868, -0.33996241547184464, 1.3689597066470243], [-0.6822959174220776, -0.4208896444180084, -1.1419576195673515, -0.5674923818057781, -0.6404925408409751, 0.9732588662255652, 0.5549909415270436, 0.9651593938812141, 0.8326878128466709, -1.2719774871578629, 1.1800442249679914, -0.6911022539604423, 0.8202903834252859, -0.5314628646294757, -0.6873607981166248, -0.6450753305045809, -0.5771073212876974, -0.5872681978478066, 0.5871615539702424, -0.5288917987825094, -0.4609925878452228, -0.7324371809487457, -0.5328251057062648, 1.1103826358758397, -0.8962162732664747, -0.5782390645424096, -0.513980268036775, -0.5897662899622067], [-0.5192681372833884, -0.48180749396091754, 0.3263753834198767, -0.6923733031031953, -0.7439469054167014, -0.6047368305751063, -0.7651012513905237, -0.8588837590172109, -0.9728189639733505, 0.5855948676894929, -0.421932441627042, -0.24252694690128115, -0.5163377271272189, -0.7258256866880863, -0.47824015505009315, -0.25092399317430125, 1.1822801166293209, -0.2928673346081031, -0.7715270595719598, -0.3048140258774428, -0.44153324547519346, -0.4053408395970702, -0.5283733019658368, -0.5273529422290713, -0.23065137926883625, -0.22583616279338606, 1.6270780946002998, -0.6490155233457944], [-0.38915708860108716, -0.5930840752909431, 0.6154080938531086, -0.4030260670125047, -0.2243997533338933, 0.7559426725631933, 0.7416632387371219, -0.486598885033581, -0.6952947669942092, -0.9302260592194335, -0.5308226162610646, -0.39246455401656777, -1.0433830844644225, -0.48768026455619556, -0.81769478250035, 2.409406302512214, -0.55838875327988, -0.4940312763736801, -0.6464682230627343, -0.522345781311648, -0.6542995637515335, -0.3514377566769695, -0.5804522138154644, -0.5108146951233599, -0.5105333903751895, -0.4770521924139143, -0.4869578394950524, 0.8630835230669992], [-0.5946553825498413, -0.7149528290303, 0.6989225190923876, -0.5986318070531748, -0.48145538939801114, 0.775722515920051, 0.8078650228807839, 0.7946194503382734, 0.6224500301619094, 0.677101335213061, -0.6496096352535394, -0.6557279370666359, -0.6025681100091866, -0.521365511403645, 0.8463537102936189, -0.4652932800235575, -0.5448461128783904, -0.4904103040380628, 0.6808342928190696, -0.5153165862294516, -0.5797511539645575, -0.5994602381277834, -0.572925702610589, -0.5930319664962919, -0.6393766818271363, 1.2836705002879556, -0.49846038913170093, -0.638812811052162], [0.01852163412208131, -0.032245527309014914, -0.6547662801542494, 0.10419313435945755, -0.04432125932865059, -0.704280493844625, -0.24354748105119187, 0.1758136595755927, -0.07315557025139198, -2.1625746765087865, 0.008981125707509295, -0.08521589064325559, 0.35373686164557927, 0.1550384371026542, -0.24973389940149773, 0.30598136771591605, -0.03208576204700253, 0.05595033216399976, 0.14570319502547402, 0.2045865656171039, 0.16063940298641105, 0.2420663036444954, 0.18122140597224692, 0.5255124873401795, -0.2491920388752362, -0.25327291759318127, -0.0879671178082668, 0.2555450270644124], [-0.45266857594918153, -0.194106077250153, -2.203265821164598, -0.5906707772126761, -0.08868667310814644, 0.8719866440098442, -0.05792495943135214, 0.47640840234937276, 0.46266268557257156, -1.2678190055545564, 1.0261534006525155, -0.15117259063112778, 0.800593744125043, -0.21256589486706984, -0.2914971760751043, -0.15336121934851477, -0.12553965671651854, -0.10781152979679481, 0.4586188266641659, 0.14892279031781885, -0.5175302322785281, -0.4917485475862043, -0.36000356875775463, 1.8205983839755784, -0.2256786646377203, -0.20594572062929808, -0.1660074191314712, -0.44993818881903175], [-0.3858817401980661, 0.2634447092025987, 0.2158160595611187, -0.19917342004021887, 0.1286018069039743, 0.2536225194005677, -2.3162373350932386, -0.1402132440249952, -0.017001782773574337, -0.20364605321281268, 0.03696424145171536, 0.1871594774439055, 0.09864554627736774, 0.3963982685033473, -0.19418572961589162, 0.030401908178821116, -0.059980104948537886, 0.10779289767671298, -0.07117810453734011, 0.03179326558302831, 0.07012653203582309, -0.17626959718300897, 0.2386866396641757, -0.02626472977773495, 0.18890008529080293, 0.20208919302301903, 0.05439420396612152, 0.24345186974676167], [-0.33725126839700326, 0.49659638573994036, 0.3250171304352713, -0.3281851180726458, 0.14137289151427704, -2.076426466330044, 0.11181932642757268, -0.3758766521971184, 0.1853814542360246, -0.03318700342997842, -0.11664348844542753, -0.06470891984309236, -0.05261952064279991, 0.49168156583404327, -0.26439626243169806, -0.24631839963405708, -0.27987976056562314, -0.10923089056251158, 0.16379520693805755, -0.15615520720008963, 0.14400308389641905, -0.277026750265927, 0.4744669060103457, -0.18849062907503972, -0.16103693143519301, -0.34259873393204515, -0.09008505964356446, 0.030107085792237677], [-0.46721769830771037, -0.6175122024533148, 0.5109497832253433, -0.5983168655006837, -0.2985167046963713, 0.9992422728327519, 0.7115688496154701, -1.070315054807794, -0.9411619422422297, -1.1857675435724366, 1.1371267980729791, -0.39009602345947153, 1.2941819491095565, -0.6647837619884713, -0.8209441082280635, -0.47154121296333823, -0.39201230897237166, -0.7490010262311919, -0.8095042098945378, -0.3067609359533435, -0.6309838758359471, -0.46560459209191435, -0.5255915334076809, -0.50456378898979, -0.5143438020219593, -0.4854283701853918, -0.6447596214397965, 0.7689809260323128], [1.5792818609431563, -0.2083292583883666, -0.611263115777951, 0.6099140689920152, -0.18158697884922975, 0.5510995399568622, 0.2330416370053291, 0.32845611618595516, 0.3268130676844797, 0.02806294836632454, -0.03113997748990497, 1.4248021214424509, 1.8404168049913816, -0.6344550448491812, -0.5817138600431945, -0.25382838008694664, -0.045335477162417134, -0.21013584806333113, -1.7489755517624574, -0.1512307689118536, 0.6295658223583467, 0.7810604203911732, -0.2948108218848245, -0.2194557884789842, -0.3784136029241493, -0.19118948158322085, -0.30784855758271323, -0.20563177597843646], [-0.1749370465305769, 0.003023461371025023, -0.08430628608535448, 0.15479620084773707, -0.12682946853774069, 0.4696089588750724, -2.1569108202407663, 0.18956472811076913, -0.2322514983879814, -0.20279034919972166, 0.07388774781448701, 0.04631775007834436, 0.13691678877447938, 0.10325560525603278, 0.26833741596734045, 0.2743728215305669, 0.23494678070659675, 0.41246431787694515, -0.4939845878040627, 0.027716888624090802, 0.40185135346898027, 0.24454293460958113, 0.04100427457048654, 0.13266249354013346, 0.19600162235363588, 1.0538001915507345, 0.20811129320853436, 0.6695908015337806], [0.17093390606922698, 0.17642023777211285, 0.020414044512934836, -0.014450327625000661, 0.3301738687759989, 0.15586216636096942, -0.43894890738131376, -0.09549811973382298, -0.23677922316251548, -0.1693289382443081, 0.5786462767374065, 0.3260763080917396, 0.31095988543932984, 0.14696021960398875, -0.13568702700332871, 0.22762090511524505, 0.38916542124265563, 0.3933414352749075, -0.5905304932230993, -1.9306142569740221, -0.08840828528113502, -0.0010084351378090767, 0.11363982677627318, 0.2666898602461428, 0.3600416473943434, 0.052388735931648826, 0.43328288640660195, 0.28376826342962425], [-0.0910817547587417, 0.22263785796747604, 0.025424475482010274, -0.1153096781636665, 0.3255042489979902, 0.3545353187993312, 0.41540708442511887, -0.3277023250843608, -0.3096649734725504, -0.33210686458462885, 0.32137437157637777, 0.23125078757590412, 0.2277924234016671, 0.27350668496516806, -0.16468243128943696, 0.215958971910159, 0.2790483418374794, 0.27849654977575966, -0.032843551551372044, 4.035019246922128, 0.04516400736688306, -0.0887941368141638, 0.32783253534690765, 0.20552611366827866, 0.29705060022151003, 0.3195271662239089, 0.37810455735376725, 0.18576976338592463], [1.5325896192064787, -0.9446692923971175, 0.9743090005913854, -0.881143712460335, 1.2896456945624275, -0.8428866722299101, -1.0238267194001724, -1.0720301609130052, -0.9714025617306499, 0.8426520858867161, 1.2073005026874823, -0.8751674890677014, -0.9699780349347645, -0.9510864118381408, -1.0506237071256233, -0.8330295477307054, 1.1853730662857151, -0.7262468793693788, -1.090817170971644, -0.09369256335972592, -0.7103734703862009, -0.8407170198217341, -0.9095556094268629, -0.7563068755193469, -0.9938186070500964, -0.7386265161227104, 1.1402102935921186, -0.9212833637528478], [-0.3149585443060613, -0.19185945946896957, 0.3700767685281871, -0.28915982136506313, -0.14121992933773014, -0.3754537854599835, 0.38529697115315154, 0.4175448417902743, 0.33919353988392464, 0.4537602748269583, -1.5824898377683745, -0.35875943943318217, 1.3674972450167526, -0.3409152285206001, -0.7125596214168689, 0.03586210327764634, -0.15173187484338058, -0.3422177115222669, 0.4665420832850704, 0.041885865514025046, -0.07160701498366862, -0.2661905777245624, -0.09920563096455391, 1.1512698196224123, -0.30266428487646674, -0.2760904348475342, 0.09084632998915179, -0.10133342907025246], [0.6026007766916612, -0.05877593068829969, -0.5529733377395333, 0.24092925150296002, 0.11452122789220806, -0.3040531659154005, 1.127985509710832, 0.12996699486464122, 0.0982557381164519, 0.00971007814205924, 0.07628534297239346, -0.502084142172993, -0.21355296072558264, 1.206037696628329, -1.0904930101365726, -0.049038423324080996, -0.06688791545027775, -0.21712362898652143, -0.9048225020412344, 1.2968251017001098, 0.28301437818067987, 0.5204911944619183, -0.08157103782131862, -0.3024359149109671, -0.2304728279745097, 0.06450516886630497, -0.09620219395420494, -0.14971199762965753], [-0.8765927624889898, -0.7850787024606604, 0.6683786496223055, -0.8523155728064931, -0.6496720034820327, -0.8057123478304155, -0.8600046592055056, -1.0515808011291787, 0.6664034878190737, 0.6910989647863761, -0.862149562946084, -0.39000362258632304, -0.7994350718118343, -0.6631448030910404, 0.9824880569347276, -0.35769056674754407, -0.5040709524317591, -0.541638872698366, 0.8868763107122724, -0.5726287785077453, 1.064118609588329, -0.6791064944778566, -0.6031250632611926, 1.6168157833025847, -0.5596716381836996, -0.5563695914915957, -0.5683912096212156, -0.5636117575531442], [0.18711218655884243, -0.05257385290813952, -0.15225596997899285, 0.1843316495138786, -0.02529954007637889, -0.38788369678365986, -0.44842983596168984, 0.2072081020398868, 0.35362406746525243, -0.03120955226694575, -0.09328490423023308, 0.08922698422130453, -0.11929571834643585, 0.10503027876311025, 0.1083879712250915, -0.040510470724427185, -0.09248287709012265, -0.0218532837266288, 0.08855109732072519, -1.9966497547105129, -0.09842123253526981, 0.10339430043478673, 0.03618175265496364, -0.1077733472491049, -0.00223963012074781, -0.243100210640436, -0.023939013694834525, -0.05169520417180975], [-0.7643233261413015, 1.673056965608118, 0.8836648004109389, -0.8508596441423595, 0.23621886095979625, -0.22132605385196097, 0.020326103234811627, -1.1723512129188332, 0.9044888091259169, 0.7962948283080573, -0.8380383093625451, -0.8193785646787978, -0.9712407727244414, 1.5980149773462062, -1.109466581738807, -0.7699793210797661, -0.7211274340829658, -0.7884473310217492, 0.9353725906097622, -0.3984933051750898, -0.07291706465564451, -0.8771746845734566, 1.6283495305979723, -0.9652166791031, -0.9239702364940007, -0.951151917899925, -0.7910307995487013, -0.7949175060725051], [-0.9518108894022118, -0.793685030702644, 0.8142258513222934, -0.7747417012031212, 1.0076868156708003, -0.7329716232668506, -0.09318090017450423, -0.7146412191397518, -0.9093179131433566, 0.7215053437728431, -0.8202263193573108, -0.8111359217236572, -0.638929179346666, -0.702639659167903, -0.7511903469425006, -0.7269686073372092, 0.8761175563209358, -0.6973619726182193, -0.7869181360201161, -0.8274183555224891, -0.6812909195816873, -0.8284737191554988, -0.7296369815115679, -0.6731937749103951, -0.6568759382506012, -0.77100619742405, 0.9113477222577954, -0.7565504206921201], [-0.2810902283433864, 0.0466452232465153, 0.27449990548736314, -0.3618617642848545, -0.05171622208073276, -0.4596074634524571, 0.31903123652957094, 0.7289397263099423, 0.14005181635415898, -0.06047083954502999, 0.13244965355579033, -0.0679089766679568, -0.7662518776170909, -0.2617474916779768, 1.3272940946873004, 0.010628140939451941, -0.12632808250932295, 0.24203603593833914, 0.32607971439118005, 0.062251896350798565, -0.28468426194142693, -0.33250433418836894, 0.11224526269807153, 1.58829188375661, -0.124250357987152, -0.1697953508049886, 0.03524964789732327, -0.05604467109908301], [0.15411134962328354, 0.043932880000790056, -0.16067634488331556, 0.17468634841974146, -0.12054416867337604, -0.1460348592974782, -2.0186055026729806, 0.07243229901635193, 0.10303075881643749, 0.15460267120197477, -0.03249480637953475, -0.12684272859463355, -0.008002528460996496, -0.15870166346899892, 0.26153879634026805, -0.03947517096861775, 0.05474659321073559, -0.06626084029864858, -0.11521110795378102, 0.089812050619452, 0.11534315038873988, 0.13817965742374339, -0.02478939103990547, -0.09161749788705609, -0.07262547907982878, -0.1242059362323444, 0.038351349732413165, -0.11714943541622347], [1.0249575259816186, -0.18505252783846368, 1.01632844045722, 1.1127360564784727, -0.31508027692577334, 0.4470567996808903, 0.115681798549995, -1.7244866460396346, 0.40214204651581553, 0.36818756592833474, -0.11718265465018197, -0.24651955849480878, -0.4794780031892556, -0.5784325927364415, 0.8156710563456635, -0.3429214555091218, -0.3395223828704475, -0.06700462613966111, 0.3849673922044695, -0.09157554225793794, 0.3516467079019029, 1.2048796225406408, -0.2670358590189031, -0.5097726241095294, -0.22696986760980944, -0.29795207752310837, -0.3776355583692832, -0.30433764024661447], [-0.7900081743894537, -0.8872274378975389, 0.9088209505770186, -0.8337979532735164, -0.6678366139001514, 0.8720952164690408, 0.03275003505698814, 1.0605316010374306, 0.7266630459721828, -1.3382461739284683, -0.6851085666812086, 1.47557439713488, 1.3242988424985973, -0.8546500405596347, -1.0492965449657143, -0.6403935127863876, -0.6581048652449357, -0.7774930006090134, 0.9660482999165285, -0.17510445920433487, -0.7052320028528298, -0.6610875998877781, -0.8161355033980875, -0.7646999778382108, 1.5501800266339465, -0.8268109308685925, -0.7378923232397125, -0.9612886632080151], [0.13006103322576204, 0.058654607515236205, -0.174259497873535, 0.28536196283406673, 2.9081712358357548, 0.17988221759787293, 0.005626903172773657, 0.0991514529616886, 0.03278942359807866, -0.13178916767491844, 0.06914581585075412, 0.18122663026996227, 0.04893766140617489, 0.04366916217156497, 0.11081339913258538, 0.14802197606423873, -0.03639918321294764, 0.18946878539257833, -0.0821673405839857, 0.07962512886828887, 0.14058147474854515, 0.16068600280826495, 0.09055408509042794, 0.1880775048244106, 0.1395564363894778, 0.0757935128191546, 0.09852976061156019, 0.04442823905521806], [-0.5624774748168958, -0.5868851750220228, -0.796840270039914, 0.8588673625459307, -0.9044398368184065, 0.7769808194664818, 0.7285302692344978, 0.7612279588719167, 0.6873712304759292, 0.8234319471103481, -0.5239234403263087, 0.954621767297985, 1.1942393728047356, -0.9919228510187182, -0.6223872926795874, -0.7430489317902261, -0.5993552449642325, -0.6362842195082814, 0.12539813993416318, -0.5726800231080519, 0.6105026551855257, 0.8637182251624916, -0.6290016811059418, -0.5835128727566465, -0.5415558292817767, -0.721551814153826, -0.7018418206757718, -0.45666534544052734], [-0.9777706139018452, -0.8546230242130787, 0.9044834099145097, -0.8482198715657893, -0.6219727607059378, 1.1658192578174467, -0.20872033421232566, 1.0993671209182596, 0.8920445641222525, 0.9875806945302055, -0.3906162463218685, -0.6764082198703474, -0.9656275537336578, -0.7597100856892113, 1.0046332784323162, -0.8927054725791829, -0.8692704385335439, -0.6740441740776345, -1.3003461966762047, -0.8674055875980187, -0.821399497880914, -0.8314942707628249, -0.8540459082330352, -0.7545226214750614, -0.6760077258481894, 1.607303083581534, -0.6652234993334236, -0.611486935447043], [0.11616898675293862, 0.9336966753536927, 0.12830061339951992, 0.3864050591200493, -0.1909744972231764, -0.5249688827609543, 0.01515072888988169, 0.11321723593925292, -0.35222894217494005, -0.07175668754658389, 0.5177424461075207, 0.20906885864203417, 0.03920446178465419, -0.10386738206546861, -0.060875965317541504, 0.42712128562208984, 0.2512151943195038, 0.2849303701014655, -0.018120456733687687, 0.05251881329775397, 0.09103529302987108, -0.07153283775188725, -0.24042843273852021, 0.08688997308108665, 0.07956353786801128, 0.358091559286043, 0.06385598265130644, 0.23926995932442177], [0.5510949650728638, -0.4038239518103305, -0.6101315913580451, 0.8287467073418168, -0.1982439070634303, -0.4330891092721523, 0.02714397884335923, 0.5513015393818219, 0.32556931882223417, 0.47060963067493117, -0.40879711642231437, -0.36473397495657917, -0.5821869249382109, -0.3521590446667717, 0.7370249073350671, -0.334297358025994, -0.2323347374524479, -0.32203213273964537, 1.725762302784916, -0.0022727451980748426, 0.25781101709359855, 0.5421310703826504, -0.45021605250282454, -0.3845309881763396, -0.2971013577172907, -0.2984540679723999, -0.3194096658055139, -0.24474652791539908], [0.5725294212075325, -0.23723042022463078, -0.6713721447261225, 0.6853226374580123, -0.3131705558015989, -0.33926928837012743, -0.06523953815744744, 0.4124043901980195, 0.2016021967926108, 0.22200375830502747, -0.2319711248823322, -0.44962996439309283, -0.3648634834074966, -0.4034325855426535, 0.35069968079459435, -0.1397056763709393, -0.2255149264619212, -0.28114242827807084, -0.06474056655428488, 0.16513401042089576, -2.3906507192270134, 0.7758782071724594, -0.3353957480218228, -0.28127745503566, -0.4262286704753634, -0.18399214812099232, -0.14414549847230076, -0.16380779469813603], [-0.3523093069849425, -0.40224196526936923, 0.5256858458218437, -0.3662030077302296, -0.563373674354052, 0.41607805140595383, 0.5145543920924762, -0.7446184282879332, -0.5896344092072934, -0.5865355803390674, -0.4056568866562089, -0.420386525993701, -0.5817006293870173, -0.5744867662980829, -0.7906876754069089, -0.4751818956015698, -0.42619555454084496, 2.21155259309481, -0.4424002340337102, -0.4142249162021289, 0.6542825496805775, -0.31740561029691483, -0.48088282405247745, -0.540462890610289, -0.40206853117013436, -0.3150833365354805, -0.31786198284150385, 0.6409559366158439], [0.7685306438107421, -0.27113412818813404, -0.8981399528169106, 0.7427121009496759, -0.2987410744167737, 1.3618319217086583, 0.4661463178039817, 0.5161086026081596, 0.23610971724764804, 0.40608743659103097, -0.2757094896585782, -0.7264243889703896, -0.4114863510665255, -0.7112245958426855, 0.9218641008287062, -0.10011662385145453, -0.07454678375740666, -0.1491776769859728, 0.1779203126248744, -0.29242866861544553, 0.4520426169300609, 0.576226012153064, -0.3402904393331459, -0.4253604890242745, -0.11497690835255153, -0.159512137242671, -0.29311764982000427, -0.14040561277993935], [-0.006428214445728286, 0.15262266658302384, -0.09254305502640073, 0.08980070205949323, 0.08732213444209082, 0.026830735544835442, -0.19599373570346013, -0.11134513913490224, -0.12935414126696326, -0.1784473096290101, -0.04851062786362713, 0.04781967717906363, 0.03265775057548088, 0.06728946412895856, -0.0901048868021363, 0.019081718812357186, 0.2122282613673596, 0.2652916271150727, -0.054928240900989245, 0.23520709589745797, 2.5983776765554847, -0.12730890694262606, 0.1996300635088609, 0.1920470936331025, 0.13146930884712332, 0.13881720294125305, 0.10842990289443874, 0.09309829867836658], [0.34766150204007135, -0.32800770008652996, 0.05770715678740258, -0.3173423475962904, 0.5471681408296155, -0.2542044376037433, -0.1713187034481528, -0.5498414364980773, -0.7918445672910068, -0.05335392590238143, 1.2522311023189672, -0.02616908221860866, 0.19637399563251437, -0.22209873224988858, -0.18321632431672744, 0.016740586528093883, 0.43016766345697793, 0.08325386826323014, -0.2631718628540875, 0.7436598628419474, -0.32964784066651664, -0.1739077071779828, -0.26482666181165043, -0.016432056971347926, -0.23645025058272764, -0.29290525063603473, 0.5820261619038636, 0.21222945493138232], [2.062467415937259, -0.3510044692333404, 0.3742857424987225, -0.35839757392278376, 0.7229771922999414, -0.26529760860532475, -0.3935225152710574, -0.6167918262156861, -0.6364881405040959, 0.25668231609075537, -1.37926509724643, -0.20270860585852052, -0.3239294316529901, -0.3842531405763655, -0.4998134395475596, -0.21071817774383805, 0.8653569252506604, -0.20181255647948845, -0.44369251631535384, 0.0017094015253926462, -0.20930805258244492, -0.2824315449995671, -0.17220253854941303, -0.27477772940623785, -0.18881317267125822, -0.34170244992234783, 1.0228206073006445, -0.20197002869959094], [0.033614880240865126, -0.0014419060685164783, 0.12223606918792154, -0.11046734356580563, -0.1565271330895936, 0.31724933873184813, 0.024068467389150215, 0.23246424864217774, 0.133384961201545, -0.07928636137376133, 0.2195296736788967, 0.019239363853731442, -0.00040042650808837926, -0.213074945660408, 0.2887293785525564, 0.3059053092797795, -0.03499447464390522, 0.37643148262727655, 2.2897989486716215, 0.17092667184861385, -0.12287164716035444, 0.03826940089095827, -0.009375606516738615, -0.055335883216102645, 0.12625568256200861, 1.772075795784581, 0.24420090456459317, 0.14403723252442963], [-0.4903941311586408, 0.1080661880553186, 0.3396322741927689, -0.23241523749134663, -0.4373762575548027, -1.6715107637174802, 0.7857817859844313, -0.5143049383128363, -0.8985390343162393, -2.0033637619131492, -0.5781324950681472, -0.4089693173942423, 1.538615265383983, -0.06510268518251022, -0.18767518262601213, -0.35102749391767846, -0.34157487157042976, -0.2069439407331865, -0.6167435951468989, -0.09452928900699094, -0.34648091807243026, -0.2932343043046936, -0.33980974280116294, -0.36677296414982974, -0.2623639645636144, -0.34968626919648277, -0.3304605290710856, 0.9261801354576032], [-0.16822642904291046, -0.4175447660410164, 0.5989389187503653, -0.533790941357405, -0.5166923731063408, 1.013042461607996, 0.3378243327854107, -0.43021158340406035, -0.8545851272469067, -1.531662880461702, -0.2883599170983274, -0.4799336915568033, -0.7128757084083841, -0.021247268609345327, -0.6966787516752093, -0.2786142980673054, 2.749417225533739, -0.10318520495496203, -0.5223957063240047, -0.0857703334530052, -0.34244225997073857, -0.26270799951964047, -0.3135724941388721, -0.3115158624287042, -0.44011138589753884, -0.30094918281217076, -0.6747589134887048, 1.5759158292670845], [-0.6145018380811542, -0.7151016056036037, 0.6455678882988567, -0.5402707320641256, -0.6527099283802289, -0.6884622245931743, 0.8346048992418692, 0.8147776496219369, 0.7239968271878361, 0.610857211577858, -0.7297187851356872, -0.6936514100825735, -0.6439632249230507, -0.6821945895067041, 0.8788280870505929, -0.6708022657910576, -0.5667616293101182, -0.7189517783749511, 0.6788088655874635, -0.5681573210671349, -0.7868592487708306, -0.7801967764254927, -0.6536423455986158, 0.9229376463178273, -0.6833425227333743, -0.8664057906296487, -0.8142288625496393, -0.6796156181542403], [-0.31891883388053066, -0.23106737370881883, 0.6400578181652682, -0.17880437527962065, -0.2323276961203096, 0.7050700632976618, 0.3821415902173807, -0.3385301207912722, -0.8476917890028858, -1.2269127121155983, -0.794825510426672, -0.4784469216291128, -0.5733540180322416, -0.5472727185012528, 0.038727044929165164, -0.1873683957086672, -0.10257085346179702, 3.2245645737159214, -0.8132339713959521, -0.22482216554052845, 2.14749887410867, -0.24077509844559114, -0.15006319372942567, -0.30214447652606163, -0.23318916239381313, -0.16170120514600342, -0.20397131940313076, 1.0409505894421591], [-0.13115523050156055, 0.331515830321712, 0.3807741957388256, 0.164898766586736, -0.22246982130015105, 0.8129298217731548, 0.02196182978648094, -0.6004893271652392, -0.4684096994981556, -0.5360202907774272, 1.4406365266667158, -0.12268384504167873, 1.1548553039429272, 0.18602637773916098, -0.09573850536142113, 0.3143690248640291, -0.31452038223291023, 0.1763815035448297, -0.6584748809800233, 0.3870182054797383, -0.06885861043918035, 0.06252683454271046, 0.22389494573972432, 0.052790742397655695, 0.13003732230123072, -0.03858398757054695, 0.00705695218777909, 0.8212022345885289], [1.3852760277473977, -0.948534306979643, -1.3203642751295068, 1.2545780536630387, -0.7788278229561212, -0.8783946438348874, 0.0573470069608868, 0.8982290685212979, 0.9749363210049238, 0.8410171966078972, -0.8331371862197235, -0.832587213229443, -0.9434207995601924, -1.1385256189037778, 1.3440739465350295, -0.8525350913203864, -0.9124727862427426, -0.776940923223937, -0.046142427551138544, -0.27663430258479316, 0.45231771358538925, 1.1639725790115103, -0.8496450919287396, -0.9514312391052114, -0.7703002410721921, -0.8661495047663551, -0.9426413689911949, -0.869335566786087], [0.8750624891865583, -0.21227263179195244, -0.8734587263345162, 0.8634322649443597, 0.08503595764247929, 0.8581826195942631, 0.3352014452467939, 0.40718541530589314, 0.3181741000999953, 0.2392744108548822, -0.15604499190856963, 1.9700755577716103, -0.8254009716343617, 1.8340896714276778, -0.7876143186148492, -0.04628071583171942, -0.33466896107664246, 0.05149143458506828, 0.6752539881396592, -0.09686744484301965, 0.525040712003537, 0.8168905383243945, -0.26843571972486113, -0.22218577090525368, -0.23814877530996004, -0.30550455809347776, -0.37003097699551596, -0.23137745225520417], [0.9797943618332502, -0.7736881141585161, -1.0638641468543428, 1.1611347966863215, -0.2418344909623557, -0.8191000033434785, -0.9026708251229854, 0.6714065327245066, 0.5776972811039237, 0.5770463433949095, -0.6678079816021949, -0.6133778512877384, -0.8004462931329586, 1.3835321958089397, -1.0193326751573146, -0.6655392382144799, -0.7163824044112872, -0.5703645380713951, 0.6734005795589634, -0.5895795186792908, -0.2629132643492592, 0.9882128519167926, -0.5803327497028994, -0.7935852101502785, -0.6500817747233163, -0.5043409066281858, -0.7050629976386666, -0.7217476621129926], [-0.3237058687681509, -0.4067458463723415, 0.4059061102766227, -0.5179551023703127, -0.40875546037880367, 0.5578732839786494, 0.8360784268009396, 0.46002405096277144, 0.3302911199929898, -0.6531765294031647, -0.1621558636901082, 0.6706412214457796, 0.5416378242473755, -0.48233349624441574, -0.49903669117064897, -0.27292898273140664, -0.2594580370222052, -0.39208485821615996, 0.37495185012831556, -0.6868933643380201, 0.6768884216963684, -0.4779008197872431, -0.47769960310143367, -0.45721326080834207, 0.7112303946387866, -0.277874421944778, -0.422147332274882, -0.4036496414568802], [-0.05936919793818334, -0.10285297371454617, 0.06506588134012276, -0.18728739669126723, 0.7082255989860281, -0.282296371267139, 2.0485870572540987, -0.39431640563578657, -0.4520963055234333, 0.19472530415334477, -0.028560119083084996, 0.01724722537329736, -0.03438503411479614, -0.1536410267337091, -0.08782183096183875, -0.010911834094058263, 0.7750067484206917, 0.02413418529609116, -0.45954306037435577, -0.06452626798038873, 0.06916090191941078, -0.05924296371024749, 0.00924053232559954, -0.15433120676157247, -0.017764271363881406, -0.14725994622965857, 1.0852836229028362, -0.29500808627736197], [0.016917798575996824, 0.3011134801362345, 0.3931701020027676, 0.2519616333630205, 0.26132093396306716, -0.2406206024404996, -0.24927997273481378, -0.04534608304402125, -0.10591253784646429, 0.041976713665038884, 3.337204944652709, 0.3141137690252918, -0.053418456916945564, 0.17516961565963615, 0.0145272454012249, 0.2947294974128159, 0.1780657782938597, 0.13970242069591976, -0.06722503498073536, 0.13548244501483336, 0.20642671350061204, 0.281658593664615, 0.3648793722602311, 0.05826512049362477, 0.41105867318216127, 0.11474502350544209, 0.22049313943370766, -0.009230581649535571], [-0.055347436764941214, 0.2993278816401798, -0.11066053599122923, -0.11072157898305883, 0.016808278146113236, 0.04595305787531114, 0.04424684600449398, 0.002527710865850024, 0.16791519732611204, -0.0006279145610976972, -0.11888688568398091, 0.12525654185564347, -0.12727448043305414, 0.38796131264308764, -0.07075854121085817, 0.010495593792274887, -0.07925160333217776, -0.04137260251803461, 0.19620737090041712, -0.09236095610641801, -2.060233280322407, -0.060701488617972484, 0.2196105483612352, -0.07242739055507298, 0.06408616006681096, 0.019928127395492976, -0.09399415761352004, -0.12566064814512332], [0.17484747220159197, 0.11558442969957423, -0.16383764651895685, 0.14556888993909245, 0.21651730770753336, -0.2563177108496982, 2.564712178434839, -0.036999338110435216, -0.14991210605367705, -0.034690437195770626, -0.038901699919073676, 0.23929291045373727, -0.022679309227474055, 0.08391270942648064, -0.04796678256624254, 0.11233036984532158, 0.05107652166074926, 0.1771913591563987, -0.004832838726618235, 0.21076246935071707, -0.07355691055351755, 0.04124076286187241, 0.0808402544662271, -0.005121848870207274, 0.10204587795631635, 0.1002243677828888, 0.1209051699125037, 0.0845607434269424], [0.10857285794588188, 0.07170239235600444, 0.032127489901890925, 0.056048059043168154, -0.015993455762911505, -0.005712709758413108, -0.11128714513140144, -0.02755883690266012, -0.1630932965634622, -0.08903663848917885, -0.07081283520359606, -0.09256085003443992, -0.007439205317344958, 0.015251357468574835, 0.07090138630699282, 3.5277345609191113, -0.11082472903584559, 0.08223978493006935, -0.15387773536836286, -0.021670214627431118, -0.048709954396451795, -0.010469155138780023, 0.018891345681618342, -0.0519539770966834, -0.11371315943999648, -0.008696201130423692, 0.005728188006746961, 0.19844907170560844], [0.9313641834385309, -0.5532000580412262, 0.6295116096765592, 0.9397972424950295, -0.7445919604143707, 0.8276704688785577, 0.7568050266697854, -1.007156129397128, 0.49473399533672613, 0.8272950005512295, -0.736972938887929, -0.7743572153499898, -0.7668956157796283, -0.684483329048188, 0.9462062039412197, -0.5108766606697482, -0.7351176743111743, -0.5566138240578832, 0.943725456198365, -0.5224591725850193, 0.793575481012473, 0.9844370636157819, -0.4970492975179089, -0.7938879470925622, -0.6962379399372544, -0.6255745879883498, -0.701133756587025, -0.6771065423326902], [0.0169651608812504, 0.09230693835578248, -0.0056981882427105815, -0.514156626545647, 0.02149311674914619, 0.523855647501667, 0.18182005709756802, -0.6215114889551242, -1.108917208064043, -1.3933716472346933, 0.020971868575870703, -0.2749714339132371, 0.13471112219444573, 0.15400670494742255, 2.9288042003301973, 0.08723099911352869, -0.3816796245852843, 0.1693873614099391, -0.4133316847268758, -0.0386518490133596, -0.254420482112982, -0.2653897812115258, 0.13714231224551485, -0.314202260299067, 0.16679537615231538, -0.13735675062667124, 0.32808830208154616, 1.391776697177547], [-1.6341672136064584, -0.23984104087116093, -1.1146391928108184, 1.2421534779098145, -0.2399124454587022, 0.6036104341725279, 0.28945775354873554, 0.6046482832481651, 0.3548398658254763, 0.4330632776430455, -0.16048145506933262, 1.130036915404096, 1.0264095781642797, -0.2971558279040702, -0.5635542756927694, -0.30478515288446123, -0.23041827542684085, -0.11112941013662975, 0.909563399957567, 0.11275230045101942, 0.5533366606313095, 1.1974550983748349, -0.12689701507565837, -0.29854973047701344, -0.34683078714409, -0.2306138429609344, -0.17975004724871094, -0.4498618594944994], [-0.8893192296123776, -0.9494487486641814, 0.8221346700424811, -0.9106474197891418, -0.8742468045917017, 0.9734739735120888, 0.9133885266892705, -1.1028411279133614, -1.077859632055076, -1.27220061781197, -0.6249313389825886, -1.0306106560267936, -0.7352516480531917, -0.8226954338512372, 0.24251518983686818, -0.7387567381055252, -0.5903924749198919, -0.7590185365467241, -1.0998971270293738, -0.8351386184218523, -0.7986429362576284, -0.8027933070566161, -0.6677856808208182, -0.6674459427384011, -0.8503078006103111, -0.7533421646458303, -0.8228712967864085, 1.4670146543261462], [-0.8994829582025564, -0.7332812824814507, 0.9781049043465138, -0.9975857817274325, -0.8664315711886906, -0.9045652043482656, 0.8245127424531615, 1.0844640496716405, 0.965023023800375, 0.9734813351206789, 1.1180259759803397, -0.7720325145282079, 1.1615083298296836, -0.907890949635659, -1.0384853815323611, -0.6629030082828608, -0.7095564440977571, -0.926962389945749, 0.9304083528537429, -0.6935068027986825, -0.8789509949340826, -0.7753732706022911, -0.6748479425040795, 1.3200787016705158, -0.7620140984219512, -0.6687714047883887, -0.7456876120977449, -0.9248999560529806], [-0.08765609168153418, -0.1378612114340103, -0.6239741216576858, 0.2273531142230593, 0.07781975203991119, -1.034217404541841, 0.07072305480022813, -0.5299145273302471, -0.6836702967950553, 0.36720721757631475, 0.5086826323829411, 0.2813913836588355, 0.05178231945328338, -0.15825006218406235, -0.1797081959083688, 0.013103207975931964, -0.1573406405458631, 1.2158456574305143, 0.8707214933223528, 0.3974951570776703, -0.17571706565076328, -0.08510079452460263, -0.0932594740862035, -0.1604111971675504, -0.18133777839119256, 0.10407449396761964, -0.08220351797454456, 1.0964024224238238], [-0.18736444875205435, -0.374943249414765, 0.4707105059459876, -0.44948002011850263, 0.00733808005816811, 0.3642443773393836, 0.33322646045545806, 0.6996501145355898, 0.3343530216366215, -0.9155216376735246, 1.9026971683051415, 0.9318126710586494, 0.7444422017833825, -0.48540536406992135, -0.2536738785078163, -0.1305361551995225, -0.21442135313119634, -0.2141727055825024, 0.4040314915596182, -0.2299624259444217, 1.3626355188825803, -0.4915282577753242, -0.07991456069919732, -0.4795901820787222, 1.2763206936055733, -0.09850904456972018, -0.27045822789294166, -0.2698999865540426], [-0.01965042611471901, 0.45510596565803996, 0.14532393782632086, -0.024763168106505806, -2.496535198726121, -0.10924927953492519, -0.38696368411410903, -0.3375085767879801, 0.1725616161080498, 0.0383900213378124, -0.027669245616658338, 0.019438751562936292, -0.16722494368504265, 0.5919783034142545, -0.4144087067055005, -0.08635617208778822, 0.013696789780807715, 0.0403971623835596, 0.10385501981224009, 0.023348914348169703, -0.25737446102278344, 0.03859058940455584, 0.30161962623328575, -0.10615677592854955, 0.044510533470410646, 0.017132761005228026, 0.06533678312997407, -0.26202112732145433], [-0.6320587402596245, -0.6724567151842743, 0.9141036108688169, -0.5978860538334705, -0.7256499989751143, -0.8468596045739927, -0.8907107395432872, -0.8973840060417105, -1.226603271849808, 0.7737468711866043, -0.7919147975553685, -0.6839836224742372, 1.3774150601012238, -0.6667618406269319, -0.9225137567572488, -0.5184790683484048, -0.60261289928787, -0.7575761715347646, -1.148781171441693, -0.7098635517583531, -0.7339557699076071, -0.6691761054416145, -0.4960566945561621, -0.6852365349373842, -0.3812663883613578, -0.7442102604539166, -0.7037731406804028, 1.4935700148848725], [0.9751040760304229, -0.6047583550256026, -0.7820283890352367, 0.6128069349780847, -0.5267085779377769, 0.837134971589259, 0.3377609748926266, 0.5024101343062979, 0.4327926718259315, 0.5306360750376606, -0.5280899581758651, 1.0089090131803018, 0.04168329523312929, 0.10882310852923291, -0.7730007311647827, -0.766971028016415, -0.670220885050477, -0.6152256820849531, -0.15757570844782717, -0.41858757682284714, 0.7983999476458888, 0.6360349337606214, -0.598639111378282, -0.5055554148396638, -0.517243957942265, -0.5908955689792306, -0.5626242420587083, -0.6497625969746748]], "hidden_bias1": [-1.2904351544209676, -1.3749165036107336, -3.6346111844037545, -4.51757473486593, -4.130516729895036, -3.054089855878996, -3.4511566989588887, -3.831511823681635, -1.27071223461398, -2.9767424136798133, -1.2800425294729463, -1.767476854126336, -3.719416468298777, -2.690569130615432, -1.5215658949843178, -0.9959168137863913, -1.1998665662995618, -5.600096260165424, -2.708308045318522, -2.076354907987649, -4.403372531234332, -1.2825471211135042, -4.1303271117978095, -4.630653544017833, -1.6233725430489894, -1.217985072911952, -2.9909350451025016, -4.600817478783945, -0.8631189973200544, -4.212405057198988, -5.2020966455346365, -0.5555764232066523, -2.836251583322225, -3.0234044336585915, -2.8256523313096533, -2.5592098968538215, -0.8355668188510541, -0.9234372198289853, -2.7485857647908403, -1.9697248100230276, -3.3166346531562327, -3.099116374257687, -4.544942447227629, -3.2507690548999557, -1.957902250113687, -4.512630106719538, -3.037750340387036, -3.9142279575330092, -3.155542069321362, -2.2900400559006835, -0.7723658204935976, -1.2854601038141764, -0.760077822636289, -0.6852832740434456, -4.331764506996043, -2.5622140700502842, -3.236386443493334, -5.0357815143022515, -5.56145867544069, -2.0125071172900255, -2.8310336024442377, -1.6279776723766437, -4.534149311881618, -3.20637104217506], "hidden_weights2": [[-0.010580779401913999, -0.522327735778621, -0.3389872091603155, -0.3371721234630645, -0.5378505407673333, 0.26376578573713544, -0.4635592531801252, -0.3164195218674348, -0.18317125861900135, -0.2936648737483599, -0.3932014824080942, -0.16254652436977757, -0.45203852744115974, -0.11912588272102788, -0.04956523939543946, -0.1317942602751887, -0.21450669436230135, -0.6320796149919624, 1.1235158736203572, -0.2500733935720972, -0.4887323200608987, 0.20878800897709826, -0.6140816729154012, -0.705240695621979, 0.13578432790351563, -0.29272313130209304, 0.026842688773505145, -0.4876914334978686, -0.20370021091372495, -0.07709469325712204, -0.4129611240319528, -0.00789762751912135, -0.4606804861100621, -0.2568651527880241, -0.08950026220025308, -0.19276805099864083, -0.4561693684565906, -0.10020686414989996, -0.5447785174153311, 0.3198514417199018, -0.03857695376466439, -0.35401459078277103, 0.010335548137429958, -0.2744992745363653, -0.0013367667483414926, -0.4916599693270798, 0.07529467077505526, -0.7257553750015653, -0.08706832074064659, 0.12009339682607734, -0.277464999231473, 0.3099035833693454, -0.04634824334159274, -0.20841336459551804, -0.1595235398469349, -0.23577070684770005, -0.023351358926460605, -0.36230838586693476, -1.4481922868197847, -0.36793236413797537, -0.3116434556657456, 0.37021415342760217, -0.6636312696445662, -0.16410032946952086], [-0.7591513272906869, 0.09197178687599772, -0.5161043216088735, 0.21918611511055272, -0.39102855655053564, -0.6742637647721773, -0.010861948743140495, 0.12549238277172084, -0.062215565197012594, -0.0968416968627007, -0.15127744368445833, 0.046220445375906444, 0.03266171919336683, 0.24157743550905317, -0.2118118573707945, -0.028697069707851318, 1.1900180464322854, -1.446598887906006, -0.24695141351398334, -0.6030582490242004, -0.12450002269535063, -0.26970315463607314, -0.18717251446796074, -0.4783847474659, -0.010012446591769359, -0.15553033455692175, -0.015670425515268552, -0.01883418966773628, 0.1935650171001531, -0.1763842493428671, -0.32525635936964004, -0.047694153645685404, -0.12456851684327395, -0.906542411283609, -0.12486288015928879, -0.3500605075827861, 0.2378359447709093, -0.44375216576380677, -0.4505524923715636, 0.0022998388685950472, 0.04265862753825627, -0.042531898788945297, 0.18234613414240003, -0.2752460030750661, -0.04476478332232462, -0.6946373760732066, 0.0001486866842216948, -1.054884226103491, 0.4212088923176422, 0.321944699936701, -0.1508883758533621, -0.16099573647501253, 1.1748179454175804, 0.13983485745550922, -0.2924275349792844, -0.09515692087868118, 0.10299477596776657, -0.4764498740821245, -0.5965833112756144, 0.07342448955554408, -0.29093374245912934, -0.016793332585246856, -0.42703307324474166, -0.09207258341717173], [-0.5176953320237149, -0.3239078725562142, -0.5426972943284445, -0.12279315696176724, -0.6406926753254731, -0.5092075252998834, -0.3772822975531856, -0.6005679806790332, -0.20629899323744086, -0.05895064821197673, 0.13423721785129417, 1.035193935836578, -0.602348386908077, -0.7488640589431597, -0.2923690489731211, -0.17087843101700967, -0.20609810321392746, -0.4417137789955383, 0.41117116576485785, 0.0007800833638390459, -0.1501737216810106, -0.058937753189739844, -0.24204272327064502, -0.4543166482349672, 0.031488955062468384, -0.12702510612767914, 0.1695895764615057, -0.39368079174493154, -0.07453878350925176, -0.2761759495176904, -0.5864406178559614, 0.2254322185841182, 0.9722228780088358, -0.005281420879845885, -0.3520368878857368, 0.021036901211348914, 0.027519948940787305, 0.1005830417034739, -0.04835541997558166, 0.2898850841904088, -0.208587062780629, -0.40502389797863625, 0.07499808519620098, 0.058472269065645795, -0.3773292085828869, -0.3654736411512573, 0.31379103214732706, -0.03999471628392495, -0.1277496234495136, 0.18342905200564516, -0.5045045970662534, 0.06631070577306093, -0.017348648337995126, -0.03462210386785521, 0.24617077122835643, 0.000336152132447014, 0.2770544085776066, -0.5135518144814565, 0.06888008057021708, 0.20845772355778638, -0.2757307743067407, -0.04028652201526965, -0.6575060389284237, 0.06445284974456206], [0.15058353805011193, 0.2371941451177897, 0.11627818475144207, -0.6234541795938863, -0.6645362298861698, -0.32243504207230855, 0.1832142257844968, -0.511652603058441, 0.4026041269898127, -0.4054653178244373, -0.437326766154381, 0.031933525319183025, 0.18491105823976411, 0.18234073609801457, -0.43358912510432046, 0.22039429573039707, -0.11784843580516229, 0.05258773557934343, 0.06795612623142673, 0.24312452365230353, -0.7911451871555534, -0.08774135714757549, -0.1312928273194873, 0.2768511918765355, -0.4062419235999109, -0.632042620881774, 0.03813682434064986, -0.4056286968211492, -0.34964505091311293, 0.09064785751807916, -0.49448093546727867, 0.09825061128891957, -0.4868600889023047, -0.6465808683164336, 0.16507017492841136, -0.23397240635444136, 0.11600194603940195, 0.14846116745866786, 0.130061732267815, -0.32905804643661557, 0.2806034684112597, 0.46573065642219036, -0.4493721427466068, -0.19672893939326458, 0.3995910011438771, -0.3509861342409496, 0.05917589880228296, -0.20798659069766895, -0.2712754661944231, 0.3070038852987415, 0.004243541599748628, -0.35529735715872623, 0.25116602263104737, 0.45219346180207065, -0.45608227181734595, -0.43939757554752074, 0.2261330430072574, -0.1685417892347647, -0.41952372550644745, -0.13836983681912185, -0.21183677516087532, 0.3624795554510482, 0.0646834308292697, 0.037530311116379014], [-0.5574537573386862, 0.17348935089000725, -0.7678145076803058, 0.15486931399514567, 0.44872010035533566, -0.2547842971735389, -0.3916826606773544, -0.3604989411071226, -0.07465524920845555, 0.43000285954951906, 0.49835782677392587, -0.06994492900307822, -0.14635738781522753, 0.02884655831279112, -0.009289613307490691, -0.25593356869637907, 0.8175266948179161, 0.008048233196586518, -0.11309085137680694, -0.09322051982626754, 0.3594726384932597, -0.8843806273593776, -0.18770776420876345, -0.07183897960308606, -0.21690294005454494, 0.21159575866328237, 0.10653569297438197, 0.07731641366400395, 0.7429262667987594, -0.17630093931446664, -0.7856028400084725, -0.1839789135536317, 0.02740973842134283, -1.526492799887964e-05, -0.37196998058858805, -0.4546909196933985, -0.2106216674448188, -0.32989434030102843, 0.14757564906918125, -0.01903576613894041, 0.0251995632848814, -0.41250677413952513, -0.5921257254908074, 0.08796336466863107, 0.22556834382789387, -0.28724920590948166, -0.13484478916148931, -0.35524715438880794, -0.4449142723348737, -0.3489967544813383, -0.2214411971191246, 0.24316365917173746, -0.8295126694255749, -0.2097584098942919, -0.18411334857052217, 0.12985984689832014, -0.09683147912337979, -0.6133823666750926, -0.5962372738598471, 0.09301954395365025, -0.13509400487045028, -0.6541845698381067, 0.15165545995417992, -0.30543030020093825], [-0.49393393393978413, 0.19024241342899492, -0.5974605246360638, -0.0441350537760491, -0.042049765720502175, -0.33619241038069275, -0.4267617689783868, -0.32964234988794405, 0.1169508580897347, 0.1008464216182069, 0.33358326198833993, -0.08583814774130984, 0.2488765597605847, -0.18746723539448779, 0.1731539469776207, -0.04985980455186708, -0.06802740689870274, -0.25375453573289464, 0.400724917652175, -0.14030097498646557, -0.7093497852815563, -0.09115662259965224, 0.013059779393981424, -0.41644065955578574, -0.5717018038409339, -0.22744310992831573, -0.25740234321685723, -0.03962107620196787, -0.05592979112856864, 0.0283333171936435, -0.21633490422060447, -0.019320383846951315, -0.1715899166335804, -0.3465066945212723, -0.3253524740557565, -0.6744887255296105, 0.07176907733229991, -0.04132669101150765, -0.16872740609204695, 0.05391521227374162, -0.15366218191088207, -0.30960439150732516, -0.8638953905270883, -0.14910506948271116, 0.29672353932339135, -1.4597689771826354, 0.2937420329455682, 0.3593315406889414, -0.13434371006010876, -0.04645730643317317, -0.16043301768020563, 0.17967911520404284, -0.19041192145879884, -0.11174980190668066, -0.4893648090228057, -0.0386875083419223, 0.3628591211199853, -0.6171622447554818, 0.281149913946997, 0.0874006812027503, -0.3532521859325111, 0.1062559039873438, 0.25398806714817235, 0.09445591599442701], [0.057957626327373626, -0.010018553247469912, -0.33935119899084126, 0.26497546229239866, 0.30212849593996083, 0.14735174808159357, 0.04315315871059929, 0.29082429127679255, 0.20376496376686193, -0.2669929815194601, 0.1650172586773004, 0.18126167947565666, 0.13672638474516155, -0.40415610049989076, 0.1383097555441662, 0.08204036780448298, 0.12778409013305558, 0.32257115240327655, 0.19337182115428792, -0.14675782537034568, 0.059586903744086296, -0.07419526131121519, 0.31416580269062927, 0.3741119007973764, -0.01915128978702036, 0.016398213376744106, 0.18136442545377324, 0.08286344125245672, 0.09919355653897524, -0.20322679445567562, 0.3069148551702108, -0.0814554449555726, -0.31906141779867153, -0.23699414259909493, 0.094972561638325, -0.3385239048835391, -0.027001304153512515, -0.08712730707517574, 0.19382880097667454, 0.10265197640234086, 0.17390823807782993, -0.34969738989677746, 0.2638744634221795, -0.14570846909403518, -0.012037050957241136, -0.31870812352459715, -0.24228825614056554, -0.300710105002884, 0.4292402770576722, 0.008288932154798805, 0.0923955208060426, 0.13227861005717742, 0.0821733208331094, 0.23884124659884534, -0.17670287890751327, -0.2478687090753809, -0.005427673518131624, 0.19260247123124083, 0.35424051916192706, -0.0896062908504332, 0.2287968546299217, 0.028853136490326302, 0.22568554024755733, -0.11200209262164673], [0.052567813112609864, 0.09596410575869287, -0.47463066499456397, 0.26699973913410646, -0.44681114564012114, -0.11791344832858042, -0.09702229696618622, -0.031745624625814324, -0.07045138708399729, 0.17152762057567256, 0.3007430500138429, -0.10413921668345782, 0.07676312706961474, -0.060958102059753556, 0.19209267938267094, -0.12215625985086652, -0.14902039315545593, -0.3722997779627235, -0.003015205742360921, 0.23724475974648784, 0.24328223596787774, -0.2215249906463313, -1.3150052939344372, 0.2051015575351222, -0.142256833379864, 0.009833061254288466, 0.17325223614358234, -0.40733751711246746, 0.9957199711093807, -0.11520663248246621, -0.013686523447964394, -0.08670854090418996, -0.1956094783494605, 0.1418707991244778, 0.158073014653156, -0.10612650261265981, -0.6555136831557512, -0.047479260754685976, -0.15618055903235262, -0.3321195587159199, -0.14588269460837933, 0.05570684166628701, -0.5694122199080981, -0.023517338239875254, -0.08441170241506765, -0.2456870723808759, -0.11656883913908116, 0.15016266165814726, 0.06981572616586279, 0.09291491177985385, -0.28543665508278065, 0.11723595366850816, -0.4687554767135792, 0.05856314687309789, 0.04574999643574101, -0.049520392969991375, -0.05376853547434818, -0.4094649418370372, -0.1674076099466729, 0.30170942669356354, -0.3659453445924683, 0.18001157318302025, -0.307082377751104, -0.031577038718956646], [-0.6297432186675751, -0.8312283813013015, -0.7290448607425694, 0.02614486168481999, -1.453957838596498, -0.34586495655057325, -0.49667971247517795, -0.32206396246216557, -0.23255394717640138, -0.2430355451559478, -0.5204954916809443, 0.17279899360517273, 0.12919792487427215, -0.6242811468223809, -0.3610130373381612, 0.21018431181819086, -1.0881924278220927, -0.287390257496206, 0.2292377951635934, -0.3081478607571994, -0.7194693095329063, -0.050904869901470286, -0.3255759475716264, 0.006949391844908084, 0.06645845976540657, -0.45338320402498505, -0.5587612514668405, -0.8099568620582223, -0.008466260781103522, -0.48491505519124783, -0.6775682538820923, 0.19239731152438816, 0.1454925190285976, 0.09592519331324054, -0.0248397210104157, -0.04193885144529222, -0.9817710027542241, 0.2514880374590935, -0.5271737583784021, 0.27747787881476227, 0.37972017978862393, -0.5395438819331052, 0.10511854211481299, -0.3167370068109744, 0.519774744926597, -0.062384395276468954, 0.07955940288625796, 0.3176239842398805, -0.5872430350452529, 0.38208829345153944, 0.6846530882482998, 0.07851055101199099, 0.044426027375506015, 0.02614740410129295, 0.24680909345701754, -0.3951097000119664, -0.3027086157795853, -0.5335618192569468, 0.24321120568717722, 0.05102024923482807, -0.6477556288026879, -0.2093449602018587, -0.2827740843369044, -0.7779895814034091], [0.03419836954490473, -0.1276020452804953, -0.2163092459043798, 0.06321512778737752, -0.4883986525848044, -0.05180570888849878, -0.621662337365727, -0.16538733759987032, 0.04548610513828902, -0.065961392414329, 0.06868041514356016, 0.09363744444569172, 0.5941465994049596, -0.2298059308704086, -0.28903616512521346, 0.47797817245945146, -0.03500886353226618, -0.7540105969194607, -0.3160157676389971, 0.16763308250122472, -0.41156322786390565, 0.4476343813848141, -0.21956537721541636, -0.16741337693953165, -0.01971355272241367, -0.29985737627480347, -0.4268749606917126, -0.4146756554616121, -0.03639868296085508, -0.14512469892819013, -0.17576356133145365, -0.09861473932481685, -0.051297016787551886, -0.1003033867207738, -0.10644936004171136, -0.08141359937728364, -0.14099251101177976, -0.12810573072479578, -0.5687458372402884, -0.2962038475144857, -0.46940099013822456, 0.09999149376753737, -0.5089738863175463, -0.15805971399322558, 0.349421252674857, -0.22993037702030347, -0.04595872230195643, -0.19063211037123312, -0.3138163542306028, 0.06451014507336972, 0.9711321198341325, -0.18373487221001328, -0.04041688949007641, -0.15395136068709123, -0.1221693558823468, 0.12226258644568967, 0.03762563951010959, -0.3325334431737054, -1.294081058725417, -0.24427429566624187, 0.3478520227005927, -0.05362084718605259, -0.4235085145130933, -0.1683388474213505], [0.03452730687140226, -0.3327092681922209, -0.4439582412404944, 0.009745926590784094, -0.029851286793043566, 0.18163378091798996, -0.07556609381828033, 0.25450387282749404, -0.0358650123391061, -0.15914713886711207, -0.3642186870333205, -0.35965078770366676, -0.12331822106017934, -0.09834038890189463, 0.16001123048871665, -0.19268786856300166, -0.06505944124715991, -0.25515202282603466, 0.005678003134146712, -0.16812668383981708, 0.020630888015645492, -0.13919288370453528, -1.253681929466247, 0.002463111634290898, 0.07462994604897927, -0.22749461519750358, -0.09989417848257959, -0.3343280965283532, -0.42086436226024737, -0.30288681686068153, -0.03535627336582546, 0.1396296911699119, -0.34077367397265906, -0.39942901307672235, 0.13908106351680866, -0.4307883041195855, 1.108687489895819, -0.24411117031751772, -0.05366368362734936, -0.1441332040164781, -0.19042969069867288, -0.17687961635580668, -0.31044321689683324, 0.31815075161001694, 0.3450045558867682, -0.5693254625134196, -0.2505248326263826, 0.21093859800757342, -0.21414371793671352, -0.09145917115902347, -0.10339351336416945, -0.1319130695842798, -0.3568369402621528, -0.041629999062734964, -0.42505495840250535, 0.2280271724646368, 0.11034423038642235, -0.26641888845444095, -0.06773703116746402, -0.35989524642113097, -0.2885053570200096, -0.5125971168042562, -0.15957309392815108, -0.5403504460839619], [-0.15637212189141866, 0.9724248838051203, -0.44720232153057426, -0.34903980320572137, 0.1753072050777148, -0.4941209947384997, -0.9000449974286501, -0.6425256590391374, 0.25585498704606535, 0.5122651214906353, -0.141482853420857, -0.7517949540780806, -0.298762149016123, -0.17994068438755104, -0.08065505755286599, 0.05064625624537536, 0.24581756724277476, -0.4451946340525498, -0.10109400186053696, 0.5008113661599247, -0.5855145285123919, -0.18514611742661263, -0.8120288754912574, -0.4420188654337285, 0.07664494660488187, -0.7635252670546865, -0.3067460709674385, -0.6865723640130794, -0.38176042828692225, -0.9343257347424826, -0.18897791350074272, -0.011531716789740694, -0.2780518803970813, -0.3725822772222496, 0.3224980870299158, 0.6667657011543234, 0.31534024476937283, -0.22941095285678487, -0.059887032477990106, 0.0515171292533949, -0.3041837834855494, -0.3552420503259418, -0.5972020713974362, 0.5062602905362168, -0.2685407824879683, -0.3871031057308368, 0.11092984472804981, -0.24144023170262618, -0.07198023648655605, -0.24530689082881763, 0.3146909520211012, -0.9223236942243043, 0.2229745594271529, 0.23368135552272778, -0.8490698737383268, -0.4710135503781731, -0.061989644525722275, -0.8109896134063297, -0.5280959377691059, -0.434986339484895, 0.16964215114737188, 0.3947114828843605, -0.46379684498564716, -0.15047529194222872], [0.07670741150678696, -0.04415016807887836, -0.23660540982967074, -0.11942915836436685, -0.021209668651443372, -0.06084394411392776, 0.2830720305965988, -0.25786043694504496, -0.11972656745332362, 0.07573766797988406, 0.07214416809905735, -0.01280544689934664, 0.06007214734922561, -0.12153054444035546, 0.051040525248308634, -0.08413363700746018, 0.2743144582313931, -1.1760900197118571, -0.25227521867206765, 0.3356250727797744, -0.4904168289471827, -0.11542724184731529, -0.32396783088057696, -0.012140363078613612, 0.017240446592754557, -0.0912976665034978, -0.30150115596033217, -0.05496565602093216, -0.18094498177970864, -0.2542267258303033, -0.7378353114637979, 0.22887475289739043, -0.18345880743325987, 0.7973598606059519, -0.8782330278812804, -0.14927437358499812, -0.8732711739714089, -0.32490029520995045, 0.21324988142375947, -0.0547894846158862, -0.051555247794688584, 0.16282338125072618, -0.00683333436818922, -0.7338872320982065, -0.25830476440941214, -0.4747219384853739, -0.07517665197651816, -0.02970532213958229, -0.5385031898528311, -0.007064333718789331, -0.3275502152221622, 1.3717295313313103, -0.12725211285968813, 0.45698886653402954, -0.16286329326835605, 0.09002593628384982, 0.02992628411349493, 0.11792741178067633, -0.0669437582124734, -0.10120964391962554, -0.4548534926170558, 0.1072301817275108, 0.12124190124389728, -0.3741712535125218], [0.1328630159332975, -0.0015344192337617365, -0.1571055173259464, 0.5692273443799756, 0.1068857280364413, -0.5670972106483264, -0.31811294303942617, -0.3633075940273061, -0.3092052309113273, 0.05636841450014428, -0.21389068525396568, -0.054524231942459395, -0.5289687559812785, -0.02672089380357054, 0.07789571018298001, -0.12469622869255845, 0.1564096081920465, -0.2825611974985735, -0.46023041857821634, -0.4002081904224677, -0.08270107951224802, 0.16053333608410808, -0.48817363729372415, -0.3083549341071436, -0.14069233740574716, 0.2644721921865565, -0.49100476805415083, -0.21201130091843792, -0.39322637152146495, -0.07094394617565877, -0.3802959550212459, 0.24222048217936393, 0.275229430841309, 0.013188396711861266, 0.22171034825113084, 0.2845580712713053, 0.22308928089347552, -0.01671672332254464, 0.11362753964767633, 0.15869634707676564, 0.1273397826005961, -0.5397162580124407, -0.35734008377537024, -0.050202673819619396, 0.1145816492277099, 0.21228532229827868, -0.21628567925012399, -0.15791107445920963, -0.33462414109517075, 0.08571173713352297, 1.1633542307565539, 0.1132042442277427, 0.29287175916407576, 0.1830961897826092, -0.8548672554496802, 0.0762925529623956, -0.06860218838450081, -0.6357429155241378, -0.012691316707619778, 0.3400428155580127, 0.0719008560716564, -0.10864380827069477, -0.6189876045312819, -0.03905209755615561], [0.4954792081108629, -0.5375925198866915, 0.22826098111609208, -0.2820356277842052, -0.04987892239128821, -0.3023531905736039, -0.5793018292327632, -0.34012681788180404, 0.020771592131363495, 0.09595225655082597, -0.42441586217397625, -0.19111852349686886, -0.21988470930376694, -0.1379165141194611, 0.012674780519350023, -0.033704383589762674, 1.1061600987860876, -0.37779997274789495, -0.29046823245761133, 0.09820513812201928, -0.0696160576650225, -0.5230206560003928, -1.5574626814489023, -0.03762578162641138, 0.14947884196980613, -0.02612542138514821, -0.23865211350061805, -0.19108075198734528, -0.4204647168558405, -0.5606383496466005, -0.5243173018431303, 0.03780635835885039, -0.020201669590050705, 0.19418348231863916, -0.457882236213589, -0.09255601004158596, 0.07542417782926156, 0.2332253722094841, -0.014978197587596226, -0.1254954223198626, -0.16683904167613636, -0.3766762376155558, 0.18062818944646586, -0.13285248024654928, -0.047498305451555596, -0.16121441592415253, -0.28491231314567533, 0.051070272902795644, -0.2625808082077199, 0.8668948074581843, -0.031702655424917854, -0.8017974070454902, 0.8670838518078106, 0.015790546339593762, -0.502871366401827, -0.005311847898628018, -0.17707043144969126, -0.8787705914001084, -0.040343764313458916, -0.1302031526343733, 0.028228815006933673, 0.14641660826893735, -0.2785611243573084, -0.3810123201994398], [0.25346719610523055, 0.1373876800430573, 0.08169879345720604, -0.18315762654051138, -0.4570376965703252, -0.32261460771530426, 0.4729916179587086, 0.2413812050010817, -0.08966738904931178, -0.31252901966135005, -0.1725796233203977, -0.3708813286639964, -0.7265381993949807, 0.17386844301676416, -0.21942429285769016, -0.3620779455193459, -0.4575995406452723, -0.22232978160582093, -0.004904157314794007, -0.09701203527086903, 0.05064702458308233, 0.22689498224615723, 0.08138650958138621, -0.24903514890658865, -0.08322448637484844, -0.19429595544362666, -0.15607543721503878, 0.3503338138315284, 0.037992692607372584, 0.1729188967064254, 0.09878869748606318, -0.2039377955002196, 0.06897534729065014, -0.4074215876436804, 0.0412683204208422, -0.012881729888887637, -0.11093837858355292, -0.07811797947329902, -0.1690012611190983, 0.017648509120686603, -0.23204057113954268, 0.09630112575949056, 0.37318569594345874, -0.0743849186579877, -0.3123665131931, -0.21160710321144016, 0.19165251749366044, 0.16088155391333342, 0.03791824799474379, 0.2058582251760026, -0.6713244308055338, 0.09735341187983163, -0.07636799738477844, 0.057401593554366526, 0.1449285480332654, 0.045706735457935764, -0.02922696682852092, 0.23596103791497336, 0.22136066578141647, -0.12162524721707597, -0.4023121926935412, 0.09404601979528722, -0.04748706969687818, 0.594906929024971], [-0.015086770367576883, -0.2109412047299048, -0.05516827368301122, -0.47724803401917376, -0.005452046032432573, -0.9919726177535414, -0.32806591842025923, 0.03705312947595159, -0.09133907201730171, -0.18993428227520304, -0.9833942815115502, -0.33046500512869786, -0.3216126984698233, -0.09736847348246531, -0.1812158864048208, 0.2558509850188793, -0.27182728400257583, -0.7728113426117695, 0.026338674377262047, 0.013168585307005971, -0.537684010783932, 0.1934415730885808, -0.1792623354792966, -1.3984542968803322, -0.28157733409900537, -0.7284181028843262, -0.057684687002270606, -0.2570804245636444, -0.289323471415333, 0.1402520531351652, -0.2523883142289938, -0.14008642455560524, -0.06265557941653706, -0.0339220922767378, -0.39801214861012396, -0.20526679063499104, -0.020307977993808974, -0.3334012759724961, -0.13314207187812985, 0.24821194609708536, -0.1915895843503278, -0.6815519727857959, -0.2911736412552567, -0.363036658701931, 0.18241022698589526, -0.10422502834523606, -0.03050472812784792, -0.14450468619067627, 0.1865506093286168, -0.3035127804446922, 0.03974559454343514, -0.14954374318965674, 1.2751380126372147, -0.14343065122267584, -0.10611875775668482, -0.3779957887299003, 0.022142480965191096, -1.007003690235249, 0.13787508204592747, 0.1011765610299574, 0.05803168963726124, 0.0091600257080643, -0.6202315422994735, -0.201940775251854], [-0.03894888464575821, 0.09909010725513265, -0.23002229060603557, 0.04068722077946182, -0.2936071575939155, -0.1920792800843108, -0.2086785084795395, -0.22619196555109236, -0.23717084761878326, -0.0698634200641287, 0.08802408285599146, -0.2607348678720961, -0.07713982394183261, 0.2007607349360573, -0.16866853994438252, 1.177920153350809, -0.4831550272064574, -0.05048702485906104, -0.10322799587473873, -0.4748797063729544, -0.48196487884074635, 1.1566284022408047, -0.6680925942096544, 0.10218978667603994, -0.19839005119531317, -0.29738907179595286, -0.17370120733617853, -0.09065758799936532, -0.25603860223678565, -1.1256789249090813, -0.1886309720530815, 0.09219537934379653, -0.24052213133265965, 0.13160410879971926, -0.0001626352632095537, -0.32604819621589876, -0.3479713770617931, -0.10030732978104524, -0.16036644228929614, -0.12738778751735688, -0.5559931680948909, 0.0624124033490051, -0.1751768744322925, -0.10230268822064102, -0.2813099516524101, 0.0012765713768185475, 0.5955535957895395, -0.43120812013999404, 0.013264755827601749, 0.1623175044731047, 0.14115204105872228, -0.13145367951600553, -0.22011299529626807, 0.11304812524752177, -0.178485668832101, -0.44001118724188726, -0.666668422505523, -0.26697254383838576, -0.6686709375789711, -0.07617816352076287, -0.2075534908636933, -0.10911669738498266, -0.32083684300133436, 0.30300853183702736], [0.19701620241177445, -0.22582031605323147, -0.24673571219083437, -0.13489157493147177, -0.05183849274017739, -0.10540698444484958, -0.003850583814649322, 0.32770711537466707, -0.213482084121785, -0.3339897919614303, 0.166829503293301, -0.39556525834433753, -0.15660374805524008, 0.11928165884369737, 0.22303220906088267, 0.07911237966224187, -0.3656000700870947, -0.10293429555428725, -0.21862228274407744, -0.12197193152054407, 0.10127809902093236, 0.0186637979690556, -0.4035286679618656, 0.4345238492117385, 0.1772168086288377, -0.0959695747417475, -0.11938033755141154, -0.41118871581929933, -0.07131152098115354, -0.24824886154629783, 0.48174313484429204, -0.010702325008123185, -0.2738760734416176, -0.20404549240937386, -0.6277928489777547, 0.210590525419934, -0.6800653665738069, -0.42472871238378174, 0.3188988827444419, 0.10589193813892571, -0.4230735266963188, 0.16358068503464746, -0.1532885937251615, 0.1323731010774706, -0.19153168580542976, 0.05369278708847373, -0.07747806215195174, -0.2750098211848521, -0.35892723412012667, 0.20432921786030714, -0.11061311742786184, -0.06754380976535784, 0.08942051839194917, -0.31984010378339234, -0.4509979377275192, 0.2603734443456514, -0.03442429101824865, 0.13018294323633461, -0.660446484263834, -0.34681098014229045, -0.0652225084369623, -0.06728055329370287, -0.48669006145494725, -0.2956275330028244], [-0.2574057713219454, -0.4736562327959799, -0.19964502836426945, -0.0010458181059846946, -0.46788129000241024, 0.08892701800356377, -0.22360625597791278, -0.05317329927028279, 0.08788292897923639, -0.18783886937980954, -0.4412241180096254, -0.13510819117047002, -0.3634334456491953, -0.192716656208002, 0.16222123108820113, -0.25030636501544057, 1.7194227297227445, -0.9201121922194381, -0.40177801875804614, 0.0865421089271314, 0.022889907509096905, -0.30133528287595446, -0.6000919805240986, -0.7054041286723871, 0.1257601160184755, -0.406586328720947, 0.9577849235935331, -0.3704200868386301, -0.22136097306784877, -0.24621796701495732, -0.2560071679736096, -0.138923564073245, -0.684589575860261, -0.3755729373165027, -0.4097609857347252, -1.0419077909613934, -0.346680184435252, -0.06650661403793828, -0.15555798655373365, -0.11890795746751495, -0.5726730463906942, -0.35507382596510645, -0.20773314692258643, 0.1601206021270826, -0.06624131000569022, -0.9399886959021053, -0.15893555858311215, -0.35017619951437357, -0.14775759216428022, -0.0007774494839479983, -0.2590690259688663, -0.5190371453712503, -0.41090413546816346, 0.29670786819575745, 0.5366934496415909, 0.15255322489482812, -0.4327012409312264, -0.8461053351563599, -0.25413251618290245, 0.13951064712475153, -0.09321129749358577, 0.013490408168198437, 0.03387431268106221, -0.569732105188941], [0.02682519647913414, -0.16171516657489082, -0.2754662674840268, -0.6528840338899156, -0.32020839102603066, -0.8198498999752708, -1.6037318407130006, -0.11834558377314539, 0.1941904955965099, -0.2531289359799823, 0.03011180747907004, -0.1909218387870104, 0.2566918958139372, -0.14885364300483708, 0.08042606076622795, 0.08784055415128172, -0.5421847166047975, -0.6657523982544257, 0.2590107078337469, 0.05685494202107338, 0.1493954046547744, -0.2519851739128084, -0.3466739644780597, -0.5269331086073675, 0.10001464163673095, -0.004642553690139816, 0.35499685790804947, -0.44948102121089933, -0.3459950660243829, -0.31088342342722664, 0.0943118335729285, 0.04921329683829781, -0.11730194181941522, -0.35640521607352876, -0.29867124003961426, -0.12782289977566588, -0.4149751734418137, 0.07178458979506579, -0.1872621365775114, 0.12596691843706673, 0.2813646318218152, 0.2634173933579305, -0.9112275033625407, -0.3797041378180564, -0.47015152954562367, -0.7220207995512983, -0.32671972169217744, -0.5215411003977909, -0.34683154231247865, -0.286296194755629, -0.2500025714047325, -0.20338744462231503, -0.18168481593631838, -0.28610775164022617, -0.1707437860124906, 0.2663357879808891, -0.21264935845562852, -0.017047554523593703, -0.28766402606586533, -0.09695349502261172, 0.16245658797974236, -0.09951155203560935, 0.12973960533364914, -0.47247294067787304], [0.2488224907116251, 0.11730177105886279, 0.1313873695773071, -0.03576992372070134, -0.8036478323653622, -0.5947972609423777, -0.011673286440748717, -0.6824732399941846, -0.2930797947089562, -0.04699254206800707, 0.16875235708093286, -0.5180247245102098, 0.295880430168289, -0.3026636173710613, 0.27864950475520894, -0.11367471276796134, -0.8127471924827641, -0.03843930793016237, -0.5331967933805, 0.05146788979968023, -0.3361316512290255, 0.0611517655842635, -0.16449790034244582, -0.6211069717480904, -0.12782503047248356, 0.0040993949965121585, 0.047757769303135446, -0.8762116771430543, -0.03550648396967311, -1.2683478731058189, -0.20916019215340972, -0.145909761222109, 0.09923666383395618, -0.12910780642828004, 0.046510310880772225, 0.05419517362900191, -0.10599186178113112, 0.06393997355051055, 0.4268327904985413, -0.1397116340589255, -0.4807820637231944, -0.5755585549832958, -0.6295419184719035, 0.07369174268070997, 0.43562409787789985, -0.05269226125557323, 0.6067339641659732, -0.008015073381569433, -0.6435682283496963, -0.22574333851384978, 0.19618656577375032, 0.11699972662915678, -0.32890413094194054, -0.1399310128655464, 0.1691207711911765, 0.481092678160635, -0.47785142944238695, 0.3200225710843096, -1.1737756925325096, -0.15516889008706236, -0.19010756255477945, -0.5196927648977487, 0.1424944321169104, -0.1655255184869657], [-0.1682374635128439, 0.3531338419444966, -0.14455540483550292, -0.05098420816397159, -0.38104821105068964, 0.4335481890949145, 0.299607672326219, 0.1700162206125037, 0.11443260871406402, -0.343990923626342, 0.15039126253050267, -0.1682565281534717, -0.6283225623285105, -0.23610424808546845, -0.2594816560236537, -0.18027989903392552, -0.378655212925236, -1.417559965394847, -0.2695704908923714, -0.011283859012165564, -0.11224680555263013, -0.10551484780002425, 0.2713626090304801, 0.31786782536162755, -0.2565364448636246, 0.00457460835549252, 0.28502448154563553, -0.60260095375497, 0.3412084441623536, -0.4329216972008313, -0.26119505378504987, -0.20936142028097732, -0.41441297479107986, -0.5254776438068224, 0.375532491680089, 0.05650982874111383, 0.32661276307260206, 0.06986348713911832, -0.284279859812903, -0.2520760235477422, -0.4630518187457091, 0.04424788501403045, -0.1616678494491858, 0.3070395070947674, -0.09625297253782153, -0.7518560853745592, -0.24291088947850967, -0.4222031087949288, -0.403968282063609, 0.4026479151175288, -0.49812270435722145, 0.06175433083161493, 0.2478414870301192, 0.4472580975518914, -0.05728466399732292, -0.4773509392005603, 0.07628518900776182, -0.10364505191894968, -0.5421657668864126, -0.1925866959809934, -0.32531353102316685, 0.2133129976210012, -0.7464695354884773, -0.6790676008987439], [-0.21366507753558953, -0.6403820658308419, 0.26251811852665025, 0.5876922284155083, 0.5101853819575848, -0.41684135436781744, -0.030571137922348293, -0.5172244507335844, 0.3702632427873036, 0.23953831357794247, 0.16623435500500458, 0.1917153669647367, 0.1790634625052439, -0.20288776186876203, -0.5164101369454038, 0.016764454857254533, 0.01717776544492499, -0.9777704950597503, -0.08068466910354984, 0.45540790626669897, 0.028979727501216218, -0.14654826639548377, -0.08051379798243055, -0.8098104383341408, -0.2652933486684817, -0.4138129780777603, 0.04158916792075033, -1.2444038011598515, 0.11669339683740984, -0.19568575445679168, -0.7883285288943216, -0.01737959914853286, -0.534231241514994, -0.5530860387492694, 0.21211956881926422, -0.14736899400930908, 0.1535134533275099, -0.4208344918500352, -0.10614024418471889, -0.12004652260007767, 0.14177943081676844, -0.09223119092779028, -0.3086420800097661, 0.25933005019231165, -0.06307031265380282, -0.8791314497369522, 0.0402500088578149, 0.4047198938606407, -0.3369711717140495, -0.17082892999558785, 0.37071485201594434, -0.004520178994751885, 0.021700515244128627, -0.06832629317874492, -0.28964285108904836, -0.07021605084620758, -0.019200945717273096, -0.017709777531272976, 0.05648724596042618, 0.02608794396609704, -0.3050104381977621, -0.03975988192191004, -0.5084450275701514, -0.14257871429281357], [0.21307623742585527, -0.8829495416074322, 0.32252641132864024, -0.07506090981983525, -0.07099336598500633, 0.15643780657842207, -0.2867015936906233, -0.014892331328005217, -0.29013711358682476, -0.0847032745172729, 0.06149621697186054, 0.2519461494046796, -0.415849350590909, 0.0002782757120541299, -0.06484881398777732, 0.013752803386578381, 0.49566050315336924, 0.2404532267868496, -0.2059576029980235, 0.08345966349586252, -0.2153271383648521, 0.12634352776108712, 0.21782342896938375, 0.41271911055960575, -0.10865527502353957, 0.32590337833039174, -0.08273523841221356, -0.5630804663186342, 0.2661837697501447, -0.09695547988228004, -0.28145839283561475, 0.05651678658953139, 0.1606647289107459, 0.10545217091343301, -0.18235339648950255, -0.43685204733912425, -0.006888988355020281, 0.002709024839561806, 0.0053101889857961855, -0.15316337121286805, -0.30003081405187393, 0.04072549256588539, -0.055321967430212275, -0.1250405341914444, -0.01333670869534342, 0.28015446843761926, -0.1275881064906519, 0.33967298929112133, 0.1662376883527311, 0.050351820224249264, -0.010613280911938017, 0.055162790915144845, 0.1077511186790574, -0.01588164745206014, -0.4426970814811597, -0.19947776768407702, -0.11126155191434138, -0.25827654458548366, -0.20698154057638726, 0.028646151957274962, 0.03491449958128215, 0.07202426650067725, -0.14262333110690362, -0.08260101590833491], [-0.2296323813846073, 0.29620353318952836, -0.06165636584528028, -0.2527768302339165, 0.009869069838894056, -0.15241630163187053, -0.10497565722711158, -0.445658516378359, -0.06585379606234103, 0.10597172627782908, 0.22823943640668024, 0.1565292450630617, 0.26717153242441977, -0.2686635474782215, -0.17411027988414954, -0.019875224854387304, 0.08864463621506592, -0.12886424066676921, 0.008473200503014897, -0.019601189604848607, 0.21267075081739287, 0.02991223259913398, 0.3020836767457892, -0.5425704348871868, 0.18217652356412206, 0.01584183260050515, 0.2282187583467136, 0.37120122458765764, 0.16614861957436675, 0.027855158744023722, -0.7119290584587786, 0.008085821405957034, -0.13424402388666318, -0.16663439791103274, -0.09174694573562787, -0.1391276827527724, 0.047440058203212426, -0.07968537722191177, -0.17944094063454294, 0.10782819765469727, -0.08751962890347052, 0.08933604807637685, 0.255632376874341, -0.036218560887056654, -0.07921937418646018, -0.2524890497338128, -0.04449241794576989, -0.08307559704291363, 0.3045590046168661, -0.016639787010471658, -0.1933234541008586, 0.02385851377220249, 0.07539617294717335, -0.11043135335095422, 0.2083089018553456, 0.3725545801076211, -0.4046522407419383, 0.2960865038062194, 0.16755863490609962, -0.08468612958690937, -0.3045014274866936, 0.06287615461523874, -0.543157234572416, -0.004967493972644592], [1.5788699546745244, -0.09102117498799045, -0.0174985771269537, -0.36375921301743747, -0.04195492520930998, -0.505886407861657, -0.017050358271498645, -0.7712685358252188, -0.21845318221353613, -0.2629610825710965, 0.04427655545624087, -0.2650633793836512, -0.12245195473614981, 0.14149733840879872, 0.28447122337180764, 0.2506256655662588, -0.21569062583143428, -0.782964159738064, -0.18967848525596154, 0.026498472982375235, -0.6562952090285353, -0.027581919329929403, -0.20059441543210152, -0.22038771260674697, 0.03964249068510957, 0.0519657503125032, -0.07481537323897927, -0.08468121033810509, -0.5835103689438221, -0.19720829593816752, 0.08945765098622978, -0.09949179816225122, -0.6584941807181257, -0.1702579580921826, 0.3169501257806976, 0.028709657139579063, -0.1599762240604105, -0.077935688152867, -0.01997435779409691, -0.2976828496216824, -0.3274962712219791, -0.6857651866916693, -0.4118267160917326, 0.5160455326780653, 0.14894815895388555, -0.40624718857912656, -0.036416300871339305, -0.3533262741795953, -0.3273412577055788, -0.0024000923637570583, -0.44577662186122197, -0.19774994432613674, -0.0027038512242770416, 0.4110274594694808, -0.3675874839491784, 0.2858107146579596, -0.3824327034142701, -0.15575468205232906, -0.33965429593177987, -0.37676390877786636, -0.01637200895822024, -0.20396263462986883, -0.397174714919652, -0.21003926427784056], [0.004732028340446695, -0.017680767441354397, -0.2018495122250594, 0.31703854520638886, -0.028880644867123263, 0.17805572113754403, -1.3004820894167677, 0.15068380742407037, -0.642159939876341, -0.24226138576951783, -0.5151696556060624, -0.03397189539781638, -0.11207514071838885, 0.3054152904089079, -0.23364652382890028, 0.1102698571968772, -0.7685693645853802, -0.24277674080346534, -0.18173371312374295, -0.027569504461415862, 0.4373487246619168, -0.1510322146857719, -0.14883989863720556, 0.32225211652233804, 0.031135593369913152, -0.5466459326846826, -0.1471051126866656, -0.2678260495981749, -0.4441331466964051, 0.29260347374915424, -0.07557455192888675, -0.07421764112582983, -0.1915150841807697, -0.46190222539773623, 0.27407113990158527, 0.36332684646987146, 0.3798439967276028, -0.222449044615858, -0.33078481265363413, -0.07921071008346546, -0.3272792528354883, 0.09097855212252673, 0.08004727148587742, 0.27009952826764, -0.36963151231072183, -0.2753247050491964, 0.05312468784684231, -0.7893404817315425, 0.04307350255254591, -0.12082170416565037, -0.29684670238360666, -0.45061660558538613, 0.22942121957032238, -0.30755272850182663, 0.06470624819898399, 0.18035250182573867, 0.19835531382708746, 0.3025256798762597, -0.7476428202294702, -0.064533534272822, -0.11082164730854029, 0.11028301226403012, -0.12764872754110562, -0.15090877966708693], [-0.23306671589797937, 0.24094151414643342, -0.232557074027231, -0.1252448388025401, -0.23023842626129176, -0.25297360803110036, -0.3460454871465066, 0.12418839689291672, 0.015576354281238661, 0.035098461453751256, -0.05486452392251468, -0.3606830849627907, -0.38350234162219754, -0.5585155388374432, 0.16035405159566804, -0.039248749605826014, -0.013256054032049481, -0.37366994530993297, -0.05700920945521726, -0.4683191663721919, -0.48680902283401845, -0.02537479142060453, -0.1568794387670529, -0.502384283040616, -0.2638379544046055, 0.18093500458367862, -0.5499923326295734, 0.17278486138200366, 0.05462113147910532, 0.05753858650819665, 0.29324968361628845, -0.0034528244668625744, 0.1648758638298723, 0.2541976378287607, -0.33127340160133195, 0.3515679649339293, 0.3166537477895434, -0.23301682536493565, -0.24763404668231218, 0.4166472206511825, -0.10099951616732983, -0.4527443013435451, -0.811280848946763, -0.027172845799729485, -0.10576291317038883, -0.07812286373102044, -0.20545927890955235, 0.3979878426933121, 0.3154282432377209, -0.3275385220651694, 0.04648659256366334, -0.03812763155495707, -0.10272859507606028, 0.016850906542803447, 0.2729477392292658, 0.11774392328759814, 0.2949778461680039, -0.5678099293177091, -0.61202166713692, -0.14016438677881893, -0.10780619866525694, -0.08101363105497021, -0.5998241516861584, -0.06458451879689843], [-0.10785498155797199, -0.0664011629285568, -0.03298726275543432, -0.1568000202215197, 0.22545886218659697, 0.23491613394230354, -0.3531876385681698, 0.013187423752203591, 0.040600813198826774, 0.20009831333736458, -0.24289209347755386, -0.25601824406296086, 0.13848396463727006, -0.275133978250862, 0.13667491191854558, 0.03887736270139848, -0.739388792291502, -1.059034774287399, -0.2908339141420891, -0.39264267483644055, -0.1308805352411574, -0.026169077716407224, -0.411780434912122, -1.3228411646684022, -0.03418116336227673, -0.24984844296324288, 0.018092883289028628, -0.989965416258265, -0.6158227225031541, -0.6661561961446734, -0.3796722853737132, 0.0033496685711892123, -0.20727240974809188, -0.20033903175922368, -0.16955453881690719, -0.16027892271999564, -0.0484054776689546, 0.06399996648245365, -0.2618078665042936, -0.029482220028596965, -0.12245267846616172, 0.08674110021921941, -0.014983827999860689, -0.3655563265688432, 0.1263086687126179, -0.2651422013106832, -0.08489959328425162, -0.13514349622986074, -0.19688436175612928, -0.2742286228116162, 0.0438158713793788, -0.168405262278001, -0.0307289744461753, 0.03164044349086278, -0.1326815427440801, -0.5433419417536209, -0.03806628962771101, -0.30371113646990683, -0.3433536311523854, -0.29488873356047884, -0.5249261536291193, 1.4915174790066144, -0.43126289498262776, -0.25971487934228976], [0.191006391906738, 1.3010941030691165, -0.36341355452774005, -0.3585077393171733, 0.13448786835330168, -0.19011771861678392, -0.09491580542887176, -0.2845027584319366, 0.17394204482577913, 0.07813025493463382, 0.011702647962620038, -0.44012806345325184, 0.24960640639711354, 0.6315428211668875, 0.12107004894900825, 0.242104308280673, 0.7571810760160171, -0.07907225416030338, -0.19995442184899057, 0.36896909765161445, -0.26343911783771706, -0.06048789770431784, -0.2546296309425233, -0.36688462033384833, -0.12970827409744007, -0.28466336871641673, 0.08715727576952173, -0.13469919984751413, -0.18668526703572166, -0.42295984645469936, -0.0023059360520556182, -0.3236007454140593, -0.9734757452880222, -0.1262186019332055, -0.24869552010368792, -0.3372490722619515, -0.19179234707369455, 0.23358006516121768, -0.6685025788318164, -0.1806222672761539, -0.697813469857315, -0.09296532569459413, -0.5201602412188098, -0.35287706956473225, 0.32147764217185804, -1.3808875221598567, 0.01064693653474423, -0.4682905972443846, -0.2204895108236673, 0.044166060013504246, 0.7209673735394373, 0.060743244431262375, -0.145966254183885, -0.02212151925384657, -0.1523432826372566, 0.04377653792844661, -0.7394028979969663, -0.07627869175455594, -0.224793144304186, -0.3259249865945314, -0.610624082235772, -0.0346163866914566, -0.4153032401887964, 0.04487545955124593], [-0.46410152147817196, -0.09689563827222386, -0.42890474144223334, -0.23793376779681355, -0.012382119012834748, -0.45996360487318505, 0.015528540623651303, -0.3231694476369608, 0.216546831612016, 0.34104718037146387, -0.6954403305480162, -0.3351126843324542, -0.6119799962205787, -0.7563281642838617, -0.42348574399006855, 0.0231292109242746, -0.9116356125020408, -0.920911273094926, -0.17656469096887567, 0.05175217814055477, -0.16918673584053434, -0.2130253148042495, -2.1789813712562207, -0.3029038767660996, 0.029379222804528298, -0.5646962118211155, 0.5940047206056657, -0.1870012342496651, -0.7050823604456513, -0.9807753247881362, -0.3119451864359642, -0.35615889186255567, -0.44789265648865323, -0.23204473083953964, -0.11877520272203011, -0.5972977983523716, 0.0707097918962307, -0.22953963192492668, 0.111042899101115, 0.03302097892941525, 0.03134190897360226, 0.18016789352337925, -0.3198314703657463, 0.11602979458609693, -0.30699362778838807, -0.6423100436119528, 0.2922953854969083, -0.24850317241262976, -0.2189964910423083, 0.09949378270196363, -0.28937688517578697, -0.13941080066899278, 0.2678807045377864, 0.22057878676140952, -0.11366970385635507, -0.55524796473586, 0.04573026607305415, -0.961944002588053, -1.5369280001374173, -0.24106268535136727, -0.6529850822674744, -0.2619504241471491, -0.7519735157643862, -0.3260940781747907], [-0.2843252720282612, 0.027196014627501486, -0.1796539623993401, 0.0612862274011636, -0.14595564577211978, -0.6662118492738136, -0.4514483558244513, -0.9804421805569502, 0.06284188660875921, 0.37585770448334577, -0.19537676841876458, -0.17746586021260216, -0.672423615539721, -0.24973087077681994, -0.14588667111512288, 0.667975093103936, -0.712102552046748, -0.2637670905006767, -0.18838119903735817, -0.2894284159691841, 0.27039601626927195, 1.3456996137972201, -0.19294262995617498, -0.3148596210354968, -0.09304535423968437, -0.4458705874429341, 0.48026610007298065, -0.29242392010747154, -0.19338682893092302, 0.01562798385855119, -0.9312858610298939, -0.11625575603410779, -0.16503758897468043, -0.3195408776175394, -0.6925660809915142, 0.060444680326140365, -0.11006798557955606, -0.34357979483644335, 0.17282624856972179, 0.09200104650831532, -0.5050916332980673, -0.29495397744236257, -0.8618739923000431, -0.2549046602991732, -0.1390607603421504, -0.2216718134989177, -0.520043377408405, -0.23184551700006698, -0.37417943167201545, -0.20709672791070588, 0.3007781362047671, -0.1888238381869807, -0.05403643867794042, 0.30364661699819634, 0.09728158733632118, -0.1880272389282875, 0.002726026167338092, -1.3104988215549063, -0.44481271156550795, -0.289255363475062, -0.49725374082382856, -0.037571642069198524, -0.5730052921858877, -0.1918731771338885], [0.2589788592616216, -0.8455912153037525, -0.29083832531933834, 0.1026600955227405, -0.5417423489888565, -0.7881854437860988, -0.4393523533623288, -0.7927817383364145, -0.2863836733547741, -0.10959693375946603, -0.029086248925298097, 0.4727009505417655, -1.2805940130857856, 0.0005819362393413591, 0.3279860871037637, 0.18757448920517117, -0.8888501854000542, -0.7210798534620795, -0.1178102893215137, -0.5715845556069692, 0.15823318674885073, 0.33171679733266374, -0.4755821258832151, -0.6051019480376773, 0.2619728743103608, -0.20210268211006768, -0.2656942043779489, -0.26797908712776414, -0.45884865619161985, -0.9398902762098944, -0.831359933443099, 0.28797674398778217, -0.24703806999212613, -0.4803925773328467, -0.23068206116777573, 0.04028340339849479, 0.2835404741221657, 0.22047897481944742, -0.5888782125369294, -0.0997451896197826, -0.05321554512981522, -0.34566061816955196, 0.17980097297651362, -0.43866945077255465, -0.10398140477591172, 0.011588017208868037, -0.119796008595243, -0.1304178897861818, -0.04730544745954596, -0.045696377431301616, 0.7370602769245592, -0.7137259462518899, -0.05391262815699244, -0.16278657990645254, -0.7856252804465471, -0.12308058722117322, -0.19668112856724934, -1.011221919482069, -0.13167271401369057, 0.2353099871444785, -0.08292528993582127, 0.17249256231695542, 0.41930425819954964, -0.5789060156766741], [-0.259502497315333, 0.17709108092354664, -0.2899088051681117, 0.03344844659364933, -0.2865819360486212, -0.0937763771542261, -0.029243790093909955, 0.05067455802116685, 0.046643965668163645, -0.09812307954640444, 0.013914333918002765, -0.22286199503066215, -0.2610879955520998, -0.2816291901721651, -0.20285760399608507, 0.17350046828656027, -0.17675176034715062, -0.20418591514417722, -0.20436568023866392, -0.18213459702130472, -0.22696994009457805, -0.33877728266249824, -0.24863668477081471, -0.07966343032012213, 0.025092876824862227, -0.043081873789521004, -0.14478002238908855, -0.07473082947817326, -0.06310452350340974, -0.3439617732192315, -0.19810056586690022, 0.08189159838651014, -0.3592837954280359, -0.1710149480648842, -0.19660662222859226, 0.0586057633510189, -0.09434542978224775, -0.15329030604746305, -0.07803637004703357, -0.03379678720164693, -0.11507741041103385, 0.014587524223702927, -0.23268969241770862, -0.12603303749516842, 0.034262330896996616, -0.05325695647902633, 0.5264942246146855, -0.22446313410245722, -0.28612235779098244, 0.08844173804409587, -0.17094055522075058, -0.17057398820499528, -0.26174605335828366, -0.32093067163775113, -0.10964038312776007, -0.02744447747723707, -0.4259193189306839, -0.17227079709397183, -0.42772740100243334, -0.010438822806288628, -0.22428448753720404, -0.11797159658631096, 0.11487993209593995, 0.21399967259504835], [-0.18698024113397388, -0.5214934319954173, -0.24127635619082677, -0.9179650028972048, -0.48341693259092694, -0.38369370984912127, 0.2947850335024298, -0.5783699742890986, 0.11449623085936496, -0.3177194827825129, 0.14631712896376248, 0.9258462874417407, -0.7495539350996457, -1.5549057594297828, 0.1309057738529219, -0.24044778949176804, -0.8184359354269535, -0.9050716234787668, -0.32017467541721023, -0.05108608803077373, -0.09713829897413673, 0.07353814010205463, -0.46666190016377596, 0.08308253680454941, -0.17578173377638434, 0.17125038098091497, 0.11681828860274868, -0.7671565127076769, -0.13833233330323455, 0.051737812091462186, -0.02931247398678068, 0.17559781029522248, -0.49642158776444384, -0.40582229271490666, -0.2583688739366796, -0.6139187766135143, -0.08011455427655172, -0.2397911196857485, 0.12458288473408961, -0.05271971150125304, 0.3961607411558963, -0.8677328888169735, -0.35372712042332033, 0.11390381786746402, 0.0838760552050963, -1.1322554003521228, -0.673487294292871, -1.1239815399132762, -0.5344050942005663, -0.12625875703348677, -0.6386085811080243, -0.3420097596023379, -0.2923952105975906, 0.98482202039991, -0.7215590713654308, -0.10234601634867391, 1.0851768784695688, 0.020109009312630925, -0.6728686049283092, -0.17948262357349126, -0.40411962251966255, 0.3603988755881223, -0.08624629254950807, -1.0857551467910695], [0.03953161047419692, 0.16172576279929926, -0.5219758357259101, -0.2815306077419429, 0.5605173151355414, -0.2734157198633179, -0.5539866896081271, -0.43189737460385974, 0.1939651838987899, 0.36473570670142497, 0.3679555307377823, -0.2298999846850357, 0.19482842233290568, 0.5254201911721307, 0.6467302668518781, 0.15609100256744532, -0.420582702474286, -0.3493685283599588, 0.19292166013481712, 0.09544763622192215, -0.881460142204489, -0.39674164822734226, -0.3232156837985883, -0.10818881640226931, -0.46695712564967073, -0.18634727577159188, -0.24912912684535815, -0.8213595971257206, 0.10359359561252095, 0.1629227395757018, -0.37297127025832993, 0.05055396580364943, -0.1108505560855188, -0.390763213721561, 0.0390266170586613, -0.5141382755764476, -0.008559362873203252, 0.49542572825109593, -0.059155789552535636, -0.2537133236790591, -0.89394144057249, -0.3548220368182166, -0.3383632378762603, 0.0646310339376607, 0.31169456013637054, -0.5293083342715742, -0.975412239722627, -0.763263115148544, -0.3083992682870097, -0.31086566862995274, -0.3155390696743253, -0.1006639275495533, -0.5007062779708392, 0.18611929496736554, -0.6039587362427193, -0.29741152981446334, 0.3016346858730228, -0.9139707608334665, -1.0202062582120577, 0.14392298066308054, -0.3196119081857222, -0.33231449793725976, 0.5060059788677463, -0.05200668735727583], [0.10779630954120299, -0.42201838222953736, -0.6754895319484134, -0.5811578366429689, -0.19973866726979575, -0.00047935585384626875, -0.30363096045150534, 0.240726859972535, 0.03930607637578814, 0.04604006250311786, -0.2163215545127378, -0.1832198153658417, -0.24240010054273065, -0.18663926921343255, -0.13862629675104604, -0.22817286251122076, 0.23206785615637884, -0.24276923602189643, -0.19175774898333262, -0.11711295124063427, -0.33820803490709705, -0.1363473220007103, -0.6204567396990238, -0.43956189297029885, 0.1945437744921645, -0.005782826697271225, -0.2289335638797616, -0.5285726161945294, 0.8497258077398328, -0.27982130227576296, -0.057598562808014765, -0.023218290447335522, -0.23784944705778532, 0.15981148208806595, 0.6250236600010166, 0.16694400595318754, 0.8460016870210453, -0.08481033614283594, -0.06036619590388871, -0.14069840947176346, -0.2655669118557245, -0.292877068114386, -0.07703226325856506, 0.8112157801228258, 0.00919509117837546, -0.13399109027481135, -0.1312487838313238, 0.060772624703529295, -0.2835795078540506, 0.17657990642301766, -0.14238581241799642, -0.30141203660877797, 0.04417693579291013, -0.2622718739233173, -0.043686443762206977, -0.181515065616192, -0.21569087652694346, -0.5916546316959647, -0.34566447138193374, -0.060917042368475637, -0.3711630900580372, -0.15000875217394732, -0.22168761192216527, -0.37833855368105374], [-0.07263335309332528, 0.45014447774483457, -0.2738887264993918, -0.43111718291630385, -0.9757278149933774, -0.6348757404694141, -0.2778909402070584, 0.1922129873364555, 0.08576559055599607, -0.6867403864309811, -0.9031184927351991, -0.30802480982067193, 0.38523982298994086, 0.31709878090054233, -0.03357665439910898, -0.06378812973958063, -0.7573788588024759, -1.2065022040997517, -0.5706065111980633, -0.14483592507627618, -0.7836106234254118, -0.5713732833761077, -0.8224548839995957, -1.0765933347825365, -0.2659962889483374, -0.5024994979758458, 0.38496992353083, -0.5282115002333099, -0.5000213771599112, 0.1421780298372254, -0.7128924410058943, 0.22939053937045106, -0.29303725865558344, -0.46128736611151955, -0.2504498617898412, 0.1418140778994393, -0.37984425713896397, 0.11555715115263722, 0.0019470935063434771, 0.25451172089527613, -0.36727319074114334, -0.5392869739958892, -0.62252912932073, -0.18511496520682438, 0.4248130099753612, -0.6623819791907221, -0.31333145308821225, -0.38144155914088157, -0.3322871151722133, 0.19247721148304459, 1.472272663170315, -0.1978116169712223, -0.3567785580319281, 0.060317169236250884, 0.48695892013223707, 0.12111661946554461, -0.20594718713612878, -0.7513945332617762, -0.21624190486475464, -0.19633027812673487, 0.10828670862539805, -0.10644318215859258, -0.2990961359044766, 0.04563211240258773], [0.000723022668504076, -0.3107443471147125, -0.6371946403516444, 0.26320225905388256, -0.8612857739433923, 0.19523838695550483, -0.496241114783715, 0.108617613567176, -0.2370387982831105, -0.245456425502712, 0.21160917334631896, -0.3644731164888135, -1.1504087472304425, -0.35817646315607726, 0.5520208138124525, -0.15278597411834313, -0.3765975970903182, -1.6633910737319795, -0.35929758259973216, -0.09415128068164433, -1.1557515699717777, -0.058169904390208645, -0.3016994909437208, -0.09168054609964442, 0.11251188185592316, -0.05376683014410307, -0.511796894308104, -0.8281178279031012, 0.18805122348341358, 0.035822025596656495, 0.013615916710647356, -0.04427476357845525, -0.3703062782804699, 0.2878678741286755, -0.35530792665246747, -0.37635906894836724, -0.9221705698765981, 0.17356153113767903, -1.6201442357678484, 0.2927642840083491, -1.0142588970666606, -0.08477721160565553, -0.19415476894248804, -0.6959520538236939, -0.16411945158735064, -0.28544726208598886, -0.6948196878522879, -0.9955752625444386, -0.28060643077579084, 0.04745649026640429, -0.07561641309286131, 0.06010915392964546, -0.27134741099306814, -0.15792499839077165, -0.34859256955410506, -0.3820585895969086, 0.22711233715026696, -1.0364227890700917, -0.08609770696820108, 0.02354784010467503, -0.3253219531595406, -0.3920958401686231, 0.07877444435265914, -0.5838828523799976], [-0.21380744960988016, -0.5847129879715078, -0.48758155874669157, 0.23724120519602526, -0.5524319106951245, -0.11540441051293816, -0.2591169210711927, -0.16904189134897576, -0.21412232084082203, -0.38170662048339676, -0.18525166895572337, -0.1349622197750612, -0.5915001511033414, -0.42463859817340893, 0.30057147046945093, -0.09848188567737239, -0.6340660239109781, -0.5596086373970146, -1.0500320676476624, -0.05270567284738806, 0.21071531411053093, -0.39389965572549895, -0.548828207423422, -0.3566321028726889, 0.598583976125734, -0.10494155822366942, 0.06309578808672596, -0.5490052117691762, 0.0884344126964754, -0.5900971814362972, -0.4575790677137365, -0.0871841781626922, -0.3366172029943838, 0.01799923923519787, -0.44077377095358955, -0.28900490259585515, -0.6017533806671945, -0.1393432277608957, -0.6168881927146845, 0.28076927125737994, -0.3716407594954952, -1.0782772093465376, -0.04716775729411071, -0.3129549686689901, -0.1902064816429639, -0.509672913564395, -0.1126987256003539, -0.12000020412391466, -0.25321749128489945, -0.19765620379233828, -0.33057912158716024, -0.12562622427143832, -0.5657685072676724, -0.20253098072682635, -0.5075897091793788, 1.2608493763313593, -0.23919005486868594, -0.1020099399009303, -1.360214653714536, 0.1701349826594477, -0.15342566581025374, -0.2525520299024051, -1.1750369743906248, -0.44740486865483103], [-0.44896754240737663, -0.17277595399395113, -0.831343381212884, -0.028026027861503586, 0.5072574676196047, -0.4047064364996073, -0.10078479642759706, 0.20779757802260956, 0.22561295406046758, 0.4507945394528542, -0.29501877861778897, 0.056668698140016925, 0.11054874974204017, 0.003100216585636303, 0.004663566874035616, 0.27294519938737694, -0.1022427298202577, -0.6912664492854524, 0.02397546069284416, 0.14213138518988108, 0.12323281655747718, -0.1248672874666864, -0.43814107868347396, -0.2606822068126244, 0.34552221261168015, -0.32773385854237375, -0.20846249855449567, -0.6083823469828744, 1.6059669418463303, 0.3427564799940769, -0.5562884019792321, 0.03305304153846773, -0.1286509620609494, -0.14104474812479106, -0.38849356259638734, 0.3062064697131161, -0.19045526786895955, 0.02367064987032201, -0.022073158967503646, 0.33415594548061345, -0.21495653103766021, -0.32098354874429075, -0.03269953598514387, -0.17355671250929072, -0.23715374665656633, -0.5147002236804505, 0.10158430862180733, -0.11413312748386757, -0.08696807348556387, -0.025157481061629964, -0.4514425592470718, -0.2378952733410714, -0.1016342027853713, 0.31539230661944595, 0.10759909827320124, 0.018678711696071444, 0.14817104458969318, -0.5641942174957795, -0.8651410226027643, -0.3441936228748932, -0.23552507753407054, -0.3531406434655734, -0.11454504766415292, -0.12851847172010625], [-0.003956315160080105, -0.0863131216470808, -0.11188461656219208, -0.38670548867891863, 0.03272358258254578, 0.03102123920621235, 0.14489715658354427, -0.031244126061927047, -0.06356005743274941, -0.12263799998335473, -0.11864916311396174, 0.019368951987151876, -0.018217592750564674, -0.16873870534371804, -0.032146090182821274, -0.08200874599196643, -0.08309736461719323, -0.1594341219154531, -0.029979761755213462, -0.09581845929889767, 0.11161846968890839, -0.0816398771312103, -0.3179389475271882, -0.19057322579865985, 0.0748326459521403, 0.17687256490670322, 0.02866527919755842, 0.08649196808267713, -0.017196740091754776, -0.10170796843163452, -0.154834058345201, -0.019400230213773063, -0.009196779035343123, 0.07406027787370716, -0.09124790665974951, -0.2735064332538437, -0.21032866033298037, -0.11758740196600413, 0.05022457007085163, -0.03815486581593696, -0.18202329978838844, -0.3382794473494332, -0.33718244193623087, -0.22277042024806312, -0.3177487584236461, -0.10913785856131099, -0.07857304195263803, -0.1990359535104173, 0.18232629215175158, 0.1412104086812477, 0.033765622093159676, -0.18615470876140697, -0.16835931231829124, -0.1523957270118696, 0.09427641898504617, 0.1892936985046869, -0.13158132282027976, -0.14514981033865362, -0.27514359192781135, 0.0643068482702211, -0.0725832531780899, -0.05716427690891138, -0.27272398679732235, -0.1159452503481397], [-0.033255644550322115, -0.07668358311301218, 0.14013315985571737, 0.17325466852921279, 0.15377177643252557, 0.245611219944785, 0.1696461759348246, 0.13487157646293124, -0.17722183934493654, 0.02676622996497012, -0.18441640447555244, -0.2013577267552186, 0.30893323740552525, -0.07362864604666433, 0.0705176055996894, -0.03031739618074303, -0.08759140750105479, 0.09130286714134038, 0.16165402956441963, 0.09597593965659651, 0.16442429239431425, 0.09804689302956568, -0.4928449656862362, 0.2991885696827551, 0.05561719651276477, 0.14152819554899643, -0.041239829300170144, -0.2732992266883374, -0.04408284698160506, 0.10053318584426507, 0.11395696380761552, -0.016741679288725806, 0.2178031174160579, 0.27474458701174154, 0.14652532695374856, 0.19686004105698104, -0.06339456915387869, -0.10599636144169063, 0.050856665693603906, 0.03417706771399929, 0.08410142873145544, 0.11510976042478847, 0.08391872334584705, 0.11965287261970055, 0.023045260758886587, 0.16684342657329507, 0.04547155074328415, 0.3359050242510757, -0.15766335376298973, 0.0057356277720741426, -0.21880821758490945, -0.09817185472665177, -0.0303904644132398, 0.11722977439063385, 0.29177830267224963, 0.11430732820482536, -0.05479765897280487, 0.10271707403629156, 0.19379688324436178, -0.03351951811901226, -0.09585573083878118, -0.056286461054703946, 0.3322204892114153, 0.24919865639491426], [0.30016463109096264, -0.8398062302637178, 0.06636461779150216, -0.5778500115918344, -1.0050826594090814, 0.15280434782838448, -0.04419405533327172, -0.3497432910692056, -0.012148460133377578, -0.3103789145364601, 0.1465149354695213, -0.2872203521292847, -0.7911584195122402, 0.08403130399313667, 0.4767084811483818, 0.09857344313413977, 0.5414538486331519, -0.4325096430745219, 0.5090050984378123, 0.15402716315540224, 0.22249009168987144, -0.19228579589194947, -0.24943668131796565, 0.15414917247933688, -0.18180505130908164, 0.1985226277485302, 0.3669720819371876, -0.7780784675913227, -0.2543219350861064, -0.3704738607775444, -1.034383647256471, 0.0020513611317867853, -1.2594728666593558, -0.6996464925715358, 0.0276478422287242, -0.39016384132093235, -0.28372895768067385, 0.08122914468301133, -0.12132451960985954, -0.1924992308034798, 