{"hidden_weights1": [[0.0537004408072071, 0.3060871818875251, -0.35509348040741956, 0.2589556436753986, -0.3643224415454495, -0.19671776826418805, 0.4828208942096727, -0.10661911179213475, 0.22135300304737923, 0.3121287003492466, 0.39893388723019124, 0.2774612139243411, 0.022163189927283167, 0.15733187107878174, -0.15814060022296705, 0.2190869676690439, 0.19106846123775537, 0.49573312853099877, 0.3608532646198576, -0.48458728118573874, -1.6796588979880762, 0.21991108626631536, 0.40664624469001287, -0.18697352264830852, 0.21790728033672188, 0.1927479740409764, -0.020629145256660607, 0.13964980013315414], [-0.2892114862517507, 0.5332486155256924, 0.018577211173801313, -0.13324776713646327, 0.479055642549284, 1.4531148315106877, -0.028082928766412673, -0.295461825855138, 0.43406877335314553, -0.2411525147102349, 0.012243391387899425, -0.13916859017472405, 0.26011771963623487, 0.26518653566057954, -0.05821848851976611, 0.08208866970163121, 0.21234724335705907, 0.0739669094483597, 0.15942602219947363, -0.4227485159995632, -0.042539714207030385, -0.2216267567813927, 0.32037842003339606, 0.2314170401367527, 0.22117831558173504, 0.09782347790096957, -0.06658793505570028, 0.09941695706535476], [-0.05959436475293598, -0.17224451485201578, 0.25390272314568096, -0.22847465256640534, 0.21085273013356465, -0.2651733977998587, -0.2584049588193605, -0.5326094498216181, -0.6564643644953561, 0.05266050436019064, 0.06440022751151121, -0.18356734357261667, -0.0267072525703218, -0.22040916066658892, -0.29007473606616785, -0.12455475986734353, 0.6570117867429545, -0.04617652378803591, -0.5293607496928435, 0.13227117067041158, -0.3282864788925696, -0.31979521677518713, -0.3042322586630567, 0.018582100697877038, -0.008720311108344363, -0.10236546976082536, 0.5433410872811892, 0.0100058175942059], [-0.9124056781013882, 0.1884750560681718, -0.14904745244256942, 0.37646733342190863, 0.49505605928357105, -0.29737885297242056, -0.6568375862943922, 0.3597141391273805, 0.1351621062623611, 0.29339646108814477, -0.33029087988712985, 0.5468254240865533, -0.45993106948796036, -0.378019723433821, 0.428870831748317, -0.13262947292477725, 0.3174602372022319, 0.06931629341256915, -0.17584305670298422, -0.40896467776437895, -0.5132010882355552, 0.08226307552943302, -0.09749102579999196, 0.6253556207024912, 0.07233794881376465, -0.03733875474293732, 0.09164569992850012, -0.020083777970290782], [0.5080252786299327, 0.039531276384270446, -0.43917690942588156, 0.12038554282345801, -0.09362945030938126, -0.7754289794077733, -0.26940683405016386, 0.0016946135408670406, 0.32989404590259885, 0.10270223127660656, 0.32049932141954923, -0.13472254318044719, -0.18664011734626626, -0.49883661837340154, 0.48826643753038657, 0.16867790983369238, 0.35097653367447423, 0.17341505364908455, -0.6415618242428197, 1.8139558027923435, -0.13387505597689547, 0.2639019080013139, -0.07866778610574635, 0.09807277630168196, -0.11770665621583688, -0.033967850113736334, 0.4108785855188046, 0.2888382344124145], [0.07609021553054257, 0.013832585831557557, -0.20424387141743913, 0.1980863590076873, -0.6555742333936022, -0.11603181744134125, -0.817586268181468, -0.05140749398597687, -0.5196363326814916, 0.10386148058152296, 0.21005692793876923, 0.04790201298249031, -0.03616222429332856, 0.04772708387559713, -0.29261019606311944, 1.5863947072218545, -0.2822814558382148, 0.5349299388916103, 0.014936399230169695, -0.22153429311218228, 0.004375841570103791, 0.013485158310888538, -0.2717261673544674, -0.08963519511790773, 0.1775456766787284, 0.05171769799237432, -0.2748052459743678, 0.20199200480082707], [0.41177484279693893, 0.13610742261615397, -0.5956201687183066, 0.0997368233822436, 0.1408999949340444, -0.36727446055461305, 1.1057054713112828, 0.1953425519603564, -0.23408452513370887, -0.11429287913970233, -0.004477485402755634, 0.39724755657689725, 0.3094681753625201, -0.5815939308409822, 0.12002112824459583, 0.25967499398910165, 0.12885754300163874, 0.5475719707940673, -1.220175461504653, -0.49120961922953593, 0.07890257220690311, 0.2780746076754555, 0.23802551958624743, -0.05922773803706311, 0.4297258200124187, 0.3048129958028297, 0.06728376315079025, -0.3770525892332253], [-0.24284960663787442, 0.01772113105983491, 0.5414517529373368, -0.04036786875110897, 0.22193015100720573, 0.9136813588577598, 0.4707306429141733, -0.32120703391778294, -0.28890065021367156, -0.20522461571412484, 2.068326124877874, 0.06326201296752494, 1.1731470017841858, 0.005294050422265109, 0.02073889819740177, 0.12142717261550819, -0.18001009232335066, 0.10341161783144713, -0.257728705672959, 0.25253628071204187, 0.608955733057387, -0.042996684687969765, 0.2184528904692516, 0.010946335970860586, 0.07784528570583282, 0.3244578839413229, 0.27455808794286674, 0.37161877954447425], [-0.2619461184270308, 0.015437092343857456, -0.6819956380265513, 0.19290722493587414, -0.27433930148947794, -0.35056081810947637, 1.0757448041129773, 0.17453114684327978, 0.10629729855294266, 0.2752323166070014, 0.3130964299289167, 0.36505898972474, -0.01958738176915266, 0.31270789028128043, -0.10093844868009608, -0.11579168788198423, -0.07094342543772159, 0.19408709119282466, 0.6013439564841412, 0.39253711307417377, 0.14864041666639394, 0.42936179621122583, -0.22879054405910587, 0.02218129924546947, 0.02873954807591806, 0.1353485621174389, 0.1910334817515791, -0.11358046311934494], [0.2283144602071055, 0.11182573164593937, 0.19106003987050543, -0.045695525799316274, 0.49192394644334086, -0.30454196942322986, 0.4741435374874867, 0.14403229668183626, 0.3585703322542858, -0.600538906582283, 0.6198538682270173, 0.19613763238949675, 0.32039129593070415, -0.2510423224578425, 0.14225275555511682, 0.21180892968474904, -0.12288567498083383, 0.30340802109723286, 0.4501505610934659, -0.041385418691665794, 1.4236329789008995, 0.005547183020718161, 0.05737453281931898, -0.15703792089552115, 0.9062881853005936, 0.06048818110089274, 0.1746283952819772, 0.07069046957630785], [0.013341100416558335, 0.31947107577982137, -0.040833591748317084, 0.07652629941652675, 0.1214883518288961, 0.09802220074658644, -0.4823171137826117, 0.04419213586044965, 0.24154129910217706, -0.6143705744455644, -0.060752258832361225, 0.5246726486383779, 0.059992906909017436, 0.06904548857896758, -0.05957451653635434, 0.39614772034549195, -0.16206212729877015, 0.3251669009001839, 0.0630106058033251, -0.5857448420759639, -0.7007258951995303, -0.040753976139974835, 0.043791443737849524, -0.1933651646218351, 0.7131070807476582, -0.11086170222966667, 0.4579601599852519, 0.01851666271022084], [-0.03985439633042953, 0.0533837576453365, -0.15104507299924494, -0.2907361135182571, -0.05910677048838949, 0.10636309765570347, -1.9630505655819948, -0.20226541829704486, -0.13012274903774154, 0.21360789371434066, 0.042171378302565496, 0.09100978429047639, 0.30615451383514963, -0.28724815367614426, 0.0643702714512722, 0.09964269655137659, -0.11844950101849727, 0.17056610221318597, -0.08808464286139442, -0.9529497083104059, 0.0018675705697838109, -0.023211938899615536, 0.27594338495296145, 0.05701527046059058, 0.08623234172798871, 0.12582973818736815, 0.21006356112695, 0.24844672939441972], [0.1710985274915168, -0.20186461473524003, -0.10360811044411722, 0.37037249890580365, 0.013808014869307009, -0.27625831058801337, -0.35249158663635527, 0.1735155196682342, 0.024286807065031148, 0.21531215882040683, 0.3342899682996199, -0.4812115657294466, -0.10184905548283958, 0.7689178308320125, -0.4413035048877052, 0.23620563272096193, 0.0025381819257015263, 0.13667857187873927, -1.1928234158886772, 1.3419247859195569, -0.5179102057370842, 0.8051307166696561, -0.05715834273838101, 0.3037789566146204, 0.45737580203638745, -0.3084505166854209, -0.016386818165468435, 0.216069117513246], [0.4685939590908522, 0.061537427373929074, -0.38520964687842824, 0.7175259335791663, -0.22217643432714518, 0.2573707204042568, 0.2928397417494352, 0.14347264328119347, 0.030654419335863763, 0.19624108432373108, -0.010069424546988835, -0.0006049643583026941, -0.06539204735163523, 0.3621840300261835, 0.07674700980277022, -0.03263600765316446, -0.059152041554628935, -0.0340327813254143, -1.222713197503875, 0.1527854480313911, 0.6967953939060627, 0.2674779405309167, -0.049803918536351764, -0.05859241512321738, -0.16006000888653915, -0.1470642108299699, 0.06525923187687534, -0.13097011988657112], [0.026644401903402785, 0.032216944468936366, -0.094325339940984, 0.343337640050646, 0.2994535384175787, 0.29202328411105666, -0.15421646681273726, -0.08345672625164996, -0.22467492982986384, -0.548792415615371, -0.002099628658506186, -0.1554306951545821, -0.2954867986584659, 0.4274241706026357, -0.7205366741655652, -0.2608987129851355, 0.0013726545245864733, 0.9730655160650507, -0.2247490886519162, 0.24329295739056142, 0.7023295891154421, -0.054508019758226355, -0.24763374493755047, 0.2813577628942918, 0.377288418621794, -0.1968038994264453, -0.06672398597335542, 0.5536236840804007], [0.7545903090546492, -0.18611456841640742, 0.2974613804752187, -0.1507065113295616, 0.3724177581806771, -0.30132793178279504, -0.26597628431369735, 0.07903653322948895, -0.19577449881554695, 0.051696739814979846, 1.939414098860553, 0.22174291557958306, 0.1635252612410188, -0.22612683989806742, -0.003430579628749506, 0.22971661988856684, 0.46681840908207467, -0.0893799873581023, 0.10372017677302316, 0.3326065248572714, -0.13641897128742786, -0.11535906016036752, -0.3880103790415029, 0.05642211076777855, -0.01603316107713244, 0.02781603973376029, 0.40611314030498624, -0.22812697940206753], [-0.009434873403532525, 0.3136820276667187, -0.3922282924010028, 0.13438564694405383, 0.1695524920115021, 0.43847745202253596, 0.6442338431932801, 0.13561015427593973, 0.06287092465040829, 0.3139960083635636, 0.20282134190840467, -0.15039178333814576, -0.10511272918095792, 0.023758184746143413, 0.702565936737926, 0.01869112017010826, -0.022324299111946295, 0.0749035399911546, -1.832284958952523, 0.41049433469211893, -0.25920659717403616, 0.12538567640614198, 0.09258593578853505, 0.18578454680845466, 0.23581656656411662, 0.9052997195115653, 0.03304675693892177, 0.13394148952898421], [0.5398039218573186, -0.06744472539787816, -0.4358843878706965, 0.6510565085119535, -0.021323758681211627, -0.10176206960989705, 0.09818069820174612, 0.08574213766277707, -0.10819937504651075, 0.05846751011870063, 0.31941267206619633, -0.19646245938422838, -0.0020473153816918275, -0.8629896533548836, 0.7681001482250839, 0.1814472059784579, 0.08269360848829409, 0.3017264089267356, -0.03983216303909022, -0.6159970483344551, 0.36836883763456907, 0.7083861147696057, -0.012540419882445225, -0.20203957392826852, 0.2907939162423986, 0.07935503920192585, 0.0969211804061489, 0.03854528748874903], [-0.03349688423357149, 0.07717731170732058, -0.8651676887663428, 0.04469309195762423, 0.3412432758279382, -0.2002493877938129, 1.1043611741241903, -0.5142840283234458, -0.5509398578756926, -0.08258226127735814, 0.3808387366744138, -0.33849764769385987, -0.052928632132628, -0.4676064716057101, -0.16293014576437934, 0.2911091683009564, 0.20998856042362907, 1.1731168536445657, 0.6610432860157911, 0.11513505697883955, 0.39244781305979237, -0.32395949083938036, 0.01050030478328943, 0.03356555175061136, -0.19238345748185115, 0.21945180735059902, 0.38889157882275865, 0.31448372443462835], [0.3108562911456028, 0.07385028300675892, -0.35902888141006883, 0.05735166912639625, -0.02376887910152294, 1.0754777653175227, -0.9019201340838977, 0.020224668994642772, -0.4318530129519461, -0.6100608002056948, 0.15574281530540174, -0.12405744165009439, 0.057803606178227614, -0.023794865146967558, 0.4349190050341265, -0.2476794968584814, 0.31081516666579834, -0.11264045285826806, -0.17448755102759606, -0.4589846000195335, -0.6427080780060663, -0.09818906209416939, 0.27049017107230056, 0.2539496839213427, 0.10444977931885803, -0.37747004952081364, -0.16469012019085966, 0.2518135125765733], [-0.13296008247065358, 0.35892377067123515, -0.1435015270185039, -0.15096135786321102, -1.4491884594603357, -0.5630269518876634, -0.9267466231291972, 0.00018602329389419265, -0.3980339068414556, -0.31605329770147633, 0.07288981790357327, 0.045832493778840404, 0.1462100980302906, 0.5827124341648756, -0.4929813377704308, 0.13134465447897228, 0.5044532456855736, 0.48075995685705075, -0.59464268957429, -0.5791478576047209, 0.31398120938127905, -0.055686272104543966, 0.48290554364167027, 0.10578595279440264, 0.10014387161521326, 0.25254815170576095, 0.45614647912495204, -0.052151707064935854], [-0.05671896029988161, 0.25514949015516397, 0.3863007005744236, 0.17155939011802565, -0.3896548833715106, -0.002906000389355306, 0.3116828021222576, -0.4000734772586327, -0.12441874622927697, 0.1383253235004206, 0.06022366014971176, 0.06169763598359901, -0.12007284740407341, 0.14572461751651927, 0.2033276111921375, 0.5982495027209672, 0.08967137880672259, 0.032133181088680386, 0.893375368712418, 0.10114505142664856, 0.12138873349714939, -0.010320357226265325, -0.40473926780394603, -0.12344995906823493, -0.06184677528639668, 1.121804897399894, 0.13775930716969365, 0.13084412974054818], [0.11361670184369363, 0.04762038449578478, -1.05589558280644, -0.11884641872355793, 0.5345348565269714, -0.4260593856571877, -0.4149305486273302, -0.3833181113603048, -0.6164822397289736, 0.32206405805493005, 0.9478687666098611, 0.15561762748422223, -0.3714410819746669, 0.013255690484592918, -0.09287618198994375, 0.01510079612119677, -0.081512330253811, 1.092971698753327, 0.07775773947390563, -0.3261216204109625, -0.3756521032553149, 0.07271863931669643, 0.4375052036828738, 0.1275596836389361, 0.23317317545051708, -0.08399564654767872, -0.21864760563777713, 0.6411660040789633], [-0.17313630415611375, 0.10664673476398576, 0.11530138101416705, -0.13703663702441735, -0.009319346421693095, -0.007730869324789863, 0.4126455528445653, -0.29030046916385666, -0.2318967657531295, -0.9174906722066577, -0.18125378423691643, 0.06041207353458194, 0.18691780366446506, -0.18806013674286498, -0.17985572201243433, -0.09231029840224977, 0.2171798108268228, 1.1535983904205946, -0.3686790866146029, 0.07481450179732045, 0.7422228280329207, 0.2990099564366066, -0.1361762887505149, 0.06969135315832982, -0.19719748641255053, 0.3580086818174253, 0.11397815455619825, 0.6536033849519111], [-0.26918258748917856, -0.06951869251878022, 0.6515188006333881, -0.10301042731442367, 0.08514738805048189, -0.3984695728737375, -0.1252554842977933, 0.35134726144941786, 0.2645231486749314, -0.043073817199858686, 1.0328268709470776, 0.2147756478578509, 0.1491909938773282, -0.20718251974508614, 0.25028403662601206, -0.23019063426977243, 0.08341945853762162, -0.10322223770381607, 0.38898720258046265, -0.17955638952855368, -0.10451269467552576, -0.1366615387753572, -0.005737323445001202, 0.5506028556810472, 0.36177834887269816, -0.22071485742533753, 0.2613197820330073, 0.04107021127568109], [1.6747367195069693, 0.2918196044074693, 0.16911008142136735, -0.21939009706023951, 0.5092635123400988, 0.14796486262539346, -0.5879634668454397, -0.4306265156742001, -0.24748933397740136, -0.2183592833399877, -0.8758948144668722, -0.12672397772999372, -0.07174695935822271, 0.2563226985998239, 0.13102327909529785, 0.10605145157962292, 0.4950480995338799, 0.35492906683402364, -0.416186768089934, 0.18093645606495007, -0.13813887677719072, -0.26064213323593316, 0.4441519454360867, 0.20916779874729458, 0.13692418911394125, 0.487285109843804, 0.5676319353067049, -0.24769229877067453], [0.5887253781634276, -0.16659050822988103, 0.2243216085010682, 0.07570908033919216, 0.028908101390743398, -0.2688243552738588, -0.42916669823449255, -0.6290852107816747, -0.4506807542238595, 0.8883773856353802, -0.3589602470213612, 0.1361139500677971, 0.5301198787495484, 0.031410809895575556, -0.17122672313946474, 0.513363496325306, -0.006735742873186717, 0.025395114280945562, -0.4261871079110781, 0.38703029563710645, -0.1509518053229537, -0.04626074297305372, 0.11269913316669097, 0.2014731648181423, 0.1220321460206993, -0.021952301187282326, 0.016300519087676525, 0.8238020453386278], [0.6833303601427138, -0.08249122883763192, -0.1421044229455663, 0.1607304312235418, -0.11723683948847195, 0.5244135676265608, 0.19887449019506337, -0.03381424239536184, -0.04316833293764624, -0.20257738667034558, 0.26293043113725906, 1.3248088277334518, 0.42006794902688843, 0.1740879664146958, -0.9589945912146363, 0.2409008217515365, 0.18571322236796528, -0.01611755002305797, -0.3246715443682421, 0.30535022676624324, 0.38931488577778756, 0.4556582908091843, -0.00306597948565737, 0.18294257484767226, 0.29485469913003653, 0.06858639182643955, -0.05847150503125392, -0.05646884199808545], [-0.3030396145480846, 0.026679662325172132, -0.24948218115963397, -0.4128438438755614, -0.1910978407537426, -0.21871200500102797, -0.5401651034092624, -0.25417311517082314, -0.04946744628727592, -0.06324067558970047, 0.09486429160985754, 0.3966817070889539, -0.12378824837296327, 0.0026291874855708655, 0.1403855138406063, 0.0965150801845548, -0.0916644396940364, -0.17342530211707302, 0.38307123532414145, -0.20520645341194552, 1.7827929266291578, -0.20860395202317022, -0.12958474714682672, 0.20233153592145953, 0.19402869743945608, 0.013506916471671404, 0.23697604004552977, 0.010612474616003847], [-0.4612241572347283, 0.4718580398194372, 0.3087013560838859, 0.08831331923946006, 0.813395798393755, 0.4126500770986397, 1.2164219515613082, -0.34480318525404957, -0.3399940809043995, 0.19644240003419158, 0.008642782374083368, 0.2906451152250077, -0.09705287525083305, -0.11649638731591375, -0.024161011532800886, 0.6119446666877585, 0.18661955751974435, 0.05010756831539853, -0.49392612881403336, 0.3009180081429515, -0.04435333719345516, -0.024296414376482542, 0.24190417673961953, 0.4265745966698127, 0.1813080585251331, 0.011011937688079973, 0.3448765703058116, -0.11714162476356156], [0.715717657924171, -0.052218964574888976, 0.07906157745523598, -0.1615439372259375, -0.12120678898908185, -0.2807084315273399, -0.4432162943991246, 0.16980498103919747, -0.30097045139140716, 0.26907174988709326, 0.5038919363135492, 0.17832566243072123, -0.11613117325925901, -0.24742085364203245, 0.13865371893043277, -0.06597273353941528, 0.3132339404635559, -0.1405926587215384, -0.44046002157086195, 0.498466980549055, -0.2616287187547907, -0.256242792300857, 0.07229947050935978, 0.3887900993981271, 0.06498226182787427, 0.4078291505261516, 0.35814530404956146, -0.14125505538386784], [0.22510457069597778, 0.3669666236024162, 0.4508433379000497, -0.031491537695084816, 0.32071811103569464, 0.4790831988021201, -0.1672504421604825, 0.07973235915615107, -0.2448795422648262, -0.6253027310463601, -0.20915959122986869, 0.010114953195998934, -0.17330628812259294, -0.18084245422176573, -0.42932907915125257, -0.11960974294135943, -0.34843457499731095, 0.9278743216980498, -0.24247453916177672, -0.19424219026247075, 1.9878460235377589, -0.3328254466968085, 0.35783669514779426, 0.06694025549492731, 0.19528288637112332, 0.05450766416339414, 0.1449426556353184, 0.23912430514677147], [-0.9092709865558848, -0.07062917985113723, 0.2323572390556083, 0.029400132815307387, 0.24524843504776755, 0.039576242733208304, -1.2198450318735286, -0.13204453464581972, -0.36298619322083314, 0.02283423137339498, 0.2847574730792268, 0.4598781250027894, 0.3843042279468051, -0.08824081204808609, -0.19628276529237845, 0.19180573488201394, 0.3200383608292135, 0.41403497510021253, -0.19502836196396803, 0.8806125049490223, -0.2446979203569393, -0.06373300788544145, -0.40031775532469055, -0.040987138511101785, 0.3104533046405706, 0.18321410803003826, 0.14758396450017364, 0.35167975013571806], [0.0011697132969504796, 0.12049346720769831, -0.07675724042874177, 0.03598263659651309, -0.2768534938901995, -0.1800614330277649, -0.6147833934423491, -0.2004253496170863, -0.629427191830426, -0.019474842036433692, 0.28116895322726004, 0.1143554361700536, -0.48263130474934657, -0.4172344516843642, 0.1362464376909945, 0.26941375096301834, 0.8512527422170532, 0.16828988628926841, -0.020793908931574925, 0.05145789479446939, 0.36755130529927965, 0.039812561165019786, 0.018583112767951545, -0.05455164299511541, -0.2417687914347166, -0.2509113637897306, 1.182648627862859, -0.2831795682984055], [0.3580309507029796, 0.3637940073733146, -0.4130486425896705, 0.1260199219168747, 0.7442204033008228, 2.1369554940055653, -0.23076407879189687, 0.05545315291043864, -0.24037155921003123, 0.16468200821863307, 0.21665244697140518, -0.03989343939236455, -0.26720595018497934, 0.10369744837420629, 0.21958626037142437, -0.2921646187281263, 0.037057381839375125, 0.00034254114327593503, -0.03589197491530577, 0.6857631718507572, 0.024853203787044007, -0.04457389374573583, 0.383767531320707, 0.23544335252401005, 0.12366588020669993, -0.049271770188179215, 0.14294050912031864, -0.007680886307824149], [0.21691511903820201, -0.3068858309844919, 0.2833302161864913, -0.055756274441881665, 0.15504364556976222, -0.0759376960126972, 0.12299450656595064, -0.5176398597662363, -0.263858511610527, 0.09751445369290929, 0.5762535093694082, -0.14915905601923826, 0.06775646770015792, 0.4881228096478713, 0.030352803402931502, -0.1722278529472723, 0.3454618323811029, -0.22579003657055274, -0.1997438179704117, 1.4082608325420556, 0.20778448847714798, -0.3005633992616487, -0.05009148707577284, 0.15760109728174398, 0.16292729399902972, 0.2856480094204728, 0.02270005116531534, 0.32582061926441214], [-0.571228821182571, 0.0936931066480232, -0.18273902075893167, 0.11023859702346467, 0.27930076993940595, 0.32368870833382707, -1.258011573106161, 0.08636238212394319, 0.13385289649851823, -0.8092403922576513, 0.27635746887520407, 0.09588781541491455, 0.41256277014019693, -0.41914940245586924, 0.19914185428523198, 0.14706074481666523, -0.4551577804975906, 0.06364552659403551, 0.11481362594649111, 0.39569431465258076, -0.4462456202637341, 0.1965977103897346, 0.158427036246175, 0.35268439343129315, 0.2682112008088362, -0.05624309927195108, 0.06697849828250599, -0.04989528246768121], [0.2454306936176523, 0.056461965119390334, -0.2739872789157684, -0.04929118247960847, -0.1454065396438, -0.6091855592073315, 0.4316644478992297, 0.3283398987554747, -0.004514266289370679, -0.20026441350807953, -0.2553823617450225, 0.020719141640712337, -0.6803055635691139, -0.46784540483610854, 1.4203343712264962, -0.12205668489641457, -0.31152705821264703, 0.09872485557107208, -0.3139046883645345, 0.1614254887984984, -0.3579906356499922, 0.011122079329104055, 0.028184849764073115, 0.8654508038191782, -0.09299849515983943, -0.35078508541111975, -0.010602822228789775, 0.5012876896734431], [-0.1520648483359003, 0.1295051536139567, -0.005530439280938457, 0.048032806402552516, -0.2389835116859357, 0.6722654068084216, 0.49169933470642524, -0.3081586628878969, -0.8313043570101287, -0.5354488281063249, 0.5212050050338749, -0.18826126789650363, -0.39731176647217353, -0.14649485500301804, 0.1623220973889395, 0.5192701628482651, 0.0669354055667121, 0.658715350545813, -0.2918178938395913, -0.21951204353126053, -0.18998253391767622, -0.24905787922920947, -0.34960261169795553, -0.15826345926686378, -0.0018879507730963203, 0.1101982321719955, -0.32294531774867435, 1.1775708130948095], [-0.30912173539044896, 0.06171359375136371, -0.11934033988311776, -0.19766716536184267, -0.7521853853020659, -0.6600564299156295, 0.8582688822027893, -0.3090896461915982, -0.1357662695191475, -0.04844334979305199, 0.019157593336792823, 0.4628158186453982, -0.06441740288309167, 0.1390709674923791, -0.051780321165397554, -0.09690465846082252, 0.7754085928352372, 0.5010045947924706, 0.11631169295489958, 0.18277078526643564, -1.0221506832701015, -0.1927963721097018, -0.07593979081447168, -0.015206934957475507, 0.42654676995577906, -0.016727036690167847, 0.33468299784632927, 0.5693577853673083], [0.4845896001318654, 0.03705157941839601, 0.08435750753730879, -0.10966149213281616, -0.09082485758383362, 0.5039473671625926, 0.3313161776693673, -0.0684073139023502, -0.6235787629737193, -0.25331412764547995, 0.03475467618580559, 0.4195508179722246, -0.6854728046271062, 0.4551942594100078, -0.12401773348432846, 1.9988913098011794, -0.5265469986609744, -0.24493598476077266, 0.01868516366565961, 0.31615639637123777, -0.17840534983930162, -0.08062579696947546, -0.39122754099871493, 0.42246102839622957, 0.03301598148275589, 0.10749905252883654, 0.03334585897371657, 0.6216099414307311], [-0.30495460128356444, 0.2175605739252804, 0.3617902844252893, 0.1450972859591226, 0.40005447469361294, 0.458553894657411, 0.23979747232445991, -0.5467348710655215, -0.696634131146509, -0.6330789496360731, -0.17303586523768386, 0.31562941744343737, -0.4494939445398986, 0.36435631114439687, 1.7639755090041758, -0.2043913456703056, -0.2862280926021986, 0.09326428505235297, -0.17076870288719007, 0.3131414748622496, -0.2928622824799871, 0.03970812115471233, 0.30925595055041616, 0.10326771019722081, 0.23107462242729418, -0.15693417854061179, 0.2568951538400132, 0.5515436180582866], [-0.06869042644839855, -0.19875784728973653, -0.16715442785330306, -0.1630178316150109, 0.7794888956576199, -0.44958631515768893, -0.02852041756629606, -0.19656558374546618, 0.09226989589774594, 0.2110469926536018, 0.8557883336067453, 0.5672249422169371, 0.1528078090375372, -0.017831460773149857, 0.49895266787279335, -0.35961433252777697, 0.15941772482917269, 0.29952896716071076, -0.06573868202328334, -0.0843758993162228, 0.8387696726146676, -0.06245116478964163, 0.3940067829155147, -0.10584397323326536, 0.43009339700353016, 0.34040474585965663, 0.11589513170702835, 0.37412580940996104], [0.06006892052600424, 0.05151475335280873, 0.19647297676900485, 0.05079541895225229, 0.026271555307329105, 0.27892199972969683, -0.14885596081947886, 0.16800242560773343, -0.2575867698993134, 0.6289751695978228, -0.6559076195272747, 0.371141735368678, 1.5080357036501992, -0.5772191924224138, -0.2408637910347305, -0.024159106555756284, -0.11387821037117025, 0.2795610444224329, -0.7615560891320133, 0.015220879895196207, 0.2996656097068387, 0.1479625604998193, 0.1950041838210766, 0.4174270827323371, -0.2601683094226457, 0.33643833578324717, 0.09056941980840405, 0.7057533663336085], [0.6642106035910199, -0.006345929033545903, -0.012537135096955034, -0.0036205218536384206, -0.12296459944777137, -0.45300487847204896, 0.6046119921082876, 0.3473434525275022, 0.10067967716955778, -0.5337397524378794, 0.02141418585807332, -0.16101313876691348, 0.7370174806705121, 0.009088680895227031, -0.5332499207666997, 0.16391259045118547, -0.25130386237582275, -0.3120455704632465, -0.07190720349287644, 0.10834212204757832, -0.9817133414695939, 0.3187110647238355, 0.16994745818382798, 0.6434896870745798, -0.23740571277623804, 0.18089125635058487, -0.1515166603545413, 0.029883769333930922], [-0.13052842218426242, 0.299860648878613, -0.11949199815269916, -0.1336561629812855, -1.7018319757904146, -0.18237020596532919, -0.5762834750708548, -0.5227310801069665, -0.28963364410296266, 0.43787808180488175, 0.07418969146225075, -0.15742387474598288, 0.0014786610753541782, 0.2932818534264822, 0.039366757618248205, 0.2583898392309175, 0.42510644582362617, 0.16936767032405659, 0.010715639346189597, 0.6171601585228603, -1.041167711657958, -0.09089027954981066, 0.5058815167673933, 0.049026584167985957, 0.12801193548889506, 0.09281456072337088, 0.4899344517657466, -0.28236334262140206], [-0.2808397543624049, -0.23255683730034912, 0.3097189176259753, -0.3480168525433064, -0.3719562860124437, -0.09995073472355138, -0.23583502664989325, -0.37365115704358953, 0.07593857037112757, -0.27955106237507205, 0.6070344984676151, 0.4570786588800559, -0.06097591483116975, -0.3748748729247719, 0.33411131477694783, -0.21016558392829754, 0.104544476217792, 1.0894266732286269, 0.12433515687313454, -0.27233110616808087, 1.00093055327533, -0.041897726157888865, -0.04423478851612889, 0.7183118375942257, 0.12324740734713677, 0.1814328325978938, 0.017910862216769734, 0.10439500403824795], [0.17593176759391452, 0.030718607770276626, 0.5107425429571307, 0.12001666347219642, -0.2109445630364328, 0.4149461955656384, 0.13099771563998536, -0.4092785286891423, -0.27147486891239075, -0.5809253046382521, 0.753648061294418, 0.0836352298263022, 0.09335573209685545, -0.16543466247844113, -0.5828268459130893, -0.3036467381763005, 1.5416065093056168, -0.3546563965029525, -0.46093054522523186, -0.0719081892325153, 0.027171455913897014, 0.1801494717445374, -0.12828008609856684, -0.10351916858847221, -0.041991575738999594, 0.33194827485216477, -0.4224691138587155, 0.5504232638957788], [0.12289755123871826, 0.19986003233695362, 0.1556061974286953, -0.0783753335332581, 1.3458362379898465, -0.4638199968754568, 0.24781527395694122, -0.34003085919642617, -0.3470080940769268, 0.22266281872881463, 0.011977921371114269, -0.05542218122046829, -0.20192234949304022, -0.1626833758501727, 0.07914133060841703, -0.06265283578424555, 0.8584357707489958, 0.2659682723715485, -0.5259927620732882, -0.31568952576600895, -0.031176566854341347, -0.0967687205868728, 0.20249701345369125, -0.03637611182380584, 0.10612155175686871, 0.10896075299224661, 0.6676137881923365, -0.06689205780202878], [-0.14336288968368555, -0.06567530881266014, -0.644973494596067, -0.15545465656841187, -0.1347767872210962, 0.14448560965626336, 0.5592681066631827, -0.06582121422707617, -0.4574099332618195, -1.190401579143621, 0.37224777796026487, -0.03561206505886437, 0.2816197453820329, -0.08142856683531768, 0.988699263422747, -0.2455254733802195, 0.2888156938808307, -0.1575697669640923, -0.36612855136863315, 0.4298096099389428, -0.3857796317949589, -0.14156512557368817, 0.09420167683407465, 0.5468298372556653, -0.28276678913964215, -0.10478888668614128, 0.011666139968588288, 0.46120401359277463], [-0.05588744398923851, -0.16318283504005052, -0.7402631286988928, -0.3183080260738502, -0.01351706684256693, 0.4289964659714091, -0.03394332418152133, -0.13881434335808795, -0.3346526060611793, 0.20054379156633914, 0.6609863988650663, 0.11807813465979597, -0.27593354763701744, -0.25418339616569413, 0.524124359507674, 0.13023523934971423, 0.12911981539269687, 0.7715614029244533, 1.2346499545178284, 0.33725725511806803, -0.6051594007988965, -0.32753039364012715, 0.023013094034981762, -0.08982958615313025, 0.17569768145564962, 0.4791692174710842, 0.007856921319136305, 0.41399757254950365], [-0.1885753440953349, -0.2819591647815654, -0.26258677295065097, 0.2141915698383212, -0.07649895053550776, -0.6807480174988699, 0.02855376101222011, 0.2789889654581233, -0.34184003451932515, 0.3274736594933016, -0.058117417977827414, -0.21100533207001584, 0.4913599318919338, -0.02433614537764476, -0.46657006287023783, -0.25196316484240944, -0.07534351551977447, -0.027481875963895352, 0.15944274929537827, -0.30296047067199755, -0.35065211169521776, 0.1701556630198714, -0.1945592328526713, 0.14406968650015092, 0.006173328130751212, -0.1919836740718104, -0.3786581180261434, 0.4587565850168813], [-0.1857402293183199, 0.033769913600332685, -0.0002465924750410552, -0.08364825350852242, 0.26018253313853973, 0.07566760732608312, -0.38965607714168454, -0.7530169833894315, -0.1784863082709781, 0.9469643904980668, 0.5873735848427689, -0.04280292044528436, 0.32731681066251006, 0.13683928551051744, 0.08240542567678386, -0.1898502097470299, -0.3342934946281768, -0.31953526541794525, -0.15778667283922446, 0.06061966589284539, 0.15133203920019575, -0.014432564863702986, 0.25977244536154503, 0.35510644479778253, -0.1224090319411565, 0.11609657026392207, -0.3945976900339308, 0.4361990381573356], [0.1252658689005372, -0.06199299943253888, 0.305272442086441, 0.16058421715207535, 0.5407780163969919, -0.5036815328223543, 1.9330639035267325, -0.19779783475182602, -0.13802440480214426, 0.06263423363136392, 0.13555042738971299, 0.09661529045457666, 0.26555903717434604, 0.08365798747661841, -0.12139923086611559, 0.3603115676894022, 0.14630431813180297, -0.025360608227274137, -0.023873133465084052, -0.03915187621643128, -0.41940103955805424, 0.4353876901106981, -0.1878678592584846, 0.013624005409720766, -0.014688848410487598, 0.16850232905293389, 0.3682931791594811, 0.24781058255352376], [-0.2886787395570081, 0.05310077520221364, -0.07749748407811582, 0.3504841561603441, 0.14984135131557774, -0.1712342726243359, 0.4728509923090125, -0.2676212162340744, 0.18852670942559355, 0.06434454060063631, -0.3820356026877459, 0.4733175454773069, 0.5507555120305916, -0.43837243773031354, 0.09322899617029125, 0.10079573440640388, 0.11619274734068927, -0.12206845075574621, 0.4444848339017313, 0.37678472542902036, 0.659206312948817, 0.02514466355745287, -0.06739955844659497, -0.021617926024655443, -0.011495673080306362, 0.4860841504715503, 0.05206055528691925, -0.015162062366345676], [-0.17749789290614856, -0.128451504488176, 0.24845414812476174, -0.1408320022505962, -0.24942745028678126, -1.0287296690298704, -0.06096936735002372, -0.368690990373759, -0.5685120050227296, -0.34438787841120444, -0.06635466053854819, 0.13171488162055672, 0.945705467401837, -0.08681543676871371, 0.3382342751473209, 0.16845865400751808, -0.618261654074292, -0.09666433163715663, -0.8234877396298452, 0.14117615874065942, -0.34135772285326904, -0.009105748733193753, 0.016451004122611305, 0.12907874324302662, 0.17753769356549315, 0.030102476586974777, -0.17581051394957972, 1.0548086258805764], [-0.022304300713602076, 0.5531811584132199, -0.19669834417840715, 0.0481209856611255, -1.1975584709246871, 0.674549756381397, 0.11505260689833172, -0.1273900466412364, -0.019791443460541805, -0.13086351100119112, 0.631783805074105, -0.031273199415811394, 0.3017509018103358, 0.28632554721093745, -0.2903815627936073, 0.1541299681710203, -0.022766548609405864, -0.09347982933501851, 0.3483527290896754, 0.1713641174354481, 0.6444101020275013, -0.09703143267721798, 0.7390659198498221, 0.42992367351880945, -0.044932561410668335, -0.03219293272142076, 0.10110530277698074, 0.22267769802894247], [0.03273237469868058, -0.3093111063244802, 0.046130140886494, -0.04145178547353556, -0.05579659326384934, -0.5623489070901602, 0.24232862380040657, -0.5645531063706811, -0.2884626341301868, -1.170628257287646, 0.6511811602979724, 0.07766800656711964, 1.1076801081770749, 0.1037966151543398, -0.12455279850218344, -0.3875824960367035, -0.33763599102832315, 0.09836626788649284, -0.6139861563340078, 0.6084036769707631, -0.18538400380390901, 0.036061613274435654, -0.009166006489973786, -0.14690743352247437, 0.04415800476604191, 0.1730185232515055, -0.038163053285324225, 0.868552772244959], [1.2315295251084069, -0.356950141666548, -0.1350526153423182, 0.20013882535159613, 0.5729944559635346, 0.44037955086181574, -0.44012252369569704, 0.04109097963028606, -0.25226317222133854, 0.14341322798014114, -0.07711235265454164, 0.27256820751136596, -0.026777702282097998, -0.2682418437086182, -0.15225225303865747, -0.05508006499753011, 0.05875166558434895, 0.10916022821426183, 0.32082646258694103, -0.2142513442290617, 0.5791688600090932, 0.41515732443376396, -0.12042116710206044, 0.02784971396262401, 0.18527838411914285, -0.08002449711942229, -0.20984918001756858, 0.018229172237328874], [0.09306944514481888, 0.18428901158423516, -0.18788854601490446, 0.28506979798394416, 0.09600189010906994, 0.05438423726471798, -0.7744111287874237, -0.017253906309468905, 0.2398816217769419, 0.3078222570679547, 0.03623655984173725, 0.25592672438866493, 0.2895360062311352, -0.07477433611485636, 0.4106370832044768, 0.035429488841285446, -0.13757348480486187, 0.30385648812262295, -2.160766775159659, -0.21426807133263376, 0.521647363036957, 0.24198241014221283, 0.07402673600188946, 0.27131763895669486, 0.21603564730576397, 0.47214353000022974, 0.10991607951930595, 0.15319477874399687], [0.3896101164244285, -0.11173278927582968, -0.4063148069593979, 0.28796753099402356, 0.9002915806151148, 0.007006870448620932, -0.4385049127554183, 0.5610633862549924, -0.008909283438613917, -0.07182462038227823, 0.3808085895340225, 0.3840176550689945, -0.22363267808617102, 0.48375083187888973, 0.24815264155643674, -0.07410062507447635, 0.13254176126973033, 0.11632723045330653, 0.32591885969638834, -0.5240335636593502, 0.7867420009312946, 0.5914454409356281, 0.10769949348430906, 0.2620519906979968, -0.060988765469332504, -0.05046302904869134, 0.4352510227195652, 0.4005291399436876], [0.08069636257642959, 0.03909380771013785, -0.09797816046701896, 0.3123112697062686, -0.4653867741324106, 0.4428976933415109, -0.04847948926734701, -0.27005406731541076, -0.50625643604794, 0.7794828693759175, 1.0629083352355844, -0.5412504622114495, 0.6995765853727536, 0.10878421862254997, -0.18240101147919913, 0.12972613238438016, -0.09344279220974637, 0.3919047892114656, -0.31041856551316244, 0.24053518873263344, 0.05640993756028059, -0.19901440440543253, 0.32719488200892, 0.05078340115951312, -0.005417142584638161, 0.17782189423335215, -0.09319771676313317, 0.785482824884387], [-0.23676956467661636, 0.5625071435339686, 0.058117827320704696, -0.23905188506863861, 0.4039166651941927, -1.1345990895348121, 0.35165957113499907, -0.5195828282020082, 0.09919950707986695, -0.19408221013880125, -0.11087496519403285, -0.13170001088108632, -0.000926135770136053, 0.3219605907196644, -0.3589529070023837, 0.3677091590360085, -0.007078284246322768, 0.0992724434379427, 0.15227442107859068, -0.14006059463323203, -0.13582086302406962, -0.17836138184295633, 0.7179138508593672, 0.10078396461711893, -0.011530295113329701, -0.3199111622213627, 0.12399736813095587, 0.0507215171414627], [0.016324276470544012, 0.0055070261087277654, -0.2643281529674821, -0.18116581391293807, 0.2990228184500033, 0.7065274688733099, -0.3240999378906264, 0.2602112653000017, 0.049620906182806845, 0.3021129102733017, -0.1463415867621897, 0.41516116312821705, -0.20146804181190003, 0.32047677714963546, 0.07115167969380523, 0.2792664246271365, -0.07386567385006373, 0.07108681775696452, 0.0004980200772013659, 0.32954960984745185, -0.06301165214899869, 0.275369194810841, -0.12915138992355804, 0.1347348248518759, -0.10331209058006044, 0.6842879428423948, -0.02869008285834458, 0.08367269372471588], [-0.687827276406631, 0.07834270445222427, 0.2736967389628177, -0.1581906746218481, -0.18333987003615812, 0.05957062803138399, -2.165447169874771, -0.08580140855483762, -0.05990435077150596, -0.08835089701766083, 0.15095847667141088, 0.014704812988521705, -0.10883008187541171, -0.2809557835643019, 0.9276419709558231, -0.08741768667177578, -0.12319464889589417, 0.2551537199673449, 0.041077416503359616, 0.4793341663445963, 0.6122454002622348, 0.02380563019051086, -0.08005500446244941, 0.018111459301056176, -0.11429049550055193, 0.5201240454179022, -0.211004541834016, 0.16296783205417795], [0.15621430385194734, 0.10997304558709271, 0.19272013538481977, 0.06491166264797245, 0.21701269881468419, 0.3292801910840576, 0.1740288218740253, -0.2033342563531816, 0.12778239172931344, -0.2908489784156069, 1.8370256286807711, 0.5004352078109444, -0.27261679876491995, 0.4013370421584389, 0.04704561921052367, 0.2259568544238585, 0.1019636947843432, -0.10090722519544869, 0.05107553751776395, -0.201097653661191, 0.5679514995951186, -0.03335422662993804, 0.2153040922680246, -0.2667503773649204, 0.8325629208631, 0.18722416468111117, 0.24927527461667587, 0.13710057094233105], [0.13096432050992057, 0.4421070182087925, 0.3737901357507334, -0.04517653841801464, 1.7559393136587016, -0.18482251129856306, -0.617730297149385, -0.20438107331681646, 0.2070337900808221, 0.21152163692345216, 0.08008215186220366, -0.23693024478169622, -0.3020501922301327, 0.7140831203566784, -0.18979164119556494, 0.12249154819938621, 0.040837697893609914, -0.1347480153249395, 0.013237050881387883, 0.11928871846674757, -0.7454738294506419, 0.06483814603416878, 0.5853797420332187, -0.007121064404209325, 0.017792824160475396, 0.036066146643451966, 0.09991112493271234, -0.3866331385017301], [-0.2657774304948059, 0.3065116183902332, 0.24909871747290147, -0.11431344013391491, -0.10199869456733754, 1.1901301629014525, -0.5096107269586719, -0.21925499311477115, 0.019838611151564906, 0.4508146607595113, 0.04078259594180219, 0.3445695696380536, -0.13025774319686492, 0.5735973025023813, -0.11673656774985694, 0.3564523420669784, 0.27247901976350763, 0.25980757578902147, 0.47567640453610405, -0.018731361415567995, 0.6114027470380822, 0.004646499199753801, 0.49989753614216575, -0.154600771366424, 0.06411246859858728, 0.20382665031377695, 0.05130171194268158, -0.11119326980321062], [0.4375959078193965, -0.0766829633114885, -0.4367853623503431, 0.4870182352768552, -0.10258905723477778, -0.07599896530803243, -0.0801931448327634, 0.21293025009965516, 0.209964665650212, 0.36534403342651794, -0.10972166418259603, -0.19924439851886133, -0.24670563647450028, -0.1019720413242257, 0.5334447254782474, 0.07185305409194517, -0.018829036052730137, 0.01818022053758065, 0.7517229656521827, 0.11900244822284778, 0.08202596934246636, 0.5591989258655603, -0.1198868714659812, -0.2666664373594971, -0.2134822555606302, 0.3033875841680673, -0.0598720730680867, -0.03326589536400992], [0.19671083974657552, 0.02143945391041505, -0.12468484887075515, 0.22796686111876963, 0.21428481292933632, 0.2274330138257942, 0.5716952499177624, 0.08130842372970125, -0.09098195841878153, -0.1614711746903362, -0.08662373147019681, -0.24005405771723662, 0.1286263806126099, 0.33283868174598497, -0.3158384034865736, 1.440829092341929, -0.09925699650550845, -0.059620884092193877, -0.2423825246894712, 0.3252017610909178, -0.5852025485110914, 0.19098453592416395, -0.045826241063333106, 0.3404794874834007, 0.031592521180392005, 0.15779354996144013, 0.22318191882532384, 0.22115819970724454], [-0.1327787962371229, 0.08933830317102204, -0.1881641285493099, 0.29968413004832717, -0.270883400947238, 0.6363328894985344, 0.46888237727987175, -0.25691601032023303, 0.05700502529231733, -0.6434265076359306, -0.009543529343290107, -0.10679327467688346, -0.42390293964954096, -0.035601917580137914, -0.5453774388911353, 0.4134347361468153, 1.7875633405011406, -0.027907702984170505, -0.49304035228187115, 0.4928573658296104, -0.2735064950776366, -0.1164388744731757, 0.061648214448515024, 0.6631426602566254, 0.06409964125290218, 0.20353884716828757, -0.612112274392018, 0.4280022308592656], [-0.8300974377947176, -0.13552051693525471, 0.2680974193778278, -0.1836636416959097, 0.0019579312586758516, 0.10627931133456293, 0.4020554158877003, 0.11452164963536451, -0.06879614918156349, 0.31467658664758424, -0.0007858188227438604, 0.20524914341935804, -0.47274221590116877, -0.37347587087010753, 0.060215408673815925, 0.06501430478620493, 0.9919041089834052, 0.016656965578433935, -0.48638740836029265, 0.02442240167329898, -0.4090773760401391, -0.10645129413746568, -0.0012982285060790684, 0.1389066512105965, -0.10660352012047114, 0.3558856977577398, 0.5817432401079249, -0.1103997469125734], [-0.2905283357950121, 0.059345359623656474, -0.10257229772971979, 0.023141873097915013, 0.20010142954049634, 0.3606730439017439, 0.2675828812734907, 0.7935862844283162, -0.032334389138456515, -0.0856296739027509, -0.45068229340615334, 0.6466551601992888, -0.2021836621209349, 0.27319585310008027, 0.4585508679618185, 0.08436274170767114, -0.09065723947294696, -0.11985422688090602, 1.2208238936702474, -0.22097650246583975, 0.7248407067394208, 0.49677770519215547, -0.2017080521519251, 0.16487470848722952, 0.06507968901505619, 0.32763042939025994, 0.2707831044360972, 0.5280780496942422], [0.1621359912761437, -0.03668342462229782, 0.4763126391610846, -0.021248280025938825, -0.44868455644548566, -0.23539477325601157, 0.32164243690830324, -0.043688411186042525, 0.06677364476384408, 0.15589237787258514, 0.6010897548292885, -0.05431467055624096, 0.2289328897905388, 0.4481449846101908, 0.26566337961082487, 0.3075576882765017, 0.08023398403759176, 0.16899757009951522, 0.4537007558667231, 0.3266264181264193, -0.31659188130295013, -0.15874087676046253, 0.18773244140449546, 0.11146623505755471, -0.11159870039665282, 0.11421560073739057, 0.05857865116836652, -0.024177544821059244], [0.06589323050669844, 0.6142230711825808, 0.14625952670689157, -0.005505347007304435, -0.06953639969614875, 0.04838608283277742, 1.5183532177015977, -0.19441986052991464, 0.05400880632345496, 0.22113338421616704, -0.15981306543970986, 0.023519128469762007, -0.13333934044254583, 0.423071985270058, -0.1633181328620142, -0.09864392059383696, 0.35244681796770105, 0.21602010311059539, -0.3874815671295272, 0.47241364401480507, 0.4169952993933818, -0.12015190242206726, 0.42822693461570477, -0.2788071889301099, 0.04042096634522579, 0.3626757627447763, 0.17381261602692558, -0.21426790379168992], [-0.3116023978518924, 0.3691353999317847, 0.1849474417200014, -0.2275821169060901, 0.27620539577016734, 0.5210354032962474, 0.5879967855236073, -0.4251980795396514, -0.2780192676540847, -0.061483950569304724, 0.0034135983067297825, -0.029444012832370352, -0.14469152136558758, 0.29005568811724475, 0.17615169655121304, -0.39368015539222384, -0.003119905307617173, 0.06999226297199135, -0.10360403864364584, -0.28505101141765404, 0.26417929553553704, -0.10525622270014363, 0.5149843139277713, -0.11838449042811142, 0.03743309055037141, -0.15251096771972475, 0.13223228122508862, -0.07840529101748692], [0.023202997591912272, 0.8915129622827664, 0.15433992445653658, -0.24547138419152184, -0.5078069003512564, -0.432792820155499, -0.26302778615495737, -0.24413840924996408, 0.27370446009197624, 0.10697975102408003, 0.10982858416128652, 0.23494409449219789, -0.4201121530665389, 0.43244697133707505, -0.049914840456875276, -0.15341457041481646, 0.11647556104153563, 0.023585736271142504, 0.3723175057027887, -0.17919591681950828, -0.05328885821029048, -0.05988469395153934, 0.7637571797739628, -0.23895750161679624, -0.040974131349881426, 0.038809542890840855, -0.0015426427382318171, -0.001602251559079404], [-0.22343324193816277, -0.14454305374012655, 0.24768614296242197, -0.16567248339075868, -0.3008080199156697, 0.666508104512919, 0.31189760898848934, 0.30673409841140653, -0.12505876314572145, 0.2302642016022735, -0.02899989747025482, 0.026557525214508507, -0.39104321074944953, -0.17475750679301869, 0.5570560000006916, 0.062043886050635474, -0.024307090024408586, 0.22707301934830065, 0.023496457597954348, 0.20067755648114857, -0.4063779874919919, -0.18874327210200292, -0.14710008929212753, -0.22040299436428526, 0.02323154565819001, 1.162814034278438, -0.055991122129242156, 0.020833990995895547], [0.1934346749419849, 0.04677639238886321, -0.010928564667984671, -0.15028730248614489, 0.14492157524380567, 0.6842148359956642, -0.1484727073989125, 0.4011438726385062, 0.0671753607634068, 0.08603379603166783, -0.17846814417070375, -0.5975966937030285, -0.35957218019270565, -0.27129334585850234, 0.866668836374738, 0.21197933757510412, -0.013858180530949955, -0.08940480750575507, 0.4073003194661876, -0.45549830434993954, 0.4482761294731805, -0.19263093892060204, -0.25959348959984024, 0.10709368303368244, 0.12954603261858433, 0.3263427898984276, -0.04403343641852919, -0.12347780449179444], [-0.30365438730202016, -0.058362020020445216, 0.02634173428443512, 0.02631701670988795, -0.1265150821444428, -0.34787251883599374, -0.3103854596165449, 0.08477559454620087, 0.02837315743360722, 0.21624910940539915, -0.3823080917742884, -0.411428674441579, 0.9748888774742366, -0.15208281516413877, -0.7795041646088717, 0.22738308914659325, 0.15671500616145395, 0.16838267464135373, 0.24782582415644258, 0.24520882630730995, 0.013532568883579524, 0.06813965490033852, 0.0065555078067270406, 0.8885208639119554, 0.040681630595633046, -0.0471498242840936, 0.34108258644689754, -0.08289534296748914], [-0.20925256064627268, 0.2305999962194273, -1.235406401942934, -0.15209174043589363, -0.11535995681167796, 0.019348739068670955, 0.24267003594029493, 0.39018668493490216, 0.2015734433474472, -0.5270702084117282, 1.145652439453675, -0.7735778260000962, 0.6297758581217626, -0.18324795486581932, 0.011089736712159827, 0.02564581228541143, 0.19928398270793996, -0.05003916401812671, 0.4307441133430419, 0.15398015867690074, -0.07927414331294533, -0.29960273221519207, 0.0682587458091958, 1.4328985391765607, -0.3223624927716033, 0.07129566127535006, 0.06075677950826309, -0.1792021749939406], [-0.16699776039306913, 0.23654242229901778, 0.3166568284889849, -0.12977993042461156, 0.8184446524453581, 0.2751525620628392, -1.2399039065873874, 0.42102620391922463, -0.08532233304068738, -0.30661216994795937, 0.09155110471527973, -0.049182085898110885, 0.4532137177463864, 0.004727882967094434, -0.29454421166810335, 0.1295177860578995, 0.41298846310741993, 0.0950039201003256, -0.11505289302258273, 0.19025819195896893, 0.5974387166531373, -0.14336747959270738, -0.012054942414369232, 0.11708724312976429, 0.34972917949926136, 0.12247981122867206, 0.21057637300643622, -0.14780680200053628], [-0.2776231225197309, -0.12741148858821724, 0.11484747973002049, -0.36948021084988186, 0.062054724980543916, 0.11542497257930416, -0.26248025924624657, -0.15757670561715714, 0.05112050320698418, -0.12022304996065925, 0.28002906416173123, -0.08954007179531949, -0.29220243579854505, -0.09511807810059218, -0.08349133517367337, 0.44716084657342764, 0.39708368363615404, 0.439333792650268, -0.3295490981592377, 0.6220104207045279, 0.0309029531722634, 0.09247570765063462, 0.27714499927231767, -0.12858690144795223, -0.14334764661635507, 0.3085131791847541, 0.08543656474159486, 0.6418989978390043], [-0.4258755827562177, -0.03990523508002271, 0.3787144050203182, -0.2431306758289539, -0.11901627100069896, 0.017562128440524186, 0.5294336866735739, 0.5136343404996775, 0.3452141751000384, 0.12222460918991904, 0.04160582069581968, 0.16180758752838423, 0.46889597716463643, -0.369077636542842, -0.13630919256861593, 0.11962295010069503, -0.17233816944375333, 0.20607021745664783, 0.5511832846010356, 0.07450423739854391, -0.48323320417677107, -0.11780484227805484, -0.28473454584729513, 0.5516955998480282, 0.426412030119279, 0.5007723034095263, -0.2010826425951163, -0.15308926557805475], [-0.01647525212032012, -0.1292321457199226, 0.17704277129503943, -0.11297261196843779, -0.2285595791281131, 0.04451824141147658, 0.08910417261817354, -0.11505496226021907, -0.23825449916339445, -0.6130302266690241, -0.6031462607394272, 0.3359037118896466, -0.20906230447079163, -0.3474801214543167, -0.3945663556299955, 1.2322755405984225, -0.05903144449626244, 0.09465895256397248, -0.26420350218944366, -0.14546513023963237, -0.09865070098181596, 0.07190610374047221, 0.08348619384044556, 0.3615620833527605, 0.5404300234056435, 0.4859341131080577, 0.4721322040367954, 0.09820791149357841], [-0.11446160574837716, -0.19220091163839373, -0.13992558080011833, 0.31404992453425834, 1.2299000759073526, -0.20924759573906587, -0.329343794357291, -0.01666924180175121, -0.02648993463592332, -0.1054946289737694, 0.6633788102382896, 0.015334973860307216, -0.07411120510563626, 0.6533082108866735, -0.41882984285510766, 0.400473091034198, 0.27214008746703644, 0.18461873595503722, -0.3698838686930203, -0.7500352558075449, 0.30397300546136574, 0.4301022727325142, -0.09250470471029056, -0.2628548869958487, 0.23195549678670235, 0.12742355976960498, 0.1704792747461263, -0.14755074676027746], [0.2301500101757416, 0.16996374940995476, 0.21001871998279112, -0.15183466337639792, 0.11883796462396488, -0.3022618671969137, -0.003389859509484627, -0.1540783313726984, -0.02005367619364582, 0.14902460976249904, 3.052286151367583, 0.07458462078994002, 0.4801021902486743, -0.32155469841275247, -0.04913283853150429, 0.05341748895590952, 0.36128743815475745, 0.36399906722458925, -0.029234447625417884, -0.023531467096441373, -0.36524376802585906, 0.3743606986772474, -0.06362303790832999, 0.2273801873246713, 0.16315545410083265, -0.18039263634933586, 0.300020517869501, -0.1194773546523598], [0.7730392738050987, 0.13771011077793094, -0.7317362453448649, 0.4841434232903526, 0.010169592445470008, -0.1423605778759667, -1.0009784645522664, 0.3150088064363913, 0.145989618110552, 0.013750542584549667, 0.1986810187988821, 0.0854910670942051, -0.09381250071776555, 0.2553091772144668, 0.36939158698322766, 0.36299140840372207, 0.02065509883308857, 0.35275754351752253, 0.4337662841427743, 0.06814337803218658, -1.4045624482526504, 0.42317263350204676, 0.1004002791456169, -0.024790047787827774, 0.465596276955776, -0.08981999265576295, 0.12733314344587077, -0.051550283592260354], [0.14919108287823732, -0.2859114797698839, -0.01659736884492846, 0.08285914146620932, -0.12135003080836688, 0.05218700312871155, -0.8426732070912587, 0.3580412905985642, -0.29456904198465966, -0.18786165423656362, -0.1318478684670099, 0.06577267929322207, -0.08327250458418585, -0.40695569596622083, 0.7687619999316052, 0.16968627715735726, -0.13049994561531728, 0.25234619630009886, 0.9325641768063123, 1.4116302264929153, -0.23605995131245386, 0.2561569341734869, -0.2128554457623334, 0.3345967989411447, 0.296892559005565, 0.2039379225733484, 0.10194349716416631, -0.06444598865314694], [-0.27344614737203127, -0.056051792506829706, 0.1333504425073936, -0.03725592475935306, 0.1318944409131262, -0.6859040752389363, -0.13101927051920342, -0.2281122934333605, -0.5129528432471185, 0.40628805353623626, 0.7251805853801185, -0.31141140384322463, 0.5228098191737417, 0.04972770600649681, -0.3286716468827392, 0.11539767453510662, -0.1951057409604325, 0.5348043352169717, 0.2540366698630554, -0.049438472542540024, 0.2101992302512733, -0.24389857103345428, 0.16154104997053287, 0.16595746024757457, -0.1499329256726484, 0.3288937127475061, 0.25456593908423825, 0.49752245842655235], [0.23423322727768453, 0.264398739957834, -0.3908217745116621, -0.18352113750281032, -0.45020622011587286, 1.3459542473909971, 0.11986151111664722, 0.17337105427518038, 0.04738305535874156, -0.11168957102404577, 0.13988239283238516, -0.3002108104008771, -0.3924757484593887, 0.24483430930637953, 0.13209232459050751, 0.27917643870056114, 0.07488084806408243, 0.24004774930548653, 0.28706863516321307, 0.09508938985032438, 0.7379283841614604, 0.06103152218728511, 0.25205566802811263, -0.04027772785523035, 0.37389534380767964, 0.45846669464071316, 0.06092880464523234, 0.22107195864674595], [0.012620622234348738, 0.15080766728567327, -0.8111964355770775, 0.5699283565116419, -0.2677772797283734, 1.2723546670748305, 0.6541463695958393, 0.4469482905162596, 7.034282282665212e-05, 0.03358457765785874, 0.12456495679518668, 1.2323964680197137, 0.6368247298000272, -0.4624957260496025, -0.21589503200773313, 0.12701207904583667, -0.11972373652089732, 0.2144208713961737, 0.06481359345037517, -0.3136845515526182, 0.540834295496933, 0.501165030965052, 0.02072032327610019, -0.05659475916672266, -0.17914121533202332, 0.11732096047777874, 0.029036317710261147, 0.0223540557567852], [-1.7551033826545996, 0.10159985614531505, -0.559216638624614, 0.8912858174717335, 0.3100223017756568, 0.5773849763887682, 0.1354632914129153, 0.2729864727407437, -0.09990521296751023, 0.38373244572024967, -0.13871418014334377, 0.8348045542034837, 0.9962208526186093, -0.3390104805780941, -0.03709545718201353, -0.06501939800269359, 0.18525583060064427, 0.2601666496708141, 0.3099783403450895, 0.11316033933028113, 0.5515552685535665, 1.0583236497477344, 0.18776658142496, -0.12479436272983514, -0.3780396576945561, 0.21528333912570496, 0.5313998641685469, 0.3066873513592043], [0.6214652922208677, 0.1472115147655632, 1.1849162310341461, 0.9186434432282735, 0.13954107664282323, 1.1822293138848219, 0.21911050496131168, -1.5392943098346208, 0.0449054486025239, 0.13680946177073605, 0.04959214397353085, 0.02935933097824469, 0.2026868256793891, -0.022737481816175256, 0.4657903312171405, 0.2144647904969506, -0.32001421095669835, 0.21220970314649917, 0.252090929932306, -0.15516988573324714, 0.33507244034684325, 0.6984996730992299, -0.14582527922835375, 0.07257339435933402, 0.0344093450633691, 0.12148205784008394, -0.11165850091941161, -0.10682987044676562], [0.5034942367010465, -0.12256339469635023, 0.1516204795469767, -0.1933213719783827, 0.12928040392296072, 0.35925413535986017, 0.12434763511540868, -0.1795507810189947, -0.25942510950946895, -0.08456493965485279, 0.35144747994728576, 0.7518485568682483, -0.004752546721762353, -0.04308207364999747, -0.17983378711579195, 0.0034653212848723136, 0.32936966692143954, 1.156819134034262, -0.02999673606709163, -0.5759948078584918, 0.4263251920258034, -0.05571376504492795, -0.3025148796923539, -0.22819704831774296, 0.5422861395698372, -0.16323468367428148, 0.03933613378055906, 0.25702468717315835], [0.2454090882893561, 0.6620590495650761, -0.10099836191819399, 0.22161930521565446, 0.9246529593050431, -0.5408229122706673, -0.10633277507758343, 0.16442994009353543, 0.11137101904743846, 0.29868899682790456, -0.046612395904417084, -0.06638513785062411, -0.04173285280732988, 0.3056642220344563, -0.09186620628981645, -0.10204289409572709, 0.1328483749257662, 0.2115566534539876, 0.5878450588744428, 0.33153138297444823, 0.7736503472804772, -0.1024527283685336, 0.22591302734852986, 0.05466846501125189, -0.20588861126067237, 0.02322231794858479, -0.1112496744471376, -0.15862265895303632], [-0.4858976805668921, -0.08505066363856728, 0.5645334445943433, -0.2722059711630812, -0.22223689162191462, -1.1417883409919933, 0.5255587606041389, 0.4096405398753685, 0.03844164851378591, 0.3460836667492236, 0.24263232907643048, -0.2580150388495579, -0.16465596780317623, -0.1727822805021016, 0.5432011506934304, 0.12033235284188806, -0.05703117696650941, 0.23048060433130876, 0.29662115693828767, 0.07541299497296203, -0.0921933579823546, -0.4704814561724009, -0.05555177969565435, 1.5669268414245012, -0.14270945882095526, -0.4506293483493187, 0.20845652496615832, 0.1329491786880134], [-0.12544416229642213, 0.34023774866052814, -0.2474247799541735, -0.013914278108328541, 0.614962493505929, 0.12681287675702502, -0.7864421844896201, -0.3472168596387864, -0.01948231050716784, -0.4740438831355691, -0.1496221517769456, -0.24429162879323288, -0.18809832284373015, 0.059688575300711456, 0.13326138251317748, 0.21733655918476116, 0.40886512465303676, 0.0069974994028603014, -0.24243496382000293, 0.7477377488479772, 1.2225518793449441, 0.09219482737861674, 0.113107521015953, 0.3664149500412519, 0.21890900709264088, -0.16903280729946532, 0.2942914111079966, 0.18737121527713457], [0.6608796718942143, 0.10116901963366293, -0.21380091389073494, 0.4071189788349223, -0.29720316460137064, 0.5175154667508841, -0.36855808444836685, -0.11253049134577107, 0.0003675682650285634, 0.02080079400251086, -0.10654986818500782, 0.6628067440498522, 0.8034056879135411, -0.7328221511890837, -0.16778598857750623, 0.02432197046394794, 0.04380188901604739, 0.19296373714611179, -0.8825539885782893, 1.2988118981374588, -0.03847744800127853, -0.002455647171032575, -0.09859010719154179, -0.31472704056618744, -0.10249821146908912, 0.3073549988931447, 0.05577170521344786, 0.01587948429267127], [0.22234677296739463, 0.09207339578306913, 0.06365781304510756, -0.06833971528921218, 0.6849221192953021, -0.2846835380561138, -0.09405310021789262, -0.2569677817527294, 0.04822491822518531, 0.04331191412334423, 0.16811411605575, -0.05156332758006449, -0.06092052415863514, 0.27091801608856114, -0.2840611335768187, 0.134414530411859, 0.16466052410178736, -0.028768180827358148, 0.18084239881364877, 2.8100688463416934, -0.28950497295535815, -0.15695484924410585, -0.053298258759321746, -0.04916063376162437, 0.12457579712358069, 0.22813773098728507, 0.1250530550547372, 0.042787555191350225], [0.6025061402189397, -0.228957543456655, 0.4874837360355072, 0.11016036469261857, -0.020591482801652558, 0.23417125403844372, 0.402592990722821, -0.3625654783298022, -0.267560947227351, -0.06416210387652, -0.09989307477994532, 0.06654528269327256, -0.32377140730710113, 0.1904086067928351, -0.488127185843928, 0.5600350456891746, 0.037733205108568084, 0.7527751120356019, -0.2878916021343459, 1.0404719735342494, 0.4375623866261606, 0.2990106793262252, -0.050270386550470635, 0.29050154823302404, -0.259077531774456, 0.2502623912302298, 0.21412263593166794, 0.36698388573134577], [0.5717391256779122, -0.19208288133210275, -0.6555414645471694, 0.40187740769155333, -0.0693315342154476, -0.020200019750418647, -0.43648234495418875, 0.341175550714109, -0.058691993774746216, 0.07950644894685366, 0.037645496115273014, 0.00029312969016927204, -0.35912636184602087, 1.5198998376447386, -0.9746978256501704, 0.15935991278599762, 0.06310700181380317, 0.018448730869234462, 0.01069005589685854, 0.15418320876572772, 0.3923820997805468, 0.6168510004056571, -0.10193930058141484, 0.2103814476036593, 0.06166764410027037, 0.21441083865527946, 0.020131921799478234, 0.2359166651921624], [-0.2822667823952262, 0.09310201302789137, -0.1119550128989896, -0.3382645902774275, 0.7895878748758298, 0.514268976923567, -0.17925715964250477, -0.17165690132297892, -0.15676544927674177, 0.05029330873651234, 0.06505896491375018, 0.004948023016396657, -0.07549328994210763, 0.19046777925783406, 0.8933652581689671, 0.09684462600301341, 0.17103863992515134, 0.24010082577962819, -0.12327029890202963, 0.06087139798586376, 1.2536598793766556, 0.03002207000476381, -0.05487107434485306, 0.4482194746249544, -0.011001139568758058, 0.0776412336119955, 0.18050738812737632, 0.06947993611998524], [-0.036764919196584735, -0.10721219789134433, -0.41365910639963105, 0.31012785371588747, 2.230586076147101, -0.33040766066567095, 0.45479651209300037, 0.4949788111422145, -0.16082914815248656, -0.0033968429160835976, -0.24837497160499492, 0.03743923903078959, 0.1221945945915024, 0.10645845030259429, 0.007708160567358505, -0.24861960219705587, 0.03895441293871417, 0.33561975623288, -0.008672231621577335, 0.15757598405928494, -0.5198530754847438, 0.21253625442994678, -0.050617333409664046, 0.0479450258175061, 0.3849808589139387, 0.06773079160779934, 0.027985344852774957, 0.31163675568052546], [-0.42045355199622986, 0.45551708926661444, 0.1847100516883062, -0.5124280137622519, -0.0580159851883936, 0.37990158052910095, -0.7330813000331937, 0.3175388610660765, -0.2016550859882893, -0.25762846835650366, -0.12087572298076776, 0.4909350636905193, 0.09819292363707376, 0.327851357226054, 0.012844075836385593, 0.48308138333275075, 0.04038026328565551, -0.0185888500211712, 0.34737733584366004, 2.2930015143124733, -0.2856292099129585, -0.15435891936834348, 0.43292151625601255, 0.040290261701834175, 0.1943789144219375, 0.15236142992154997, -0.10229537934459261, -0.022086223116241845], [-0.015364623162275916, -0.20746017694715116, 0.384549829502469, -0.23975516952765866, -0.09029846309372647, 0.22735868970173442, -0.8046453514401627, 0.48198698282628283, 0.22286642026030687, -0.18935628663302762, 0.2306401448904434, 0.3127193121680932, 0.1044582721702639, 0.04522586304038366, 0.6858574517399518, 0.1416117854735538, -0.11172442124567947, 0.12925313208033554, -0.2189003457830569, -0.11340794188266115, -0.5828699949455296, 0.004757253409653879, 0.08925251798296881, -0.2395266833105403, -0.037652026055182995, 0.8779591832321999, 0.3680773217343813, -0.09110905038324638], [-0.05797037670774772, -0.5308234934374388, 0.09055042272102512, -0.40015456300282454, -0.2943939498441852, -0.26916572093119906, -0.8714034976069728, -1.6036889478424028, 0.10176312846646332, 0.05105039581264543, -0.11309334349268767, 0.0618313634336341, -0.05949028841363643, -0.5347753778447901, 0.720180735380699, 0.2107149853311614, 0.15268737615217576, 0.2043361468626526, 0.12335027575827077, 0.1174650689898009, 0.8421889052398338, -0.2705515660749527, -0.22005608293111717, 0.7812787645486309, -0.15627503358067177, -0.01926944650811175, 0.2777621778503931, 0.1092123565861542], [0.49756324229659343, -0.20429215777437995, 0.13717340793898306, 0.46280934791144973, 0.2422615375992683, 0.45834512919613224, 0.26857534371902486, -0.30561324563771025, -0.3061188705890872, -0.23476564801832175, -0.10291745935193276, 0.1500247551501352, -0.2146764813645711, 0.26191819088137985, -0.21155360545973995, 0.013606483247966367, -0.0853390491824855, 0.8515710991697938, 0.3145930185294101, -0.10538955920921499, 0.7440474803915159, 0.3683674516217295, -0.44050976686580073, 0.018775066864799277, -0.33508889014261645, 0.08825131336194572, 0.33281423577691915, 0.6958403597206754], [0.0627468289742989, 0.17371637538790682, 0.05227484813912556, -0.02511513460680527, 0.32198876485913486, 0.3068621137103499, -0.39009534190029355, 0.5822341070358711, 0.21701182200912342, 0.11887478314224616, 0.21763525244706008, -0.23455400637023988, -0.2503607255184512, 0.09093440125998115, 0.10074758278030602, 0.05064749499439899, -0.21978908339109082, 0.5322822271742399, -1.6214126200810273, 0.3210179655973553, -0.2748679939783459, -0.18052027289820513, 0.13225451650414294, 0.16402167159937484, -0.0049233518857500665, 0.39453527533926636, 0.18593004449968242, -0.035752430483171865], [0.36723519287111217, -0.1507996392412853, -0.12060703221104484, 0.07042122295097483, 0.26599824814807266, 0.02823389321109173, -1.1377177375056537, 0.07122887487584692, 0.15276036662272197, -0.3035829327588534, 0.33400395705880653, 0.19102978560090275, -0.09308091362501215, 0.06891040832347965, 0.07029605861097549, -0.036820886926591044, 0.34013583502524936, 0.04311738791149644, 0.5362920143917385, -0.43138052438155045, 0.0016676510769075398, -0.10445669613705252, -0.3037551506148946, 0.6905577293018186, 0.18657099175376612, 0.05212547368307379, 0.3274193740768816, 0.20578177444691195], [0.12325121510595573, 0.11726564512618812, 0.10205136354614616, 0.2619941644213112, 0.019280767053289453, 0.2991964433260949, 0.12966485949493783, -0.266198784900803, -0.05144124080326349, -0.4860165941489925, -0.08415420901195145, 0.011080056292565562, -0.14905274841380994, 0.08830849935059781, -0.04651989559410843, -0.20268570094926205, 1.635801108749089, -0.15962697799332215, -0.21798663402753393, 0.3761440498585572, -0.2002151786170568, 0.3197023370332406, 0.003050048303035048, -0.07437582402577324, 0.3139164651939605, 0.3766392119819949, -0.3680072154655684, 0.6505772212375478], [0.44836928047179064, 0.038292508861348995, -0.322999554034964, 0.12284165683118904, 0.467906597887018, 0.29238123070996297, 1.4707883591678097, 0.3415776636130632, 0.03774795862418024, -0.20192739787166333, 0.10379249252363223, -0.3191919151120215, -0.23284595596480587, -0.05258814300172395, 0.5657585859131348, 0.16856980092702875, -0.36826986720902843, 0.02454096690388416, 0.48479330614474087, 0.26868745188979265, -1.0349920191453366, 0.03580388355930684, 0.4736282615643784, 0.3771122883183188, 0.3681616214356371, -0.2858726242725146, 0.10404202086531905, 0.13027278774366552], [0.4820173024822148, 0.07533918678306255, -0.12977835579441968, 0.13690152110744808, -0.026654724532930812, -0.532224229447696, 1.4018679587171887, 0.22583955958650653, -0.23222371837178152, -0.07480621552599948, -0.3197715477959824, 0.28305463493234573, 0.2595246306707498, 0.3099315298239543, -0.18086229828957123, 0.21077109937799465, 0.31585174854881204, 0.15766042018808943, -1.096697039599199, 1.005381478905382, 0.9077280730762399, 0.08221064365516294, 0.11254759675530464, 0.17085575158866007, 0.19149878426852682, 0.10949708491550361, -0.30798875193994074, -0.09436288011493771], [0.11622706276263353, -0.07188265172674015, 0.2537971977504385, -0.07378220054647219, 0.04027947903556204, 0.5633556303385, 0.4906954463470505, -0.19904463944601564, -0.7809706345928956, -0.5471079211118057, 0.44270411303009544, 0.37013539675194385, 0.5996114347749515, 0.12678113671155192, 0.9928896620274085, -0.20253857332193323, -0.3526492776794776, -0.11810531144887133, -0.09432437608381013, -0.1230774887795114, -0.5465065487381051, 0.061202241715703265, -0.02940446429539512, -0.02546609740808, 0.32214858190970636, -0.22852693003000538, 0.18958341840939452, 0.3778712823543283], [-0.24380109847745957, 0.019283223862300643, 0.4773190664860979, 0.2256489482009294, -0.12419610488285378, 0.07648003005349148, -0.11273740642067573, -0.10384891449532585, -0.01085737147702035, -0.2860871402481953, -0.5284399442833431, 0.23605744681525895, 0.35306382522916513, 0.16894774921666297, -0.009688372038960754, 0.18493515751414127, 0.30643069667075723, 0.3400850593470728, 0.4024057288516409, 1.237719926454542, -0.8692594909435357, 0.43355105170615027, 0.46595291784526677, 0.2867426145591667, 0.33211778547625176, 0.21939659921535556, 0.23631566937239493, -0.2223337355455016], [-0.5700361256422389, -0.11677091173373302, 0.04907495779440047, 0.227803091450252, -0.22331091783316914, 0.3447612042550208, 0.27833540901117837, 0.530468256381316, 0.1592266635051628, -0.470166363491999, 0.7214054792517477, 0.61488669496164, 0.952518983862156, -0.2559920051096526, -0.4822305306859345, -0.04436012125897273, 0.07830314696959435, 0.1887133247628318, 5.924185779292791e-05, 0.007542043441924847, 0.01880631077534422, -0.025286814956444543, -0.04282823955364273, -0.09657254546174789, 0.5923556671017449, -0.23498408730635872, 0.2121656691091618, -0.29804411571751066], [0.32842564538574076, -0.08809572720654826, -0.11787216022997028, 0.010679877111090256, 0.21646693179515883, 0.6905218641530502, 0.6401920829149758, 0.24531942967786247, 0.27775134087644576, -0.15887109990139803, 0.42760139428356264, 1.3318128560960911, -0.5729352670931259, 0.7618560185690861, 0.01568126025523551, -0.248704837633171, 0.02832518203367207, 0.12832462955721496, 0.45592958506072045, -0.13586145573595773, -0.564351109211893, 0.20182486827688634, 0.0004228648944644618, 0.010878859361097531, 0.2673136942923969, 0.41950515916245334, 0.1728959084190637, -0.03317083550775267], [0.2313794705848659, 0.11993195773984024, -0.2259845000178458, 0.03236608999444979, -0.4184024907512567, -0.10404343261814882, 0.8052047205961959, -0.12498037510989038, -0.07927764210221445, -0.36697975624008616, -0.03047630202855667, 1.1547563760181614, -0.5956318248873932, 1.2263222302792425, 0.1719075172267682, 0.260614638809856, -0.0022487228074300532, 0.12244300728883371, 0.4056724456916637, -0.28769168830880143, -0.11332920312502628, 0.2926799043097243, 0.24725509821933875, 0.08989338851921155, -0.11100063979815253, -0.1366679301089436, -0.01110379220340541, 0.3025295628593601], [0.20781223326147352, 0.24012109112935656, -0.3335656361170799, 0.3029416127546315, -0.07347136510393665, 0.22317426983558392, 0.2857460293434863, 0.33608317761710305, 0.05448709963161914, 0.18139366563645157, 0.0018162396968580308, -0.2166378686223016, 0.2882251477956217, -0.14115112595986876, 0.539968877287042, 0.05166304875056719, -0.077088492810062, 0.4206472654018536, 0.6213753364998325, 1.1271486001445894, 1.0341510408425847, 0.3095589848294592, 0.2539669069508672, 0.14766805768302627, 0.17207242064692566, 0.2196679236244464, 0.23995018780453348, 0.029990397106883525], [0.0006938828727324734, 0.20484259087902643, 0.3640108251260836, -0.1349392308776205, 0.26407306799526276, 0.9501532512125254, -0.09573777399156354, -0.1635559998054709, -0.17780640452937882, -0.3098484699416917, 0.7953435606166472, -0.09999827235256696, 0.33335609575104336, -0.16166600998364997, -0.31100586522516793, 1.182952847513112, -0.324294901476167, -0.2302189385000083, -0.27528017830106777, -0.2262872659788814, -0.8453043277689569, 0.22228369163955636, -0.15760157493321664, 0.3148455104633405, 0.11819532184928039, 0.05983780039134607, -0.08065091438819816, 0.45063052140100074], [0.9607258029735718, 0.4396615001128498, -0.18363015291969065, 0.22753808641185175, -0.006913702924415422, -0.08895567631361519, -0.23831332193457314, 0.07483500287618688, -0.21580807831568707, 0.06369789862476997, -0.049950289782321626, 0.5541242294793747, 0.621031128497144, -0.4746289326082318, -0.06710025037011695, 0.09530077362474004, 0.1564172126890808, 0.06012503756674734, -1.266221356508054, -0.4950686730436594, 0.22264032617091536, 0.34042708402673777, -0.03490054495106615, -0.009652164172741772, -0.14593193157578307, -0.307584142825953, 0.13570273240554734, 0.029806585068099134], [0.24977510804548722, 0.25634822655241524, -0.35453449873292536, -0.001500015743274939, -0.2116738406995989, -0.8449486233479313, -0.29313791116721055, 0.505511321709907, 0.028214484547883584, -0.004074178397295723, 0.0405458924462366, -0.324125044429748, -0.04305092953037876, 0.394534378068433, 0.16088362091655137, 0.06952578705872504, 0.019977128048785757, 0.014032417245653003, -0.18960515644700696, -0.01362612063817675, 1.0471397965629863, 0.46372501192308707, 0.24030875494591153, 0.12013317838988993, -0.08583239665968667, 0.24121967847776507, 0.2547758747180861, 0.07823656895414757], [0.3732176727703806, 0.04269958824088115, 0.051066712482472895, 0.021466997737838115, -0.14008847578790345, 0.6091358621548117, 0.8741316116218313, -0.9302720926494892, -0.04416852955313464, 0.0005485824343470228, -0.32415429208020297, 0.016840435863331407, -0.29548437522439547, -0.2727863519678434, 0.5982096868726132, -0.16986353492903158, 0.424950973620123, -0.14674220654558398, 0.5004663666994772, 0.5118337417770811, 0.5503627264462747, 0.5068467969781628, -0.3393935741407689, 0.44930796986263627, 0.0005805311785735427, 0.17309433492371623, 0.17844123574821283, 0.12609810220088463], [0.3077082772536566, 0.14171087164956328, 0.3887915885796932, -0.303888267213055, 0.13087283112411555, 0.18547445150097533, -0.05456523092590587, 0.3548469862652613, 0.030497390135825246, -0.7973393060469453, -1.1649880061043623, 0.6409134088304267, 0.7509357973707599, -0.17732268561065218, -0.33353459671029045, 0.10759983534833358, 0.32940600974000644, 0.17492542661056196, 0.09733291205810764, 0.22150167602406634, -0.47998599273415604, -0.20976390384318255, -0.28134652025075957, 0.3670571529703362, 1.0420613072095346, -0.0397110570214875, -0.043263540702725464, -0.03531703639555282], [0.33759926081991437, 0.11692042800924513, 0.10003428626774671, -0.3750190306398688, 0.44291228237917185, -0.14471374199441894, 0.3832836617039684, -0.04791062812418427, 0.09917219983932607, 0.192652704115535, 0.4305032449789437, 0.030877852917720175, 0.15869708580407113, 0.21128075437709273, -0.1742567014687631, -0.27175695966544977, 0.3966667799306973, 0.09655469084274032, 0.032048314996339394, 1.9405263308312415, 0.07300880801062658, -0.17918321272802118, -0.3739428129937344, 0.5512177655666657, 0.26837915772605364, 0.05314554342120019, 0.2897008689316327, -0.1140698458472639], [-0.09738935576614975, -0.14888087152177973, -1.52224971532356, -0.18294415973623604, 0.24223135470140209, 1.0337429658893191, -0.23402252320688513, 0.04907514870032471, -0.27271931527716947, -1.0951814399650432, 1.600344086171706, -0.1347179544576466, 0.4642601848427637, 0.09171105863997059, -0.3179745433452875, 0.18527495653642884, -0.1482104249919341, 0.2306813808680484, 0.1008410688712558, 0.06181450138253388, -0.28077299991574517, -0.36744645793165154, -0.016698974528449338, 0.9779660726606032, -0.12525160430158527, 0.04257617858767524, 0.17725749681331365, 0.41456514771007424], [0.35531571365241327, -0.028005092499452208, 0.9368927455510851, 0.4924678169029871, -0.15968194931628077, 0.5503658641433705, 0.09978319483871363, -0.9921657606972538, -0.06223724022553005, -0.332426370396094, 0.3201105119964145, 0.1207062835506565, 0.19797804962684754, -0.055309109116812284, 0.8466738555492692, -0.027760415726347548, -0.227003631033946, 0.5416841730501735, -0.0617812317652034, -0.12416423221602318, 0.45721445563190194, 0.5113541238466709, -0.029172724692425548, 0.19336547096702963, 0.22889375928644484, -0.08476985615812567, 0.18278748660821764, -0.1100713679423403], [0.24011608710022825, 0.07920985258265872, 0.39744547935689384, 0.021264599373855917, 0.04450274498617842, 0.38924820843073843, -0.22565924274136523, -0.3132305396227907, -0.4928561491327046, -0.38426980841577707, 0.6029966795877957, -0.04703657612135073, 0.3859414945127185, -0.04945836914120367, 0.5983620530925222, -0.34052001908098495, 0.026649603462149722, 0.4053449794126683, 0.5837878840536846, -0.19863504499652174, -0.09796423245745908, -0.1558183622603808, 0.1567724421980356, -0.48910784739480445, -0.05875319610243391, 0.5096522498564122, 0.48664687194309425, 0.55156448686197]], "hidden_bias1": [-0.4494642009750881, -0.38665469901861876, -0.6821537450575716, -0.3733788213279154, -0.3812228282792757, -0.18978018864269766, -0.2702991818350381, -0.5811042449497835, -0.828272229220201, -0.026597315242602067, -0.18909517395988654, -0.6960204093265746, -0.41534006677869123, -0.763783450653014, -0.15259352107741125, -0.13580271720815731, -0.6177658141861658, -0.6205020909205133, -0.4838785612757199, -0.3140532126387079, -0.8848522360243795, -0.21910189632655463, -0.4489062656573812, -0.48919083572070504, -0.574141212042453, -0.3264601111344654, -0.27203710054843183, -0.35487143249528336, -0.5102951188117502, -0.1479394033547759, -0.2610241124769299, -0.4150176050625343, -0.3982188468291804, -0.3131106921890207, 0.031555720613211574, -0.15443263658393055, -0.0783219363026049, -0.6364309850143317, -0.6132959093583661, -0.9899345296769454, -0.30877628740072843, -0.3700690344080165, -0.14493970630220426, -0.6301493004989576, -0.29949953104518867, -0.5091750349580269, -0.1224305607027505, -0.597305661002467, -0.28776706954939685, -0.7226051305327604, -0.22833951981051093, -0.649426798968256, -0.6350994656623883, -0.30374673462700624, -0.514361927100442, -1.0917322648577752, -0.4829340615183675, -0.8134981033358908, -0.5211097499024075, -0.5150209859428029, -0.49095975217277144, -0.3829478747350906, -0.6146374495249077, -0.47725288192438, -0.612444647289272, -0.28458032027561975, -0.33790754619780816, -0.4582102988327232, -1.0407587196060233, -0.2533666109070429, -0.6137049786435503, -0.8718817930544446, -0.6575594128889425, -0.7207531981716819, -0.49811158040986847, -0.7006067476385794, -0.7577364719787996, -0.8423280880988068, -0.7654877734525996, -0.7751488822763642, -0.9615599145738297, -0.04728823051837394, -0.19645662970083683, -1.2453932520814988, -0.6626675733006392, -0.3009368174573028, 0.16440660206053806, -0.5802025219498415, -0.08379514244671851, -0.15879025125974616, -0.6389650359447047, -0.9108568654485671, -0.6344674639883487, -0.7591547316242641, -0.32372211466431594, -0.15839340598050514, -1.2091646033961878, 0.1010479328131697, -0.14722089669422087, 0.013726615098730322, -0.07344641909442551, -0.8200345419306954, -0.3151270092207104, -0.29812742309152157, -0.23511732629839027, -0.6909005174741644, -0.9260559187098817, -0.017449583687970543, -0.2988600553363901, -0.19078877581149223, -0.012787582849297447, -0.5231248560846838, -0.19152405885633741, -0.4967415383254293, -0.14063434591560167, -0.4194543924044297, -0.29706724776667387, -0.35561001859068425, -0.3570093162599367, -0.2740388744426606, -0.6689692456002969, -0.6598412812936065, -0.9365362723608525, -0.78623061571183, -0.06276692372910067, -0.5734635454450565, -0.6370491609133803, -0.5309409401396495], "hidden_weights2": [[-0.19500972996083438, -0.24180685779650277, -0.45019444747846604, 0.3386733102315188, -0.4749758398932143, -0.013962786497840789, -0.05838355190421053, -0.07689167390926543, -0.07162107463259737, -0.007553172685187661, -0.13375861265626432, 0.1746936150179606, -0.4655061758211614, 0.07484552010590226, 0.034103586351608615, -0.128060291392827, 0.10440299569234997, 0.13842042324056464, 0.06750240399163467, 0.043830314195043546, -0.057071872812819356, 0.07092154638242582, -0.3338942558451195, -0.16422887194317556, 0.04816209950958425, -0.19555798363600443, 0.05835582371119031, -0.11679152567224853, 0.2320189374629997, 0.06666100858008732, -0.09823870702929353, -0.12900797181030035, -0.2814242533365997, 0.049528274295414065, 0.3193309471808815, -0.30826022115979623, 0.05583650776388532, 0.07684248370080496, -0.6248134737672755, -0.3289791544198676, -0.04005953597074268, -0.2808244643405324, 0.024379628885593592, -0.3530817559675232, 0.14878635489381306, -0.22519349774516503, 0.24231692420111203, -0.34484897264797765, -0.0063790536916950745, 0.19432552974090622, 0.4407770113036503, 0.031187862078650673, 0.00918438813096756, -0.2658240620098741, -0.028466866903342554, -0.11513783791052554, 0.09883680478072172, -0.09753502130917802, 0.11586412342631848, -0.1662476573715372, 0.18833820257115053, -0.21651233366697023, -0.22662248713710198, -0.1747670755328834, 0.3769285466061127, -0.12568166622382052, -0.15499797642877713, -0.5088746465505379, -0.08273681331324147, 0.06033442136302856, 0.14765780926327998, -0.18796009756001758, 0.13710163278452267, -0.32717301748775685, -0.09873788763491226, -0.3484874967268007, -0.4330853674711767, -0.0020215121478921426, 0.45207717913444334, 0.0040807196423491, 0.7024787624364229, -0.04061705830078068, -0.4421552577564847, -0.046445822601329075, -0.36780090422712897, -0.07896064185083093, -0.09605768240449702, -0.016040369931293732, -0.0716668555653554, -0.19042609728503232, 0.07378929039355592, 0.5257247018060692, 0.14125183122650453, -0.5325546965361384, -0.13568309373391343, -0.05640644599713621, -0.15815930743170784, -0.24352861684899418, -0.03885315932756495, -0.34173085957718835, -0.13639904320779417, -0.17835056802894703, 0.09877782736261746, 0.20417231717842246, -0.27023954640460657, -0.19973295279135483, 0.5342549866511267, -0.09693917060943116, -0.07012760867657869, 0.2201987848060531, -0.1309721925946074, 0.01545653067539316, -0.11224876140209095, -0.1595933551562038, -0.07759532366029706, -0.21910391852028885, 0.30528679378051615, -0.22903245205051953, 0.02343219576628586, -0.12983586997924945, -0.05613350978597826, -0.1142320144087961, 0.1595982862564944, -0.5086512361690159, -0.2570616774611409, 0.8524655195767764, -0.1251220319739969, -0.2980874738721762], [-0.07068607008653749, 0.015514970947935405, -0.34205484814103454, -0.0003345877676366237, 0.2510750907767303, -0.2535766721739724, -0.07172647322746573, 0.11716205371523476, 0.24258741443936935, -0.10933143579901951, -0.1749272401075458, -0.12791205224961355, 0.235065497598408, 0.20561446898634692, -0.0009666652873577399, 0.0023247211057689805, -0.12281487672252321, -0.4031496889832435, -0.14525998787674432, -0.34112659606517604, -0.4344883091739757, 0.01660436906899214, -0.015643116675637645, -0.13260246500750644, 0.01656072901771091, -0.08337936722129383, -0.19064168757868868, 0.15616205794545407, -0.12585802694787, -0.11510578694467101, -0.021131204228802547, -0.29262360907432544, 0.35824515515696986, -0.26761737777487665, 0.26457984869561546, 0.2721649405466334, 0.2726436557040257, -0.292172969781432, -0.17602348382490374, -0.2899586485705593, 0.08112333391456839, -0.02461644430370563, 0.0777790769903725, -0.3852104431182742, -0.3381476311360762, -0.35234335365699515, -0.07785600424943338, -0.25583628507073447, -0.13437042072394328, -0.0452994815799738, 0.006333212448395968, -0.1681076037944068, -0.09792881212673306, 0.026150167662139352, -0.10626654101095054, -0.06064175771223803, 0.013453784849798922, 0.13578747895001658, -0.18616817115230658, -0.3954394309623009, 0.10556362745396572, -0.11415464393753044, -0.293924432492391, 0.026735760725076347, -0.10524107309589709, 0.07098985738992446, -0.2538095085492951, 0.2671810155543495, -0.3761653499557098, 0.10546511701397636, 0.06273235950760012, -0.17115878764308678, 0.1943873813304557, -0.002977145174698828, 0.07728225539052572, -0.22609738216656441, -0.2920660702176017, -0.1003939689382174, -0.12505723080378256, -0.2879348417479523, 0.14710816682069186, -0.11581662487487587, -0.00695829498429252, -0.10623525216025251, -0.1834359357530237, -0.0013277222507784342, 0.18368208465823496, -0.6009673724794921, 0.1999046024024966, 0.03570102294956222, 0.012970223022521389, 0.04160061718665606, 0.13588948142691676, -0.0032944734438602333, 0.028637247721315838, -0.08307188425430219, 0.07191544891985155, 0.20705783923980386, 0.004876869235289932, 0.47354225066304095, 0.19440623938475596, 0.1170232936437916, 0.11718470823485291, 0.03193915044460331, 0.3118214672316441, -0.15869591951929907, -0.09408069216376354, -0.05764644309973768, -0.012044047049648374, -0.15147789338852746, 0.07275635736744752, -0.22378425148130138, 0.29157469467743163, -0.4013516043012537, 0.07855190238484991, -0.4098515638047871, 0.24708242941362185, 0.1596580377989744, 0.1603736287572648, -0.2021288567731651, -0.41246975296750554, -0.2169507553843526, 0.06008388666849385, -0.11699566866546428, 0.46298806762244665, 0.23699416729869022, -0.002184057627523598, -0.05712310265186028], [-0.04754312198138482, 0.12718631931283633, -0.23854221390750313, -0.1958559969439322, 0.14581488025022088, -0.11861373282674946, 0.039810745687334934, -0.08136877405356603, -0.2861173366871814, -0.06464753995676603, -0.130645497571872, -0.2371335539674401, -0.09825286617556812, -0.06460276317924481, -0.03243600476300029, -0.008892117778001063, -0.4565371660891772, -0.23306235598826436, 0.19550388459372414, -0.0938056340277819, -0.06414384670071781, 0.13097438017423, -0.029689548300445224, -0.060097056676088466, 0.21153028858441278, -0.22716295824335828, -0.1991295028328074, -0.3792579007263693, 0.10411087254565492, 0.18676414620264212, -0.14770662295038783, -0.038912375522665535, -0.430091677367266, -0.2619780556635489, -0.12588952312202192, -0.1332563552539604, -0.0984111850571987, -0.4242869021701667, -0.24919516961525626, 0.0975284048240933, -0.1660584165482202, 0.04600843648766996, 0.23316572632057095, 0.011957331563183723, 0.29266986123485994, -0.28190273800542254, -0.23180057170091964, 0.13555065311245848, 0.2506840880216247, 0.14939450342817046, -0.053566583497983045, -0.0233607269807184, 0.09844574072207314, 0.3875002077250658, 0.0735919660436664, 0.1394950168420945, 0.025332926864393618, 0.19525074992151378, -0.30928278834784073, -0.19786969376281713, -0.2159175223912699, -0.38150498386954473, 0.20834610760782715, -0.22809114800053676, -0.17854609331350263, 0.17278648147215211, -0.023629124322389523, 0.2996060189896782, -0.0756947425921406, 0.0004286170193536336, 0.13730057656866168, -0.024898102705047095, -0.22952312955772458, 0.09749764196883065, 0.1474092662809611, 0.2890615539768614, 0.10691350607717273, -0.2846761166065816, -0.2045087676660524, 0.21764912063711142, 0.05187397593584385, -0.16892530427532373, -0.3448748193234868, 0.02266854695962504, -0.028416635947790023, 0.047170870667962383, 0.04694695305182302, -0.20688581809528744, -0.2659434582005015, -0.19610333249791573, 0.021578251828774615, -0.28291471662064704, 0.005295287220224158, 0.18123404711188335, -0.12256410842545509, 0.017789452783127088, 0.127613815738431, 0.0789803146374911, 0.0904751243705446, -0.27571525844960065, -0.04869237558969311, 0.14362386592699555, 0.06825625609466204, 0.11871243171706664, -0.29243680384860654, -0.17371552984351496, 0.0007113031915225822, -0.13622373103692403, -0.026314830655300648, -0.13449220938229098, 0.014793801287414785, -0.06527496037499708, 0.04201827563275367, -0.13548141557542243, -0.23920716607474557, -0.39859803284279205, -0.021529751713249654, -0.09306773592983802, 0.061854140767880844, -0.15467653015513838, -0.09055465005243778, -0.18453910559451162, 0.12378344994136406, -0.13221846988540642, 0.0693903857087611, -0.2896898035384832, -0.08952971524436608, -0.13661435327643734], [-0.1861673884024283, 0.05285013129169076, -0.26887274485761326, -0.16142987173449178, 0.1378857743495429, 0.02052267780370502, 0.10457653076576263, -0.18035034390321664, -0.08028041102471277, 0.0809324821656027, -0.07782486474162421, -0.19251063122379178, 0.023118591638364962, 0.12025250336984995, 0.09836108902626482, 0.12540823049520408, -0.10370250361308848, 0.12573710770355587, -0.28340609903493885, -0.24129150047114606, -0.0289847415986064, -0.04601929469057297, 0.188182548437188, 0.06900567923543245, 0.15889269287655972, 0.2891465286151965, -0.002350252482845849, 0.14211058587002506, 0.12911507691672244, -0.15749302158875922, 0.017959703506692327, -0.03237818956016992, -0.14697319427710923, -0.003469402648852684, -0.340577941412855, 0.029798105620487163, 0.13058389773997836, 0.24562764046764668, -0.1906302481361571, -0.23939670953145697, 0.0038681973207417486, -0.052210299176130646, 0.24486675423351592, -0.15626144556036098, -0.17089107637937154, -0.08319605243190892, -0.010065179722518375, -0.10054787611875148, -0.043606304388080906, -0.25541121768885766, -0.11314982122044256, 0.1127672797037905, 0.08196361775788, -0.05393745655662613, -0.10112621447904518, -0.22528263603291757, -0.08174847456457335, 0.19591281246059014, 0.03077185653334558, 0.03019458618798256, 0.17876933145480295, -0.16343567007429402, 0.12524558902746313, -0.13192778547577172, 0.08555065813963145, 0.3109702811197574, 0.20806454851229306, 0.20843510896827347, 0.2633071092554811, -0.10153636080998989, -0.21753926131158766, -0.48293327243408485, 0.08804335592270858, -0.0032839703511848657, 0.15706185953586696, 0.14195611586371465, 0.292691116659039, -0.46065713376957373, -0.19284853332273685, -0.1349562652608952, 0.3178621711803745, 0.09050426916238488, -0.16129920196046943, 0.1340416173653146, -0.19994577045654063, 0.1048658683994201, 0.134117775743809, 0.02421136252152863, 0.12943672088936645, 0.05412812472444372, -0.1557889235916284, 0.20160999697240248, -0.05674506668032529, -0.14667814156493522, 0.014202565927561086, 0.20729983716313918, 0.052790270734965415, -0.056257822253651585, -0.18855610814318507, -0.30103110173792075, -0.17407770528719807, 0.07980900182595814, -0.05912173497235481, -0.007088236521677308, -0.09174634312184479, 0.03222077439446487, -0.0006310991324646213, -0.11590916080386156, -0.13326081391795402, 0.055763349056465156, -0.05750294925565267, -0.14239032084059686, 0.10120044769790225, -0.04467886914707737, 0.00047540729715814565, 0.47922503010488815, 0.04995492695414256, -0.11057616459712065, -0.0954320752073323, 0.07445679113813877, 0.09336110149587566, 0.21550441830617373, -0.14633464592960424, 0.14045948993743848, -0.08350029542427821, 0.30490162762806494, -0.13118974522032803, -0.018533048084985508], [0.07483070971572618, 0.022557837359981056, 0.20582651244714373, 0.1991998208276562, -0.3169805512820022, -0.040061424275553724, -0.13594157085026803, 0.13438751106939043, -0.0008020664772918558, -0.11651594925173368, 0.17242422188479822, 0.16271590944668418, -0.10766383385070276, 0.09524024079672229, -0.06917524622950406, -0.19784008139843132, -0.07413117018258264, -0.1610503836686036, 0.04870476726928787, -0.06756887108898486, -0.18697107246046588, -0.10804532873701453, -0.15957450262325806, 0.0298664644407467, -0.006504671691126611, -0.06722330401802486, -0.020687146589656893, -0.1611628739673047, -0.21193095000228718, -0.15196006489338962, -0.17131116010594466, 0.012555145347114743, 0.13631005421469433, 0.08345611103774431, 0.04692687824152324, 0.0639636510926956, -0.1754562947602273, -0.17213087577202116, 0.004570853349728159, -0.1697634167514008, 0.020756888983380267, -0.05370501900413946, -0.10921239328606845, -0.023250555734837114, -0.2394639918618993, -0.05587646268037941, 0.005296930995387203, 0.00490946189746275, -0.34595460137150513, -0.06846768044628933, 0.2537583770320671, -0.264335213428231, -0.29350617989643585, -0.1966932577004593, -0.01693180576031082, -0.12567268395189704, 0.005263229903905711, -0.013126245606772372, -0.27584741968347265, 0.2695997254363567, -0.004284958826676471, -0.054882146290313565, -0.017436047008491197, 0.06420091401205746, 0.10727254522059616, -0.03108278332108646, -0.11654286407494574, -0.01804742648049008, -0.16620455337740958, 0.011634186663744916, -0.045288285876648945, 0.012660050776415112, 0.1092245425438018, 0.052352847915415016, -0.2711879829618269, -0.1993311599520151, -0.15613035675570608, 0.04034656105425781, -0.0705133141392934, 0.04467858895516787, 0.011475797488265636, 0.2953651804670649, 0.2265944500826293, -0.19347099944947735, -0.06360364632829653, 0.1103901036793215, -0.07428931698636446, -0.12263169486668572, -0.16007512625498208, 0.04693332706683328, -0.1386793174550506, -0.02569780148754684, -0.0005589719377700152, 0.11752057492351704, -0.04841553480941611, -0.1336586052835652, 0.005443610042433867, 0.20989164090639403, 0.1031732327605997, -0.03604388846617665, -0.11115812901059721, -0.060130218047498636, 0.09417298832112586, -0.11640546891010664, 0.040198089156959306, 0.12167640436360667, 0.06854415760753911, -0.10872537456212386, 0.056622983230275335, 0.17386972345414936, -0.01694951962392727, -0.24272438418189146, -0.1350418415015439, -0.27302431144646905, -0.07777118425760265, -0.14670869329902467, -0.06709894047221619, -0.13725383635512528, -0.14113589336940502, -0.14426633164409405, 0.027609888513608755, -0.14270641024689928, 0.010423275733548402, -0.23860298495205298, 0.03999605805333364, -0.02747574613640146, -0.18716145479954227, -0.17913452100002675], [0.12731349280380336, -0.04035070864786734, -0.23480414466086288, -0.1565577592465555, -0.10179728858629551, 0.046718391447913975, 0.40017945867634036, -0.519809621427697, -0.054681658290927054, 0.29828930270946535, -0.0418346946261617, -0.3005054318575093, -0.37051035207601374, 0.3671625884446733, 0.025425237213028685, -0.013713299544758384, 0.07215522584086366, -0.2004241145357135, 0.3297159906339246, -0.41215958465176133, 0.23306230641061004, -0.3358267345253257, 0.42556628789204587, 0.3675579129362385, -0.24200943601402644, 0.10825750069867443, 0.07194049189733434, 0.12035164986868593, 0.04325079455220183, -0.06193516277184959, -0.30471081211401846, 0.21567131143358764, 0.07692327523348251, -0.21187690434500994, -0.09056059075300543, 0.000913652705204341, -0.09584988773513442, -0.10892401612531882, 0.25224809947092425, 0.2803671360387539, -0.12165813289447301, -0.03329918024974051, 0.004694541612875968, 0.15809234276041986, 0.14410415048477143, 0.10203267952216243, 0.17576678714876764, -0.10030383276787856, -0.20903522664355298, -0.061358471642219164, 0.04313827316220929, 0.05122144252873796, -0.32302167119955616, 0.24540565051288554, -0.21983118572551558, 0.39599144584583484, -0.1372729688150115, 0.3017911631739661, 0.32271675894073715, 0.1219526487593549, 0.15075088319523244, 0.04695649806341021, -0.39023338372840854, -0.140813080323069, 0.05946022538324696, -0.22043004460902774, -0.6168028476283428, 0.1297535926565448, -0.11829668395755558, -0.28733805607798496, -0.23945690459354088, -0.354406754918181, 0.10624635241985798, -0.09329480231833694, -0.13349117209656128, -0.3524306163202375, -0.14578655473585775, -0.029779037435288095, -0.2808406431157577, -0.01044236524922567, -0.11396365977863522, 0.24135598826239338, -0.002910581772283641, -0.16867149310038246, 0.22369284864587421, -0.018866690597592054, 0.02320821133591162, -0.2996269361906856, 0.033200920324267615, 0.3796214562924914, 0.220550353971294, -0.23792429714491165, -0.13578298887177206, -0.2379978044206476, 0.025263760502881368, -0.11451406394187087, 0.2101307235137119, 0.12036194679017248, 0.3810068446454837, 0.05941304827233436, -0.021604768739315505, -0.15670647666447676, -0.07467729984219831, -0.10235171848526656, 0.4234103179477305, -0.00362827200286461, -0.09803287615942535, 0.3144134473024879, -0.036422567073510166, -0.1784036063203646, -0.06428366147410955, -0.3537906841073166, 0.28266949737509756, -0.09560754671698746, 0.13533105421183445, -0.14156381648213068, -0.5279095820446256, -0.07787873933140822, -0.02247774555064859, -0.1466395404204917, 0.26143328577225156, 0.31143944002535, 0.040361076864747984, 0.19837406556765078, -0.13738064446361764, -0.1737620226307558, 0.0601826010325897, 0.0716894210802289], [-0.03885726958137382, 0.21479676709112305, -0.18388913914065047, -0.19517685320998865, -0.215535390794655, 0.25386064252976664, 0.012243839202640482, -0.008329741763249037, -0.16679298052578734, -0.23674840454967064, 0.09232250785582391, 0.08517090713672638, 0.005058913278995635, -0.039053605838446026, -0.45465340368988955, 0.3767258497158381, 0.07779830868627902, -0.10843175977647011, -0.39576359636357006, -0.14808229083187752, 0.03852462897826327, 0.06606114649736218, -0.335130519629028, 0.0630030892280138, -0.1927390416861549, 0.054698446255011746, -0.04288725788014535, -0.051740588843322416, -0.23242191169415669, 0.2681760769558105, -0.05063162198616234, -0.28971698975632093, 0.09798701193371899, -0.04809658479379051, -0.1982134476889817, 0.12495160154181979, -0.08974753352757546, -0.14011309594381527, 0.5695217537100836, -0.15780721315164792, 0.5954248269632466, -0.1111085936673997, -0.19325795104374857, -0.061565104866123925, -0.10367261296589564, -0.008080333592342615, -0.23742799603632794, 0.012566286401977982, -0.09349283713676754, -0.2571321531197899, 0.041238684456315185, -0.43119891770523516, -0.0674410857584679, 0.06294206218954282, 0.08981029632176538, 0.19408029302278904, 0.02603360538726977, -0.28585374539356523, -0.06558749866695453, -0.1770748846574627, 0.0011971392011919887, -0.23418120863907074, 0.17389062741134467, -0.2998481397425923, -0.4289389345290296, -0.06467385206028378, -0.2509275925745399, -0.16461197838695082, -0.1414647894254632, 0.49230664641903854, 0.13610874750147084, -0.18030643513266073, -0.29106615622786225, 0.154513227803653, -0.3227330465963814, -0.3524651061496631, -0.016524789292399183, -0.04689432279984788, -0.15401067117150155, 0.04665389019049553, 0.07527887970807383, 0.14110636899843554, -0.09499067416530546, -0.025246006482764934, 0.6146674723196924, -0.01967863170305468, 0.19881906882915645, -0.08275402885654812, -0.21251581778186956, -0.052943401192739166, -0.05720210026733919, -0.07712260461935812, 0.03782086160482314, -0.08453456605516776, -0.2366447735236984, -0.05239874605050401, 0.003149567700755644, -0.012989407372374114, 0.18119197855879982, -0.01017035188602438, 0.023320933422926182, -0.2597640374473369, -0.048612144375122714, -0.42121561729764745, -0.042251098400992455, 0.00526218526339264, -0.12250007624602717, -0.18826534115373225, 0.028913085762807482, -0.017854286659027666, -0.49104216520153493, 0.1553795180873376, -0.39240351027722736, -0.0013883962335318762, -0.18975151023065304, -0.12352174280792427, -0.0691940786502313, -0.1217434428277816, -0.14796431678630625, 0.6273568749656533, -0.05403025320422799, 0.060413485038471285, -0.24879119418127835, -0.3023864366517071, -0.049559668490652256, 0.20580263017867784, -0.3407756059815434, -0.1540396606530193], [-0.15076611249448138, -0.06396667969744292, -0.16584414443513137, -0.2200353985489417, -0.1854261834599797, -0.08022031735628203, -0.06928125823096022, -0.11031203574458848, -0.05959842471307434, 0.10478858645720233, -0.22697166262107304, -0.12556090815094054, -0.205055427168041, -0.1454358515576489, 0.18571884717174414, 0.019127901682508063, -0.026800240899005824, -0.12790627464335, -0.13058572365557916, -0.1208481052378008, -0.14191187051302592, -0.013196163346957694, -0.1058836305292514, -0.0753509260541633, 0.026604445563455953, 0.18495870011838395, -0.029338119681184282, -0.1196630804221135, -0.08504023584398819, 0.20783529523807726, -0.21265035662696258, -0.12442184016698635, 0.008340231373599889, 0.029422418712622123, -0.31980405258585537, -0.1940915354395594, -0.1525192481554825, -0.16002077888498892, -0.05637409438312152, -0.27987562008453765, -0.11121667756532715, 0.011674574971009481, 0.2751720048958083, -0.03490161210766818, 0.09595661883320415, 0.022722332480563052, -0.20900236286766286, 0.344267354486, 0.36695416874538805, -0.0438303048469818, -0.043338555989630385, -0.07647776147513828, 0.06352906365823516, 0.2012797310145897, -0.04438234321583788, 0.04367503103198442, -0.3664308122872942, 0.13048549060530476, 0.272445409683373, -0.25113235832413083, -0.15187576284224882, -0.1780267215107066, -0.2378987205574043, -0.1558517152665198, -0.142808706708072, -0.0004929247456480534, -0.15150228524516887, -0.12611489916005658, 0.08457607321695518, -0.053106045737021684, 0.12844937377781476, -0.15446798453227834, -0.1425731546709539, 6.854500263449165e-05, 0.10981433858630149, 0.044427886426029954, -0.018967978991810394, -0.10921483780855333, 0.034728530410915795, 0.18602748042315329, -0.11084147632802589, 0.10941112654941017, -0.17282841587774078, -0.3947258369614231, 0.069219858734985, -0.05037224517768767, 0.10167884373363634, -0.035763537957137034, -0.06654129814640139, -0.10590713604681048, -0.07346457799744698, -0.37451896869067375, 0.08879969928864437, 0.5849727833449576, -0.09483323839319119, 0.1593517468708371, 0.04169008377484204, 