{"hidden_weights1": [[-0.5261607348725837, 0.8683479385618832, 0.2361450885391573, -0.5049772284107019, 0.7495730545672065, 0.8806640430772642, 0.15653681965339353, -0.5085905297094575, 0.4118026256511182, 0.5558089046134511, -0.2030421628890372, -0.27853348264902605, -0.4554250571958824, 0.6711374044959011, -0.2755865753250958, -0.15223733091485017, -0.3959675998657419, -0.16355775405354073, 0.437514824668211, -0.32011826350474837, 0.20709104036486028, -0.2453214609510647, 0.9748223319350361, -0.2358630944555799, -0.35548537585499634, -0.2648353051017154, -0.3405540060936576, -0.25954944434409555], [-0.09212418366756787, 0.07718507508860942, -0.40179771103933914, 0.08101268541732926, -0.2673835508428728, -0.5390750490462172, -0.2871889895434211, -0.6723290299805013, -0.4894683116612642, 0.4894263127737599, 0.41000586968068053, 0.06782066437253757, 0.06356102071426545, -0.08829870461050388, 0.09818088650867374, 0.009365217208182019, -0.07564438516531174, 0.5273596278873741, 0.7266778749279393, 0.3571968007174707, 0.27829570240062523, -0.11163797338102675, -0.08001365541244433, 0.18020555054933027, 0.12593046675169697, 0.15341261323861055, 0.07190569549152578, 0.4949210815105411], [-0.1648788237023642, 0.0935831883401381, -0.062005421593983326, 0.02459525686852285, 0.05553169208551054, -0.10998434360006809, 0.15185887027733974, 0.1732523718794658, -0.24950494273943258, -0.3663587146532521, -0.30462569667097233, 0.06560023310471785, 0.05914746548908472, 0.13330826063712606, -0.3139834227762823, 1.5785381436599863, -0.2541773477680053, 0.05673095802053298, -0.5961243759214806, -0.2698493459759249, -0.0569108343748731, -0.10123874996155506, 0.15378729516336742, -0.18302978983444707, 0.3463666971968682, 0.21759917309027613, 0.15662226010632294, 0.4438222435840065], [0.4255685873348133, 0.11698491435811183, -0.5818967149262961, 0.45258514405194145, 1.0232341682711172, -0.42896938185756095, -0.3576803201074276, 0.3248280111327547, -0.08761937405355599, -0.041990085857390454, 0.0369180845076904, 0.09799511122803976, -0.13919598732242847, 0.13462481509947394, 0.18037643690586994, 0.13080418356927503, 0.15878948293190137, 0.11670097193666379, 0.722925221941253, 0.5264912392851242, 0.4317934219551074, 0.3488682447366788, 0.08529336667657982, -0.053307580174149494, -0.004146784199934909, -0.0692924462932128, 0.2055103269126071, 0.006088612935498803], [0.3214861179966645, -0.0692424175236447, -0.08768700988467018, 0.27652544192469203, -0.2525437946890373, -0.07858907509626681, 0.15018325547737724, -0.2810189205352926, 0.10869125694429743, -0.007927971158076155, 0.24637390976412601, -0.13974377327230153, -0.12004985034154192, -0.21492068045542603, 0.2577344079275289, 1.4615999022765855, 0.14352043134843778, 0.22652266315374678, 0.036772571333169954, -0.24335460000264547, -0.37923243925488087, 0.5132593833725384, 0.06515748352570244, 0.0940702518658348, -0.1140454837608617, 0.1881001590671018, 0.10235029017582294, 0.03148877030150639], [0.625921823934418, -0.39531104560033886, -0.7346879595012936, 0.5477155780180923, 0.1736482202704057, -0.4200014313244291, -0.6846756781117666, 0.4239104615484361, 0.2744322863981487, 0.13615265803149387, -0.3936452294841109, -0.33076424788487535, -0.30571324994006016, 0.7012185835172057, -0.33232608106633144, -0.1554883019917659, -0.3878662259420048, -0.1673678109796784, -0.06299327379674914, -0.019906178142262723, -0.6002896163517623, 0.45580477430835514, -0.0957180127256124, -0.13460457186403027, -0.35234950199133647, -0.0799190855154933, -0.19893946998587067, -0.1471977840877606], [0.3526726422675722, 0.03288281299497878, -0.11867209528570706, 0.24941539563122542, -0.5463209620416851, -0.33305995605079397, -0.11612351287560255, 0.1744343236936195, 0.27098569697184827, 0.16208977012493866, -0.20489941722505275, -0.1894262504466988, 0.11898049196291353, 0.36827463202945704, -0.3924782446707584, 0.143541777420709, 0.17295419785317692, 0.06289597998977052, 0.3756792688622711, -0.41566257540152884, -0.21569442551831874, 0.20873197661888193, -0.14698370290427612, 0.22809442116882522, 0.10858514660328493, 0.04056076399270969, 0.0892235298033974, -0.10779750818660998], [1.4811385926773166, -0.04510958962755092, -0.022219340331121166, -0.1444864300098213, 0.7726284545828401, 0.10448730648517653, 0.02330574753326817, 0.0351227320103049, -0.037852283356932165, -0.3381317647211375, -0.698740390389733, 0.6228742883695458, 0.5604153252785073, -0.10583200265578711, 0.17162590055782834, 0.3819973088860576, 0.17725715317600785, -0.12939901088761227, -0.19903155740127865, -0.09179056933292008, 0.013160091083107162, -0.3179965123943396, 0.19899112519983247, 0.2184134392327745, 0.24141133558972375, 0.2927907060150965, 0.12993598041344936, -0.09134722239571585], [0.07981117439000984, 0.18239643313831994, 0.2674104532066743, 0.11755311473502633, -0.062303391111976233, 0.38991951052168417, 0.2758393480732636, -0.5027144492421926, -0.7473593601341458, -0.8414699558508083, -0.2314575100739549, -0.18527823928169507, -0.07892153696940983, -0.026870719165723075, 0.9924151802340944, -0.2905085655385498, -0.2392987111863045, 0.1438945448029053, -0.20823901193958358, 0.07505488085278114, -0.06258600498134555, 0.02669735522338779, -0.06656386427640454, -0.1040348239750732, -0.05282848351879459, 0.06873062904946164, 0.06705892688486825, 0.5350924145815019], [-0.15541587759761785, 0.09597734083210749, 0.10162394651747808, -0.27957185598243844, 0.08490370539592022, 0.08073324366817544, -0.0687564152737971, -0.08438861852188291, -0.15372505830494365, -0.12596229130164727, -0.12201312190722881, -0.03566468396392075, 0.1292034800195126, 0.12745938807052193, 0.008158588742851828, 0.02638887391995789, 0.0055751080672319375, -0.07570660750050469, -0.0035717784349409984, 0.004378565971159447, 2.366108968995724, -0.18991514311814298, 0.07834252581490016, 0.11191260241050373, 0.22652499785056285, -0.007408708470461046, 0.050835350136244364, 0.17221085336552075], [-0.28549696835184146, -0.23530440754570017, 0.02413668593082546, -0.08109751682802037, -0.3064957717390542, 0.537409654340909, 0.29869879572515945, -0.25861744762269223, -0.7872359846512881, -0.79396975660934, -0.20566761216415472, -0.016966611421195127, -0.53468110857861, -0.23835968452259407, 1.0812322173474398, -0.1046432048156226, -0.252035157727343, -0.4530093997506686, -0.21385052601468704, -0.1823685607531351, -0.20735623416586418, -0.25588246633548534, -0.08095641182928, -0.017039918951374473, -0.11389487836442438, 0.028926164792325206, -0.05019027123232083, 0.7651311970231648], [0.6615362868904148, -0.195539970678113, 0.883848199972478, 1.0303599051994474, -0.29131140428256536, 0.33481897829105395, 0.14378293540242545, -1.0550159997685535, 0.27578390078131587, 0.20197032479379615, 0.2790737465700876, -0.3027723576099347, -0.39957071921421533, -0.11284574431185043, 0.6784916125097091, -0.05307719583536938, -0.2902264417368373, 0.19382530551741392, 0.20224933193506936, 0.16873387625960637, 0.4999411525670417, 0.8533478526751794, -0.27495662517383657, -0.20516630024614552, -0.025146442761091514, -0.11697019051312138, 0.11219223716232724, 0.017790535124418087], [0.13385300274270528, 0.13190185541919663, 0.06512718797393033, 0.15911908186658802, -0.0054566208853626605, 0.24042224384495772, 0.8599575731222446, -0.04168570653109592, 0.13281277713784173, -0.132853450417038, 0.03714105979081123, -0.2812217116331352, 0.06122595984733804, -0.03612313207407749, 0.46362858420421615, 0.29790446460760217, 0.47381421920077926, 0.08441227871600913, -1.1999155048642989, 0.46979135065416244, 0.02547731195340796, -0.007305158281087409, 0.13330452930431289, -0.10867648549392597, 0.1649591566883521, 0.46695338696196487, -0.23730856925912636, 0.1609930034639635], [0.20981013715878197, -0.11250322286299273, 0.03806218555224682, -0.12121328993293974, 0.06061830614354983, -0.41496559714193426, -1.0287581629778328, -0.4516257128583234, -0.6873768107446003, 1.2195845791082505, -0.3100892736802124, 0.3254004449050222, 0.8620146512580807, -0.1783536527363164, -0.12928727189584138, 0.12515800718845393, -0.21611307658552467, -0.22623506773596375, -0.7087720328857012, 0.24288926225448726, -0.2707016356312095, 0.026773393462239534, -0.00629555992811328, -0.2847104818261962, 0.07420702723693731, -0.007033569263042602, -0.2414342078120902, 1.1835584940787682], [0.12807481502697549, -0.09642367761426836, 0.16781605589428872, -0.4423189023185455, -0.17260352730669637, -0.17260352173299146, 0.14379122502488348, -0.342202728579168, -0.5420610081286605, -0.7256596253069802, -1.0721661539111955, 0.11574994500483594, -0.10598678682976383, -0.09813288512629617, -0.5250970296057128, -0.22399027279468153, 0.12851049927849145, 0.30347740915097804, -0.4499744204630261, -0.09883130661624741, 0.2756454203241132, -0.24599231263835605, 0.02652580316843078, -0.24789372444208646, -0.1180165744362441, -0.08188667180412426, 0.15103049695355733, 0.36736743191176713], [-0.37031725062334336, -0.40843330871818645, 0.559004869936013, -0.5415129539435133, -0.49677907604080923, -0.29664438018968764, 0.5666327524118782, 0.8002169814434962, 0.4850861177889214, 0.29653747784324436, 1.2244640174035697, -0.4680385042445614, 1.1107850566263402, -0.5234223653659283, -0.639631067097494, -0.18819518430389304, -0.36583817212935926, -0.18547711805834108, 0.5394870091891291, -0.25781092745175005, -0.36956698460196363, -0.5404849681352772, -0.3942387933467705, 1.153290739853768, -0.36344600117929626, -0.04593486765158457, -0.5144336523623111, -0.4472769552777752], [0.2455860819824989, 0.10969173558971843, -0.5494739298882685, 0.40464025710184537, -0.11957326790638548, 0.15458828437633107, 0.1720639971323871, 0.26065820635592724, 0.26558077657379214, 0.0835897636426625, -0.05035012106885176, 0.3225871844614327, 0.26491692965493707, -0.0766555616628564, 0.3106881524097124, -0.04086871333282712, -0.3615939931453798, -0.11609500654490588, -2.3818952913502955, -0.15243440432510022, 0.048364514221072984, 0.41281241700565857, 0.19886271482082726, 0.04618278163452449, -0.10875081815554849, 0.024349887759084084, -0.25854753727798535, -0.3238755011778673], [-0.2876693607679886, -0.10776832283910442, 0.08581222860204539, -0.45363669545744556, -0.07578164372373149, 0.4681614514541167, 0.45902344882095175, -0.29948447853518595, -0.6036888169526327, -0.5647137122511314, -0.25789184360334655, -0.1587382519258986, -0.5799711899849376, -0.2349765863994447, -0.6257158880795304, 3.5377601304909585, -0.47810503557943407, -0.39586568463790356, -0.5090129633478392, -0.29806119286425425, -0.5543450009733784, -0.3635363645784627, -0.15153740671136418, -0.2506286916830138, 0.04975924104675019, -0.0107046511754831, -0.2390670042726573, 0.7926151778532821], [0.4226497037596346, 0.03528280658134507, -0.6343629520246282, 0.3488018701887151, -0.09199214808324717, 0.45695150201652085, 0.24460760375398755, 0.06300235650689968, -0.026853847384027983, 0.11671008800437789, -0.15736217770875893, 1.0236570732483554, 1.7011642991601497, -0.37066571483860455, -0.5412779512033615, 0.05844736820952243, 0.042360693633539524, -0.2275882875065168, -0.1810536838442258, -0.03553553119895296, 0.5187225448238584, 0.613195576894835, -0.10500504253242837, -0.344085715237387, -0.4049381993333695, -0.0454093467437129, 0.03916385681675938, -0.022878910299040968], [-0.19144149728658488, 0.294761281350792, 0.15934272125589719, 0.08874834358871976, -1.1584352941914882, -0.17852719932781513, -0.5853050291254153, 0.03414896847050599, -0.22571549040102337, 0.21334050166289423, 0.0008987144395182448, -0.16436459170057321, -0.301639752579323, 0.21522492714529234, -0.15750090146954668, 0.062307478535783785, 0.17787737067574488, 0.07799775678847162, 0.21558777015375397, 0.1545316268783844, -0.48783758592320003, 0.06491295440501689, 0.06908127158911653, 0.02888855734215055, -0.06879362005446459, -0.0406253534045322, 0.5219738056637294, 0.08520677105486792], [-0.03528789963836215, -0.12635822478949355, 0.07126814939125711, -0.01643261366093431, 0.06659696779971945, 0.46602339563294937, -0.005230137542984675, 0.11413985786753095, -0.6110536857677463, -0.5384353205925352, 0.07606828623144278, 0.1762598647918869, 0.2923094609208237, 0.26687639805873586, 2.411852464540657, 0.1606886268289463, 0.014905825753863181, 0.09605500513870122, -0.5357467990572935, 0.01590188658795805, -0.23554000648719184, 0.0010664810203017583, 0.246948007100849, 0.15491792119879222, 0.14503034260603306, -0.26618494600419423, 0.3367101971720833, 0.7007107075168167], [0.013711778119329037, -0.1940471598771589, -0.06083101696662732, -0.1096564721778705, -0.31705427854922813, -0.5979634754617339, 0.42302078504431073, 0.8227687545877799, 0.1597149476382864, 0.5224462689650954, 0.3891775529266704, -0.2954641457666061, 0.09463410542583392, -0.3959401395208643, 0.6070817157621453, -0.06723835684872745, -0.09770419922875094, 0.12802342496038235, 0.42732615414109953, -0.43950275688526225, -0.623944540705414, -0.20051816613801787, -0.24763608515164995, 0.7801104831627843, -0.15951890433783078, -0.16693422492964993, -0.15138753930520774, -0.08622424273924041], [-1.8535166843007223, -0.05560069825606275, -1.4368742482337928, 1.2683307647599464, 0.037288122863310735, 0.3947688623581902, 0.20218447120835897, 0.39759297471221783, 0.07710004467758963, 0.6783963874483582, 0.067573716570152, 1.0261588080520052, 0.7914003418391484, -0.30923204291239714, -0.2771369030670585, 0.09978750576079287, -0.14360240831069299, 0.16664925448851772, 0.3690139608098712, 0.033578860098463524, 0.4644319572926728, 0.9854175199892132, -0.02689632727819908, -0.07616811755359985, 0.029192213443863524, 0.027832009346920122, 0.10615556168671846, -0.11448685550536977], [-0.12382062751662118, 0.031611637784624946, 0.09950397613519311, -0.2433724958028594, 0.3496260695914357, 0.07147645807199507, -0.20473939276337255, -0.6830202322414268, -0.20567704952765187, -0.23420434137493992, -0.1141687241735509, 0.19257592952599548, -0.15630418664723109, 0.06521972591099041, 1.523114252979661, 0.18171423106831897, 0.06392482270958563, 0.06255081301475453, -0.15396593522588778, 0.09741080768718303, -0.018628495636311852, 0.0919062978773749, 0.2175358571796548, 1.733130456561988, 0.012395856168776212, -0.12185099457291013, 0.17492409541406861, 0.188997429110852], [-0.5134294236795092, -0.374846321991454, 0.49556133865038093, -0.28901876208932226, -0.3770261634094151, -0.3737752591767712, -0.0871698735408674, -0.7533853438733706, -0.9521138140101343, -0.18631467367927662, 0.08894647456078668, -0.3326559339679344, 1.0070464169414766, -0.6158101309298684, -0.49218121407773835, -0.2965505174193776, -0.5037006202176542, -0.3465795315653499, -0.8591684634729694, -0.292986796143115, -0.5481632109278894, -0.29065231266889385, -0.24319243530390583, -0.35380738948806834, -0.32525731642978084, -0.42392207764994355, -0.2841155430910987, 1.1649668633005426], [0.1794897293165661, 0.11140588752722425, 0.18668562900420976, -0.20647057164271967, -0.03837163505576621, 0.28795691131254847, -1.407174875296633, 0.43219409257875036, 8.97240151487913e-05, -0.3656253190272641, -0.028439840939746594, 0.5572283739572812, 0.22552993674332597, -0.14411396556154338, 0.04744419941963217, 0.11472501306538721, 0.014877512787371849, 0.2987377526182604, 0.13939258524506132, 0.1337226601948716, -0.7207497618440313, -0.06487548237351055, 0.02914389617899518, -0.1806612756437275, 0.5776127231609077, -0.06757534891843009, -0.05451031695240628, -0.03909681619683095], [0.4636407815135116, 0.06661417351369692, -0.7128835472406572, 0.4553215240255251, 0.021525881406491715, 1.210296286506842, 0.06938585224367752, 0.4494343799193967, 0.1860603600185437, 0.039102933468742135, -0.1042961039562166, -0.17414245954276203, -0.14097140436792227, -0.4198487638902009, 0.5707717875917364, 0.09367350334825385, 0.1773439744254015, -0.016760181754665156, 0.45884994304820254, -0.34134839754333224, 0.2842395110698394, 0.5426826789572997, -0.15805459725903093, 0.02492172960283234, -0.05541711092783687, 0.13505440094844323, 0.12152241058203998, -0.3006373044899346], [-0.06930638012936377, 0.19219828997522181, -0.11672593287063282, -0.03571077031264283, 0.01699526983672294, 0.20712464957806914, -1.8469083846387733, 0.0688532898848769, -0.11385996229395332, -0.07432006867557854, 0.14431517417614964, -0.02019786974482088, 0.24106143577391256, -0.14908192050110358, 0.038573165968887636, 0.06181811684532187, 0.015491282640216862, 0.17620272162173264, -0.0718286139210131, -0.09151726674384866, 0.13972529338063888, 0.11270601876464137, 0.07000513154080844, -0.057464871509291617, -0.029757594928794213, 0.21550901129946054, 0.28635297284456157, 0.11650854748837741], [-0.9936529781684637, -0.3113799701483302, 0.33724608586743265, -0.4183320433254679, 0.4560708628671147, -0.4628947826752325, 0.032502098469144376, -0.5940801963938369, -0.826004159318627, 0.4098407073243651, -0.18528000997654467, -0.18273766640329472, -0.4818089471748647, -0.1283481546227107, -0.4342478987475543, -0.07341902607716219, 1.0171957049613554, -0.24366618755075173, -0.5999070505035059, -0.26136867682162207, -0.4623845970361552, -0.35834467344136034, -0.16905465612319684, -0.26909839197910196, 0.11304823876314879, -0.29548503212617994, 1.3513849950377428, -0.45012287904391823], [-0.03587594745400868, -0.060040636638341575, -0.4779624161811845, 0.015050413520528431, -0.09633739280639175, 0.8251096628522204, 0.5376512463217397, -0.11177125366009805, -0.5207094531597299, -1.282828526682896, 1.1344377415838984, -0.32215733938375973, 1.117560303816313, 0.041893240904515065, -0.20582886173697618, 0.08298736862577025, -0.3834611616286074, -0.27870583447126057, -0.2006343200718837, -0.06025558304967412, -0.12886913629362481, -0.12353103435232371, -0.07661573469884678, 0.18296974109300881, -0.41550663364942253, -0.14158407453307795, -0.29869002082597584, 0.26748392699239026], [0.1561304684475243, 0.17104055561623516, -0.17758335540945888, 0.1710468311479256, 0.15376524179845125, -0.12158619648936712, 2.292972955001774, 0.019722243101630264, -0.08599852847330261, 0.014320164845777372, 0.015334114250021225, 0.10324037188857302, -0.1936479385331978, 0.11862184797406188, 0.049868470119281756, 0.1335788513374907, 0.039128786680209054, 0.2594570440368601, -0.15111736622015823, 0.1981875077552327, -0.10566606985091205, 0.011704792933222857, 0.10725545883261507, -0.08387838570111132, 0.20992257898756858, 0.1998893679311316, 0.2382072601407263, 0.017007038330632746], [0.8291410224397103, -0.21174718204295973, -0.5333141391184666, 0.700937133360495, -0.2223897245991324, -0.026182121951378985, 0.5312383774702593, 0.3144339593755219, 0.2548972434354604, 0.3467813092548151, -0.18100278692603794, -0.2562876025791502, -0.4747736713820728, -0.5893905848884383, 0.7547145014802876, -0.2017813142899278, -0.35474100118735347, -0.03399712358829725, 0.2974319096825485, 0.30816650713453186, 1.07951015990545, 0.6562074305754482, -0.12412179156331579, -0.34651487623972205, -0.39429875428975025, -0.11830738772051094, -0.17716734850966864, -0.2478222849128115], [0.2579861384756566, 0.11877607738327045, -0.45565709999145537, 0.3976623757722634, 0.31219381579285027, -0.3105909510282022, -0.33787928989413063, 0.05916817964415121, -0.3447060058738178, 0.05284671937035483, 0.11961729047096703, -0.19716841379999317, 0.035009364403469266, -0.08034322995634899, -0.10711297403004684, 0.41158494793512923, 0.260570262063143, 0.3247855521113165, -0.7076368408701813, -0.5054058913998032, 0.5617358355342538, 0.30153458668376654, 0.11878777463123184, 0.08318755215513869, 0.26605825200838806, 0.11709948911781803, -0.017443272362460224, 0.3675758560290724], [-0.571241172220107, -0.5405940729526635, 0.7234335069313879, -0.5179542422047252, -0.5219211195100196, 0.803233789560047, 0.5150305607912851, -0.748367391084334, -0.8458374473855779, -1.1310317207294338, -0.28689917858589986, -0.2747522741274114, -0.3264851241734791, -0.4142400159718795, -0.009386827239224384, -0.14084297542488225, -0.2767524877600203, -0.09830336683010657, -0.8909364154975349, -0.33848276832042856, -0.07070902543761512, -0.5135472653746357, -0.43311336747502427, -0.37582252727509435, -0.5425614799585764, -0.5161143320277989, -0.41844707069644294, 1.0709921766923318], [-0.17796300508799182, 0.07033537393105714, -0.3735536645210103, -0.2354827646811085, -0.30254143018828245, -0.166379234563476, 0.09460267986640979, -0.10471946667561852, -0.018806338499117777, -0.0972512565961962, 1.296521706558256, 0.126306738538581, -0.13901463324638164, 0.1340915141681544, -0.0600180675191312, 0.003366812114228893, -0.15631813929640812, 0.4578167588557098, 0.2564989483699461, 0.15772084825102192, -0.0779325140635201, -0.20451968620979677, -0.14094829047955437, 0.15474643391479878, -0.10053671349011395, -0.027774240769277005, -0.1272343050385855, 0.12872857148128614], [0.07305046150101512, 0.03557053638287129, -0.1361145771922687, -0.04144409313511704, 0.43170408132488214, -0.4046123675759486, -0.4286264571469052, -0.45914942161381045, 0.12631627008985663, -0.07488526996116299, -0.03671614510016502, 0.21309700152041952, 0.018840773292668214, 0.47614411891904873, -0.225850102277857, 0.16289580744222257, 0.09151513863838695, 0.1235053523478898, 0.06861209500315861, 0.3360405815321104, -0.07868979938162712, 0.16390009463168498, 0.5423096924157321, 0.5166032442197283, 0.17620471861440348, 0.2169986137290455, 0.07076600465116689, -0.028235951981857906], [0.5090641638912592, 0.07584671582707234, 0.2186225301684003, 0.0680540212641867, 0.08813091820995282, -0.11498933136651954, -0.1956715234577834, 0.07936547247085825, -0.0875683355377763, 0.0064739163710312055, 1.7758146951153693, 0.2658565674868079, 0.15594680040354864, -0.01254308492339784, -0.09781151180777874, 0.10595232161824268, 0.42174856945266015, 0.03335578576857371, -0.1290122813741352, -0.1827191184141431, 0.13205672585328124, 0.003528875113079519, 0.3250903641998288, 0.12736868590242814, 0.2245724922746462, -0.022880392295708932, 0.35471062856439434, -0.040034869372284745], [0.47491759777959863, 0.04029163449490545, -0.11802705068305847, 0.330343481801343, 0.06712432026274223, 0.07935243655428215, -0.2028239745726551, 0.12769587216256234, -0.15502499911353934, -0.1169213757096462, 0.45157611853506596, 0.35131050000875164, 0.15130573097781275, 0.300520128285638, 0.19132484818183687, 0.1134280021015559, 0.1490375014887224, 0.21385918803981968, -0.7973451982146761, -1.0238075675178222, 0.018541638305922117, 0.031013245480663327, -0.019872050073886142, -0.25950645033835157, 0.27148907658364496, 0.3626665753707509, 0.19047446731477166, -0.02581944881844858], [-0.0771839230037941, -0.10656914109057579, -0.3624434102297086, -0.02611797774879098, 0.1721800413330251, 0.09157196257406702, -0.36833536035908715, 0.028629112418892187, -0.17730561246923932, -0.32692880230145993, 0.7926908743954942, 0.20312866134013496, 0.12536388431831788, -0.04200220412818205, -0.15350203184460007, 0.24683999834381337, 0.126789610800823, 0.11320617913535326, 0.28589162241998006, -1.0466439996830696, -0.23324864709146526, 0.09023087056696265, 0.0751193618832998, 0.027258136162203777, 0.2875677083897168, -0.10014315462246995, 0.14454607115677012, 0.24934979665238668], [0.08546403737039472, -0.3504491777508151, -0.07631182610676238, 0.2611592746635613, -0.35976791925129953, 0.6304405886942818, 0.18834092127425364, 0.24299915957667279, 0.29845923352640663, -0.004122593481362045, 0.028681120695757154, 0.6820162144017963, 1.0335125463698147, -0.4366267098619457, -0.5587077622442534, -0.45128728877562113, -0.37173875746512136, -0.2423019986133327, -0.03017616290237779, -0.5620690447301392, 0.24345311767288366, 0.13234539813663476, -0.512103877782414, -0.27775260509864197, -0.23398379604451555, -0.4370181907962161, -0.2168586284402861, -0.17055620317473116], [-0.4047100903410441, -0.3015711406213082, 0.28645494706425834, -0.3352744224807633, -0.19428367883596934, -0.5677226020895093, -0.6040676293063917, -0.628404538412514, 0.41907488642106827, 0.4390790761500972, -0.37985283566066497, -0.30389449971438925, -0.42487094646207474, -0.41442997248934343, 1.012724603473777, 0.09548566782005226, -0.12547025522374577, -0.2280306493570465, 0.7339970966495062, -0.38047780854841945, 0.6491305890170186, -0.5540592675030108, -0.40195324118776365, 1.423392714018609, -0.28632169978440664, -0.3275365951277274, -0.1891785894088695, -0.5147580562714323], [-0.0386793969755558, 0.34220642513195404, 0.16633759553797883, -0.12569516843076725, -0.23278110573646177, 0.18800638836637568, -0.1603172505604997, 0.2518807212584208, 0.03336897912806206, -0.2506547200584811, -0.3549324708060605, 0.046077370411505746, 0.1980732537661916, -0.14291712710321675, 0.16436284062620804, 0.12299066141212321, -0.10541276997404396, -0.07500295105677184, 0.39191209909493735, 1.7172977806232632, -0.23406329270687337, -0.04528568941535688, 0.2922887497426141, 0.02356805658682088, 0.20172702552279567, -0.07549045614663887, 0.17459243093217333, 0.03530081963668652], [-0.05908445114418231, 0.30392076791213174, -0.15104055355731974, 0.04275765133998186, -0.25280952179674204, 0.9242464767435644, 0.9235754636775284, 0.045133662667648365, 0.09679094080712974, 0.08879453897040884, -0.11116318741452444, 0.1763019272568186, -0.027789977526401707, 0.060935729775639595, 0.31934395486199363, -0.008555266858689141, -0.08327201809194029, 0.2333389944168494, 0.2591655031937858, -0.12151329668983597, -0.3511034583381309, -0.12103300253710951, 0.2918315887141745, -0.04273744977445496, -0.13200500999911716, 0.05885837471487445, -0.04320318289173463, -0.13144669509572382], [-0.2622089460811037, -0.03865549364587349, 0.17013441278331365, -0.27771211729148054, 0.4084827491292228, -0.22345017252632465, -0.4539833275960968, 0.02188830547136455, -0.210090942935093, 0.18884869174001673, -1.015315503538851, -0.20499811541971383, 0.7167707700251178, -0.3413953298756067, -0.0707150002358386, 0.3907676228842797, 0.10234239012504946, -0.2868709507639408, 0.002100534886714899, 0.0347489481883318, 0.007469801982068895, -0.14838882450848487, -0.2986259124403688, 0.16276246696146526, 0.01409115998252649, 0.09362593808066534, -0.09001965228276243, 0.01168304419489831], [-0.4603231823423334, 0.08180391426132871, -0.0498088240726129, 0.21351549305893555, 0.11728477858683742, 0.4905940182370021, 0.17205740646019557, -0.2034628650411941, -0.37796539583570216, -0.1945431638227935, 0.36100195893712883, 0.30784627221732097, 0.26048388935001077, 0.36991653027084137, -0.03574716660504287, 0.31085678494838814, 1.2333308746314737, 0.33370667428290296, 0.11907098610738212, 0.09345922810507713, 0.17877797543631727, 0.27464153428580046, 0.028381565472662, 0.3875431253524125, -0.08209671494510923, 0.028204702679140825, -0.217313739171727, 0.14058477899799712], [0.49455293000273115, -0.026868684938165948, -0.3147615077662494, 0.045977990538251155, -0.1067789651352352, 0.40834463644649, 0.24827476026099385, 0.23949878621392007, -0.008873358915184211, -0.04705103498964789, 0.20004018927155282, 1.4100195937920605, -0.3779961877835702, 1.5355390708184105, 0.38483366783163936, 0.24947537205961837, -0.12675604529380483, -0.10483255623562734, -0.3862637966892539, 0.01097860040794181, 0.23678543155903028, 0.46282816112541497, -0.014028559592087795, 0.000808947039583437, 0.1194260403742962, -0.01863878479912041, 0.051111133785552335, -0.3738845828886872], [0.12890761588652788, 0.07471422368144015, 0.24842076541073912, -0.07003529029887826, -0.22500985467945675, 0.7664876513840666, 0.20065462943734466, 0.07548333654600795, 0.03147152256118697, -0.7571886158218933, -0.3218354334700871, 0.5697174870694599, 0.12963694443110918, -0.03659351856517082, 0.1975712508212545, -0.014979340979140617, 2.1164132291139452, 0.1607925284776867, -0.06298328818215496, -0.015570242284154307, 0.046421067059157106, -0.053137631872674174, 0.27292219360333997, 0.1524014684559101, 0.0860178953094151, -0.004052294814569667, -0.24192377215919444, 0.5534014804774066], [-0.5177412331591396, -0.40885673177061777, 0.5031749415847111, -0.38534258091292034, -0.27903217745437, -0.4006293289582348, 0.1300360605114382, 0.9085781696703658, 0.4554785806349882, 0.20569651357916044, -0.5230682668363441, -0.32873935269210214, -0.573648824179437, -0.20998835461823542, 0.7279184509402532, -0.07291326716049715, -0.3085167664345729, -0.022481800055579378, 0.028188280460686315, -0.0937962272518607, -0.4908324399216073, -0.4458527550211935, -0.16649380783482168, 0.9080950320011132, -0.2484751914191551, -0.3141813534153845, -0.16167213073681444, -0.2992921628655035], [-0.1340639181902563, 0.576888771347686, 0.17703257548293672, -0.3001308145341309, 0.24487209260324766, -0.4922031496914272, -0.24863070743844126, -0.3076223626527061, 0.028114323434881384, 0.027055761683532343, 0.38833698295434255, 0.006757256649916009, -0.04562023572131535, 0.38196203843150167, -0.24168887874679088, 0.1523375301084574, -0.09315353095612956, -0.00811266676022353, -0.19273087596806457, 1.6075539593499908, -0.4100839505353088, -0.12270021972334064, 0.6741247072784436, -0.04313908663703869, 0.02793850222749166, 0.0568821183675972, -0.15848193733487187, -0.2123622058472345], [0.7121654712085816, -0.019963694470097902, -0.7368251034755475, 0.5503763435549952, -0.10147949443868898, 0.7170728674014207, 0.05066252815577553, 0.3240549797544063, 0.09490491425704717, -0.0969960638890906, 0.267437049340678, 0.429673956395446, 1.0163919025127959, -0.4321938222457402, -0.2573433746163553, 0.33261908172790045, 0.08108957919631257, 0.05267011335891483, -1.0798513883935452, 0.24662974627501413, 0.22075419725131532, 0.47511116919706864, 0.12117953762900947, 0.13485861167061663, 0.2660586877700029, -0.06278160945027197, -0.003819026928278258, 0.07252294897086262], [-0.015922390568447256, -0.03172841769688595, -0.8364902151539992, 0.01096973399804518, -0.07821924000008136, -0.0017454089651023556, -0.057423637603677864, 0.052627592508968916, 0.19187662041048054, -0.9855856235931955, -0.24560349254584832, 0.012851650299760344, 0.5332716567039563, -0.1749740427882521, -0.38874829287101376, 0.12913441647065832, -0.14330177982540307, 0.7494966751819422, 0.4725469026748583, 0.01435299950930789, 0.1702525979921418, -0.00492196696526109, -0.2096126777014825, 1.4323705292685673, 0.05980304949783785, 0.1708324485385814, -0.19277891819672494, 0.06318311702120555], [-0.357686211252494, -0.6963218280157447, 0.4279702344091978, -0.49950217908174893, -0.4414365641160704, 0.7364690260440259, -0.36688527674320076, 0.4986640330073568, 0.5684576447385441, -1.1437407314022559, -0.4237778693295345, 1.0374165610833113, 0.760257309139816, -0.5314083831829012, -0.6551029872892515, -0.5553065857479262, -0.592047890780683, -0.13107213638347168, 0.5409858418311688, 0.13217865198561035, -0.6200500691039311, -0.5019871822569032, -0.4417395474353234, -0.5989634739424335, 1.2145407813328075, -0.27337855378462994, -0.4992414757817791, -0.20559089558089244], [-0.26443864229876607, -0.17746716748487437, 0.054229209493976374, 0.054686706190107355, -0.10752323210654213, -1.342268882225604, 0.2094126271697349, 0.010492370716994189, -0.35389765231543785, -0.5572735896496095, 0.2606904169378676, 0.11823987020999654, 0.7561621504994807, -0.08477397044990448, 0.09747317063558218, 0.0574242986929486, -0.04309288321579738, -0.09374236422387777, -0.13901201217811032, -0.3257992711781277, -0.041186966525395705, 0.10022848333002594, -0.006441735995520104, -0.1491191508020353, 0.16823425661310182, 0.09564131397585782, 0.11425632446369224, 0.3476659592758691], [-0.14773639191013282, -0.21414396812271305, 0.24274416655375505, -0.2550211249653068, -0.09353958836338246, -0.33515521467404297, 0.8005369650263756, -0.21216707052619554, -0.3556039884510269, -0.6493145405068275, -0.31387423041245693, -0.26019593924240314, 0.5603628470883751, 0.10708124667694127, -0.3894384349499839, -0.1348963397309351, -0.11297417663164151, 1.1811407799982236, -0.25884875633881343, 0.3871253999051218, 0.34191693966706954, 0.0879134758730817, -0.1610043961692151, -0.25596018078646915, -0.2877927394295386, 0.12420247020371383, 0.0816254814716857, 0.36994660286878156], [-0.26483992686739627, -0.10296386865290985, 0.2518376137539121, -0.24150406611281938, -0.0794346621733133, 0.5526004981488923, 0.5359272111962031, -0.600739793329691, -0.5934072586863115, -0.6947390812873206, 0.27676404149469425, -0.09840675698640355, 0.033214299632816816, -0.16925233238004436, -0.482596762771788, -0.11196639971626683, 0.9514185155323828, -0.35399217202659145, -0.639331338551895, -0.18831541972693328, -0.6933824518560652, -0.17801554159600222, -0.22733802568666328, -0.3237889782232564, -0.12952045547314403, -0.31142067929598466, -0.343851743176154, 0.6727736017172833], [0.12009667224074512, 0.022518623545701038, -0.24547253718258275, 0.16029324508247006, 0.22886152360127912, 0.27972942019655817, 0.2530298648327235, -0.14098537760224153, -0.3179531111181479, 0.19680056178102626, -0.103260663176141, 0.5515399643332651, 0.3551208563279024, 0.011728476220052532, 0.23087442682642437, 0.1978013030824085, -0.10365245033901306, -0.13394313383684214, -0.6722602421948015, -0.1740220914332274, 0.23332469998359961, 0.15462961668556896, 0.29208668404571664, 0.12245017180173534, -0.25844380050454446, 0.2635830698541808, 0.08055374851863685, -0.15391844023714782], [0.2500523344043399, 0.3612433031177405, 0.09582120761291489, 0.2055471886618463, -0.1707449675035246, -0.29580235638702324, 0.28748858066983385, 0.0812947453543837, 0.17093242050963686, 0.20904406431200184, -0.7369498638795517, -0.2932901669880071, 1.4434280450286863, -0.12127933525709705, -0.38369568830875556, 0.0981712195463735, 0.31119748762223737, -0.002977901017253394, 0.030963390709712636, 0.13303768987034678, 0.32843371964336715, 0.30630113048685026, 0.18226990071319635, 0.8564911352913542, -0.029737316114909696, 0.004993602559570383, 0.03764088588974255, 0.06722379839313158], [-0.31240361546322215, -0.04548760293714158, -0.8468190660533468, -0.4701354795128576, 0.16440865134253135, -0.35694523998926575, 0.18691636743488876, -0.3112594455060405, -0.6637175680229355, 0.5417561394478304, 0.5630859026996339, -0.0009892125851254365, -0.28408381070755195, 0.07361046087776683, -0.14950188127351366, 0.09988152569207616, 0.16590251070203887, 0.9750573397819388, 0.1479858875866212, 0.24679009335403274, -0.40186144403165414, -0.19632409014691465, 0.020740557410871645, -0.25023640502900774, -0.09948245202894225, 0.2898821349948948, -0.07362841947455874, 0.9592787735563079], [0.706058959664904, -0.10678904268930654, -0.42468810049948147, 0.28277227060394255, -0.15126357115160088, 0.6604872688630542, 0.30054089836805, 0.3584663951191278, 0.11237344517550842, 0.3430120272081346, -0.10791331242252968, 1.7177645044593497, 0.34237455899271935, 0.18130526208205525, -0.4626095129437081, -0.21241719424905492, 0.12718687883430851, 0.028451597996686482, -0.2633095887607692, 0.03882382315903728, 0.16302301208169528, 0.8230893655666573, 0.223519738725366, -0.13810251951297367, 0.1347456241997036, -0.059866294589643695, -0.1216598272482232, -0.07965262043312027], [-0.11575937996278322, -0.3082296773930646, -0.03740152112599413, -0.26692795547610626, -0.21632531338323396, 0.2960971452022531, 0.27207853854286007, -0.31917825627821667, -0.18600949744906273, -0.3015271664020358, 0.08918251635568007, -0.30636160621422026, -0.5102865808790278, -0.15604834242847979, -0.6750845889882482, 0.5197920028657703, -0.3784577331571327, 1.753710008317088, -0.40135088347783454, -0.08832249794756238, 0.49666183768712646, -0.116994051901982, -0.29918710973956836, -0.11681014108439718, -0.12081913802686939, -0.042948623060768694, -0.08393739993223229, 0.29581186549078314], [-0.21362519826558563, 0.05130000256405869, 0.35650168177539804, -0.026431603840701052, 0.01640436408813262, 0.5657393070956509, 0.14916843170414934, 0.21572178155551794, 0.018284577921546395, -0.7527896211933306, 1.5895298673078182, 0.8902901098847137, 0.4357124024083167, -0.29472578413998524, 0.11104139607462792, 0.06972315848654168, 0.04883659540707538, 0.3204167407151038, -0.09328765187390971, 0.05687883070139238, 1.0426180991750051, -0.3002802328384001, -0.07884039340424921, -0.25155130785402385, 1.1613935181566137, 0.12567128498748786, 0.10384556720215016, -0.07198921382074995], [1.0386013916893004, -0.5571467838942643, -1.1065642814562995, 1.142718751358551, -0.7728332159407146, -0.570616902079878, 0.154655785455525, 0.9571221167139375, 0.5110835710730409, 0.7187101307136663, -0.49399314262723165, -0.5880250385663448, -0.5635753880128312, -0.5539936476023389, 0.7432070494481128, -0.4476569035679229, -0.5650234240217956, -0.45524914467932837, 0.29919958119085655, -0.4722844924497721, 0.16463544188079093, 1.1681305073834658, -0.6357837245173517, -0.7795206841881356, -0.5427290729506175, -0.4275016004888415, -0.3772165557558572, -0.6427231551843499], [0.31539975308648177, -0.20310009579495938, -0.11364105608171109, 0.2482534362041347, 0.29368346855673594, 0.36322160772610673, 0.5092804849976954, -0.30719081674052506, -0.26260677751807904, -0.2635406875220363, 1.3001949631169387, 0.20190998727389545, 0.42328114569968217, 0.10635940307403247, -0.14105884738953958, 0.10980004416180239, -0.002572925068237802, 0.15834362022042636, -0.18079995004797902, -0.031726604806186894, -0.5583827225906088, 0.2927877704083889, 0.16146293458573638, -0.2594758058007695, 0.18077041048186257, 0.15048026286276117, 0.5073004432472811, 0.08261525760034866], [-0.11129805824630883, 0.1797502448715695, -0.026922426495732815, -0.07085962216751966, 1.7216721725242345, 0.07438903976631851, -0.2188905595881977, -0.06070358383708374, 0.2649944080827378, 0.08461383339129898, -0.14227333062084674, 0.20507336992023031, -0.024467586615542342, 0.4349598049246269, -0.08114224570313779, -0.06202297193831635, -0.09171010028339167, -0.08148745520881756, 0.36971871956612906, -0.31661806431951717, -0.8600320459472209, 0.031665683653645575, 0.337494003421952, -0.14591826345716366, -0.017935912366713304, 0.005955883921395135, -0.13392078494166565, -0.055637939307409165], [0.1464435341207285, 0.058874595998761575, 0.011540299356070942, -0.15499772048244492, -1.8442210456681354, -0.3349689187990097, -0.32044075508000686, -0.4063420998935947, -0.5776910278642179, 0.18860389878823275, 0.0855864046591828, 0.080950050009538, -0.07319429062121287, -0.33857862731370525, -0.20772828797830156, 0.16798682095196812, 0.9702991284494088, 0.24572514245967295, -0.4324170795618125, 0.054751558862701645, 0.09245822423526491, -0.17531609099412881, 0.23506882301737003, -0.050329854671599866, 0.07224348529304561, 0.32461989984603484, 1.3263543124629646, -0.24515014339048252], [-0.5230361449747617, -0.13768812786564083, 0.1762577814439312, -0.31962190535205287, -0.3343745764002453, 0.2630238458017875, 0.1084083853758932, -0.1690182910183894, -0.446316867113171, -0.06592504282508813, -0.2525293032406576, -0.06948505153579795, -0.6980100660059515, -0.30970942635871607, -0.5891493867486459, -0.318216646527218, 1.2676559437026296, -0.22977005984874915, -0.4406939375445676, -0.20807946654037177, -0.3361475826603292, -0.4864089932119275, -0.4456844839748844, -0.22241636412167928, -0.19352703669507587, -0.2651790349588833, -0.1624073257490558, 0.45681873583147325], [-0.26470420970782715, 0.11561517852199833, 0.5893723965727267, -0.17705935388378458, -0.08797509666023988, -0.6236049637397874, 0.34308618357935505, 0.3107319348523773, 0.2793987389723547, 0.5987576965333105, -0.06825950433706268, -0.24601376070327136, 0.8545960891009348, -0.24515637498627912, -0.786642860863254, 0.03940927138390343, -0.21207554020552347, -0.14154155905586083, 0.41679797685529835, -0.24945057203169294, -0.41704581222527637, -0.11586259725238922, -0.2621882264620684, 0.9097032419376909, -0.3868236419274955, -0.20625230033252212, -0.12883091524610682, -0.062114767543208715], [0.17602143423978853, -0.0614037437145923, 0.040602577573138426, 0.016591533691462778, -0.18250115293437805, -1.3970586755469048, -0.14405395669164883, -0.20093938360838082, -0.08042184211547154, -1.4857504051328374, -0.027366608710484807, -0.05764687291015096, 0.2936146312880535, 0.04630460397520229, 0.13632613665903412, 0.35142873953521775, -0.1266786653494116, -0.3030127877442517, -0.317623494789344, 0.4230689068628424, 0.06279782201824581, 0.1332590000781643, -0.014765597820419266, 0.08587064917938719, -0.020755436988511382, 0.26743543120994434, -0.014376485554168327, 0.3944995532280794], [0.4863526288684625, 0.12840812303881702, -0.4643200141012912, 0.5093990172993241, 1.1181374988119317, 0.0032419608091812263, 0.4974856293809512, 0.21404530474283281, -0.21225506474666153, -0.003538262077656623, 0.37897670744716583, 0.010645324548508743, -0.05528860648442016, 0.3086259225016219, -0.09318184424308183, 0.35564694316423184, -0.029136723763932074, 0.033079167275430525, 0.09339443132174582, 0.26323972789690914, -0.2945785575726919, 0.550610520709666, -0.1380207330321821, 0.25120292227112523, 0.05245022645436415, 0.1613131595616695, 0.058177346848976484, 0.35624440693365006], [0.5155119522103366, -0.32637966056229645, -0.5436828263700924, 0.6405231392591718, 0.14597942103998374, -0.5608911352197796, -0.532261277650328, 0.42730238811413557, 0.004398629406667137, 0.19244467226955725, -0.11844995269984761, -0.37563907635516475, -0.1440680783222027, 0.9171273624009889, -0.5957872029332106, 0.017300018219979847, 0.026111358748099604, -0.06223718748510491, 0.16503570939274181, -0.5929345917301231, 0.0346949570461329, 0.5657273421047896, -0.047925161155067536, -0.02344931417238456, -0.1250369824007883, 0.040930633459459485, 0.023593652929343217, -0.03692985219480432], [-0.0674550464735834, 0.3554748099639019, 0.518560274537532, -0.06095612624711142, -0.007969337013576354, 0.26256939586680106, -0.24581145169375332, 0.2917417464935706, 0.052550061034251666, 0.20730893013757468, 0.7769076239423462, 0.026022474262216766, 0.37298056790736417, 0.3047980932065761, 0.08942200111791997, 0.016068759309592243, -0.2736304014012126, 0.160526653728784, -1.0006506732079636, 0.38247233821619675, -0.0159075226406501, 0.05827677163635642, 0.19640530499554767, 0.3284698373358573, 0.01840873727248196, 0.38196003021846603, 0.10094479526615209, 0.18479163977443852], [-0.045447480806108914, -0.23568597486032292, -0.08846920160894621, 0.06545268552271531, 2.1308812110616806, -0.0017735063881801176, 0.36103287397130257, 0.18261852140261847, 0.12536902050632232, 0.10532018027206537, -0.11325574369071191, -0.1416421683306943, -0.03571776762649813, -0.03689341450657801, -0.07935813760438702, -0.05356091017547699, -0.22440232926872897, 0.04017757724076449, -0.16574674989245258, -0.06458372437434083, 0.29075429164890476, 0.20036855241399623, -0.310868274453993, -0.05623049025696321, 0.023673028191763222, 0.02030227821652559, -0.13680901955134353, -0.10921029186390938], [-0.5818854649416279, 0.13424719421930031, 0.04843614027158613, -0.050218159942608205, 0.9175598602650626, 0.03478979097408093, 0.7073707387320649, -0.3709771301724807, -0.599419820253445, 0.3753510533820679, 0.03553599628290459, 0.4703911855926887, -0.06053344566144279, -0.10720623226934645, 0.07366035808565244, 0.17811980077978226, 0.6410487954787217, 0.11428359467910125, -0.22375375970091343, 0.2886746509735262, 0.1375193954923287, 0.036864787741495375, 0.08553223980591779, -0.027301863546659238, 0.03589236946302002, 0.11124895591523118, 0.8348265400623573, -0.14971911320619752], [0.6480600000454013, -0.27606101351322326, -0.8504865769622433, 1.0169727185553217, -0.45701685994604296, -0.817976648165334, -0.5614508634053075, 0.4050173261221882, 0.4125628307315373, 0.3385784805020809, -0.2601163106562507, -0.38222349337454864, -0.27148644266278177, -0.6997495895623481, 1.199352431754339, -0.019960283767973937, -0.47168822913577363, -0.4416995501587562, 0.0878187465832231, 0.8599615953598192, -0.3586908517553062, 0.5432746933494901, -0.4656877414604975, -0.12458477944080938, -0.23537583288899636, -0.23487390732984093, -0.16963380066832628, -0.1295590905535347], [-0.32579721875920514, 0.23719003497417862, -2.525012467346148, -0.49634665874010053, 0.006914257063211827, 0.19129620622846902, -0.12985133077875805, -0.21424178765218593, -0.3426096998000117, -0.13368745671814142, 0.351933735108057, 0.19445865469839752, 0.2151881272431948, 0.028712427512401162, 0.058390542903363096, 0.30488432969783236, 0.1320126584797046, 0.008853618291479001, 0.09906910635592248, 0.06504820011517842, -0.45700590926108087, -0.5503289150172778, 0.3827443320935014, 0.3364697350577597, 0.21639287763011575, 0.1895584284256452, 0.05108572609117367, 0.2887290563026332], [1.430044078169351, -0.3961919526383589, 0.4361228799123594, -0.41049944535637334, 1.0813004617763042, -0.4743883046690594, -0.7062838862217102, -0.39866835137674467, -0.7492433514962947, 0.3717697487475238, 1.0640917360956406, -0.35447803554753815, -0.5046141846852441, -0.5652908348195228, -0.3573682546945332, -0.27069717676060207, 1.0235989381238786, -0.27052373125031115, -0.7398517856301308, 0.11040872843427374, -0.3154518926224425, -0.4196190452118579, -0.25090308438363484, -0.28325382671031224, -0.21850155677046107, -0.2843313065150864, 0.9964914622007355, -0.5306453628199553], [0.2320932908080874, -0.39227061354823406, 0.6531054003184186, -0.42954908900879796, 0.33637163403596104, -0.8261160548768808, -0.36123915003896223, -0.6088154640750549, -0.864898774116423, 0.5546001416086737, -0.18703850083463433, -0.4819724992207773, -0.5323689527627326, -0.3929622056596616, -0.669294227675354, -0.4696366062730949, 1.0815845180586277, -0.4054564583217402, -0.8523906031157629, -0.4483604866402754, -0.5062074145961609, -0.4118110415116518, -0.33865431563111814, -0.4033710300576758, -0.4133177305099222, -0.532748147004383, 1.2072577830852627, -0.6632196634262899], [0.5851621292138792, 0.13466292980779543, 0.01136553962149339, 0.31117406031589406, -0.24856420389158973, 0.7401488997907015, 0.058274057872979484, -0.30242712154668433, -0.06124079407039975, 0.051470266057989406, 0.0018678217058958107, -0.13676376096135318, -0.026548325070742715, 0.24537604553771072, 0.3073059772785856, 0.16369963846395785, 0.24601676719098226, 0.5202772524620092, 0.017538995003599775, -0.037987004836323245, 0.12406219225997527, -0.1995250736099811, -0.038027840784356615, 0.08234719104983246, 0.21959220528670523, -0.11644219992469473, 0.06921550083844337, -0.02980361230335811], [-0.15051851235866967, 0.07132855272354371, 0.26997489449486056, -0.03831608469639805, 0.1592890984040599, 0.18079324115518516, 0.1121067550627183, -0.5736708140471019, -0.45017055192760436, 0.02644980538520992, 0.11519429933455658, -0.05563103400960889, 1.0894692629000289, -0.16434305576275074, 0.15763264116334103, 0.41474387197511775, -0.16022430986056171, -0.3880213706307406, -0.38326151603155306, -0.3051297787116626, -0.09019452935768259, -0.05349114930914869, -0.008373921486543898, -0.25715123260678435, -0.23784720426193026, 0.0320109071161584, -0.06219846276122731, 0.4261654123884765], [-0.6183941524236971, -0.1665779342971333, 0.6345970463306393, -0.6963667373404758, -0.1847836591326429, 0.6056590531718135, 0.44453369605338977, 0.5440342755312972, 0.5674909212467566, -1.1332361314443398, -0.022088690521035903, 1.177900746852917, 0.687294322327462, -0.2855031139099154, -0.48473385785266454, -0.362032823940906, -0.45676054810410927, -0.28357419164373665, 0.4637433121390038, -0.5473109794249541, 0.260720164060087, -0.574133679099725, -0.21374781742866528, -0.7146383741198483, 1.434929091050753, -0.11002461149838741, -0.45935289938776697, -0.2925987970178325], [-0.1619563024108371, -0.2872112622277096, -0.8474901632296266, -0.23128152039788033, 0.010504219667915388, -0.42005030516039266, 0.28429746279906054, -0.3226504377592137, -0.7585922151037001, 0.7311352747658924, 0.8607718604965887, -0.2803664583320447, -0.4040638910843171, -0.17721417672383083, -0.4143264764518187, -0.1720280688338248, -0.09845667155130844, 1.0229334320586896, 0.34513079241720157, -0.22199795304926936, -0.28494418832461293, -0.273673865582931, -0.11605196239641274, -0.4291501375585639, -0.18247153867988553, -0.1570275641339236, -0.252317921442299, 0.7415012069651257], [-0.06980800978042005, 0.5809436771151987, 0.1047655916958332, -0.24898299695340076, 0.057140002416750144, -0.9992500602995303, 0.3719307135490989, -0.18918523794988631, 0.032740977031394954, -0.24733490529962704, 0.013035420523054548, 0.19843006538491798, 0.069587985990956, 0.13604928044029307, 0.6400587213625573, 0.0470037186530361, 0.28315702626355965, 0.009227716920265035, 0.025425513162430913, -0.332062377422157, 0.11756565841602462, 0.08158984624657419, 0.583257629662841, -0.3065557132911432, 0.10685515082266375, 0.366870270155418, 0.25733715151993686, -0.16353329401849845], [-0.41900879582917294, 0.2721751275290513, -0.4222191114411474, -0.02789367814038501, -0.2211036404621962, 0.3320279111725383, -0.08484903530166749, 0.18852565666440327, -0.01632859027764744, -0.7867586978970265, -0.12797924801101265, 0.044299972134418164, -0.09361383953587932, -0.10794886755446427, -0.27647316399473715, -0.038820937280582, -0.028926227430401484, 0.027860844030902908, -0.3335261362962665, 0.22398188985251286, -0.3556220387575666, 0.07266336496637076, -0.04710758923787205, 0.9639702357940697, 0.034247615299729, -0.05126639357724657, 0.2774791960652916, -0.016494460815773573], [-0.07691602202512719, -0.18121638322285274, -0.12439838491182591, 0.08504164864217066, -0.07016072770252989, 0.002294348540409793, -1.8621511625761922, -0.2990886154498405, 0.07058911205941212, -0.04085544735222149, -0.03133186309066704, 0.04484818728172802, -0.02933269677390469, 0.059024960418781906, 0.23627247502733587, 0.21884514804008431, 0.02185001034805098, -0.05136906889209286, -0.056127431242000425, -0.267693369293866, 0.2378687290624379, -0.1092869604448289, 0.026920546846276396, 0.30461963626889976, 0.23051458874754974, -0.06952811905255821, -0.11869256023038877, 0.13942297220139171], [0.3159153666599369, 0.1306923381166688, -0.0018536359032616154, 0.08649031026959877, -0.1703277679925345, 0.3068009569582555, -0.14129408305588123, 0.008107742690884844, -0.3725520129295037, -0.4996875661827355, 0.3357155809247816, -0.03969721769302258, 0.06428529781754595, 0.15915771260368813, -0.020070843627662687, 0.277770320400699, 1.7069797464033662, 0.012346719171604422, 0.019729353751335915, 0.6708854138274163, -0.07741521481249689, 0.3681337175314969, -0.17431882883566888, -0.0138291384434142, 0.12905511316137636, -0.029215515352888684, -0.1993238455144686, 1.042512690008652], [0.2784590517610192, 0.3292132573897991, -0.20185866031888744, 0.08244957902176225, 0.35488957074209326, 1.9230689523899998, -0.27357481654387483, -0.259522176595607, -0.0606299555798045, 0.02516659230372952, -0.07263927013947696, -0.2774414674513673, -0.002517697484605653, 0.3326101402941006, 0.0701984126996073, 0.18809342226764034, 0.12900631222296055, 0.21739160101893376, 0.0895803764041088, 0.1414976504103929, -0.1227312099724172, -0.06897984255618304, 0.255382581247597, 0.302906840010997, 0.2434121560114329, 0.013643649159882299, 0.2873511239412836, 0.17232671024945895], [-0.0972817139793327, -0.012077881059884561, 0.18121831668635197, 0.03494193627729116, -0.11979776374557599, -0.003825214667405686, -0.09561936100125101, 0.2535942396812374, -0.555658991342968, -0.021369987666828273, 0.43840761245409776, 0.31469708994681245, -0.019684598952853686, 0.20610742268906934, -0.0034643016234828477, 0.49365982469067093, 0.6136612914579709, 0.12458350733324192, -0.40412766948224943, 0.20538024012619685, -0.18692541060301718, -0.22696279412560696, -0.0044719404494869735, 0.053666692357606814, -0.17548854503084266, 0.3579325296855745, 0.31348985786945194, 0.00012594414576166664], [0.6602125910893645, -0.08125419264328944, 0.6089337143331467, 0.9612673148756866, -0.10086475150523734, 0.5934768373503568, 0.31001844111695614, -1.3193880932653157, 0.26418613805422536, 0.29881357727233687, -0.2033495541975549, 0.03946897637891959, 0.08010998810394308, -0.050669691305843326, 0.43359913390904753, -0.10052809532297106, -0.24609768472149682, -0.2712851248681418, -0.0723173561180077, 0.2310926712470518, 0.35228302986557425, 0.8871946205045964, -0.2731522879680841, -0.26831114000427564, -0.06330294734248097, -0.0941855131081729, -0.10274940440248931, -0.33470339413125627], [-0.33244262223784943, 0.22871581201401456, -0.08316037852241653, -0.11322642874204467, -0.2711078573758184, 1.3933912649992533, -0.583980364619788, 0.08689623834359007, 0.10305370708286825, 0.11454760207480542, -0.07435045883210223, 0.0236707816212077, -0.19330530862971979, 0.18658986656832835, -0.154223991593481, 0.047488698956152764, -0.14193852546354482, 0.10402389659166782, 0.16609741080630827, 0.2556142464216821, 0.09140711784328434, 0.03923523495935371, 0.36529513367283234, -0.28256182300978194, -0.1331034789010519, -0.12163146417240615, -0.25114122153216206, -0.16199929307195451], [-0.6235672728334557, -0.6081579131251114, 0.7228186584524543, -0.6808390110453935, -0.4845704680590205, 0.9566801343520415, -0.19910458703784095, 0.915883452012798, 0.6302518263754874, 0.5628566344176469, -0.3505106045420781, -0.4329709078951442, -0.36243674909944723, -0.512749908871663, 1.059519424568185, -0.13644079567107883, -0.32772520094152857, -0.33056999687592337, -0.5761793224285564, -0.45455090677990345, -0.615357847010433, -0.6085827562381776, -0.4694348106829131, -0.729880232072077, -0.5503690503772433, 1.7914101225869836, -0.446639667594005, -0.5814319662995512], [0.05492755747926067, 0.20808808327747724, 0.2884292442740741, -0.12719744570613417, -0.06404642039143693, -0.28557229839295006, 0.561775402852585, 0.6558279190180412, 0.08911509468103102, 0.4026367287902698, 0.20136152308646202, -0.331006039056474, -0.09007083141567418, 0.20050423669753478, 0.21433840947448127, 0.022032198142007346, -0.20518628153559945, 0.22831512539505103, 0.2975375280670181, 0.038944007290920596, -0.449323040598379, -0.09161919895063472, 0.10634629780849235, 1.170732866214326, 0.2308627239540311, 0.3826699800505902, 0.22972969243593985, 0.047356191231346], [0.09088101979941285, 0.07147719411862398, 0.1267524850757131, 0.07347540537165677, 0.2305272873755755, 0.3130933241696485, 0.48034045742330717, 0.037946704865229726, -0.07815783406445924, -0.09107312146022516, 0.08724292408205038, 0.3763590856911281, 0.07111693328789385, 0.51315704807352, -0.1899565844107478, 0.23348360221170858, 0.18197437090671176, 0.24682422546564736, -0.21586312295278487, 2.3538238162362846, -0.029604046484597236, 0.2579124286996488, 0.3663618340966273, 0.15666193791830052, 0.16795836187617763, 0.4350591645814609, 0.08236443094414041, 0.21440905613485045], [0.19307542511285325, 0.014674401969735278, 0.3515469137939454, 0.2823127936933795, 0.19353315629961382, -0.08616139335058025, -0.3924167548084639, 0.23109204641463943, 0.02679661003266303, 0.1507433790064292, 0.688517696069244, -0.0917411447126949, -0.16575917196239714, 0.04391062100044787, 0.31566862677327406, -0.09334684786025979, 0.06302601294837706, 0.11537567867356358, -0.3852629872673152, 0.8870530569296434, -0.4317620467737754, 0.13288618226196947, -0.12610349613081584, -0.2706878952622623, -0.03802743071369359, -0.13170445011423543, 0.25089121583557594, 0.009897714040161383], [-0.06289409291211603, -0.08575168660232793, 0.1995178303156907, -0.14527502458871164, -0.1285648825287929, -0.17042560852537658, 0.23680666425913105, 0.39848130853208047, -0.026403588480162502, -0.4012554533416593, -0.912538085863535, 0.2930006211189061, 0.6815409108854985, -0.061177943795859634, -0.3871324386027589, 0.21956942239371718, 0.1420913375523224, 0.1454804225340809, 0.15241511445872324, -0.3739905431753348, -0.11851664494766677, 0.08816628978491757, -0.13072280192337193, 0.7985089900488133, 0.49633182255068936, 0.022552226640813848, 0.012729335996697892, -0.22899251776947396], [0.20580840723926477, 0.05398046323933009, -0.02553712087368848, 0.3299695407527268, 0.12258881207277253, -0.7206202129779216, 0.3338806718013935, 0.6878207936174068, 0.06307229665163253, -0.3442455318327948, 0.15112689126655796, 0.3429186169573144, -0.33710668985916314, 0.01787170901447291, 0.5885357348236799, 0.21496687322284233, 0.13398597074096352, 0.04038016057834237, -0.021989277562647833, -0.4259601591879303, -0.3550416791003726, 0.31332403896446714, 0.44808678017221926, 0.08254149730956695, 0.6530530454817023, 0.3203066038270202, -0.02163503622114483, 0.2050337418836254], [-0.15723951984382023, 0.027884219520890523, -0.043798701086011645, -0.028556972130818776, 0.24324229514220985, 0.11699551700527522, 0.07772953802163748, 0.27951419950117035, -0.26110858360483774, 0.12792136624675726, 0.05036521270448248, 0.06709699508284223, -0.3287134616990961, -0.2287953923457329, 0.2615045604955813, 0.16355989004136814, 0.3381885120266965, -0.11408714446498869, 1.427872235710874, 0.5525621831723119, -0.37132787931781536, 0.20433014365332533, 0.05300158372832796, -0.1789257987148711, -0.16163551510728402, 1.0912762306579529, 0.14907964408275784, 0.11635801231846112], [-0.08978325560820252, -0.1395483658852666, -1.129555020956257, -0.33613864731555715, -0.24950072544431456, -0.2657768812341344, 0.4257000988620109, -0.6751675253198621, -0.7337243186163677, 0.3587095621470356, 1.068716521502054, -0.25598141014502446, -0.39657156342026484, -0.15556874318378044, -0.14222430644585812, -0.24798746108271139, -0.18404235906731342, 1.302789436539763, 0.8205615633152016, 0.09036257622615851, -0.28340872299925607, -0.13510611553009758, -0.04657690829064701, -0.01266474518952713, -0.20324026031888257, -0.12601018484900056, -0.22620600921713285, 0.8004400259933236], [0.14202650188193544, -0.029211463969567798, 0.01329517452084018, -0.20742323051127146, 0.3416453686137693, 0.35694950605236636, -0.19368592994422093, -0.45579792843223316, -0.04258229104922034, 0.050798097430994935, -0.03296748909387218, 0.043477948628460245, -0.003869087699023338, -0.12362808936669942, 0.14622714153512298, -0.15305956530402626, 0.2706884935358583, 0.07474948123821197, 0.16672842546408606, 0.347407886531923, 0.28064852733895507, -0.0969325550579572, -0.04129458148233071, 1.138955655930151, 0.1711913120810882, 0.11686872079693987, 0.05589463529292436, 0.1870630708669471], [0.11392840825251763, 0.13672343439043855, 0.09291253632582783, 0.009752427824275245, 0.06736969459475438, 0.16712306994105497, 0.06790119260238756, 0.09857058762803067, 0.04757083934883762, -0.20937288035146073, 0.019112154883409324, 0.011708387532326954, -0.11893754597592911, -0.03948478886837046, 0.17400606300736599, 0.1478895182287594, 0.17035107659854967, 1.217478941600656, -0.21659427748813098, 0.12544412054626516, -0.0031520606925844207, 0.03889197508131612, 0.01911999872765943, 0.40002078570595023, 0.16974442095099754, 0.021762871652488736, -0.12795292824727836, 0.01877741318936232], [-0.04773736764998719, 0.37710002767606987, 0.3503395609620541, 0.01903859217469253, -0.0016533948907237568, 0.4196603477946823, -0.10935356545180873, -0.2206343057260465, -0.23732831794114495, -0.06197752695109077, 1.2382265443884062, -0.008519157273245342, -0.2143775888703851, -0.2888808622496969, -0.22905326343158017, 0.058000192806876294, -0.1703821096018867, -0.18424898165013628, -0.0038583669449411932, 0.6674786914953603, 0.06442313543307228, -0.2237515440492577, -0.1378726160771151, -0.03331766512077801, 0.08207337611137425, -0.010817898533263433, 0.2576974456599732, 0.1728176428698005], [-0.07637236272928792, -0.23635118547582987, 0.5024848086894051, 0.18990277356900662, 0.16927274279772367, 0.5775119888682416, -0.02684492048024608, 0.004773067397161304, -0.02128398017579537, -0.5651172928501664, -0.5448506317655406, 0.20520706940929445, -0.07702733405196205, 0.363760238558887, -0.21015808119279597, 0.15116639963105533, 0.2046973033342415, 1.5272887474110377, -0.4934842603426965, 0.4244775483599135, 0.5587509721307591, 0.279026080256506, 0.0033093462856520427, -0.1350028160441304, 0.40282365025769196, 0.05733583333683354, 0.03405745698548551, 0.18752875886082038], [0.46142310979003115, -0.09894163613982883, -0.3772724163993784, 0.3938860333172123, 0.08540786437584452, 0.3288853763097938, 0.43560291480463154, 0.34959007109970464, 0.058889517236733704, -0.17633648371990437, 0.296676933927193, 1.6902329463548735, -0.8418145437471208, 1.2965693372621665, -0.20991142531845414, 0.1575608882242183, 0.22001247349082406, 0.26938845735132233, 0.7536042026454148, -0.2086431260515402, 0.22766138839472244, 0.11450470370892334, -0.12014843257125205, 0.0870170332656006, -0.012859513423421955, -0.08480838109651632, -0.016167142421204414, 0.2872510727723303], [-0.20349605310117863, -0.2294139517485708, 0.3546869959136363, -0.2934620078335544, -0.3190805871935139, -0.08472614321508828, 0.14819720977368603, 0.025286355893847725, 0.2545122141005937, 0.25989486859779337, -0.45450623252014305, -0.3973293879105298, -0.2077754585332946, -0.1776055798738219, -0.15174879742092426, -0.40953918039798803, -0.4871597430563385, -0.4165146794402625, 0.28238146219701693, -0.34303359760695756, -0.09812817965270997, -0.2821878656523137, -0.24832532346393266, -0.27683283410189685, -0.5136671146271737, -0.3929579770951529, -0.43429494542248287, -0.37390014353061296], [0.0665225198149283, -0.05645184605218338, 0.040891592549377284, 0.0250713228433179, -0.05317166520971166, 0.466327322009712, -0.6948494178444183, 0.1434475280341809, -0.09469851105910851, -0.23169564049648794, -0.027727936490417143, -0.05096551774153654, -0.578654212773508, -0.07526395705513024, 0.4079972885553312, 0.036722446804506974, 0.5787378724671766, 0.24646805310541278, -0.7660872989519132, 0.528282539254397, -0.42204091875345146, -0.1105364411209107, 0.12596152460997517, -0.027363664923888035, 0.14877770715855687, 0.7469763197300701, 0.08336668217565535, 0.36510454771639544], [0.38831175527031386, 0.006281593751302694, -0.25451029490444776, 0.36750512815420955, 0.03030897177399373, -0.17645719227437348, -0.07549969224891773, 0.1688205035435038, 0.02975953002449331, 0.23263939909788597, 0.11476014544389897, 0.4059138364374948, -0.055570683447998696, 0.08194748917703601, 0.09182130633061827, -0.13141122133048064, 0.03433008735541091, 0.088745086006511, 1.2152583111195276, 0.02996920980249352, -0.15392016692370314, 0.46686277436266277, 0.019805665901806595, -0.16981306654511824, 0.06271138608462531, -0.13141678768915716, -0.22193760326567646, -0.10120866330943877], [-0.01286397565965479, 0.2419771734988892, -0.016593095958922083, -0.08519291451931718, -0.06384196423837889, -1.5337671048640849, 0.10538297509560461, -0.009219216782449208, 0.37303736530588016, 0.01959324662923903, 0.007450175319157405, -0.20066343335793063, 0.007373450350678538, 0.34114737378451065, -0.22501153452149725, -0.13771756559152487, -0.26787460526012663, -0.0014680859385931926, 0.10101602109468416, -0.20381779604582367, 0.3103084604868726, -0.07608273461490696, 0.16587812182521464, -0.2680237102433959, -0.14881233130229354, -0.08926212937463925, -0.06003518382529732, -0.21964469671325454], [-0.04060777586076143, -0.15064578949666782, 0.06153661703770665, 0.02041551809394819, 0.11378712201024971, -0.014101027497900587, -0.16330557779902785, 0.011628008846085424, -0.45477332178773155, -0.6868185282266676, -0.10322534041962579, 0.15329689745196637, -0.06798050073578611, -0.3699994238298465, 0.12573432102903975, 0.0648509748840049, -0.05299501473180243, 1.0174234221497278, -0.3081631079420856, -0.19677198618504255, 0.9118288262458295, -0.1798570911898021, -0.17082971140433878, 0.3250702659852193, -0.028463349812473396, 0.24905963981048077, 0.2962105055364932, 0.18449330704020597], [-0.18260635197893318, -0.32558220672735383, -0.1522081015217195, 0.10406766234349057, 0.011764649326987418, 0.0016362548296631162, 0.14674051497284546, 0.40439622933733893, 0.004902152242257861, 0.3060411611176342, 0.07131978515242829, -0.17590886547447337, 0.39841468392335966, -0.0793880607017744, 0.03928210342410124, -0.11551750815737656, -0.2435636251329425, 0.1018442792255645, 1.7345098016986287, -0.20611788158186653, 0.009878386919141547, 0.013743928797894118, -0.3464353858030737, -0.27234003122262856, -0.18933128094349674, 0.9139254231373083, 0.08721522434531348, 0.09973838726270881], [0.5646459063893605, -0.26616731542287425, -0.5147391794109816, 0.6606663647547519, -0.3612989175875154, -0.514421651835171, 0.22159762807874941, 0.39320268548832465, 0.23869132863508982, 0.1387255742214809, -0.23757474354474575, -0.4200004753952136, -0.2915747135081616, 1.1111604835807127, -0.7574394348879675, -0.16334743608546234, 0.07674067650453666, -0.3743954010189789, -1.183850202968443, 0.9438750917905955, 0.525807499083122, 0.6854002105485268, -0.37684375381892526, -0.3698524119333693, -0.21171916885911865, -0.14029313477578373, -0.18737766871784964, -0.13598459312522493], [0.10650999834552398, 0.18369476840166918, -0.06312106338442677, 0.15918437985986827, -0.01792588019680584, 0.07351550194764703, 0.09937824140032914, 0.020576269315271362, 0.058787299971366704, 0.0925937288329404, -0.03870152790460192, 0.1410290839466377, -0.049148921656798406, 0.2653856166259324, -0.04233163511269555, -0.08534980173896412, 0.0644048921045614, 0.1297507122002943, -0.19894763554013944, 0.011877803072642553, -1.929183711437366, 0.09864991889221973, 0.09340513820576343, 0.0735734132610526, 0.056662965701635495, -0.047757899873846786, -0.08399131100070377, -0.05763137307398051], [0.07644141268680794, 0.4555037476884611, -0.15218967370989803, -0.008556163544278633, -0.02528975271187219, -0.028583306623871527, 0.01640124336299074, -0.3575433502519312, -0.24678743580032086, 0.41841477414131156, 0.4939235405245959, 0.07743030809069862, -0.12603100258805133, 0.11164676439529561, -0.23990459065310396, 0.1681515917175352, -0.03755575437897658, 0.2844394774340679, 0.380535312863419, 0.24076084649410567, -0.7584651780431724, 0.11347179015988967, 0.32308689615713454, 0.0904875474767251, 0.12194533319517746, 0.10833125630543347, 0.07254434856502195, 0.7360643387062007], [-0.3325883744070987, 0.07847733551590678, -0.017967661006900434, -0.1192741221734259, 0.17376007939563382, 0.0919601914259869, 0.5298017317380659, -0.0744686956693805, -0.22423793693606334, -0.13940897285829898, 0.09762824839810183, -0.3616646398398291, 0.26828320960867164, 0.08709941304479232, -0.44410254316682923, 0.24368707592239297, 0.22982496797196725, 0.11137062363682679, -0.11947271766838091, 1.6727536460441952, -0.13771977007022307, 0.07639206954396834, 0.07943802979614029, -0.11654825177837386, 0.11865549584142542, 0.11760023419109437, 0.3972989011608927, 0.1172285437002663], [-0.06680493108292225, 0.972478987637479, 0.18257165665824301, -0.15598547946147304, -1.6343296189742929, 0.06384632446146123, 0.06584094698493392, -0.5684000816906832, 0.09799630188029276, 0.17179502897564833, -0.036026561443903926, -0.054613286673270534, 0.03872321289518156, 0.8573551058669245, -0.42334916917091114, 0.08689834492066684, 0.009896140622620847, -0.07092838792512915, 0.025307987652737157, -0.056111965357785884, 0.16758983133810804, -0.12492219639404169, 0.9468553452896932, -0.02897780194012958, 0.017583836506434143, 0.09588903854952142, -0.09258929713407878, -0.20252148473698978], [0.7416732620873487, -0.24244135860290641, -0.8385151156463034, 0.5364356724057936, -0.025796800889575887, -0.04052876024743113, -0.22537895110457482, 0.3976618896010401, 0.4481227014093694, 0.2668256888255381, -0.3508487858723602, 0.023914080497412234, -0.3413802852106669, 1.1843580408155667, -0.982516483741439, -0.3767751253606177, -0.2741456145852989, -0.0381797751653008, 0.25772021959465313, -0.14727230653997445, 0.3057843051682981, 0.8498828393202018, -0.45842491789415735, -0.3171392188452712, -0.1861889983882881, -0.463471887426314, -0.38216398957348485, -0.373252651216741], [0.3773228707978174, 0.26276333047947464, -0.24833854284141468, 0.22425757823505976, 0.310878691814565, -0.14799760209668283, -0.35181123615212684, 0.06157767464803105, 0.23597537925318934, -0.5010681512844878, 0.20895276808932656, 0.16131572139081526, -0.09306403823271206, 0.16002070527688506, -0.02509894223616368, 0.03708204477628927, 0.46946739573160595, 0.12227077633705064, -0.27155310235812236, 0.3952845536759937, 0.6394239596405582, 0.29414594151287926, -0.10435150635428202, 0.15545536599526869, 0.02043617685327566, -0.18669995522417993, -0.14150397670469878, 0.24320983053587922], [0.19458311390670827, 0.2329969713566973, -0.08877682677199415, -0.2586237324939499, 0.8504957667202456, -0.28821213887645886, 0.706660511217879, -0.0997001376627755, 0.09645429229372644, -0.07037349415300749, 0.24975653508431161, 0.1718255026549486, 0.056519552357170516, 0.2835126699894143, -0.21112197611501213, 0.30932803776954787, 0.027644802669155633, -0.006079699756285053, 0.13645546733117123, 0.12559959546432048, 0.6267055960296393, -0.013803106380617419, 0.08723229711243441, 0.1914461713587394, 0.17428304694344948, 0.20865586260760954, 0.05667116310149571, -0.012235295983635597], [-0.6074313166610434, 1.214012118373176, 0.753825759970233, -0.5366689798040404, 0.3212246173427919, -0.6014358504050428, -0.036600233330393965, -0.9296695668633848, 0.6543641390722424, 0.5017420495347648, -0.4874163829607004, -0.5655539868564937, -0.515579256977984, 1.256916814295201, -0.818255003466822, -0.43912867998222, -0.6773147784863622, -0.4863315498891672, 0.6131208273501968, -0.2341523340207998, 0.10229812296473813, -0.577360270365558, 1.412613841536625, -0.5920175909381625, -0.6064363367194515, -0.5261246113412117, -0.508884148099723, -0.6049752152988842], [0.09342032164010824, 0.15563245424467262, 0.11909093123872946, 0.02061641612075058, -0.04674015168610111, 0.03568199971798807, -1.2500927870265561, 0.10351322943040124, 0.004472677118196154, -0.27002591442532436, 0.1266818043187923, 0.11724479971027284, 0.027498290337257487, -0.17211280846177757, 0.17491871525053238, -0.17506344173725225, -0.11254710441465354, -0.08169987821755928, 0.11922450888837909, 1.2176360222583367, -0.20358853547256345, 0.0010002109340683319, 0.19603972233526698, 0.08316251634109546, 0.1240109498675723, -0.06999981490800822, -0.06308092181426297, -0.12997924749474626], [0.11115571216428076, 0.5751726243407522, -0.049177609323333114, 0.14816111468654958, 0.8844262413698166, 0.3781436549469878, -1.0272505486453487, 0.015163680750684513, -0.17564267777357181, 0.023331477637786417, 0.1881206033314326, 0.16713514595035647, 0.019329559242065364, 0.45926685011567614, 0.12119182943788208, 0.29598500501564073, 0.01967833948127795, -0.02352035676849209, -0.15107616805109947, -0.4019479746554116, 0.4165832262861309, -0.1405311809634266, 0.3299593163265102, -0.06628529234773553, 0.152442530913095, 0.22447448828497915, 0.4276527115974328, 0.1902295482743214], [0.9509264800270619, -0.40891148614352363, 0.14075921079674622, 0.06240101571717258, 0.3103720343137308, -0.04506932704386256, -0.20105354343167728, -0.19950439312988405, -0.6852646088625591, 0.3717851770390947, 0.3699401499148441, 0.13561040814128147, 0.06007528100105929, -0.291388319625725, -0.30146822722334665, 0.15222997769692198, 0.44740207385203773, -0.028852702970318667, -0.3201703597671304, 0.9542849762668486, 0.1511851157687377, -0.10848504402329417, -0.5793939260710922, -0.11781416458104872, -0.055909436269773634, -0.3980541555316221, 0.524000882175671, -0.10231588245369791], [0.262298719224667, 0.14623017897833157, -0.004140075670175615, -0.12042855032004422, 0.6643602317516046, -0.22195741407158673, -0.4829547415746783, -0.2964932581939377, -0.20119156967919558, 0.004076044479748214, 0.2133855064497613, 0.11592395067931019, -0.021247481477043643, -0.3453013652002017, 0.33161403626553204, 0.058591005819505514, 0.3212767664073875, 0.21334755220313287, 0.1281309932156328, 0.6878937664996821, 0.8056643550195441, -0.1397611188191229, 0.3661239096503655, 0.07346334020645669, 0.3999258028405758, 0.11849926371857919, 0.23658833772327817, 0.04885654584813073], [1.4110345051588933, -0.037268085583724124, 0.3742109369208313, 0.3090919404565291, 0.09985950512275585, 0.07157392929188228, -0.012906132093250774, -0.5672796834438808, -0.18262335450065778, 0.06472349452348529, -0.6632983373985609, -0.02052785593239988, -0.34592381103393127, -0.2785704186710298, 0.18841408897562714, -0.12262645964909091, 0.2558335450569253, -0.17882451690574785, 0.09523695061334897, -0.6059305765271602, -0.11585543537810679, 0.7208561801771761, -0.19789994526368532, -0.09402938358277263, 0.08543185574021595, -0.19817770377042757, 0.25498235126166524, -0.037418121536920784], [-0.029156370084360637, -0.04905533336273638, -0.0007406897478670679, -0.12119230763533562, 0.17583522928223647, 0.13488182405160656, -0.14861412537978516, -0.16687870259325216, -0.06827641032756672, -0.3244373370258841, 0.38596320264171863, 0.19786500290227352, 0.10955832473651418, 0.03692094535301159, -0.09237603461405854, 0.09755128547536167, 0.25071382361597694, 0.3043456539404762, -0.23930346527751564, 2.6053046204293473, 0.29804132472556855, 0.024650732002059243, 0.060439941638738774, 0.31869142329790623, 0.25010073966464097, 0.1621010536957404, 0.20556647600138994, 0.07075715935539723], [-0.12467001202945366, -0.025986606122865765, -0.26449185703408956, 0.05363531029104222, -0.09301165647599033, 0.25934357802598457, 0.2016287781926021, -0.25318125298434935, -0.32216652554513214, 0.06235078123274279, 0.23441035946670927, -0.05755055314133677, -0.5447388394039558, -0.24186839760782344, -0.44147666726659923, -0.5429233934446888, 0.17796982049765667, 2.1409584543660802, 0.13846259069756287, 0.20118179058961885, 0.2196934289974036, -0.0336659319760431, 0.06897173392368783, 0.16219907042724674, 0.10514451591417151, -0.17329136977946166, -0.2598781483640387, 1.0691421353646098], [-0.20810956017819027, -0.1313244375967107, -1.2175937152341303, -0.06958312442349586, -0.06724651933717202, 1.0843934645208737, 0.223489415049964, 0.7414691010142362, 0.43354147619906, -1.4624650200840374, 1.0618445367552931, -0.34735953302562034, 0.7277313876107812, -0.40244970782716294, -0.17190696746990933, 0.1302016134639563, 0.004472121268220677, -0.3220808944428919, 0.6354498709023346, -0.015927507937546628, -0.14222501089587072, -0.39998748973426984, -0.22456692007958629, 1.089997692830375, -0.11072622905715562, -0.5211205845620259, -0.10137647194481046, -0.4253511117129345], [-0.036125876553885716, 0.08464904339809144, 0.13008432749969231, 0.3306586529677903, 0.23699089104975166, -0.12268826960035233, -0.10079370508607552, 0.10263832839001497, 0.1560576146077803, 0.11954015038251908, 2.461665595373245, 0.27428954780097176, 0.029653980640138012, 0.22530123097704208, 0.29141041676593354, 0.1814289430240192, 0.08710916316368127, 0.18508201340797917, -0.26729812682027293, 0.17447728379576205, 0.27991968522693467, 0.30886066862850137, 0.302311028239283, 0.006405366765522263, 0.15834033206862155, 0.299146875267717, -0.31818452855715024, -0.16365620485685375], [-0.02252711002846135, -0.05369076758244904, 0.498569391597351, -0.14411615216100745, 0.037636288926708825, -0.36675829709585944, -0.35248206305886365, -1.0093386842758119, 0.11374474545998109, 0.3422658718425318, 0.7127817168016614, -0.29800591563002776, -0.07043237735727961, -0.06438136902713654, 0.2848979219548776, -0.08690813848556854, 0.01763635986775263, 0.09926564774574324, 0.23671379272437423, 0.13809275600607962, 0.2935034112259777, -0.28626136909461136, -0.48044416540057666, 1.3349363855543386, 0.03553991398032295, 0.10526359695169456, 0.22289867540273026, -0.11210612514284374], [-0.529397181150733, 0.047341138244706954, 0.1440991097833164, 0.0010657682212423451, 0.6876147648104447, -0.16827660715602474, -0.5687528363056994, -0.2525488804410526, -0.21148788735787846, 0.2508395677613215, 0.04823098876996182, -0.27793256113378917, -0.41906716022265056, -0.09252407842152717, -0.18427011005816732, -0.12529225330834762, 0.26624463713732194, -0.12877436016557098, -0.020216534135751016, 0.5669312463445989, -0.2071339678885131, -0.18520345167904279, -0.11148785076368346, -0.02396039953257206, -0.1806404516924666, -0.2538480619164942, 0.4016150276350644, -0.13943079698089547]], "hidden_bias1": [-1.6942121362213585, -1.0341482695978828, -0.808638440573131, -0.4050152172836337, -0.739385054669948, -1.5277928483653058, -0.8416989960839927, -0.6685211062939624, -0.781142482768118, -0.7252390261311518, -1.378737667683978, -1.3304513450416173, -0.4303874441562083, -1.1729444792425532, -1.3764431149130645, -2.4419458717032314, -1.0911380768138617, -1.5487705421562927, -1.4037765559915412, -0.9793450603476662, -1.0943083214980849, -1.5862379011096646, -2.1098129821644243, -0.8443145269433963, -2.0026828337614284, -1.0891064452127606, -1.2425509124726175, -0.49581236131163736, -1.9197395093466956, -1.4989003792031967, -0.7285529268314869, -1.9732447267606765, -0.4250601701121937, -2.636741260839728, -0.9056097757583892, -0.08989419202177172, -0.3477630328166633, -0.1988976657021718, -0.4699367012753954, -1.357117532797133, -2.3513229968156146, -0.5547595416701874, -0.9406226736049046, -0.8261165505072945, -0.47377322234628616, -1.041508389933522, -0.9993147774656937, -1.7829404511926892, -0.7523261328342418, -0.9523151266414067, -0.7502551566360255, -2.4829897657132842, -1.1613766494665796, -0.8400535226435857, -1.6628954063994823, -0.6883730721637639, -0.7833077887578023, -0.8457137206190664, -1.2874541907572998, -1.0131661063923658, -1.0089078950307513, -2.618926704066943, -0.5700782667361247, -0.7072616717738748, -1.6002055705647964, -1.6756889489124636, -1.3545617954901534, -1.1112749645678186, -0.4351756843597413, -1.1266604063662387, -0.5132776694761355, -1.1201499495879685, -1.112007825917944, -2.1306603464662537, -1.3656182595964754, -2.0894595464276704, -2.605717053389574, -0.6803918724338041, -1.1644630552689343, -2.451289697762949, -1.6333645494044553, -0.4504779603565401, -0.7531680893190664, -0.6735021001938979, -0.5392201003819654, -0.3712693465917975, -0.4694452633913629, -1.503120613346096, -1.0827713038987814, -3.0014761965491856, -1.235521762666267, -0.5668453381464288, -0.7560531304393733, -0.8582210046689653, -0.6300616055453041, -1.0506351466520094, -1.5172287695081652, -0.6570707416120402, -0.33887180157311575, -0.759138936720968, -1.1157921459586317, -1.4872479830388898, -1.6847551341646216, -0.8393918839750079, -0.871337189157833, -0.9791362732609098, -0.4409338504515574, -1.331431515859415, -1.8627824138833322, -0.5657741842932751, -1.1705722849481441, -0.6426161345808449, -1.50192274621379, -1.809990239072458, -0.43002925683711324, -0.7801942735454991, -2.4502128526773554, -0.5987215989897984, -0.4501368621931194, -1.0139101157423507, -0.3542313823377385, -1.068419833185739, -0.4987413709343512, -0.9014204369583494, -1.8622606505323065, -0.3751109801050653, -1.1612914700571912, -1.1381724471450954], "hidden_weights2": [[0.11322062657578844, 0.08037598735210591, -0.02403003348543607, 0.02652060199143447, 0.05243837562709829, -0.14356910067928222, -0.15220419100298638, 0.09414788590542862, -0.09424849237546944, -0.3428099464096987, -0.30756924804784197, -0.033328349103553145, -0.12729866583944485, 0.38331044350020843, 0.17407629511009964, -0.08435177781397524, -0.08798960754284718, 0.11591376830840719, -0.19880922722065814, 0.03828482806377381, -0.151855128407989, -0.4826932003117869, -0.1032062152002135, -0.13684305767218738, 0.21035434391498184, 0.26514029998762206, -0.13568923996916624, 0.27496852047541054, 0.22644403201038357, 0.10690535889055602, 0.02181746034243541, -0.30116570279118804, 0.07050331154952437, -0.42913472940561775, -0.018276888852658706, 0.10050951821482554, -0.19719060979886452, -0.1376138587291366, -0.05962958254664257, -0.14919790732310295, -0.23337414105782434, 0.0902253181419895, -0.012878528067221343, 0.1787911932377732, -0.0027695341311335183, -0.12485085530980117, -0.022466967781334373, -0.2830820775679406, 0.1226981403027765, -0.22563647475610848, -0.15893454410504118, -0.18858780725690522, 0.09466787281454217, -0.0632954493847803, -0.02068526824483854, -0.0679328266821059, -0.001338680307116564, 0.033060568668038665, -0.1024412246887345, -0.1072950750116925, -0.24800142112554963, -0.557321627164298, -0.05767088241812124, 0.4219884871480738, 0.20964338983078462, -0.0034394654728547008, 0.1656176852348744, 0.026550024479566576, -0.17497861248838903, -0.2118231240866585, -0.01285802929117872, 0.2539886217621778, -0.17150162645846856, -0.32637551953630645, 0.0315671162634309, -0.5750743446995353, 0.17889522095689947, -0.020796739868838107, 0.08967946358853421, -0.30738739286992295, 0.09578549653587477, 0.05663491515930186, -0.07878327625933708, 0.20629102682808872, 0.06555228098065023, 0.05815841989859917, -0.05993761058604527, 0.09405187594858105, 0.039386703516624155, -0.14636264824844186, 0.002606080195353668, 0.19508289721387456, 0.04401959999125148, -0.3812609821186365, -0.07500150917950252, -0.055186179092972694, -0.05968777091757245, 0.0979262965430677, -0.0638684099022061, 0.08442332701043563, 0.1347814661209499, -0.2487593184268769, 0.0010384175964987673, 0.0287900701119774, -0.08547203092452359, -0.13767063298653204, -0.06801840321479263, -0.21355678354466315, -0.27653370738252026, 0.3186688686551175, 0.17169637547604794, 0.117119576411585, -0.38111297756355333, -0.3201639145223185, -0.10449314119473932, 0.005614463386786325, -0.19791481735935224, 0.14293340663894077, 0.004247810301173926, -0.08631811190808814, -0.1132182860908613, 0.031242999407343996, 0.0942944817602806, -0.05562500155781916, -0.1819134965226903, -0.202207742604308, -0.14253947419223958, 0.2645646932340282], [-0.031825114029451346, -0.21198935574810882, 0.11334201246652476, -0.2208242667362703, -0.30521574773708626, -0.22145715137580865, 0.10321930580799067, 0.09278655458769179, -0.08491129948814079, 0.10471193568001094, 0.0554002472848309, -0.10372404471119194, -0.12777712948559364, -0.16333296880677814, 0.15321719199635037, -0.13307531308944523, -0.05427574911185617, -0.16702362249714414, -0.10119868730807596, -0.05955136567245644, -0.24307751947852452, 0.11239384669630881, -0.13458987321899235, -0.05937618231588186, -0.009119544765916985, -0.1139014925114742, 0.11721799592676718, 0.04988757609059567, -0.1770352405366881, 0.10040865946600067, 0.17828544085155573, -0.20007692579345135, 0.11314629861461269, -0.01145389902723996, -0.30039537939352445, 0.34392809255469353, -0.02127561332705263, 0.1487550413692382, -0.0946696178913616, -0.08307943215285628, -0.25252654133034963, -0.1389662828788815, -0.045172760375310136, -0.07113809431088644, 0.05312523673054869, -0.2629767631589011, -0.11380900771457554, -0.18692683260866624, 0.15751577066736425, 0.05252386418438959, -0.07816417768782133, -0.13282293354244865, -0.031409218990516664, 0.09440137347798913, 0.19456429525855942, 0.17406069603490731, -0.13744975651247635, 0.007949693948469363, 0.08932686676512186, 0.08524556595804648, -0.26672960844350163, -0.23347361799686436, 0.25310455348973404, -0.1220455075001835, 0.03165100535084808, -0.1241156524705373, -0.11507523502496583, 0.376014037952612, 0.13991791647067833, 0.015601000756371221, -0.2319835521918286, -0.041162542119047185, -0.00030866313041795403, -0.13083194609333207, -0.14339309085252736, 0.21693142140524796, -0.3570717936210542, -0.12597636910105273, 0.029298565211613725, 0.04308108046861459, -0.12182696034972736, 0.04728363712563462, -0.03951918475157002, -0.23386540816403745, -0.17876873985738334, -0.12077082016395943, -0.10385014105915209, -0.2156664216973001, -0.13304209610180903, -0.045600368561663926, 0.0077827627511739125, 0.055255921803208756, 0.05284646879340784, 0.28017276378152917, 0.31029208789262974, -0.10534501955660057, -0.15127751992444619, -0.13998031275423445, -0.06270451442269814, -0.183425526633152, -0.19562286746693233, -0.009780057792671023, 0.09104017491843591, -0.1408528685766147, -0.0729382401285166, -0.14646296546372, -0.06830171505134472, 0.008414067404168023, -0.04250282245670332, 0.16369231208178686, -0.13686435924146162, 0.16299771470500404, -0.14911399036990763, -0.09577491352542977, -0.08177936031781474, -0.11686127527725047, -0.09915000125223054, -0.023636245914869992, -0.13604613898190768, -0.15569086600602947, 0.3107202809468722, -0.014540107597405066, -0.08788136732583417, -0.06269757017431055, -0.19957875817753265, -0.15912366583491203, -0.19516003300695697, -0.24992368823605549], [-0.05109776207564493, 0.26209062000775024, -0.25947659257120914, 0.21903420921018368, 0.046839000442504594, -0.6405458582049942, -0.05539763785135131, 0.09856715080632099, -0.054640838302884985, 0.4033480812021407, -0.2910031286555752, -0.021672569425368875, -0.0007800728124812424, 0.3224538499094748, 0.29956274808725586, -0.12587415912265987, -0.17851191844135916, -0.28205580658968643, 0.055730255706203796, -0.010575135074537419, -0.28730492281024306, -0.33540037527303235, -0.049031015832573056, -0.341875104942113, 0.20918798572046365, 0.10914943611607596, 0.06445827375711817, 0.012146764436569587, -0.21234487412240086, -0.19517746134644437, -0.3493844320847794, 0.3956370384126099, 0.20012547482301085, -0.26762319489651093, -0.16821826986004104, -0.06226360425285679, 0.14708968465875474, 0.12392169823229457, 0.010834798659841712, -0.37884033866948463, -0.22483585042800844, -0.3253733188669192, -0.07688922761762858, 0.1356343398210603, 0.0010201890193613004, 0.19888041429614803, 0.23325905000962985, -0.4023327323091174, -0.28412716388414133, -0.15132428996769495, -0.08066322556586675, -0.3494075548070501, 0.11007575748971932, 0.07455386572402938, 0.07213080076030973, -0.06013426897767035, -0.07926494890316381, -0.13215282304846807, 0.349705357040541, 0.2536519723566835, -0.1466147147431183, -0.31982190735635907, -0.17470865060764773, -0.10885339477817456, 0.20127767092516657, 0.3471549417284959, -0.32883638776589486, -0.06602040764312957, -0.22443135456528346, 0.03810379619655793, 0.042243850569509966, -0.3787379398956469, -0.3669349847895143, -0.24517254845878755, -0.058580667142724356, -0.22543408042104132, 0.30561316492181345, 0.01219951875924031, -0.2618301966207051, -0.6236206514510961, 0.0581963383071147, 0.02589423244483815, 0.2771122819766897, 0.02122703537117767, 0.18185105952494807, -0.15467099772737566, -0.06557403764388096, -0.03689146667962602, 0.04587437596033725, -0.41329443340174454, -0.12204778345249093, -0.11996169558837351, -0.06483926317882423, -0.02662731229061952, -0.029653123099728618, -0.05289769667032014, -0.2169039316127209, -0.10314931808891588, 0.09662539213423268, -0.3163018023018147, 0.03835008540605994, 0.4669585659918209, -0.07802603559566185, 0.002380658715409327, -0.019994600867223263, 0.21318700605730653, 0.1002567416960372, -0.15381480601162498, -0.1928426931543747, -0.09979809579132251, -0.15529077136799233, -0.09713840889347507, 0.10503776619393729, 0.05369872771202951, 0.2694923881294008, 0.0051155499004570115, -0.049556544418192836, -0.14276898927414616, 0.028153634474324545, -0.24070976781432585, 0.04582198799791229, 0.1857628368120295, -0.2922542971125086, 0.29494530422427967, -0.5093786505507828, -0.1669108613330814, 0.033266575661157316, -0.11392231083823147], [0.061575383381619726, 0.2868159181925016, -0.21114039132633453, -0.06473018957350447, 0.13843149267610683, 0.05665712169827292, 0.12801616031765412, -0.18215087089707405, -0.2913745237241088, -0.17606353831725557, -0.23719585512560099, 0.24704063657719605, -0.12578623130548658, 0.4954641095913866, -0.03679474490325459, -0.4750286784966397, 0.03092569913571377, -0.12918434994829406, -0.1586682080418803, 0.13049041387759, -0.11978407594239546, -0.2817168139125942, -0.25225207803064903, -0.0038585416235177626, -0.07331288708298045, 0.03961845765900869, -0.23710027939175293, 0.08316362102263153, -0.41189912078869434, -0.5091996112933895, -0.11035184074812925, -0.05563256685021435, 0.05157777648268277, -0.7325544598617197, -0.06657789185715811, -0.03180606013449715, -0.21304252096405094, -0.024248613227413385, 0.08395266721325426, -0.15024136088855283, 0.0009918749921898808, -0.15233377259126443, 0.11697330115521536, -0.005806591335173835, 0.14002773832668614, -0.3141009392240712, -0.2037521150755566, -0.3279520957709587, -0.05312374930552005, 0.037243317788669454, -0.11697885544997093, -0.15530004448818993, -0.3002312908779959, -0.4145217973257321, -0.3920871127728291, 0.04028525647035244, -0.06402741594450834, 0.31499809758563124, -0.17643103642374022, -0.1679781123250348, -0.208964894124159, -0.5309283911964292, -0.023222652789644294, -0.351491353228101, -0.22357105174613492, -0.11074197158186239, -0.20675005069694297, -0.043416550232728265, -0.02762273098457221, -0.24509637498303766, 0.06646538734708998, 0.14029654855543464, 0.018699284739158235, -0.30252819748315285, 0.12279006183771003, -0.4978568552189593, -0.5821186421215901, 0.0026604499132451874, 0.015416823694637706, -0.188682915095323, 0.16354986690193984, -0.14096914021775045, -0.33225749529569004, 0.32877938512905786, -0.03922906649794838, 0.02187355955783636, -0.18225133865918805, 0.3265539042465653, 0.03899251608321065, -0.25315230750107526, -0.10892170275930077, -0.2767719574082585, -0.05642982223439328, -0.3901767328796807, -0.010750988908668737, 0.0257961146366911, 0.14836363869116614, 0.17215634357052467, 0.06972706775798145, -0.15555380223951307, -0.2268595647013862, -0.32727612490604135, 0.07297359073129651, -0.18451608564425562, -0.20001581806027197, -0.06380385583812449, -0.293959804386116, -0.03316316786315983, -0.10052140969799944, 0.15796642300092834, 0.23390643803179023, -0.17867384667472516, -0.21650544802978822, -0.4227305479382726, -0.03339021131616427, -0.045863379795485416, -0.4591052449238909, -0.09021533303393695, -0.1391084303644186, -0.07499208536273651, -0.1735867354645006, 0.17874819124955482, -0.07830956374943547, 0.1744030826496216, -0.15945494757716047, -0.15742905012678482, -0.06769491795949066, -0.1440851704560695], [0.04042899013794832, -0.045705469827759075, -0.028850203847283273, -0.036354622455467986, -0.18591185007632652, -0.2528340570123402, -0.11080295443436355, 0.3785688306557625, -0.15124996388383546, 0.051760298268247545, -0.21203233867625487, -0.32289985781909875, 0.003990030962305268, 0.37787777414654017, 0.26054170461090337, -0.1647669314228827, 0.06158861719700385, -0.04294372273541014, 0.13645901992149218, 0.08583728067885583, -0.1825127587004307, -0.2515990184265101, 0.13484489287467052, 0.14191721356294504, -0.18665009376284852, -0.400494196192676, 0.06151109754407006, -0.21132160826268662, -0.2648886100569077, 0.19747982604729208, 0.10007769646342476, -0.28320907513445975, 0.14614274205314295, -0.16558500462142578, -0.1228703684432578, -0.10141306363214013, -0.1262883491049433, -0.09186844813705566, -0.17995398421390413, 0.449884123392285, -0.1228345569549316, -0.0452130285557203, -0.07543336651136408, -0.15023029744069374, 0.0423131511331665, -0.0025526125171986464, 0.12462690559056373, -0.09629955822818595, -0.24829293261900112, 0.13823136394507907, -0.03612689730062145, -0.3795650842633706, 0.05098627361660527, -0.04301566410920364, -0.20259162598354064, 0.1376653786051205, -0.06481221272967119, -0.13687304498466812, 0.11268783822098186, -0.14692624762082412, 0.04028507187974642, -0.25288018772144183, -0.0504458502287058, 0.005604637312418181, -0.1313866764974892, -0.0817811312564516, 0.07701666073072042, -0.0031932931192374756, -0.049382327807811606, -0.2699812652186629, -0.08692582578863572, 0.2500613454712839, 0.14585467820636275, -0.1362090631489851, 0.21660838220074619, -0.4475641192784926, 0.23581862878804688, -0.09209065335863198, -0.21194009396293625, -0.20196263060402048, 0.10952909951872307, -0.13274177233741452, 0.08739873866012386, -0.26316814140910005, -0.04871595987600578, -0.23430419772280053, -0.10235622263573703, -0.16252077108918314, -0.005773258238504555, 0.031121400043118634, -0.07383352503196816, -0.18336351274361484, -0.18302474967552892, -0.331752835592554, -0.12152829704938965, 0.2515130374719723, -0.13984385435839072, 0.10955279113068497, 0.09063127234899829, -0.18389253271643802, -0.09428724949270999, -0.05286115153264288, -0.16695101747571472, -0.2855122697441931, -0.1121853633009205, -0.23360832517567467, 0.08587261711954218, 0.058801538852159926, -0.11805937198047904, -0.36946074170812815, -0.2393125507262262, -0.1862335747906244, -0.14423533385031773, -0.1694879447172111, -0.033251562748413004, 0.11190231869022173, -0.11380673011573143, -0.12944152572461537, -0.30678108135193016, 0.12814665201051795, -0.27475760202125266, 0.08904752690716307, -0.03294849974095076, -0.06784984440426202, -0.43875631003774523, 0.008217624869233822, -0.33451835278086806, -0.1259581237461054], [-0.14752419103046285, 0.023839091246693724, 0.1534661703385, -0.16479388691784747, -0.04956487346848056, -0.0003426814346305688, 0.0060104190061245595, -0.05647201789110588, -0.09679738798999284, -0.13254194731805172, -0.16331059966479783, -0.15069204886060295, 0.34673896030702467, 0.20582844290781116, -0.026552521105086088, -0.13628435832514058, 1.0203961207788659, -0.2800858320666484, -0.12325571661809681, -0.22161772021254827, -0.04077070688186843, -0.15100834555869566, -0.07892814858179677, -0.044497229168682574, -0.3376673080852988, -0.11111205758919913, -0.08868304389770389, 0.09066074580559204, -0.02927264507802906, 0.10603201116918554, 0.03165208432435745, -0.18825735987550277, 0.301489751874499, -0.4970420434225134, -0.09908995144151282, -0.18750871348395715, -0.27656525488289735, 0.26623177194505154, -0.11394748700303857, 0.001822442096641324, -0.5084536700960636, -0.062227047912066034, 0.08448768360092976, 0.046650437889551255, 0.011641214717347713, 0.13900030518639606, -0.37746081225109135, -0.010315224055124753, 0.10224295256537681, 0.28955655806055314, 0.13928780720941314, -0.3498950075553183, -0.19329405368338623, -0.1080235503433165, -0.13234413512823798, 0.09745388495781564, -0.22660712217920717, 0.11441021997713405, -0.17192316852890344, -0.08946914448331389, -0.16541555796498292, -0.19662371631525513, -0.051604746090377095, -0.10338017743854648, 0.0739123843844182, 0.0831581989777351, 0.03763035793390284, -0.2923021220092029, -0.30155235240618045, 0.04520936419505727, 0.05900307502207564, 0.0813487072715307, -0.1605660543518414, -0.15943052349937742, -0.035151373064327356, -0.4466672293867365, -0.19876555385738995, -0.023937812139527313, -0.06689174439340502, -0.3536430325259545, -0.21476955286984664, -0.07133856258427594, 0.20057414050486355, 0.16874112104671252, -0.1532955275817803, 0.08750985052398198, -0.050341722937559806, -0.09397500479018361, 0.13023835790539243, 0.3652702079828974, -0.142079521447667, 0.3704964534999076, 0.3498697638362175, 0.07481747584118754, -0.10601675927032118, -0.021516302276865847, -0.11866515797650148, 0.022349713123645316, -0.11450267881244876, 0.10792463089127187, 0.0773625842609798, -0.20083350688355395, -0.019341628408711873, 0.04412695379133086, -0.2848858199006335, -0.19264974103315266, -0.03194461345301495, -0.03708460080575059, 0.2169334458627924, 0.1741167045845518, -0.3194069200956431, -0.1318841087188651, -0.18692411204315, -0.30394909352101074, 0.2032158508890658, -0.06164845025679187, -0.06516333550983573, -0.1327165195164972, 0.1331521036946337, -0.22321425713574497, -0.017885246285012254, 0.000869104667882138, 0.04333874384747236, -0.18222734102159108, 0.4448435527209489, 0.02415647101979586, -0.20594735062112376, -0.27775955288968485], [-0.08702515330269986, -0.291151091019812, -0.05515025136854207, 0.022284871822586802, -0.1563872815763759, 0.02307930579816351, -0.25798673669733285, 0.11227956614008323, -0.12613163695316837, 0.10720607962360254, -0.03458461540103533, -0.24134321485017882, -0.0265651533769883, -0.04827158403586433, -0.07173559107781459, -0.0844307240228181, 0.04312146529260998, 0.06310464522028224, 0.06677688848243746, -0.2522928339118742, 0.20613153137024565, -0.09032081329929138, -0.03352731827189504, -0.20290279776030312, -0.050666991416138514, -0.002091239516088605, -0.18589368542241838, 0.03990626026482512, -0.16956721515034617, -0.01925110145396646, -0.2038496572720954, -0.1348963209352464, -0.15627061813902943, -0.2811441089796789, 0.32626931118896374, 0.08562165711898866, -0.1408815439304926, 0.04895501075099755, 0.022214285070124445, -0.06862032029751793, -0.046157795987097544, -0.011851319823937775, -0.10984668355097893, 0.2035047070989641, -0.09267126284451498, 0.039062544034512904, -0.1831915273278773, -0.19162391507385548, -0.057277733821459724, -0.21646573122688412, -0.20997551700215183, -0.04559469796986949, 0.06714109053279226, -0.25804291960707854, -0.07950610113145223, 0.011096487500312219, -0.08958444502891161, 0.013361759283279076, -0.08974937791895468, -0.22547831867214715, -0.024882642132837866, -0.14971505700605128, -0.24711152361071312, -0.274974485477953, -0.08977096967732409, -0.15221325078392373, 0.0733471551607808, 0.08228944820726973, -0.2148674420191953, 0.02030588267332729, 0.08000805302930282, 0.010164323266126192, 0.020916264936139885, 0.25715159883356514, -0.019393998044536544, 0.03168044839978648, 0.0014613066751841758, 0.13104680407690264, -0.2085778067928562, -0.09776168259609332, 0.0014096213559107735, 0.09846124751201889, -0.07231220251171921, -0.15081617357136703, 0.07980546470177201, -0.07757016585511219, 0.10177148740441724, -0.08670221265335691, 0.12181009412374891, -0.08443177695075597, -0.002503029900909423, -0.006047797716474581, -0.1402570792521907, 0.08232821657837329, -0.027811134228045938, 0.0815964609580268, 0.03111205832905576, 0.2025193376514556, -0.07927554345260625, 0.250489467400811, -0.05806668124562067, -0.026050227877276098, -0.11755246004278488, 0.05461833670932448, -0.1367955328442419, 0.08531636787700443, 0.18184293130848317, 0.07805065295366591, -0.03141106349495886, -0.28036596538533054, -0.22112783983533896, -0.041537798647912245, 0.017677236732663026, -0.06040673453858802, -0.10270506943920173, 0.03596125573209208, -0.03112473749541185, -0.17912584340039558, -0.013173198947294762, -0.08900530889307533, -0.09834944552647486, -0.1447484357130549, -0.3695306193141693, -0.1369915933733637, -0.06607846836189059, -0.07153532272152509, 0.2348019682656882, -0.012466141036884043], [-0.13991370230535952, 0.06086623446642162, -0.03199543292673153, -0.07395981467073409, -0.07733745583870158, -0.18054237447117133, -0.10754027892842445, -0.04276978690410495, -0.052764369020773395, -0.19077644388543705, 0.27626640659899104, 0.09273208531258055, -0.16406065193456892, 0.14153237209219938, -0.204599763938716, -0.48787612477657155, 0.3378993839307823, 0.16394725935638743, 0.04884666774176608, 0.12443740940722936, 0.020463907874621524, -0.2328987569843051, -0.24656191534216562, 0.03722208539178834, 0.06532406788964366, -0.17137440279876398, -0.29556126475950056, -0.2089428447254113, 0.08264805196148609, 0.3655213471254036, -0.13704489263470696, 0.1486470015470406, -0.17919758847898018, 0.10414837767814404, 0.1953130812345605, 0.07229826862214923, 0.021256890956944243, -0.276544487270735, 0.1255392113749215, -0.3964763401114046, -0.19497990477447583, 0.2560032159123272, -0.20017109392887644, -0.056753488303493776, -0.026462480416512696, 0.17366284463136022, -0.3682983361704099, -0.3750563407472803, 0.15314706629781488, 0.2414450834075626, -0.02411886341391519, -0.32104380329656423, -0.10400412864153846, -0.17346905019676265, 0.17215822337278597, -0.06611071143321573, -0.10874884407532684, 0.16636966447667395, 0.025127453675035546, 0.06574045732459306, -0.09586213094402765, -0.11851946340976192, 0.2668343507222499, -0.15241268761289864, 0.2042165555052759, 0.006141099503938276, -0.16401429534131365, 0.15644706139849263, 0.1411148871306269, -0.09263843240645694, 0.24365149291011945, -0.15925631034516793, -0.07185451058120607, 0.040005205660473935, 0.1132385611768262, -0.2893287846949234, -0.045667363389774576, 0.05321785307673543, 0.17767064792998705, -0.42847131203433453, 0.2981484066945597, 0.016938383764834558, 0.056603861860880615, -0.016631174160562336, -0.47869378579954913, -0.1717111175110317, -0.026193751190375668, 0.2704256873529036, -0.011559474318739896, -0.5531499851357163, 