{"hidden_weights1": [[-0.2771090710558621, 0.04424751563701656, -0.27085222623131755, 0.21127596148395578, -0.30002523846869616, -0.457125418455978, 0.1995071149924064, -0.02612382119919954, -0.41453709045792514, 0.7297975293063587, 0.0011388736411139075, -0.12618009703929373, 0.822128731569362, -0.14839988597509485, -0.29522926505930375, 0.06511761586036473, -0.15145808213567052, 0.011677540049981665, 0.7851163205498325, -0.5943336918312707, 0.03291150532180893, 0.7064586335701319, 0.1530379595416668, -0.2579622091010759, 0.08149351753495833, 0.426474334879127, 0.04751418712595112, 0.5456554323665641], [-0.3115848274468611, -0.12700190742118422, 0.01416671931163465, -0.13871614905172114, 0.11992658698303, 0.21610819068740586, 0.22243347445701586, 0.2593784380031953, -0.22359455563318426, 0.023750975006471393, 0.12610726440599038, -0.0153016963675392, -0.2655097451650276, -0.2707095980942084, 0.4724505138671146, 0.16653123308064094, 0.2903977085041336, -0.06240495909852164, 0.8830777605118928, 0.32708329756693433, 0.1717301731948804, 0.14182509429695203, -0.08461021162044571, -0.12878862324085522, 0.23455600760392248, 1.2922626185876487, -0.014424368828961632, 0.16067462203759608], [-0.3601725942600813, -0.16341181676736133, 0.18589954789935798, -0.08633394252867739, -0.02001212838209211, -0.567972458087543, 0.08437188183404051, -0.8949775797289037, -0.21244585130634833, -0.07867982692270885, -0.49774764774944263, 0.5591044884906231, 0.1265904456072282, -0.5419074855853809, 0.3446867575204917, 0.04393984012468567, -0.1166185452305806, 0.42980217402977455, -0.21330860324328452, 0.06588508964316249, 1.1378292827815282, 0.11883791930370342, -0.2546138910894455, 0.13694428221560145, 0.1826407637914889, -0.00734940971970938, 0.3773270673798894, -0.1472930863811873], [0.2780012943576005, -0.0697164310935291, -0.2414590501871503, 0.40520336339120183, 0.0753840496094658, -0.12552862168259815, -1.8712876595670018, 0.19879112273449082, 0.5053008782039154, -0.23727901475817614, 0.26550885913817146, 0.18110867203152478, 0.25676109602681707, 0.15740359671427218, 0.44146509653566324, 0.11484690955856579, -0.035571127934760735, 0.20813320331740034, -0.7803242066658399, -1.2020462842645956, -0.29860241627283257, -0.2900144948220682, -0.013316523885801958, 0.40919816921039187, -0.08388979676673355, 0.368980835004404, -0.0021410347047546214, 0.232197972816045], [0.08625438780598757, -0.09901301623668947, -0.43759285585754776, -0.4150169941064958, 0.035993999507404964, 0.06452540366062717, 0.013857120544760753, -0.3684911048000791, 0.0724641531944712, 0.0021248801311821845, 0.20972773932642888, 0.03885115585775452, 0.1311661199696347, 0.1842621406847887, 0.13594597395599772, 0.499818234621466, 0.18896763498121016, 0.13697366062090668, -0.39425714184457117, -0.05839346027204056, -0.02168398339447814, -0.07436555397977049, -0.09274469678332678, 0.3511438087761841, 0.580491432377396, 0.09861302465866964, -0.17741544056772118, -0.023567136673618136], [0.5904344385933448, 0.09686142524028066, 0.1306644927860215, 0.4626195207627219, -0.433066907514243, 0.4688110260731138, 0.4895135523719679, -0.03772192700893884, 0.21055008044347243, -0.25241439438208546, -0.40713230744173734, -0.14307875432506983, 0.03574767693203273, 0.44975706335981214, 0.3294848929931319, 0.18088039275802953, -0.06947127233500325, 0.3048710208411405, 1.2725987082981212, 0.23588347516739253, 1.5362256302324302, 0.3323983957033182, -0.15735126319008985, 0.29891871653682245, 0.12794913331886987, 0.25304154794726263, 0.009167490865594504, 0.059198941873975224], [-0.2215381644194911, -0.0011435363337962043, -0.2860063353874437, 0.454553035807816, 1.175545599103617, 0.21987195627043554, -1.2771967348247442, -0.03027605437858588, -0.3389686970403037, -0.04741062097278826, 0.09865846704359565, 0.1761019854336364, -0.2400957728680363, 0.13454210130541677, 0.5173394057731173, -0.03958852240211844, 0.17116049476157258, 0.41466216165755815, 0.5603830204220263, -0.20565792727000373, 1.9691059506663846, 0.426758012495735, 0.3084854962125946, 0.0026092571773692554, 0.07526962407618919, 0.1716295162769688, 0.46372173483207735, 0.30244045605690956], [-0.17494457130117713, 0.18566609970583117, -0.9216232490559946, -0.055118635351241715, -0.044253399840111604, 0.257388601070732, -0.3393078688560412, 0.057835931964502305, 0.5024501707416515, -0.43963379284163545, 0.32541118628244187, -0.7514216504230202, 0.10670840633432806, 0.4424587574371862, -0.1985306083513768, 0.06984917055170099, 0.26463496148871984, -0.14217147747281483, -0.38074924946121946, -0.05898865750628381, 0.19800877228762417, 0.011021185010871676, 0.13196731142021617, 0.7883628350391437, 0.2294041042508628, -0.0489673827202435, 0.1463823179751547, -0.10882302482227031], [-0.14468550023459578, -0.16107397421267242, -0.12219288549416264, -0.016840859125630648, 0.19025253701894757, 0.0023109139431107275, -1.142120838482407, -0.5351941213463005, -0.6334859599841748, 0.7639956935799936, 0.1537372272469667, 0.2017777125125618, 0.15746981294665552, -0.21808963591074595, 0.5979900834691311, -0.007577417430419849, -0.48075478442496034, 0.638918996300648, 0.30433970411666383, -0.24649104509367833, 0.6280537075611984, -0.31472428444510847, -0.06006430029578313, 0.6439188410789618, 0.14874742627321327, 0.02906863964228762, -0.15103214056496586, 0.902878868288711], [0.24813576020493197, -0.26482371400968485, 0.1990446842998331, -0.03267082696679594, 0.13900106202540455, -0.0605753360747045, 0.14844695134252114, 0.3661504229820533, -0.0364335619505938, -0.4800737208292993, 2.3328553144599384, 0.3020041522687228, 0.41505310160278563, -0.0866870204275429, -0.2870149048804544, 0.15905378838234974, 0.041863392051308845, -0.3945671886491269, -0.11729062993375491, -0.9658389536461961, -0.3026350640410348, -0.08701072023212855, -0.027808184709978274, 0.8008153733904473, 0.17049056244818583, -0.1905440194665998, -0.049522827038569445, -0.07769640860066358], [0.38528423431327186, 0.30489530422618366, -0.2543380011481891, 0.23881495622912025, -0.29989931309792167, 0.13494403081652026, -0.8010490988966753, 0.15696073849765305, 0.13314203031773444, -0.14217432798579616, 0.3137166394550155, -0.4082650824400085, -0.2143363687102932, -0.17550760662440865, 0.8389393149598618, 0.2781278687433034, -0.08760875200820722, -0.09674918209086826, -0.6178920918091267, -0.3583188326560124, 1.2493420979745569, 0.06323547963941518, 0.1246808993652242, 0.19353953157403322, -0.01728388624900384, 0.28397915877070923, 0.1604498564241358, 0.026510661345641354], [0.14981691129304883, 0.09712942953851052, 0.34688527504174416, -0.18559989805291213, -0.01418139009659776, -0.25979373287749774, 0.0010471229344786814, 0.25827687676822525, -0.1767604928233157, -0.17466434363217279, -0.9008125252377874, 0.058454232153329254, 1.2327242804525582, 0.0714191125557155, -0.5544863837971479, 0.0507251927091506, -0.35861487496638456, 0.09867585889874357, -0.09911336441774334, -0.1236175090981754, -0.35440080662587803, -0.21999418810456337, -0.12033062809510932, 0.7121271174854024, 0.30631462102011703, 0.20255229620106538, 0.04202304311065415, 0.5169656063748298], [0.8409070029593316, 0.4004997230541011, -0.12027677851570018, -0.30749966059435463, -0.9835764333399132, -0.16719621304709775, -0.09286416324476549, -0.2519553897486041, -0.28141322160118765, -0.01760453477935502, -0.21186349225479983, 0.382383723264091, -0.5392689696806368, 0.020616463246813203, -0.29469306108044474, -0.15559318168056022, 0.3321946717204361, 0.24706392600361382, 0.05763785468977765, -0.15686631295045253, -0.8957319831580661, 0.074697777448185, -0.03994989201452341, -0.12699152168742273, 0.037587251153899874, 0.014847139411853862, 0.24096251524404252, -0.0062158413137798005], [0.27922389649289464, 0.5985944965357025, -0.14503311879355385, 0.33605108920901733, -0.34291513494386094, -0.1610336667187544, -1.2871478643748224, -0.012965506726129727, -0.18315362235023042, 0.1798014169453921, -0.01034083058355409, 0.02279527193075855, -0.17592198515828567, 0.41518596520905104, -0.04775498497388314, 0.13820409756346516, 0.668749410459317, 0.03159660502389942, 0.2741263077741144, 0.20990758048784025, -0.4804537085272901, 0.01213830355302479, 0.1596521036278899, 0.0211263970800501, -0.18705526794914423, 0.34507106410939786, 0.12167010915847974, -0.01748883851046927], [-0.1432737933630571, 0.3097229664916593, -0.68383135880626, 0.17509847785380278, -0.12458761766113476, -0.47839692703121944, 0.326279537175072, 0.08417829825230856, 0.22677724123759302, 0.15757757169146533, 0.3960492238262338, -0.12084202605917906, -0.15579836482700102, 0.46717236129724354, -0.1432391191201172, 0.4069815406635306, -0.010186027322817415, 0.13828138781978788, -2.1759904565281962, 0.28176859442055424, 0.4791004186348245, 0.3282397674457085, 0.09514867537058826, 0.2972379009939568, -0.08843563779734012, 0.3363686782099194, 0.0038373286625935643, 0.09126255315969957], [-0.21977137741886682, -0.10070215861162192, -0.06152836200179157, -0.24342499360370587, -0.3745297364617988, 0.30153490199855054, 0.05698077257900098, -0.15221508082957322, -0.38119595414343044, -0.3589151001609551, 0.3244326690106223, -0.023538492341854126, 0.3660627354097026, 0.20166785897000994, 0.5353719462705417, 1.057533460743747, -1.3525316877204108, 0.5477204956698214, -0.7384724722950077, 0.3685725307177922, -0.23687932245555943, -0.19149506222098353, 0.012525889635271419, -0.10807225795513213, -0.05413001041312708, -0.04280696412913977, -0.14807423594762023, 0.7872958945396928], [0.24559923139855278, 0.10368621667842842, -0.5066008713038014, 0.1947420195536732, -0.3878305377887991, -0.6055312959387641, 0.43873624868708516, 0.229861888720974, 0.025837499756106757, -0.14130126399901394, 0.3791752012971439, -0.054503553977349115, -0.15990604737994565, -0.07423924824386684, 0.40930023611509364, 0.3440144433297117, 0.09266015263949781, 0.3138864581327943, -0.5292444325908996, -0.0046125799530860045, -0.6529573327676724, 0.3782534156554074, -0.2677346790836296, 0.013242813143851858, -0.1905001814185896, 0.2560207377584062, -0.16397175627572838, -0.03846872976801415], [-0.6372364870495644, -0.010736090934344737, 0.4475391261823346, -0.019146044812652425, -0.7619487347744552, 0.21896265049498245, -0.22681710535226737, 0.22574300409067766, 0.1703504374116318, -0.3106289075626535, -0.2364554794257832, -0.19149951261237724, -0.7786899737424282, -0.20704265047351872, -0.4092541184962729, 0.7589408791406215, 0.4269765900481699, 0.6022593464300738, -1.0073776755582176, 0.25735330942074475, -0.16569537216927324, 0.20116050268452418, -0.38795302194553033, 0.1447140737026321, 0.059253726723422266, 0.5792637518403537, 0.3638173506919649, 0.21024685317981753], [0.10726876800119843, 0.2145412974788342, 0.19614470681499582, 0.2879844556711681, 0.3029386645414531, 1.0594467415114706, 0.7379047898133393, -0.2530380805007093, -0.3740377931439641, 0.27638904673143944, 0.150777221194044, 0.39062820004098636, -0.15121592679923299, 0.1808015004333782, -0.39394542989697134, -0.5508255509209041, 1.437073797348263, 0.037013297050628016, -0.1189985736115144, 0.04943272369246277, -0.6858840040264139, 0.16079497509994578, 0.25891505430432354, 0.17817443115494278, -0.08192042189269717, 0.0939102314490199, -0.2624698088858096, 1.0198013847151577], [0.49454438396140404, -0.2265752425480697, 0.18457474259528214, -0.01541933131500918, 0.1940977241429837, 0.1962021395510368, 0.7522812695304246, -0.6446387865854096, -0.1531012628371331, -0.23886731572595024, -0.7548261394471292, 0.11890005221097602, -0.16909587784328886, 0.07427089869688247, -0.5174344905313282, 1.2725968029388268, 0.7770175110429863, -0.4928988503928947, 0.02142776482853672, 0.06362494464547241, -0.050672689835094556, 0.26045165906306267, 0.12837911288287007, 0.630902644095977, -0.03636489971485878, -0.133200348333453, 0.09976707715154026, 0.6971047968508329], [0.7708307131272348, -0.19361267173600535, -0.47046373737320907, 0.5350986357771832, 0.20685471789347443, -0.07673375820414399, -0.47931519974622083, 0.39314052078251616, 0.04995333831429695, 0.20224663763300488, 0.1530355745548553, 0.22420898075979287, -0.33629193263077856, 1.7617022986863913, -1.499259949524606, -0.1580794121820378, 0.05970188328178251, 0.0896483362158759, -0.03916432927485801, -0.4216214801382908, 0.10533728499563043, 0.6193985331539833, -0.08004251007411124, 0.24805480418980205, 0.15149102106757956, 0.16976899224710704, -0.0036375809770124727, 0.07462886941521725], [-0.2199972273228073, -0.056403074889126166, -0.7171476816527197, 0.08001381330182541, 0.408438645837572, -0.6249761947021761, 0.5736333035507283, -0.33317268754937207, -0.5236061289947138, 0.18642762004799734, 0.46454910803314464, 0.2719686919401492, -0.22157970465239374, -0.1671234438230963, 0.23156423298493234, 0.32884393037817594, -0.052580923122101365, 0.6779743706388563, 0.4083629424888835, -0.2257069182016369, -0.2921636151729845, -0.21440806215991037, -0.061687461249979945, -0.09061032570088631, 0.12606611810917878, -0.019867472509189136, 0.12552668640852765, 0.26279539453710193], [-0.1234417412172426, 0.284560663204157, 0.48368022274144923, -0.08659276837959241, 0.22375624914629696, -0.002232442594569189, 0.42870648943529965, 0.5619686773330578, 0.16611115726175502, 0.6635034272626078, 0.5515181248547134, 0.42541778133610153, -0.1848198948896171, -0.3835460471491492, 0.4604883005877878, 0.4874615010962693, -0.047476645380363974, -0.02394838833824898, 1.1869207681207163, 0.860301655987615, -0.39492864643896286, -0.233859658060661, 0.22367806939955723, 0.4692640284177148, -0.4636295413003589, 0.6255210015330428, 0.18770386789468954, 0.1430144767942514], [0.00782327422292292, -0.0604504730747267, 0.8388785602157895, -0.3472819037238887, 0.25329991733805535, -0.06446266723361516, 0.361436967188529, -0.32689389064169916, 0.29276411640616873, -0.2957936283946528, 0.5138356574196908, 0.32830491447906657, 0.006274106675552503, -0.28530957813290886, 0.9800443243085992, 0.11800043341904311, 0.33968201283856353, -0.06389701267812083, 1.0132163198208823, -0.21581786487874166, 0.68825508764327, -0.23021832857351895, -0.15294037032957364, 0.09608211359544866, 0.4624407068261541, 0.3214413143642541, 0.001097589265094808, 0.0942359863228814], [0.17876332938324, -0.13004917206028704, 0.4227622546530717, -0.04034805000371512, 0.3202422993638007, -0.857080493561122, 1.0964439037587632, 0.5878471509660762, -0.09276007945360026, 0.4503394530431609, 0.08931264441985098, -0.24397677007355986, 0.3994362576618279, -0.3619580185174696, 0.12147523285416705, 0.12195676394126087, 0.18025284692417443, 0.2649091370566239, -0.3619854849569749, -0.22870312978802787, -0.3521037711354864, -0.15692944945573511, -0.04712410644226403, 0.879506104725385, 0.05545614142384006, -0.05510006917337691, 0.3266232350875043, -0.19416291225404483], [0.4076565300065005, 0.3139598632569791, -0.15858126126117436, 0.3484411243030818, 0.2854410721208833, 0.27783090539460115, -0.21863181679372648, -0.1386640696538908, 0.17238373971675455, 0.15482861386241706, 0.6874267865891158, -0.17637965741251074, -0.524071098481965, 0.04820256001925257, 0.23339428285661484, 0.1565194104704951, -0.17997754959337256, 0.6346039739943019, 0.3611443447671374, -0.8230232634670674, -1.1160211583904864, 0.20394167964259638, 0.18173986625042912, 0.5513718544675994, -0.04167991798042494, 0.21263317244955804, 0.004315131907057984, 0.6378359479346976], [0.1313720058336682, 0.42666960498218093, -0.1178723681364612, 0.05577276534621795, 0.37589616126147507, -1.3831054878966322, 1.8436170699544292, -0.08615733212018974, -0.18838881696777657, -0.45211921682138534, -0.4140844662105215, 0.1130329242919691, 0.6492769856770157, 0.11287163753723671, 0.25145495905312787, 0.14906596188904686, -0.17583504585703322, 0.14342462858046073, -0.31252034409496104, 0.5975052844347589, 1.2771841735081195, -0.1647102239427483, 0.3461295356817069, 0.17099747638831686, 0.07486311202449968, -0.070971734939434, -0.013019085229320989, 0.5474029524980045], [-0.02310086687613736, -0.01142521661344847, 0.05069389531940841, -0.12951112091553368, -0.06565667267206858, -0.05266463060544822, -1.1012143205509746, 0.6778694851798792, -0.19168393583169158, -0.3746936206337489, 0.1408969806645796, 0.4563029173419383, 0.31573411247676214, 0.48397825588703286, -0.29844217395220907, 0.12861284807193246, -0.19552481889797899, 0.026786584554610953, -0.1867922951950362, -0.33607440656224447, 1.1228916047280884, -0.1512775378732848, 0.18233044184803254, -0.08988953513853858, 0.7231607324454001, -0.39352437250802885, 0.003957200479337925, -0.08419050662495628], [0.7188390439880369, -0.460997869741753, 1.4183283370281763, 0.5455739710436767, -0.06254427766226653, 0.3116260249512151, -0.4513895999066695, -1.6379766339259527, 0.12740380408728197, -0.08407855928828448, 0.34107426776092814, 0.2873927250702389, 0.05574235100663301, -0.3809211830907957, 0.942113386679315, -0.04243749825693154, 0.23774998728648877, 0.3355771594020344, 0.37231301726057636, 0.07795337226375199, 0.4950374567620279, 0.6107003455619193, 0.029328991050983175, 0.506350366567107, 0.17636145079781496, 0.302657236377563, 0.027050970093438334, 0.1433151372299723], [-0.285087133964418, 0.03164307425804809, 0.052483493405954026, -0.11923403781850937, -0.31952464389755053, -0.8357429024420608, 0.07437890226553563, -0.009374606037786564, -0.525927977533873, -0.3528224141588514, -1.116791968964632, 0.04307464815086001, 0.9663122629425293, -0.3877842680828611, -0.8965017374509515, 0.24415823835183595, 0.2698623964739144, 0.5667752912649195, -0.1629987288834701, -0.4119048046744234, 0.8428304615777079, -0.25300304289479386, -0.05461100068026619, 0.2386347381808454, 0.061246561948344776, 0.00435891276274852, -0.35245377358285335, 0.31917404597291327], [-0.09357397960352282, 0.23695055677071236, -0.5664572866868395, -0.16556719501020895, 0.43381618433648284, -6.735967291140478e-05, 1.116609099820238, -0.24393934817412433, -0.4244860462400241, 0.013621323623980993, 0.3234456056235421, 0.029218110369973557, -0.5319397022054706, 0.05304850641006823, -0.2285994312394451, 0.7111724244011194, -0.0683657384216763, 0.5496880302366532, 0.7314089101524955, 0.20528886625366802, -0.008580360128508829, -0.2043738352746461, -0.11944366643635293, -0.01086997195033187, -0.1890520529753184, 0.617839510033736, -0.09164301663820863, 0.32066769435224557], [-0.8330695178457769, -0.2024722764126882, 0.28673923085318526, -0.07424818762401618, -0.14115052036115586, -0.4600065767313, -0.4805368271955364, 0.020374709458684397, -0.3451615408844001, 0.628520703531346, 0.3157142376652777, 0.09840437297120798, 0.8726021739993196, -0.3100963939353485, -0.7178082576704947, -0.18539651331174956, 0.278280151962983, 0.17962937407469595, -0.05663329983628433, 0.3239584489017628, -0.22197872258532036, 0.1188869803608768, 0.029272007702013415, 0.7493443207043682, 0.0649144937518715, 0.2567107508249336, 0.277075933777183, -0.0064182646726326335], [-0.8355641336492563, 0.29379987377404393, 0.069727827805082, 0.24151157641196247, 0.7689948280009514, 0.863400293935572, 1.0151081189342137, 0.01908052975255569, 0.08249037302622193, 0.7302850269803609, 0.23354562996580372, 0.0309591685304676, 0.7769061427483831, -0.19572328753456456, -0.27774872180616655, 0.4597722110385095, 0.08520714150461889, -0.18009881849004605, 0.1473531301074518, -0.0881023038182217, 0.42238237086458474, 0.18030242753120904, 0.29428718003204324, 0.3686845462448537, -0.1926602069198072, 0.052845112402019244, 0.6761439072485906, 0.01719721421218149], [-0.30387331925454775, 0.14950947219223473, -0.28663553552338483, 0.3865534722890406, -1.3430949324738994, -0.004062869729367851, -1.4610924265280492, -0.3525541276244484, -0.31925474030105305, 0.3010841391366659, 0.023985056773474487, 0.3072720372279409, -0.17660323522738658, 0.44389870946732846, -0.36992298167920046, 0.37381569734198766, 0.7883257908031014, 0.21042768038240262, -0.3555849338071325, -1.1430518989350091, -0.8781401408792942, -0.010094404512897052, 0.18018698040393713, 0.25294945952125436, 0.42910244665399944, 0.12658888639898822, 0.07203400244706978, -0.0002951795478783245], [0.3892615672357411, -0.04591703513727034, -0.0036430521419045826, 0.05781000251830436, 0.005816292349422194, 2.217892536108022, -0.17329270510745098, -0.013438156982473522, -0.041785212840854256, 0.03558733465621078, 0.16939195388310532, -0.3334206397185164, -0.45609106490158935, 0.5552250746218602, -0.2713562735007962, -0.33995970242001927, 0.4863867140658554, 0.2593119819300967, -0.02045832820606628, 0.6394168393426248, 0.2678874210199904, 0.024471605418906743, 0.47275689887996203, -0.07032439993153874, 0.12155998559394372, -0.3419790260228316, 0.07270281095781891, -0.03375750089152444], [-0.02942091649763997, 0.21637747124566759, -0.07220614436573912, -0.34463631070812395, 0.12401005867396686, -0.164613613810137, 1.4427677322427546, -0.2947307297804377, -0.07737070643247318, 0.055115114837226475, 0.32280692762370666, 0.3631915114293474, 0.04455345503384938, 0.018566216548694, 0.030208221052997718, 0.12126045303793051, 0.3817259086564055, 0.6326647394472715, -0.2590863104804763, 0.015047277547351239, -0.8661352284534106, -0.2355857092894403, 0.499216163217045, -0.009353642025535928, 0.5559450967844437, -0.10481773819802138, 0.4603080837371156, -0.3222454558893642], [-0.7160368902386505, -0.08703298108083349, -0.10772651487364475, 0.09660294127315885, -1.8093078805587322, -0.3838157348954416, -0.5439283683848832, -0.39084840322974795, -0.34925733156544425, 0.7226783276526166, 0.21966996747063447, 0.13503730083041948, 0.37667051031050836, 0.018013427683242274, 0.014992571024923039, 0.0785152967421212, 0.395586681499137, 0.2184525638197601, -0.029098834201766857, 0.07854029219935903, 0.40890190359638723, -0.15458063027768804, 0.299667948496271, 0.28632166025613115, -0.2302938364082979, -0.12658673258059194, 0.6741573388353298, 0.24195363251195776], [0.6484318244778398, 0.11918794735398103, -0.14706693526365625, 0.18701152854899208, -0.13909261685358779, 0.2830050612939795, 0.4645811646636143, 0.025583538315698817, -0.22545760778955973, 0.013209320848865133, 0.007657625467083552, 1.327631247227436, -0.6135323851911377, 1.061571256429607, -0.2754191338684652, 0.06924722602478439, 0.2889042070368624, -0.0449193315740643, -0.034323371563779514, 0.09787399866128492, 0.37717898330998634, 0.3109930868188648, 0.0866381219352586, 0.47812032649868585, 0.1064822761703852, 0.16515316374776753, 0.13008896753507057, 0.13958126879129426], [0.14461438455093897, 0.05141765660151098, -0.28075862779591426, -0.05425922844941062, 0.597058780820101, -0.6568669247239004, 1.2092735272814237, -0.03821171914579669, -0.024752228774078497, 0.13333076367641244, 0.15868633694952833, -0.13596975130426536, 0.15382495424673187, 0.6184801593787055, -0.7234835981866372, -0.14736523043368374, 0.2928356802217656, 0.3411763808606242, -0.22314807220954871, 1.8365671757864235, 0.28555983288042447, 0.10852106167137365, 0.3198166431012649, 0.4767801221856653, -0.13328222288642624, 0.13111220423706962, -0.2627190622682574, 0.283234986229771], [0.005265695711275545, 0.18019139600037085, 0.4915527352601874, 0.2846355995779639, 1.3523175235242713, -0.5951237557769865, 0.7070541500880495, 0.07638424864819192, 0.09830451996595506, 0.4041168109314201, 0.2642490927870535, -0.0069843307337582915, 0.4974298477917022, 0.21569428147360092, -0.08719639705236852, -0.18901765821916894, 0.09411282788796556, 0.316281005566752, 0.5492868811218862, -0.09687514114256493, 0.20683805165878563, 0.17237603524032372, -0.2319931229649508, 0.6333492959111027, -0.03645677058888431, 0.41614423718921184, -0.2519762013688939, 0.22031560915659001], [0.4164676390883492, -0.042831554077722093, -0.051080167770828876, 0.3855870147948645, -1.2468033946518784, -0.8066352525099046, 0.026821661450248734, -0.16293494995452357, -0.3842989420144701, -0.46390063038304286, -0.5366602121766103, 0.020336375719622272, 0.0567388692586881, 0.7407163152376098, -0.3781795366040888, 0.33801409921172343, 0.19108760299885905, 0.13923700648561513, -0.13386795076066238, -0.09442334721725298, -1.0010381927246066, 0.17374907560356184, 0.09603047948933388, 0.4036475452194261, 0.054978433480850825, 0.5180732336411481, 0.3696770838209914, -0.05479728938289301], [0.448754937751766, 0.3549367543100119, 0.0874642871965158, 0.06158044676876839, 1.6229781975823483, 0.3263566600756988, -0.3698508059134819, 0.1753514098869732, 0.26041760931469754, 0.022128455879808422, -0.008278859734290286, 0.14454555904700075, 0.14502678949564812, 0.7172587380937803, -0.0679940957625177, 0.29672696089012807, -0.08313084365299295, 0.4946079433182335, 0.3069687439538396, -0.20868609783772318, -1.3927467727689986, 0.0552624625938233, 0.594851385413568, 0.15600822664337702, 0.053416074672081884, -0.013834529256971205, -0.05477064232013827, 0.23055601707067272], [0.22417141903026483, 0.31598079374176524, 0.3471525670891862, 0.18820357322167952, 0.3985536382650576, 2.1220982041416363, 0.1902154107048638, -0.6245046606244135, -0.34083568912540824, 0.22021864956297246, 0.5774127631007868, -0.4937958235790102, 0.041737185294457316, 0.2453434510858457, 0.8202950736772413, -0.0515859877214487, -0.050050838098940224, -0.10308905603922879, 0.49655142440655814, -0.14080911993805992, 0.030341826050297165, 0.33900989685582106, 0.09657710822623258, -0.08969236792501967, -0.23921525826270063, 0.16214205763570627, 0.023270669930238966, 0.1437045283770678], [-0.02816911603138679, -0.15099186440032225, -0.04380085467857058, -0.08048718780665573, -0.2498396233876615, -0.19774458940453024, 0.41140392886759247, -0.11213983196928595, -0.6735157152046689, 0.3018311285772779, -0.4547806619618625, -0.022798762477295637, -0.6644444010938206, -0.21480841758227476, 0.5076940658611486, -0.45723943976620574, 0.6583688294308523, 0.17828892122296747, -0.31422756371415345, 0.511451288820685, -0.17070929674733712, -0.24870719642487762, -0.17886885906048006, 0.5228441222263293, -0.2529676518025427, -0.10167234500912244, 0.4031560772151128, 0.1146200158631924], [0.7827689341861397, 0.10092394329537903, -0.2977876782445609, 0.19858538070906995, 0.061247238173540025, -0.08048533986053028, 0.3368160929160113, 0.3211899045626518, 0.06300790902548199, -0.20299390483307328, 0.5229322282495478, 0.24654532699149442, 0.5919060014257975, -0.6180244947418626, 0.49922703417212905, 0.08557522452410786, -0.11588487182446089, 0.005912872311284621, -0.69842611552602, -0.7536613187559167, 0.6867460306150575, 0.4043077450221759, 0.5258454239659857, 0.23874288169773025, -0.03470985024809348, 0.09802912151744048, 0.0013196885667662295, 0.2188492618771877], [-0.20723805872356302, 0.4489666692354863, 0.35031979751057457, -0.11055097000629664, 0.1459668546693749, 0.06672654375163456, 0.1104245718053512, -0.09982994060633707, -0.19299943268582653, -0.3743026050435011, 0.2858594094709658, 0.11016833706232068, -0.23721262312502836, 0.20998783457120818, -0.6118968664444258, -0.1270437260958906, -0.6010891122375895, 0.9904442866007348, -0.1039581188843051, 0.268593626473618, 1.7010742307759827, -0.05924880281443343, 0.20073513359042394, -0.02036087272491956, -0.05317450068195449, 0.07759484404044377, -0.11581356181691932, 0.21085987394747382], [1.1150112320189796, -0.14026121864908891, 0.3636965624159869, -0.171187408039505, 0.4678451020716661, 0.033517678321812704, -0.2049862745395202, 0.06816540903206478, -0.22587012872071485, 0.0005469095748834986, -0.9968331015847267, 0.30331718137743646, 0.491311256459157, -0.18219527576799222, -0.21018194214706212, 0.07143684824242771, 0.3050218217637132, 0.48568363870170694, -0.5538699242216752, 0.7650312308672781, 0.23578486236857837, -0.14194284528351092, 0.10206329582005834, -0.03524591529660706, 0.2482598942879529, 0.27584442459116254, -0.006173284056349863, -0.007788181659408568], [-0.5144160393306559, -0.22320914514956938, -0.3976681603530151, -0.2538884582103072, -0.06216010255267095, 0.25813976427076574, 0.1815663044198752, 0.26192091817110663, -0.2728933645259174, -0.34160593173047205, 0.1349525559186556, -0.06055783408810212, 0.3974017180118957, -0.3099313332028216, 0.04689939159962248, 0.33661998049726244, -0.06343675313476473, -0.025763818784747865, 0.23368437514918047, 0.3938491050605226, 0.6720658026315814, 0.0020034809647621545, -0.28563946633325316, 0.21163892913397797, -0.4823358775666564, 0.1855388563095077, 0.16621022862070106, 0.37700160701443497], [1.8181001968237314, -0.07862484489193738, 0.18133101856342396, 0.19629976619614498, 0.2459708029282054, 1.0896734850280092, 0.37733203801585063, -0.6052997741866338, 0.08773506381925471, 0.41072497147335896, -0.09689381969296437, 0.19248070468437795, 0.776752337568304, -0.41684117202710685, 0.29589322657185285, 0.28232804997822375, 0.09584268896582052, 0.22969751455237433, -1.5091043873624372, -0.410038312122374, 0.40188730080195806, 0.3575839770936451, -0.02509038712797508, 0.04968693203487514, -0.07335146147755886, 0.5411017217156708, -0.04075851565232058, 0.11958947940836766], [-0.10571623769975474, 0.0824959886934395, 0.2574285860740879, 0.02039729896381868, -1.4280368573330164, -0.13394643387617317, -0.2613269329518981, -0.04645569944994047, 0.05841581191109891, 0.821527746046847, 1.280514911593004, 0.029049243246388124, -0.26218302507163366, 0.6722675388628926, -0.24163031322110748, 0.2613547859577228, -0.14716785016788295, 0.3603591188345378, 0.5114903498210892, 0.12403546776300398, -1.1764944481857424, -0.5042746249652046, -0.019779979120878463, 0.10431648973863669, -0.053550048215822384, 0.6631793590104395, 0.032288337919842765, 0.5195994216692081], [0.10781144968524835, 0.10428658268432255, -0.3299622041640961, 0.3135387665643213, 0.7309025815453831, 0.012543992968990373, -0.7113558646179594, 0.5580587850676069, 0.3770128616398011, 0.20490896882379409, 0.10198954055811923, 0.09892372148948166, -0.4639333741097421, 0.08515703682720868, 0.17083713957340932, 0.2885434601391774, -0.05852000544419605, 0.42215305003244824, -0.8923022348835256, 0.5267906787261397, -0.31374633233164045, 0.40386962211846616, 0.26269321348581787, 0.3205549675235753, 0.08196583885411267, -0.32454554390164875, -0.19614458369096724, 0.2872846520371381], [0.20013697107094017, 0.06164493159095535, -0.2731773750487423, 0.34805675840744793, 0.11990362288288949, -0.12422531946508035, 1.8540924812171697, 0.36204696798460184, 0.11422391137678645, 0.3893785719867362, 0.12118553998034534, -0.16059173533454735, 0.2622910574601373, 0.4456698662083856, 0.18561383989328872, -0.1601299189454967, 0.04292113493172292, 0.06291562144300514, -0.9716259957628492, 1.0737839068189459, -1.275457707921495, 0.3830919362813123, 0.09638854991821154, -0.30025471914276725, -0.19792578994623672, 0.49190749634392306, 0.0520359835467184, -0.1844097301299385], [-0.9441706448014132, -0.06786074026145333, -0.5188042280108108, 0.4589845993097288, 0.2935400846116871, 0.19246858259916286, -0.28492148211270085, 0.19206933566797602, -0.2030157038116892, 0.11416781175644176, 0.23610157314772015, 0.34554419435418793, 0.252885410995873, 0.5379102730249875, -0.3111660481976594, -0.17483212730722122, 0.2951606252292173, 0.5154969109075396, 0.5460903329222204, -0.18612019719651285, 0.27877827201048044, 0.5198344686381029, 0.269920407052241, -0.3780049211525298, 0.06612442990277871, 0.09446975762156463, -0.005493003537242666, 0.1635388420581091], [0.003318460293345484, 0.19530529631621277, -0.6599311741475778, -0.031475216713587786, 0.30180159497629067, 1.5975296409916595, 0.678698657399111, 0.41154478431995556, 0.011370342604313964, 0.27383222978990257, 0.10427894608813953, -0.4158550467206585, 0.12029804616788728, -0.5381246456336315, 0.13290962697379363, 0.027113587803059266, 0.21344046240830353, 0.564163062057813, 0.7626585358591949, -0.1023055492645837, -0.1883446537546394, -0.25843986219496196, 0.19731527816472727, -0.002675531985068983, -0.040442860239392114, 0.7419294679535298, 0.37885486626272075, -0.18467597629705104], [2.4118714671292043, -0.10776746297482424, 0.08562349579241846, -0.16856438387668857, 1.1638533229584274, -0.1254505994971037, -0.914527013508639, -0.11079212738794436, -0.31661084908177123, -0.050933774138957506, 0.1369846529498099, 0.030416697641945944, 0.11374439396944906, -0.05606272269989718, -0.14909590367718906, 0.24391182262455266, 0.1654974061042877, 0.29918289310322643, 0.05108552145432523, -0.5249461509242888, -0.12221188310306051, -0.07111787865624082, 0.14623896764986133, 0.161496908751572, -0.17404796001459924, 0.04187668174474468, 0.607382598212373, 0.08260019282369645], [0.005951190357143541, -0.045955621307626975, -0.014498708661627632, -0.24819704039600657, 0.5756678354927167, -0.0908249196727203, -1.046805436789728, -0.8835771235061337, 0.2793023335608922, 0.5443114111665729, -0.36074996073079013, -0.03757293359959476, 0.036065197181034736, 0.32753666509796675, 0.03953171564268888, 0.016858702007295317, 0.2649452901762038, 0.12890062997849874, 0.344167020818941, 0.03943081527974437, 0.7371294817238533, -0.4682548158647713, -0.026474821071337303, 0.7388091306381096, 0.23516282850156334, -0.06192030722649428, -0.1633088491950457, 0.14983919306052193], [-0.26282346060851897, 0.10653440711732425, 0.09091713382646092, -0.3135742278579462, 0.4865941977746611, 1.154794181112649, -1.9401386762345993, 0.0029675644785287256, -0.017893908513106984, -0.16551982435778212, 0.0595776545692202, 0.36761509074852833, 0.24383268213840906, 0.32408567168258307, 0.29459616361943164, 0.17824484156154854, -0.10088602340832457, 0.08024701936713477, 0.32964103897238417, -0.17019087398832464, -0.5034129891938571, 0.03907834554209347, 0.1660895389242326, 0.1055482845140495, 0.2815402064862519, 0.6813161477780744, 0.3127969868422564, 0.054048086739955356], [0.03881301121056377, 0.19909808191651052, -0.22525604240001343, -0.20359470010887512, -0.25133632995221095, -0.2545793620891842, 0.5557137375819019, 0.02021661279719092, 0.12378387069266095, 0.06129164365917449, 1.244584077829497, -0.40999647734867334, 0.642847337611295, -0.19898960190911652, -0.09573511292113752, -0.17915595094157216, 0.5546792587373534, 0.038043453866256516, 0.2960397802967431, 0.9251123930126681, -0.0792752257020142, -0.164776767094409, -0.14782077272706437, 0.5313777862262186, 0.311886180082738, -0.24600409825577538, 0.2039259393568487, -0.06981343236086557], [0.5341542454845724, 0.208326208923664, 0.7946926574626083, -0.05434082759102661, -0.06251266596889418, 0.6073030031500346, 0.46029931278129976, -1.0015328061218052, 0.010771416740241353, -0.10281298546187588, 0.02290895382954225, -0.23724503023151458, -0.06544464525582143, -0.14710057033513546, 0.24213132980811894, 0.29361419853796705, -0.19590550377314464, 0.5435666510090731, -0.049689880857666034, -0.12651237951922745, 1.326723494060059, 0.1798937950410454, -0.07227881901012649, 0.48175246606535743, 0.12604440043002274, 0.22459820182788096, -0.03819748012405131, 0.222468898512899], [0.05286000642007835, 0.04882151659932222, -0.17500922505160507, -0.5530757287146606, 0.3748112760159711, -0.2027994045282922, 0.0058655859487381865, -0.08336865118000862, -0.3127323371346592, -0.4323985074362062, 0.11133320915697348, -0.04538969403279827, 0.09197715777810374, -0.5477369845780535, 0.36054103111529245, -0.00029017115848404185, 0.5859204169309293, 0.1644970640020793, 0.5828417770592471, 1.7019430569505047, 0.5927614425117907, 0.11238066959923096, 0.057411274028448776, 0.0795576542121576, 0.16228751027283678, -0.020538347112053157, -0.14079697531559338, -0.05638595196563668], [-0.5427444424014265, -0.09476188298922718, -0.07811346510161417, -0.18560238269106433, 0.3353187665552564, -0.1692529555746862, -1.5210415763473824, 0.4288276869505955, -0.05459615651357277, -0.3500967960656042, -0.5011297046923232, -0.027983253484260832, 0.31257651295630323, -0.2268344507970641, 0.3953214291036453, 0.02890715771595236, -0.12255128342185947, 0.3479130166135771, 1.0929660890774573, -0.1912358706263048, 0.052855581531654976, 0.021007199885009473, -0.29019034683791445, 0.20999589243290437, -0.23133415132456006, 0.6245234485658634, 0.03015982523984767, -0.20158921768045457], [-0.11961754847976357, 0.37501462878326325, 0.06817802416809059, -0.08446138912780803, -0.48353570169411375, -0.26331997258072143, -1.2006695538568328, -0.08312759494987622, 0.28382728601686735, -0.31008660623932943, 0.3468662798306822, 0.21068428564486905, -0.018346807186700724, -0.09104587875421562, 0.1307541484645474, -0.009975357453831556, 0.3635173801556345, 0.17001468754238483, -0.1738794435253662, 2.08580949218098, -0.5416857425769278, 0.26887537909798537, 0.25597596905898345, -0.2784137572961612, 0.10478892962230783, -0.2719704552107305, -0.2758804371937822, 0.2757019957303329], [0.056684151693273725, 0.25578138827024494, -0.1794852320022675, 0.3057955959893974, -0.033297197906836086, -0.17330962414882464, 1.4818323764878156, -0.4367916050300073, -0.15540423001334364, -1.0362966222538685, 0.3776574279419533, 0.00465276231221345, 0.25094037608673814, -0.03360408777567971, -0.3464174641628116, -0.27509062882393165, 0.7794909029113124, -0.20345750118619385, -0.37868310640094266, 0.07628005026360062, -0.612917981424652, 0.033083344815849465, -0.08950952685548713, -0.0946418713806981, 0.08511118850258545, 0.29148719214436736, -0.25157191399151135, 0.4403680355991281], [0.41986546442754535, 0.247368577325312, -0.1348831491517744, 0.14457353157293873, -0.614830403102827, 0.14150999831384403, -0.6266332328851345, -0.13896452058700398, 0.011151669554319925, 0.4606645316274978, -0.11019664891621668, -0.21410551558925037, 0.5886150962595292, 0.3417935478694459, -0.514778090538786, 0.4310909317203652, 0.24302622568471627, 0.016749681145352916, -1.38430596755694, 0.35210366042720287, -0.17232358847996987, 0.04663327404912159, 0.05952792394020906, 0.32199455609007877, 0.11730670188097167, 0.263331150681557, 0.38206900863019155, 0.11726491389016741], [-0.16676313407111296, -0.01124164953813247, 0.3122126265212706, 0.5866336013309463, -0.06766579650671616, 0.20912764137426107, 0.36326118657192263, -0.5995800354518656, -0.12380033473292959, -0.4204748825868139, -0.17554539871444305, -0.06676355023786684, -0.5161411504688128, -0.6818609651422496, 0.5851248670371839, 0.9703085711166227, -0.5402471859893683, 0.10271851152605815, -0.39108256097515676, 0.4696599354718312, 0.23817973463455494, 0.44938138080004053, -0.3219299007191032, 0.3234217566590167, 0.046406605307252886, -0.42978862629744374, 0.25277383393774133, 0.06229875616350105], [0.4478264137478944, 0.10508944600726688, -0.7700740009829237, 0.2502566395007335, 0.061912940011570265, -0.10358748209259722, 0.1412226143397495, 0.21454134287595253, -0.06198913910217438, -0.0012293969985508679, 0.2006762128121956, -0.17275329408852824, 0.09592352832911102, -0.47027596731505256, 0.9491728944302507, -0.02125747480301085, 0.08796430581720818, 0.3314438484880736, 0.307320550857697, 0.4257604960162655, 0.6331488724475559, -0.0915137770297193, 0.35958952154472196, 0.25991158897784616, 0.2751440126133636, 0.23331699613875467, 0.0703867050801506, -0.04063428361678883], [-0.2422917468195454, 0.15001341501457424, -0.26852083908358926, -0.10555456362257268, 0.79406799372666, 0.37167193076474303, -1.893170152222487, 0.0711359994183929, 0.4500709498961234, -0.13459692338406412, -0.22590705535693287, -0.17011051104744151, -0.23820004164844177, -0.12346495416931373, 0.2584609292288106, -0.002277956988817755, 0.20112174713949316, 0.3892963850574275, -0.5591515678064383, -0.5570286412229885, 0.207007071797825, -0.08504223547604313, 0.31626705930513843, 0.2052225459841651, -0.20120217623205675, 0.376903272647644, 0.5312164423840309, -0.1307151805036172], [-0.24412591904144862, -0.038671357315509976, -0.6152387166534048, -0.17140105581547496, 0.17301591920899026, 0.026479175849275463, -0.07010428920307679, 0.029572340425434652, 0.09505926124046898, -0.5409036084993395, -0.4442722923092025, -0.2568399846032951, 0.6340892828872864, -0.2256894822211342, 0.19557817893538676, 0.3164556853798768, 0.18020563043792737, 0.08408632329886827, 0.5303177583124471, 0.28547785336556947, -0.318179285767423, -0.4275128048496485, -0.13993723868446242, 1.263437700491345, -0.3525753684826326, 0.07894979484816915, -0.24326926965673645, -0.05783031714351331], [0.04137438270887906, 0.1379353127396922, -1.361959958138001, -0.1977834047711845, 0.00022925314701878203, 0.7661240293115388, 0.4331832763451385, -0.01297309237438571, -0.4233160732345632, -0.5175542166156072, 0.6275463427605971, -0.19632274969117608, -0.05313726641204254, -0.2637967754892899, -0.5209961191272117, 0.06399423983766647, 0.15557597125968153, 0.8800706573522279, 0.4082089740119809, -0.12682951166798365, -0.1717566176928051, 0.042401985567333066, -0.17632994244724673, 0.6926811541872775, -0.45191049874481276, 0.019293674323010653, 0.091466323350513, 0.5631554603042408], [-0.04269454240938408, 0.6503877215788187, 0.1757543089746991, -0.13366129405249, -0.12730542046893484, -1.731750710932932, 0.1101024370816636, -0.41334514935403693, 0.12806604166335972, -0.5520043467522385, -0.034034315064578116, -0.14407011297007918, 0.26854971640332753, 0.2192408632250614, 0.13124284879562695, -0.027806943550806158, -0.2671948653919493, 0.3986005473381952, 0.03574959340572896, -0.07619039022325205, -0.5014032829917278, -0.18465534640607129, 0.6279868517988367, 0.25072867091258755, -0.07064251631298002, 0.2099560589562826, -0.30350989346426094, 0.19636535631007968], [-0.42012732302200023, -0.18150033658533607, -0.031235363933499707, -0.3457416461251297, 0.08090295121805043, -0.6121624021293643, 0.30189847009107074, 0.22659443678552765, 0.0806293723324282, 0.2866688030672942, 0.06329795811230744, 0.08433007641241548, -0.8450357908651975, -0.20037843564715815, 1.6739247602310992, 0.06067405324222389, -0.4632382084772412, 0.082671055912976, -0.9114524585054947, -0.3268657316269372, -0.07298781434989779, -0.1912208760032504, 0.14110474380187066, 1.5080113232421175, 0.1547434423554501, -0.4448521692193812, -0.0390481855388142, 0.18616640284682504], [-0.3427621534949162, -0.17200756595023753, 0.25516400261178734, -0.49606547415826535, -0.07688811805448285, 0.4068643633862431, 0.3908034443406857, 0.295880504879791, 0.0027683478654816043, 0.04053438174288647, 0.1355376562309004, -0.02491939080420416, -0.29129662492119895, -0.025040882242787634, 1.0307791028691489, 0.20954316536886744, -0.12694788474293764, 0.1822897122944607, -0.4101562045475865, -0.11238883165296186, -0.49933694447343513, -0.3053488057055648, -0.10217461228139033, -0.1064508048069918, 0.03715098816847333, 0.9739512735526825, -0.08878298932775415, 0.3273391887478555], [-0.2801691347738586, 0.17837037416116572, -0.1044969991590593, -0.10789018474238583, 0.214725690095127, 0.6354137342939847, -0.18808931563186293, -0.0901486291330251, -0.2702099939671995, -0.3933921276900427, 0.18723388142295408, 0.3613669530682928, -0.5862228351796607, -0.15330689345434076, -0.7844627427958342, 2.1512556656936335, -0.0646647235109967, -0.29932471304183367, -0.52717536129007, 0.15445878885637168, -0.39204602609428074, 0.21492513247704215, 0.03983057467240775, 0.38221385049388734, 0.20316222208557821, 0.026847293029404303, -0.3506056965637811, 0.5255178482181518], [0.024686315227316857, 0.13855055718959877, -0.4001561361184848, 0.3993954746994738, -0.08927018801200946, 1.4086911700241185, 0.8177081096993861, 0.26476617608071523, 0.3509273148979658, 0.05645671115824545, 0.41382151377408793, 0.8646159093936195, 0.25726710870050157, 0.6472148122547664, -0.03042990769559159, 0.061856326430514974, -0.13783915194399377, 0.04975421736293942, -0.29018719325615067, 0.10186861116304687, -0.002165692116003932, 0.5334388720103916, 0.2866053439894652, 0.2044333586320297, 0.06388367665544581, -0.06593446491478627, -0.11732314679661912, -0.016401655233814615], [0.6512241593514184, -0.38976644049031073, -0.5720710232583797, 0.49697195298004, 0.5041621450546047, -0.160393852427784, -0.12590551109795808, 0.4632591439893966, -0.07462587782029177, -0.04980294038075273, 0.006985130910707296, 0.03402349764818401, -0.09423660371168527, -0.4106549849682524, 0.6740778000423299, -0.02993933425949284, 0.20852771938940595, 0.3516425959224656, 0.525819211097051, 0.040449521372840025, -0.9129862672641582, 0.6509478601767797, 0.16881105346076347, 0.06035554040347408, -0.06292398646282443, 0.1753393253185, -0.0826853136895556, 0.208415897946963], [-0.36334175151692444, 0.02406742518571033, -0.39017786760662254, 0.027265629357499873, -0.5710897777613694, -0.2071892990701542, 1.2548390087084285, 0.5167545133848522, 0.10287907372520964, -0.06011075254789992, -0.2707127796249326, -0.11612798869309221, -0.3733343207046893, 0.21791142892910045, -0.004894942003492774, 0.21616220316867135, 0.3858632338664221, 0.2822617157652943, 0.7080578194299286, -0.1379550945858855, -0.41243402323213546, 0.004331314571645828, 0.031712247917070134, 0.9209321213907753, -0.21051096840457523, 0.32970825706874435, 0.18426569154122463, 0.23210402906280378], [0.08349180847668243, -0.11627133588789332, 0.19433365346767434, 0.11378664132780306, 0.11521509708540346, 0.630800982650225, 0.5620356320723084, 0.030733101650574603, -0.16098265372661621, -0.809990309955618, -0.1996697773654615, 0.3205311911150568, -0.21454734307457776, 0.43241404321391874, -0.586460124871059, 1.6135462347864127, -0.3228893701982828, -0.04552695337866964, -0.045367389519884144, 0.09824260968356362, -1.0549484689938606, 0.003708225980631411, -0.037572798170540815, 0.09197141463285344, 0.5625238303503401, -0.023181726661576533, 0.2809200322731598, 0.5139740853973072], [0.11310821028338795, -0.056372560624402594, 0.49898424183845946, 0.20309737884496937, -0.08248340036533985, 0.2847543466136525, 0.25925286046312607, -0.44539106783181603, -0.18440177079458114, 0.03633148299696325, 0.5933249567128908, 0.04519173731857677, 0.5025336235730627, 0.15267270422421472, -0.002292519902291629, 0.08205279077754936, -0.020430122531555527, 0.18125437670605013, -0.4174127671417169, 0.4945230726825299, 0.5531828909511731, 0.5830429095457658, -0.1528313055995025, -0.09318687350843745, -0.2437252113284494, 0.34843332402981086, 0.13201127438710283, 0.45679496673477843], [-0.7505611399628713, 0.3086677076638489, 0.16620520038736566, -0.13745118726858738, 0.9307404676960893, 0.10828023194903594, -1.117179246705615, -0.2746419661430332, -0.06336279535456822, -0.23871070580578743, 0.4889946847337858, -0.062358902795494296, -0.15337497029654137, 0.3049293106306872, -0.08945713765639386, -0.07113931763306591, 0.6050137305077157, 0.10896214859886919, -0.5592478428389596, 1.1801916697848707, -0.40351134421266055, -0.1241551915021399, 0.2732984578363404, 0.21532529976866027, 0.11729443552704506, 0.09470238559629221, 0.5335996878524624, -0.1337234938882832], [-0.7485098527409156, -0.19236851784350906, -0.09639819100107505, 0.28144727214470433, 0.3426326265649765, 0.41606903183946825, -0.3765064151177775, 0.3693780390863315, -0.15129787247435342, -0.0012985413674882378, 0.37408794417322005, 0.28771681062180476, 0.11311248570996779, -0.1778368025261962, 0.26731019018169594, -0.09764875749659047, 0.14352065596510424, -0.1274200486242744, -0.8044554097067503, 0.4027220711010255, 0.38194624298133023, 0.5297451830750153, -0.21260881872137463, 0.2716447172398308, -0.2170306025617982, 0.10465788513953893, -0.026733343739808797, -0.16453475433150833], [0.9963379046789113, -0.11406489295958028, -0.26214336308358643, 0.19963703677948458, 1.1741245896846213, -0.057601842887860855, -0.04432632744174301, 0.09261813166775557, -0.025997784140750515, 0.03688133673360868, 0.12039005843989165, 0.13551628270054744, 0.04773093661702596, 0.19109793811330775, 0.025033254970037923, -0.18014629186324277, 0.1898297500801435, 0.014399151991485325, 0.014719119787720681, -0.27428826172484133, -0.33911269724282633, -0.08956078265186523, -0.04107040301031915, 0.1521752155490145, -0.10637695183866253, 0.3173337857798003, 0.3027565423861055, 0.15938101961843457], [0.19534302252878086, -0.12952188736894898, 0.5169288263859998, -0.016402692850327607, 0.6347805183808767, -0.1704980123991147, -0.07722768485706506, 0.17309368095404618, -0.3562845347861333, 0.13062440987791002, 2.9133469999021795, 0.3048262161466297, -0.2693730614230878, -0.0909661256634093, -0.11727510561902568, -0.1354339708401808, 0.6043873451440084, 0.09056922699229644, -0.17165308243532926, -0.20290295633338537, 0.18475583169728999, -0.07895407246775865, -0.07608919558971611, 0.13415306820480952, 0.49937110161404885, 0.4368522214233013, 0.4238053136707733, -0.07579346414237179], [0.2082001042031212, 0.14412595627101601, 0.6409590635339397, -0.2973068575066175, 0.07377712364523746, 0.31969499510691995, -0.8597783476374193, -0.028030234373401804, 0.026569359171715625, 0.04575628805746495, 0.0951744819492393, 0.6369375083812228, 0.060564509731558316, -0.1512623631211433, 0.15315246145317837, -0.058881944302732664, 0.29527012641282785, 0.18917591196739364, 0.4001116925430748, 2.5752903399766702, 0.6130747533272249, -0.20775612370201016, -0.19991785390236552, 0.2397761393126934, 0.2922645686773964, 0.1024868059128824, 0.16795610249250578, 0.06447412126067499], [0.5243430911593635, 0.22287902311113594, -0.11172801087768919, 0.2282994336686747, -0.1590049439582624, 0.163420805495437, -0.012516311881273385, 0.15028495203508774, 0.08097804476861445, -0.17976416335398018, -0.08405486892677391, 0.17562536342407656, 0.2767996758476216, 0.16111730349333234, 0.052642088688536356, 0.23926319159853932, 0.01521940885206231, -0.07258647878506785, 0.5385874688907492, -0.07234511457847434, -2.4386845841178943, 0.4729648214785884, 0.3305535183481368, -0.08188166847174148, 0.49523413947220596, 0.319850940231196, 0.16717828273887528, -0.29449855036082634], [0.23135021027175104, 0.028821954914216855, 0.3376140571782878, -0.07515788021518446, 0.10302855852752608, -0.1130073260506654, 0.11231688354134295, -0.4582703072245769, -0.7199180318658915, -0.7371368839795238, 0.050720651434259856, 0.011366497808141302, 0.7694175777467713, 0.014767582891555019, 0.9044899238549278, 0.33242854507506653, -0.6994968095190173, -0.6066557623148405, -0.3146735410561011, -0.021639696376767114, -0.23078267401403002, 0.11494343567342623, -0.035482053514706235, -0.021584494544257954, -0.3382872877689656, -0.05211787088101982, 0.10788226405924557, 1.0114721112994265], [0.43877272217217733, -0.14822645950704735, 0.015263501706581148, 0.4324189983694977, 0.18805790310845677, 0.4151892485198351, 0.42734420969245085, 0.04594698658020426, -0.4428103397496015, 0.12610998399783602, -0.07167546427921428, 0.8565606030518409, -0.33568073386205777, 0.5200600930721053, -0.280796441981845, 0.3745641579882808, 0.20803383585351493, 0.2540597345768898, -0.051766963635340335, -0.24437825983480943, -0.007857686257543448, -0.4010588657642821, 0.24371719528851243, 0.025805203189531264, -0.3526957181045377, 0.02138240136552657, 0.402706398144221, -0.030903492029166237], [0.6071294973624333, 0.34890210990094356, -0.5909522778841672, 0.29559848773889635, 0.3303408895569567, 0.3969342070943505, 0.32384676185017086, 0.3606541204644319, -0.12635183999276692, -0.41023561487765214, 0.5528851054231224, 1.2256989192298484, 0.9701717502113621, -0.37848310150368686, -0.3723834713647869, 0.31363193823805025, 0.06941283364638604, 0.026825810400949116, -0.8447865951047187, -0.44789776511690954, 0.1708958568002084, -0.10115480930272268, -0.21419559084257375, 0.07494253265221083, -0.23411381488542207, 0.2080834833197982, 0.27322117728861073, -0.2177532678715825], [0.276046398983817, 0.21098731322670985, -0.2879495708930189, -0.10474184374797783, 0.27879349096885564, 0.45269494490099293, -0.7902245823795321, 0.5598395314602813, -0.16110430557683075, 0.09492813219826574, 0.5428696912882697, 0.1595292496580751, -0.03514034751140505, 0.463316998027869, 0.38119256585267525, 0.2079003449766755, 0.03961422803495562, 0.15025223338895616, 0.6970339058391153, 0.1935520512343125, 1.6399523555631041, -0.025663199074847477, 0.0917172054010781, 0.11765996285759123, 0.4220072974909469, -0.0471684730543336, -0.08260802033150037, 0.20181467820454285], [-0.042191312990842715, 0.21920881222176744, -0.2715549864517502, -0.1035113162922709, -0.49243436872942925, 0.08587843051262553, 0.6711739120168719, 0.45469432144353095, -0.137335992996649, -0.45595730805008866, -0.6125351023945543, 0.12676660814655438, 0.15406340968193272, 0.20705560036899104, -0.43084664198384504, 0.09578651449683638, -0.07091902457395442, 0.21789916641238855, -0.0891954398426046, 1.5718402374110345, 0.10022191113685751, 0.055313020371274634, 0.09985212011884931, 0.2885197615725393, 0.8481257250352406, 0.05773415177585724, -0.34277521681466083, -0.12181585441314002], [0.15022497175508745, 0.24812307444544157, -0.06270569123646232, 0.12543915604695927, 0.12895138088407274, 0.6396858959865187, 0.29964196243441515, 0.034306130787821396, -0.4299973513308784, -0.558654703871451, -0.2972323039817201, 0.47221531186249516, -0.2170879789854201, 0.45401447011780066, 1.0612856014673695, -0.36673292311317507, -0.46671052831132465, 0.9589491074847651, -0.10442340698033266, -0.1777721101906311, 0.3541313168134097, 0.21077333466937292, 0.19868598298078016, -0.034819228803613475, -0.036050228481627034, -0.047889828689488066, 0.12926490663079904, 0.8316436915168223], [0.36525399882646115, -0.1785066606049349, 0.19087619465585726, 0.3362322645358034, 0.3843638556527043, 0.21005355146317092, 1.5690267990764621, -0.4801701742926295, -0.20190678183472496, 0.20138353565682923, -0.1139476709442155, 0.27525439793670897, -0.7377484262840909, 0.12040929204911711, 0.43132832322640846, 0.34812982621598165, 0.11406907712370873, -0.25108232778742945, 0.12460028563027677, -0.135299523629311, -0.4713867921856848, 0.11662574515313759, 0.21499762338312903, 0.08527036938871682, 0.14368254046286366, -0.1734793844112439, 0.3245516949190409, 0.16583276822568996], [-0.23838798619853938, 0.4745765653455848, -0.27824136008239575, 0.2929510848249274, -1.7933546462050174, -0.03866871979388765, -0.369629805737185, -0.25773335434801625, 0.18521527064664955, -0.2904273827953748, -0.1731204633190624, -0.3092877943875663, 0.16443831138042875, 0.854412547992735, -0.2384890599244475, 0.11715023718086942, 0.030076709258400478, 0.15675400299664238, 0.05954218743264626, 0.06001740388977646, 1.0272638268916146, 0.06130899536867989, 0.8752582200070661, 0.12023450565730659, 0.153139076162882, 0.09154774521276925, -0.042847522053151454, -0.0887223472390823], [0.20431938668303115, 0.058552422310518853, 0.015646952728828364, 0.25158866886343784, -0.18472037568878893, 0.05418395177231977, -0.19590990083595863, 0.43526069315042026, 0.0555161386184982, 0.13510398743338148, 0.30028241108052794, -0.2733401238301412, 0.07353831339555339, -0.0991937474550883, 0.26241815016413705, 0.3169910683171466, -0.15363663733885036, 0.0513358526955927, -1.5045971765642385, 0.6083222187126837, -0.09190541496835902, -0.02533887075926364, 0.13131722196466197, 0.2526401895942039, 0.11332194013309853, 0.2292082593164767, 0.06175967920753121, 0.12492352268028961], [-0.20730528436254528, 0.02742644597525983, -0.09467996050742276, 0.20212766274242067, -0.172736396674939, -0.24066611686969713, 0.11526928213967534, -0.40610084688400444, 0.018928101478081483, -0.4043986457073679, -0.5302063072721853, 0.05617942974675903, 0.6889573997554144, 0.33920635207495153, 0.19908407731602756, 0.7471623361762809, -0.4254868352837012, -0.17081612817091685, -0.37764237416857416, -0.22289872578234982, -0.3282635565738503, -0.00384906634942702, 0.08203941364238755, 0.07698881319259518, 0.3001248243013098, 0.36605693895581753, 0.34431800948057506, 0.2128779505350982], [-0.4521028848605539, 0.2858141961102245, 0.02616659494668722, 0.1983919836527388, 0.5144782451426614, -0.3961753927559753, -0.5719530139621757, -0.1528662999362316, -0.3337712941474456, 0.1469567620684886, -0.0011100627876744454, 0.2894452277260547, -0.42742355196065374, 0.3853795551383655, -0.24049609621062093, 0.11512321645555257, 0.18500787020896897, 0.2216967860106334, 0.3001953100481386, 0.518915712854578, 0.6397630944832957, 0.049908442646394865, 0.6837879265232054, 0.15524749658331366, 0.1967678285404202, 0.24370307584358974, 0.12673750189213145, -0.2408520698404941], [-0.6305460327124089, -0.3803940916549458, -0.2876962306055778, 0.3313432092822206, 2.479307512947821, -0.4605909653727674, 0.22911825573361336, -0.018963264033875587, -0.06559279296654887, -0.21703803208691708, -0.3507418968907507, -0.011643091193483031, 0.007401885856816948, 0.10399897646344707, 0.07576003339006629, 0.3537174757730176, 0.6655443074265516, 0.3212816948981146, 0.12863486811814867, -0.6482295267839696, -0.24669573678825427, 0.13927256451137, -0.06990261165930883, -0.09746019243627618, 0.3703909680941137, -0.016990074885724064, 0.618870633242714, -0.08617607349483765], [-0.22541922975909812, -0.13852866305273268, 0.06523033200585868, 0.10162039081451307, 0.0719332520529704, 0.6848252226075482, 0.47049060106657653, -0.0766689343870438, -0.1534328703750563, -0.6112735245306158, 2.637087886314275, -0.20277679449334754, 1.1369150684904963, 0.09143764255231573, -0.2906765850204706, 0.3899775487986667, -0.19794840825042515, -0.34907168967594493, -0.15136309980832593, 0.322043227072228, 0.5647647971965444, -0.11543035144253853, 0.0998171274770179, 0.7687372052022295, -0.07960513174909442, 0.10871298878530292, -0.24856607111877838, 0.3130447845329581], [0.07976380421752671, -0.3088335305424123, -0.8660986717183858, -0.3840187880986216, 0.02226268534223191, 0.09616894089364082, -0.6130442271807326, 0.1451051151017109, -0.2601811963314965, -0.1613277504589063, 0.39301396321793075, -0.3468826805575045, -0.012220810306919955, -0.23334957972816295, -0.015117735182741534, 0.08627826348271715, 0.12797274014642832, 0.40226428737550185, 0.3864921515441451, 0.3481909807017596, 0.33643655294249325, -0.053256309513195224, 0.38202932724929217, 0.09293601761501893, 0.0296423041476376, 0.08124465307166284, 0.03272617477992744, 0.6749375712508378], [0.15295801980012969, 0.21237858259276463, 0.1490029580267046, 0.016426980682653677, -0.16259542802815402, 0.8326042041383397, 0.22487336061983115, -0.03278032443614633, -0.4502119735366605, -0.2916941743096369, 1.2118137381441552, -0.139280837102495, -0.13056558443170713, -0.050689253635676376, -0.6624552077522712, -0.450196815485798, 1.4967102012454312, 0.3057606011304371, -0.43145925408207586, 0.4349606744279712, 0.327427380450337, -0.17763267250115655, -0.2397190177525051, 0.20265786536292849, 0.2871009015112964, 0.23890333586653914, -0.2687700613197241, 0.865320869425711], [-0.032376207980241205, -0.23078433052030972, -0.49398138417287707, -0.31070458167880394, 0.4760407806623324, -0.31919358082092153, -0.255778200243755, 0.212820422450329, -0.02321266738992808, -0.21445470665734642, -0.13187631537359387, -0.18023400456147468, 0.19865612174380914, 0.7519153781169734, -0.3681333290545919, 0.14262228329686197, -0.44765759870339106, 0.06271805567779, -0.3665860998858936, 1.5609024134046336, -0.8152973166758779, 0.005236032706785171, -0.12114336159716316, 0.27910066547504686, -0.11770117445047065, 0.24603514139782323, -0.40503408140449465, 0.3007161447188748], [0.5833061003110127, 0.013158708027344087, -0.027904291714425836, 0.166741187113881, 0.1405159829671731, 0.05995269943413331, 1.0064221662694308, 0.0007789676974618244, -0.4804135917960733, -0.11101426810133906, 0.6610593588112532, 0.602945680595371, -0.23464201624156167, 0.23040279051744605, -0.23983669173748623, 0.06690216827024079, 0.2928574017011009, -0.3452964657703209, -0.4729218489766969, 1.1317670857239472, 0.2957163612272249, 0.5219353909693569, -0.17457811908029078, -0.18925544580051668, -0.17048331242345244, -0.03716968933082868, 0.5219437815337342, -0.20944806614054878], [-0.12572430207447044, 0.45019337992861874, 0.11320544341478424, 0.059731801383711224, -0.2567062401294746, -0.010939787640564727, 0.04150178692199215, -0.12438688133186723, 0.27865713040722845, 0.09519498038298004, -0.34663179163927105, -0.01631680713621014, -0.24819301650930345, 0.6386179867028788, -0.3868322050440961, 0.06898704313322958, 0.0032745411793962302, -0.08968904036070813, 0.13427269532266814, 0.009272192088805564, -0.12067057053144149, -0.005737597414890794, 0.4712273710141072, -0.07153456544295696, -0.21139044455914716, 0.1608529024027967, -0.1316675450246111, -0.0572210171889461], [0.6518813013308432, 0.2596298842380526, -0.4332440504096462, 0.3068243816484917, -0.15807246990473772, -0.3026475303758012, -0.07948828468825182, -0.22418676054703077, 0.08434929976519322, -0.1361257041178779, -0.5876089476560294, 0.6538009223339057, 0.5345694334165159, -0.08705715173845838, 0.019151198931300215, -0.12289072920487537, 0.003214648612723959, 0.5374288263682288, -2.2409862424325873, 0.09558704828573589, 0.5270286807363666, 0.2705331260939981, 0.1589213232331304, 0.11960392804057883, -0.09187249212465727, -0.047558501001674594, 0.3633069795682156, 0.2581993379653387], [-0.35833439411611884, -0.17036412918050203, 0.09354223754918713, 0.21291559847108654, 0.474412059547204, 0.3490864915054954, -1.0448876783659147, 0.15247325729781291, -0.12030400073058357, 0.7469006608364981, -0.17678381370937712, 0.3309874522016967, 0.33222399217306825, 0.2275427770084474, 0.5923120613373473, -0.15272948546682916, -0.7576829355727783, 0.19678947284743792, -1.598090920814245, 0.3516808696953008, 0.08861710511813421, 0.18181231869013312, -0.03315419082614222, -0.29706382966359957, -0.2462392168624804, 0.7077647841340895, -0.24272141579346132, 0.5308746601834217], [0.07123562129700779, 0.2505880763251063, 0.6459640603739176, 0.09177863983124847, -0.9615985396469565, 0.16839918907646723, 0.6313964287567279, -0.5614351254996565, 0.15685839370366933, -0.22938877918356507, -0.40968239311466825, 0.7254171677445506, -0.031150208105013778, 0.36741600088095056, 0.6011891655091317, 0.06159409658837441, 0.2860165041107286, 0.24219340252569482, 0.48304338508212225, 0.7383630674901098, -0.7542214540584494, 0.06544925520169367, -0.1049610351486867, -0.20397028144095858, 0.18163938795749235, 0.23777794242699649, 0.2557094776296824, 0.15486571486656905], [0.31519500567550934, 0.4142845168840548, -0.0746795870403911, 0.41371713651940717, 0.8481399974246505, -1.1866172578447414, 0.5181337228716345, -0.12475976316509813, 0.235048816383104, 0.10662530263156966, 0.3749006492170556, -0.09127598929503612, -0.31561232906927955, 0.1067276940327116, 0.2017670905645832, 0.2240041446797619, 0.0944652526147731, 0.5382743692358865, -0.41095513335537404, -0.7245225357471529, 0.5682734739746172, 0.247252768590953, 0.3824191685342634, -0.257348305256774, 0.1944221470175469, 0.5533119878382321, -0.07055168301927715, -0.1567440869558074], [-0.34569777901792903, 0.1511302617206749, -0.131739616938766, -0.035056461720906706, 0.7610978661336675, 0.3172585121918487, 0.8353540189075094, 0.4003544095834483, 0.21485829695822495, -0.13004316884005804, 0.1652432878098959, 0.17021166374805974, 0.5032135067747042, 0.3150921242639256, 0.09751405066359649, -0.028752420546359382, 0.2543340497901715, 0.07007064179494761, 0.055373776027359524, -0.056925999434083024, 1.8225170608325139, -0.11259198357014195, 0.258360255624765, 0.0698651354219671, 0.24986422803081923, 0.30671774790687634, 0.20903625109564866, 0.19137025630150814], [0.02563283793966079, -0.15056192109161726, 0.03152305843470027, -0.07358936303365016, -0.38915906714392867, -0.04235055122141954, 0.06127275263822267, 0.13345679914059824, -0.5034628469293351, -0.6232032078266263, -0.05784749064555639, -0.5218903932590848, -0.26476817388204227, 0.948678756268987, -0.8167103227247581, 0.31582204653594403, -0.38688188853234395, 1.124671696484456, -0.8457474717486735, 0.3021139706553286, 1.2426831604439985, 0.14782744300885514, -0.217630446922438, 0.22281020594660012, 0.15237887853273616, 0.08115588031810106, 0.27777731662066707, 0.4728307071089374], [0.4091551741952947, 0.7430013931637015, 0.5681676446763788, -0.08517075894033378, -1.7271005759571982, 0.296511992507326, -0.23335130318479264, -0.6612849541037653, -0.004956724651041932, 0.3391252333928249, 0.0162875614852844, 0.08418452432010846, -0.10787967341548761, 0.192791746530263, 0.1360002947265292, 0.07001411381477278, 0.2511339916105927, 0.17464677540584744, -0.16398043660960687, 0.08714729365985881, 0.44976074922416287, -0.36181663385621077, 0.17241317437688433, 0.13048754819138872, 0.12737771379543364, 0.2274620468696426, 0.5628513528250078, -0.2719070267302132], [0.2870408646619124, 0.20447180390169115, -0.0011200527581459578, -0.1724121472143284, 0.034545487671950516, 0.3217430338679336, 0.2332662088285279, -0.2673639854129122, -0.8290524185073935, -0.9467461761098789, -0.5427715316313061, -0.04382940056234961, -0.04524693597801082, -0.027676170192984004, 0.92795786679858, -0.5028490268997496, 0.6477606016760146, 0.14585679051437564, -0.3395083805442448, 0.20678223751435396, 0.04370475127317839, 0.11331220729760877, -0.112558110286306, 0.44671552051537117, -0.07171176988467079, -0.05309569294042373, -0.3451599665559205, 1.0139205732729293], [0.06589958072896421, 0.2735258766074018, 0.027151806118716725, -0.13829481277361463, 0.07490209064404335, -0.3099314921118817, -0.47675152908684854, -0.18413547347517792, -0.3314937771533278, 0.11615912751906204, 0.12584355603540162, -0.3730842601433246, -0.03138103533643824, -0.007486889957433227, 0.3905267193707561, 0.22421152936647998, -0.0746198132113948, -0.10305621932872538, -0.01275838372699314, 1.9318265157964278, 0.2901515140611268, 0.5971128449449171, 0.2651933901395875, 0.14767488383427416, -0.011656805734942648, 0.3216993310882216, 0.12169045774296974, -0.0804961073073098], [-0.15920664461050935, -0.21540440105711378, 0.2795044412773415, -0.6067011638572304, 0.5234761277399633, 0.1325964792051345, 1.018162486074323, 0.4261910373880404, 0.18620727217740093, -0.4767126199228634, -0.7392773628945347, 0.3272872140525118, 0.8886086357390712, -0.12788204043172463, -0.1545445753825124, -0.17319239075864887, 0.4752077283873092, 0.3721079749247399, -0.2629215793279529, 0.12460135869567114, 0.08610632407981816, -0.24065512834871608, -0.4394407346996284, -0.05219555902882201, 0.5293511677728142, 0.5956446443759095, -0.09511236061087897, 0.06186171083658994], [0.5861954019303175, -0.1277439738943768, -0.020891147267592093, -0.1671023596468957, 0.09862267206704417, -0.15081023958557307, -0.4342608406264301, 0.15642427303893996, -0.10042948448589896, 0.08786320390178677, -1.367337706457229, 0.07839004517898018, 0.46932512767581225, 0.03040863033277622, -0.05895546782618958, 0.14028132905272908, 0.39485507090156086, 0.37797934408102685, 0.02287519381621413, 0.5943926987110835, -0.7012404469965604, -0.07785076207480297, 0.0639975472973191, 1.060988274620137, 0.17170002209065663, -0.004081132278004911, 0.027622956063649052, 0.3852824884716901], [-0.0623055610051781, 0.20817806673662123, -0.06990892978795676, 0.5138523398313961, -0.38043732587275186, 0.3967967322854518, -0.9137231511258266, 0.19592253570373094, 0.02372576717978692, -0.09553587186489293, 0.4866489738467832, 0.43275841730000203, 0.24386254549709283, -0.5571909449486997, 0.3713759333479818, 0.26069425201297225, 0.1634268266746928, 0.5605927220233773, 0.5895607466089079, -0.8953226781224453, 0.29199447379474824, 0.31174425448589077, 0.014242605064290122, -0.295934595186118, 0.6321523690491591, -0.3613032347100583, 0.028763943314272296, 0.027904143942731982], [-0.4519163363521705, -0.3428921258631835, -0.08440495777862544, 0.004861332791217263, -0.3597076955613149, 0.22432936600662534, 0.2974674397060204, -0.3952506056420121, -0.047817617891984174, 0.14555859037304278, 0.4946056745513701, 0.027647847846522414, 0.02204848431488176, -0.30025713787031694, 0.18686153086507645, 0.34445586138838574, 0.3620771441741901, 0.9654526586994558, 0.013767200772493923, -0.1002649853978243, 0.16476466600094636, 0.39154107221677925, 0.3194788458333821, 0.3289335384015771, -0.009854750037540704, -0.0035938618168355274, 0.09472533222068426, 0.008139967825726978], [-0.08861480630444941, -0.3235727413815692, 0.14336273779481445, 0.27328616531146793, 0.15367334527551058, -0.2361545154012975, -0.34796386528514417, 0.035015051497396976, -0.3698899630614516, -0.26021279883427095, -0.12685864209755862, 0.20332321271125506, -0.3391695586529074, 0.14063647121344497, -0.43536922368639874, 0.49435446392347093, -0.08845998427088801, -0.1933470605949369, -0.37042776430008295, 1.7963801118410367, 0.31386109501808335, -0.1371884463651034, -0.008366669747122194, -0.11196806541326307, 0.2825182404374098, -0.018602095698939506, 0.28184706869320836, -0.004208494763170286], [-0.015266469629029713, 0.05649657428025953, -0.8445700375171951, 0.013812743738321422, 0.24568344685327792, 1.2306910203807782, 0.731752563079808, 0.38877415431984674, -0.4426829222629275, -0.17451449957904835, 0.01288141354582275, -0.11379005771443655, -0.39386337177425446, -0.08888087039370235, 0.9553766553927941, -0.09669123992146055, 0.04835108271008724, -0.3954929476180234, -1.4563309671617075, 0.6101740181481352, -0.18749865506174557, 0.06868310700536392, 0.08735696748124921, -0.009538609334938965, 0.2768118864205795, -0.13032864309775938, 0.03585200694061949, 0.4912213877445969], [-0.10191321862901734, -0.06715827926978081, -0.03760324488337886, -0.1447627105377965, 0.09360988027534886, -0.5167550649780983, 0.7293737188673157, -0.5503809413093319, -0.5364762386421243, -1.0677781438881218, 0.45286733083680697, -0.37061538980248737, 0.357156795536925, -0.050998448558894315, -0.6973133922552022, 0.2231132732876677, 0.0992658714141466, 0.6217771192391249, -0.31423579372323024, -0.21377014124808924, 0.6281605098929626, -0.16743335183965238, -0.16154297487301164, -0.021158854747583406, -0.31876727107550906, 0.07467030936972857, 0.36351047941206605, 0.18695153499026093], [-0.02330629839522501, 0.010061484432636986, 0.11199297149408119, -0.004558585294624699, -0.057567134217979724, 0.3931283468835137, 0.17889066277955398, -0.1643268951828515, -0.05673980917536878, -0.07667708151545621, 0.4112943915392968, -0.223390700321224, 0.35818391445363046, 0.428992087099307, 0.2351496913389613, 0.4845495531710586, 0.3770224492867162, 0.21434394349351413, -0.19827533528402633, 0.04752992229097043, -0.35396183451329827, -0.18061550672120352, -0.24744844621237633, 0.2427815400298476, 0.09685814332723777, 0.6964666800498691, -0.472058632533306, 0.14087601836539765], [-0.05135936527215826, -0.005793555855124879, -0.36055449660841044, 0.11517151001104321, 0.44787959062645294, -0.2790710153416689, 1.3391806642385335, 0.2975263970981521, -0.02018202368017075, 0.042824118184839124, 0.2624643092673885, 0.4289310294269679, -0.4888564630443966, 0.5121587012976, 0.22658074743592618, 0.04797511811768896, 0.32434131727047444, 0.23752683519359238, -1.6281822741670684, -0.24809934032721437, 0.6709157564599901, 0.17944096960801767, -0.024875589476369853, 0.12978349238235004, -0.007857129542578415, 0.624530809408872, 0.00257191369906601, 0.1538086020475746], [0.23542160304716103, 0.0034339026453210964, -0.13615202380343686, -0.03530889814137581, 1.3939157418151578, -0.7944807999409503, 0.283592838341827, -0.23440032310073736, -0.14485302007590373, 0.21866935245203234, -0.017866729915563893, 0.30185486047669163, -0.012872142627689705, 0.14924913889048735, -0.13038422997297122, 0.057539102215815874, -0.12086173575141167, -0.07190457794595671, 0.30228194118875645, 1.2008595705725178, 0.23546961155383356, 0.2521882941508298, 0.37153828920776866, -0.3740409755420049, 0.5258382596860928, 0.169173366915016, 0.2786312524687789, 0.34589439549292855], [0.05290739912192137, -0.0718372398996116, 0.18817864685976685, -0.21281643702827005, -0.19324641891256483, 0.36313639121646374, -0.47028211352076155, -0.36871590313525915, -0.5058723336127415, 0.2274092801542324, 0.7973076777205257, 0.10431647187653241, 1.0448788882840006, 0.053048039418140326, -0.3677651530859918, -0.22981911613110778, -0.2537088348337581, 0.1887376488389536, -0.6327922883618536, 1.840572182868239, -0.3468647217853661, -0.0309460971598009, 0.13298075438005774, 0.2199717754107958, 0.21817783508832964, 0.23376359745864964, 0.06886649980081812, 0.9491065327219503], [0.05663512419472519, -0.09221124269791128, 0.48488580149563987, -0.20008627834791615, -0.18112095357180866, 0.32325672806391453, -1.4227019844361797, 0.15072481343789115, 0.2323552500598473, -0.4835646549428191, 0.20564622721745937, 0.6507792047146904, -0.021429055327834744, -0.1208574867101368, -0.21625071699804008, 0.30499270152129654, -0.0038167757353362065, -0.10299310520919634, -0.08044517535229159, 0.33512950430676974, -0.21036784690005425, -0.1789724663372121, 0.03965397351561001, 0.10512973200452146, 0.5508400282939837, 0.561191949160574, 0.23060032973776198, -0.07131624761568092], [0.2450137705345632, 0.14917886770392733, -0.18531703885980055, -0.21542758829366365, 0.18294263967634608, 1.4017636827375501, -0.25723379478217817, -0.4025830744836521, -0.2892822711370899, -0.49072736755772, -0.2082932211782211, 0.008954992840712116, -0.6260478504611278, 0.22767446157127774, -0.7003374986138048, 1.1074412652864356, -0.588129695630988, 0.7364210880525952, 0.04543319207565703, -0.03521550396028887, 0.5644258086595031, -0.4200790664479312, 0.35176220787775125, 0.31439831648661903, 0.1958674388860662, 0.11455681510046863, -0.0109077910873643, 0.43464349358492715], [-0.2780954069136641, 0.33292916918422366, -0.8033642371308674, 0.16648502750291153, -0.19239553533040363, 1.828658354448578, 0.06164452924217859, -0.5263234635607047, -0.20179289662287345, -0.6236539022493129, 0.7818436301297633, -0.180914536898988, 0.8142292076835976, 0.29989928780693287, 0.12226551357664263, -0.39346167855509334, -0.16735109892338218, 0.16817927106291705, 0.07652779441991177, 0.11257782970324896, -0.6956252970099145, 0.05851016285835587, 0.20494709393935293, 0.8947418870423742, -0.11890668530957861, 0.20244490380499708, 0.2794215026491, 0.16276252614207223], [-0.007837875933945915, 0.3134784297584638, -0.25665342646380085, -0.1473102191875996, -0.16136481475893205, -1.3843160391407399, -0.5780058385451948, 0.1864879123414158, 0.11702525861146672, 0.13296043105552788, 0.14847947910868572, -0.19874188942052792, -0.2599061571381994, 0.413241123970032, 0.33643178531888207, 0.6255130585655171, 0.1759658027518168, -0.2793705257182006, 0.7650835797268274, -0.3319483412946657, 1.059741970781021, 0.035828461024412776, -0.04971958779663786, 0.6297428117002902, -0.013366304120703075, 0.11158487405608575, 0.028998605897383095, 0.43025258374554787], [-0.7670464509607778, 0.11555627547054728, -0.4544758867385104, 0.9153008223148634, 0.18314893164400708, 0.23797658636567334, -0.10710451350359904, -0.05170023030399191, 0.15105360206290583, 0.36340245768844903, -0.41644046644518784, 1.0324937917496295, 1.3746323486183663, -0.31363289803107497, -0.5908594620213627, -0.10108106825195068, 0.42371701231452497, 0.26827740108699644, 0.1106848881669442, 0.43201988207329006, 0.9967667342270209, 0.6837981122058034, 0.16339702647815108, 0.3780748133221893, -0.32259882461058903, 0.31996417485205736, 0.2230458235790513, 0.30374449136052795], [-0.022177930869250503, 0.1260788016397358, -0.043254738475611156, 0.1946718003035714, -0.455553710974671, -0.602701347427864, -1.4171973653497099, -0.1894981517490738, 0.011522175924425445, -0.054838230121309145, 0.2219387448746674, 0.315470870454617, -0.015544615225615881, 0.3401931106979387, -0.30373241881981033, 0.7821927114648554, -0.4388998754640239, -0.38098537788169373, -0.7423558187278277, -0.3740370276849642, 0.2665222646475082, 0.16060736165559872, 0.35437981591943124, 0.428448175549187, -0.055901324534570924, -0.062429955144697125, -0.34276731467563654, 0.8485312254177267]], "hidden_bias1": [-0.6846097888448294, -0.31170593888208337, -0.48109268009773953, -0.41329327762127527, -0.16987471946937083, -0.6381351326362134, -0.44468870782683406, -0.22976880477252185, -0.5027168081685616, -0.09243020404438046, -0.3375955283303661, -0.7676139964242548, -0.23696970021848113, -0.2961070136403939, -0.4319848154429937, -0.3666044439859914, -0.41854221331207536, -0.3015816073835759, -0.3384358281492271, -0.29638244405179853, -0.6593754241281169, -0.23257877389432668, -0.3378332241893241, -0.4849586224008004, -0.6125685323775559, -0.23414484382063594, -0.07963904725781347, -0.22162420345121078, -0.4091400218276537, -0.3085675431530045, -0.31604249974161547, -0.4130338289336409, -0.27729104567355434, -0.5249836070934285, -0.05752802123784571, -0.3290384269621699, -0.6721551487744076, -0.3122662094882872, 0.040945459139271466, -0.3456800705449332, -0.7415221676594944, -0.6615606243657354, -0.694775829011023, -0.30302780308607347, -0.3821991742067638, -0.1286344753507811, -0.20228413203282028, -0.37554278093098964, -0.25781727528082454, -0.31673546335029834, -0.23894687652603613, -0.00891977631857819, -0.28004833815427504, -0.4453348279873992, -0.32944388069687663, -0.534333315430423, -0.25242006968232367, -0.2184387525604767, -0.18575765270009473, 0.006228147360429622, -0.5896531258082996, 0.09703866987624161, -0.4135948386794151, -0.273268562775071, -0.23701014434064813, -0.4414724269567133, 0.03786179374340181, -0.3967179037037348, -0.25899885931905303, -0.6658860971228512, -0.7654548659393162, -0.6541164696229549, -0.3602662329301864, -0.2099732643274156, -0.5342754638444442, -0.7617328851055502, -0.48595874122536026, 0.026631900693695927, -0.22709205975565638, -0.08344411587470886, -0.25320473893492584, 0.025978299705792254, 0.027271567949386618, -0.4115839851665525, -0.5112889500463522, -0.22545464255518136, -0.3794181988474524, -0.23204824085369755, -0.17940404663824758, -0.3589744499315525, -0.2807967995565871, -0.5208530723713524, -0.12793657982556492, -0.3992577972916978, -0.39337529117096515, -0.5038765085157837, -0.31598293165873903, -0.2368911882257689, -0.059903668994765076, -0.24745710973153884, 0.14851848479131524, -0.6065055364440114, -0.4238995449607527, -0.4629279298522556, -0.19722120042053035, -0.26884690259266497, -0.32958610137838773, -0.4941539853966517, -0.5532413769390082, -0.3503878173841138, -0.22837222717314273, -0.5378353899979991, -0.3815168799481749, -0.18032602319314087, -0.017220275321993998, 0.08334584717897593, -0.5253737192298467, -0.194691149529124, -0.016788836167314053, -0.3368270930806072, -0.10204768637409915, -0.1899405245673857, -0.17436484036329386, -0.1730056311268298, -0.3118248585366263, -0.378618601271027, -0.4488435359768063, -0.20381473168435593], "hidden_weights2": [[0.03021203381798387, -0.12115955791091215, -0.4559415794900532, 0.020067826222020184, 0.23581959426613638, -0.4433096416049731, -0.42700259965893506, -0.006789425383070846, -0.016426533493861813, -0.1125420250084925, -0.20981161231357098, 0.023352055678307254, 0.2719318730666431, -0.1342953538098053, 0.1121911789496473, 0.22468980051052784, 0.15746846596131356, 0.08457527869352104, 0.3034824972825968, 0.18384525369119825, 0.07489790008684512, 0.04875036487535134, -0.08291310550313225, -0.5298237404796206, -0.6407870519851234, -0.0698857283850147, -0.20532428335599104, -0.35162197619606134, -0.08216230042605882, -0.05210055038822714, 0.1386654030660073, 0.08679960705919579, 0.20383459701497042, 0.05538002142701569, 0.19858687266666855, 0.456259821092253, -0.1759902792301024, -0.15515493308040781, 0.2076793910075778, -0.3450026218990015, 0.32221860837131205, -0.18906370902198696, 0.11338954487118577, -0.2858022366533337, -0.18088318262645475, -0.17495996140293313, 0.11647989385439025, -0.3801839346596743, -0.12173041806516693, 0.369675240895106, 0.1969258391506716, 0.2354316630704487, 0.05086210765446518, -0.1717259175331055, -0.5797039897906171, -0.3069793035401434, 0.2653826878095945, -0.0279793690588403, -0.08654786119286562, -0.0687884972075608, -0.34810670141281624, 0.2679616509249492, 0.02977648052355389, 0.2772371307476323, -0.0022079637822622934, -0.13383417046405519, -0.04727206299427012, -0.01412880147343611, 0.21456306109084647, -0.16965704110333088, -0.008875117597471185, -0.3411291368096178, 0.3676166582558075, -0.27759518418217755, -0.1372910387997631, -0.16899976086840018, 0.24891938122266294, 0.33174512290861546, -0.4471100345452638, -0.06453824250473639, -0.10213699026841604, 0.11446114315838864, 0.1606871580040252, 0.4645441574102077, -0.04359511092338826, -0.10275449158651032, -0.44513635053578543, -0.32439116866664836, 0.2463907879563782, -0.3561810922365302, -0.20712439076514647, -0.15465369819558814, 0.2969310099286073, 0.17563714943258482, -0.11048374818628647, -0.3726797859253995, 0.11687609061659529, -0.22766853340794138, 0.19018126186321624, 0.2684524795762932, 0.20341886604161727, 0.12639341976647062, -0.03414689280169859, 0.20341906839292379, 0.14573272789540423, -0.2558319123577245, 0.0284176069731104, 0.06874264381083854, -0.1548679491312578, -0.34768100425543924, 0.019579524644287086, -0.39875465287934253, 0.1824687142795231, -0.48312710966434896, -0.12664091693901292, 0.18272027252945436, 0.0005567534486829952, 0.1983467342610857, -0.02421318811823142, -0.17665916583660926, 0.08752460939380376, 0.6423673469635383, 0.07896515398775292, 0.09655622597744508, 0.4879435338656924, -0.383276622154861, -0.13821958488722433, 0.1357176772701447], [-0.03637305264640225, 0.08809256557361601, -0.26700433905287113, 0.21287233107789136, -0.18184941422661063, -0.06832451967632429, 0.0019764222500301574, -0.013039079542696072, 0.027950865725609998, 0.19840326275184317, -0.06773398952108586, -0.018212340272469686, -0.15383089074365922, -0.26117010217409986, 0.005181934546470473, -0.2559099631990985, -0.1321691203151082, -0.07631191446775941, 0.022044797192349523, 0.059033593018839835, -0.01711807662371076, -0.04109926488695625, -0.21314136748215304, -0.019190404560959207, 0.019915938929232362, 0.06600590269401205, -0.1623812685328655, 0.23349584478593996, 0.01827047143181767, 0.04268616435676106, -0.061946741372010214, -0.10778764551430264, -0.20735168211625782, 0.29789951007372906, -0.15860771146092364, 0.16018933011267472, 0.07815797570565221, 0.041951340850501284, 0.042492758273767986, -0.07316870425775694, -0.08551046877249176, -0.046509614081066235, -0.237787085577313, -0.14053614777496043, -0.07674993334230222, -0.14977361701453143, -0.16527472183354766, -0.12509363151854871, -0.1685028020361702, 0.0010433557403518798, -0.033441900314844494, -0.054907723559372665, -0.2677495127213688, -0.2625960926428815, -0.010364410680687873, 0.0815384986788498, 0.1043730873366124, -0.12986784937661774, -0.07538077502797823, -0.2235503785952453, 0.062417712914840995, -0.24114129152091973, -0.13544485609499846, -0.2580949335593839, -0.11053621921185645, 0.05606108444732643, 0.05445126685639357, -0.03722358714787732, 0.008872597754995609, 0.22042399295341697, -0.1529396233974115, -0.024202165489131903, -0.028336390740473352, -0.34247016545572295, -0.21051337604606837, -0.24148448227662356, -0.21435640196848804, 0.039769575948620565, 0.2503921173489231, 0.23041393507659513, -0.13451811574388187, 0.014876990423622923, -0.14730494196894042, 0.010259499233300247, -0.1489088856864478, -0.06940644838798937, 0.07890441150335384, -0.1538859849636723, -0.13207012321486894, 0.02280007732155477, -0.08030876149800512, -0.19526854675377098, 0.15966673805998893, 0.07041051927818909, 0.20173533629134238, 0.26734346197082126, -0.15519278558347688, 0.041308549347226727, 0.11622408343631487, -0.1322188760989356, -0.25950811171458354, -0.27138811509573435, -0.1531859131812765, -0.26733624183167937, -0.09272429556794594, 0.25202189777377576, -0.05139193572414483, 0.006519961957972118, -0.18282739397870026, -0.06786765632998278, -0.06290106032750782, -0.053744933655668736, 0.04000694272153314, 0.03247865340126799, 0.11850836404489956, 0.09093663691179237, -0.29110675127733243, 0.10767888727192858, -0.14260740190894083, -0.1181073639279473, 0.01395789225945768, -0.126573422240747, 0.2806155263900763, 0.008685489961864894, 0.06614438880236706, -0.06935264721307074, -0.13658660472914164, 0.16468321915377834], [0.014716876641928531, -0.21188796799535822, 0.0878126804375565, -0.25271889337367875, -0.0681862235164722, -0.11368102299923766, -0.24814721714529675, -0.25363977522276693, -0.25781724730809913, 0.06459294065623142, 0.07395905193339429, -0.33292280939763663, 0.142552533162809, -0.042319681029855186, 0.27407165666448924, 0.02803284060924555, 0.11347821362268158, 0.013968255300794407, -0.2754933461139844, -0.25658116323394886, -0.28510886182894785, 0.038101281925049524, -0.011248465488054589, -0.1045780751481224, 0.03541676454622482, -0.09736582612228792, 0.23534213365845338, -0.43715914752512686, -0.1992190291166196, 0.21490618660079494, -0.17031293929150448, 0.008331748216923103, 0.22433896740615272, 0.1640313205934364, 0.01818731733084123, 0.010890867457957178, 0.3960636556550408, -0.030488558442382168, 0.09700526475178882, -0.20976210349230404, 0.3823757685878156, -0.5215395019731129, -0.019832913798252815, 0.27955247523331445, 0.10875557536842012, -0.022918016220227544, 0.04669274078311807, 0.01417185969514352, -0.1960921680746356, 0.41207929941066807, -0.1510916168109818, -0.044618626230895644, 0.10787889890835815, -0.06284140395067232, -0.4338008836856867, -0.4181282952746764, -0.4291821248752316, 0.044756598466436745, 0.006642495606848564, 0.06524123374648123, -0.3038272293570624, -0.059574757805843696, -0.029653035067170548, 0.19452726808130738, -0.3474747199762203, -0.0918729996884323, -0.11957603038653558, 0.0931666833140145, 0.23166138169637787, 0.06847140846011995, 0.23781508169370616, -0.08662829048845692, -0.19953266030355557, -0.13988287814226683, -0.36225806638839153, 0.2944374684622256, -0.14474145715594963, 0.1342361255596749, -0.12117174030411784, 0.1925710223818479, -0.2771561555035563, -0.08671268881663675, -0.18519064722480577, -0.140441799445606, -0.10375460671377149, -0.0454089839781971, -0.009505063747814974, -0.050173132580098596, -0.039262696788480676, -0.18025527270278044, -0.14145697090770257, 0.2119487456329208, 0.0672795994749809, 0.0915299343048438, -0.35340847802189596, -0.6126117049236526, 0.2821856449758517, 0.15905314228741246, -0.06889129785372398, 0.1297487434092635, 0.1508044206814988, 0.10742204259520656, 0.01212923284562003, -0.385966363061694, 0.15285675346740085, -0.11778324227122583, 0.07885533502294027, 0.006721469323249123, 0.38167122209165694, -0.1953673109852689, -0.07953754916263836, -0.3266490514607806, 0.051010774160719086, -0.09666623817102261, 0.11205717618814395, 0.017214130847055278, -0.11239835456312179, 0.3971100166882841, -0.2605251279840986, -0.16361756650194004, -0.17435106513992726, 0.037229429668005944, -0.11426605398581331, 0.0325299193177679, 0.08858286191340103, -0.13443211793135454, 0.1541582423417743, -0.1953790116830812], [-0.03989431176025714, -0.13872495769342205, -0.06051299262143011, -0.09836377302310562, 0.07211899883790136, 0.37807101085944045, 0.09519441004955996, 0.08478689053375667, 0.19133887416497186, 0.2363900849176341, -0.04857531629956733, -0.040418526533626584, -0.03053210443739386, 0.029265680195492225, 0.10944299140413505, 0.06801997106302424, 0.016746781759297027, -0.2899109018343917, -0.06724195899688758, -0.25009726245636515, 0.44907846880705454, -0.010228424550621009, 0.08135494499337839, 0.060586511186215185, -0.128343899594452, -0.07184253041091689, 0.050412012070914745, -0.06073334424733393, -0.011483061173891628, -0.5129923899087144, 0.05201330846744717, -0.1592593278071827, -0.4675226730793278, -0.01041724547577874, 0.15882614603782333, -0.28153997690031707, -0.09512616191985807, 0.12099175937618056, -0.008242414814133611, -0.003105965271860888, -0.2136408303718284, -0.2779421738538568, 0.34238022960438597, 0.18823925146489368, -0.05953416671588702, -0.36789209691965774, 0.014511090643969037, 0.03995517827451092, 0.19905530977773914, -0.3441657962483922, -0.06204893282713687, -0.38603550332291703, 0.1984496803983841, 0.052550447612948234, 0.11045410205005242, -0.09455690900370749, -0.17423369558713878, 0.1471676241271344, -0.45178815126269684, 0.22402079970634134, -0.250339904844721, -0.1876191915390706, -0.24508309992447114, -0.15444839273225996, 0.033798223651509744, 0.09600977698640685, -0.1879077058268527, -0.18706256702604607, -0.008872806828145235, -0.11886378738779803, 0.2595372836631693, -0.1692461946483934, 0.11984352143159681, -0.14720621438311596, -0.27460707006024765, 0.33563187868092353, -0.2752464501615447, 0.3785481734375557, 0.26604617908194456, 0.14587444649038647, -0.1176234675659226, 0.06258400393675248, -0.12983607551211193, -0.3232283095271452, 0.009566410859371703, 0.09962107007392276, -0.23053326730828277, 0.07445550934512139, 0.10933271126732297, 0.005618346102420619, 0.3025730123246877, 0.16504041190987087, 0.034815817908632085, -0.09574924477650835, -0.13659347289634954, -0.193912981969791, -0.18783821395655556, 0.015596637328069013, 0.1570824412747914, -0.18859705632840348, 0.018469552077030923, -0.17625147713586511, -0.16909374791359885, -0.37122575598692137, -0.05901486154593727, -0.08299674137528698, -0.281548155905042, -0.036523475276799125, -0.17939862791272176, 0.42365708239383504, 0.15646120757578147, -0.2897893419906309, -0.0462884608187315, -0.07411873888362286, -0.11877843328146998, -0.08714383322972186, 0.30344156983435006, -0.4534300474814754, -0.07356810533653216, -0.04444853475917782, 0.1316664302925798, -0.0005171088773534268, -0.1483677020810605, -0.3289483048519717, -0.20116282030394786, 0.11730305816430027, -0.05172963238357127, -0.05993580701404199], [-0.04783635978841858, -0.2826909418019189, -0.1644143945589899, -0.1809840196919155, 0.0015052158275378111, -0.3877385230018737, -0.23696248803752318, -0.0681088814103938, 0.1426050980230281, 0.2956771721506789, 0.05660835591054204, 0.008170752076765498, 0.29327052438877865, -0.2077614560264081, -0.3002833504207084, 0.014975019348375536, -0.16592376686432314, -0.16011264679143114, 0.06929397218383912, -0.0560274797196699, -0.28240343671737056, 0.06516289724420107, -0.23112970472432615, 0.02874618570644077, 0.21487544358305874, 0.13092664149323716, -0.26190311952038375, -0.17827018356018204, -0.17206699189304667, -0.4658123289653909, 0.06390907688491566, 0.00792376257823079, -0.10239725742353892, -0.00628279301376343, -0.31025181507902627, 0.4818882046715914, 0.1656506312868326, -0.012328958546725168, -0.30136140177772675, -0.015411719971284201, -0.14804291141364748, -0.15912360817346108, -0.22547547607414475, -0.16167342393139134, 0.08681026298687317, 0.06573219012734821, -0.1455815656868666, -0.042017793230040706, 0.03272034812798972, 0.34318145176069, -0.32040662275841064, 0.011799082282036969, 0.10037491381213434, -0.05146036550750254, 0.19730590183002356, -0.24639064217002632, -0.1607250262892572, 0.1595171217052456, -0.07983483135264892, -0.1887483676803504, -0.681134256694822, 0.004980327192357833, 0.2703565503621574, -0.19415397617393348, 7.616484851718124e-05, 0.008549601270576686, 0.014287717547281482, -0.40489257266206674, -0.19117923697716482, 0.15078695285902616, -0.21846644206132265, 0.028079867128237606, -0.10877878763641212, -0.07996382653059092, -0.1341616649352727, -0.15566468355733126, 0.15193970188875233, -0.06524938638054026, -0.2697716343377133, -0.1972146199109567, 0.19116399503163956, 0.7158169027503429, -0.28553264068740997, 0.036297710212663085, -0.2123379550507444, -0.15860163488636567, 0.11570289735015801, -0.06486442137917672, 0.23955727673507454, -0.19994685343108398, 0.11169197740861028, 0.13749752461904052, -0.20377470567648112, -0.12383116722271746, -0.2428666894701824, -0.22492787117690108, 0.4086596787102855, -0.02626808707443467, 0.251729724485789, -0.381413178813506, 0.14218566714393538, 0.10058827324778864, -0.3488312595136691, -0.12942978886309903, 0.46207212850650575, 0.16005482829804613, 0.08272565629338027, 0.08143954356845899, 0.11690171189995574, -0.3981645499640394, 0.033251556328541584, -0.07804204688037555, -0.49217571611467764, -0.11880269658395765, -0.12724975369340574, -0.06307390256007063, -0.23919547142367, 0.0015303762882536817, -0.156173374202622, 0.11649582027012463, -0.07679366554125094, -0.2853797781887372, -0.01283475178156038, -0.32867705774268796, -0.24714705844812587, 0.12371238828720679, -0.22033232337601902, -0.0206935612540268], [-0.22962046494019653, 0.09603275140321459, 0.19218583142043935, -0.41839629173828535, 0.1910894599495297, 0.05132152472707484, -0.08148226441877972, 0.19041239032980659, -0.3357522228437836, -0.030717284220949194, -0.09359832288408299, 0.2299272434833454, -0.11876716047036309, 0.21634804347285888, 0.11122610029285364, 0.30827675101550406, -0.10114794640894359, -0.12739519364296029, -0.19956204336139943, -0.3426745783426658, -0.13658633718989396, -0.14256238403705393, 0.17622540520122293, -0.23572287676249537, -0.13004703454412458, -0.22460165458554168, 0.08548351329012628, 0.011540943261683497, 0.354298422856412, 0.23285277991500855, 0.004560601931527635, -0.009653484825188716, -0.14201913015425585, -0.324817260833263, 0.06949271850710821, 0.13684951881800006, 0.03439876825222449, 0.18665682404486714, 0.12210804039686535, -0.26010571256791903, -0.07777806899283049, -0.05924553643267899, -0.697164474869484, -0.2568517857805033, -0.10952913067522578, 0.2333862764405696, -0.0936134868984529, -0.03252152814335889, -0.031464773734474184, -0.20789965044213937, 0.04782525831542365, 0.11321475676481017, -0.2785750096529202, 0.02327637843470359, -0.11645722737389376, 0.04011722476762293, 0.21384526665049144, -0.04139588546552593, 0.21782166975330852, 0.19272422828299468, 0.12214423386290832, 0.1386121604775446, 0.02779891963970364, -0.10584896851422702, -0.028061257874378204, 0.10676605325362801, -0.008660726816529284, 0.10623521201088384, 0.2160501881945232, 0.35256496121765574, -0.4123805431816462, -0.20858018781951634, -0.3429795162992946, 0.005478169427027151, -0.14943386805860503, -0.13254489984040008, 0.15543401849727417, 0.14003193834972766, -0.027120612568785115, -0.0741688004577011, -0.17919219589832977, -0.38625675989386077, 0.404987796635463, -0.06409805169053728, 0.0445262360282396, 0.03226273549092193, -0.008865540673720052, -0.10249859607467506, 0.2857255945247145, 0.3225924515340786, -0.2186177372120823, 0.257277378939268, -0.2271107324885983, 0.016370691641953525, -0.14583459558766348, -0.4600582590927036, -0.012620577498428187, 0.2779830267302424, 0.08532374754632893, 0.2439486259894715, -0.21997697752104753, 0.1592524758817781, -0.09689272694945246, 0.03834061209971668, 0.2769093796817698, -0.24370268226444353, -0.3317858459813376, 0.41031532860665754, 0.08301725376348255, 0.12053989332505823, 0.4667920376267318, 0.03510622990950491, 0.09825774891617851, -0.15305258303262384, -0.02905383135922825, -0.004553343801202996, -0.561869106542394, 0.417713177836529, -0.06922616925482979, -0.08338590124160039, 0.0393685405355481, -0.12290186151178759, 0.04571678763531769, -0.0038218565767904563, 0.08338318365544138, 0.06082844185733087, -0.14480957412056278, -0.07276184028197424], [0.026247380897089827, 0.09496482160107393, -0.11761228080925094, -0.08545321219523927, -0.06886858478697723, -0.20423309936863931, -0.10032864775458668, -0.2819365133119773, -0.1327470984154076, -0.2623082459010803, -0.10428742197448738, 0.07313632676228332, -0.34412514236069486, -0.004177720317259632, -0.0779853808931124, 0.06705567977740615, -0.08619557820461697, -0.15494257880705797, -0.1990232268259013, -0.03121389585529087, -0.17899993133421804, -0.011141177797155604, 0.10827310312829405, 0.08606899453706729, -0.06906829408092233, -0.22465151148259788, -0.11754021812929968, -0.1418218587464836, -0.127453256482281, -0.004991707020965582, -0.05978550106017403, 0.07609313944352018, -0.06685620173085507, -0.31233166961805625, -0.15169617570437144, -0.028758494558848723, -0.36352131726179304, -0.09574298817200452, 0.07673293916181383, 0.2743776185186408, 0.018898252061586705, -0.03132951635190504, -0.29274498050463765, 0.006973534262839834, -0.21158372953897056, -0.038923270508516385, 0.19624892203500424, 0.20286983230775785, 0.10075431129727351, 0.007351338422346512, -0.11798742048236001, 0.15921672908755283, -0.20405267603146654, -0.0156248356599557, 0.20795090554783993, 0.07599132288300378, 0.0026535457259057567, -0.07537481414583773, -0.012412901439290169, -0.03566577094634011, -0.24003235861356728, 0.1861926237459861, 0.13377713027289617, 0.15052488725407215, -0.08966059508782376, -0.05579328160500298, -0.23143978690659597, -0.13105818547990972, 0.26330966242760573, -0.11539525219609119, -0.3220471228662259, 0.062369939385542486, -0.10924646790945036, -0.07918763211029184, -0.24167044877236488, -0.08737716241532732, 0.08752576633424565, 0.01602434122154248, 0.2092380794158298, 0.1389963998695977, 0.12252969161223899, -0.06734998454934905, -0.11752124186748471, -0.12452032669411756, -0.32901675127968183, 0.09821120619073677, 0.1261063545877406, -0.009668937535932084, -0.024406650446745604, 0.04266632526950148, 0.09531513332278982, 0.047180186137968406, -0.010813364706630153, 0.17374530956104436, -0.1887569876033776, -0.06659866791244039, -0.19244877680177608, -0.2094753110889738, 0.15997757312232727, 0.04436599137920184, -0.06399858680500815, 0.06982287394860329, 0.09309064653480789, -0.12365580749968624, -0.003435899015717158, 0.06873077884475183, -0.003926725497181597, -0.23978492152858125, -0.06225213409133525, -0.03080430863623038, -0.10124571346789084, 0.0935592065426929, 0.2078625102745278, -0.21473769120957834, -0.07134552218661985, -0.04338425286259999, -0.1772872493841794, 0.03573412909750609, 0.01323870930051343, 0.0949569115439109, -0.044327503054631574, -0.23036493702740002, -0.04201496676048089, -0.2502868403457139, -0.005303890795345526, -0.12173720690636954, -0.1493387591042234, -0.07858904347653609], [0.08416925175905576, -0.023879842818967333, 0.19624903975067995, -0.03451973065935205, 0.0991046163919743, -0.25931531285101295, 0.01833958387385653, -0.0506894107926921, 0.14888874355281434, -0.07259885132599427, 0.04172905785210779, -0.16533889473939872, -0.16890514644791632, -0.25409631811809696, 0.04258727714154622, 0.17229725264774615, 0.026326297082687525, 0.03607062296952314, -0.06987646105113854, -0.11677640145873991, -0.02953424020511887, -0.09414025220693081, -0.009904538987608793, 0.14760114188790216, -0.23567967862829467, 0.010857238905327315, -0.031641940257742016, -0.06784513425517567, 0.0842761342279706, 0.1582172622731459, -0.15147111536813307, 0.13839460602260156, -0.002981224259704249, 0.07154957214998746, -0.19932581097883367, -0.10320508755524309, -0.029154220422126915, -0.16452857917505692, -0.03508295530729335, -0.19342484319096478, 0.036636363924978654, 0.09884134807225241, -0.04147066085315671, -0.06874686172350608, -0.1498202204862936, -0.1431777631248614, 0.016573916774598223, 0.07770626954185914, 0.0006527931860639811, -0.07891003558687444, 0.016012503653846766, -0.05388335175416545, -0.17420020633014585, -0.12923395216833813, -0.18239390284203916, 0.11181834988851527, -0.19157995916414272, 0.1325493120354656, -0.06870208473393725, 0.23640359903653949, -0.15239376509003702, -0.014465105020083665, -0.17823597581112668, 0.021580476916949008, 0.06242472526963274, -0.2538477757773625, -0.06295867902197293, 0.16754228692674905, -0.012347844292428158, 0.12267833515061095, 0.03546863576570445, -0.08245936432569828, -0.03522137848545122, -0.303530958435347, -0.10936985132637923, -0.12626757748381218, -0.1513193084233982, 0.026400247683321536, -0.024342083969871857, -0.15663182585806268, -0.030414933805969376, -0.3122763206932654, 0.037868321517828686, -0.16236609439589111, 0.0267130205817278, -0.03864013844720441, 0.09420975460650927, 0.043729417922621215, -0.013520410388995445, -0.16626741046420565, 0.12163759610994272, 0.03223991854998513, 0.07912635673840247, -0.1291590836805621, -0.2787977251337161, -0.07606386875624109, 0.0052077322453453, -0.14668072683965275, -0.10620419214508647, -0.08226911980025622, -0.21066378611409717, -0.12270988791200023, -0.15233345915722224, -0.18667290140191478, -0.38103046082868003, -0.055372462748738215, -0.11882302801723803, -0.03205696646903066, 