{"hidden_weights1": [[0.45727968749130116, -0.13959725411714485, 0.728521953963491, 0.05628966940254311, 0.0348674546520077, -0.11620053769913276, 0.07462342591903004, -0.6230651892279645, -0.4346989565304413, -0.1898048828318329, 1.0811669104604253, -0.2976992688752398, 0.6109574848285905, -0.01404646563699453, -0.10767219123884643, -0.13908080321601785, 0.07018911275981973, -0.22346224768683182, -0.3953765911122532, 0.3336033604344877, -0.49092557948087434, -0.042418311646514516, -0.04752402752368177, 0.019212576979073803, -0.2548945701107018, -0.1283257818968703, 0.4346226959694543, 0.24155238304616444], [0.3300292600054155, -0.09777687566978138, -0.3517484673807859, 0.6695889411628722, -0.18870401801554643, -0.3126744675435947, 0.7712613633057875, 0.5696917315881385, 0.43635392695811065, -0.10228986594520749, -0.20766672007137982, 0.27451834594658947, -0.41439726125182785, -0.7891619178112106, 1.4360563110448008, 0.13780315303596435, -0.2955377852327657, -0.20935021478092578, -0.09353020310048316, 0.2764631495663729, 0.003265634504329595, 0.5047869192481647, 0.20688697258908645, 0.0806468961336705, -0.18034605673503676, -0.3434096958941799, 0.05792508285700996, 0.07690484411188717], [0.07221713477071609, 0.14898874537766088, 0.3324734630505278, -0.16993382004143615, 0.47604192304455506, -0.5778508723290652, 1.2818991282467138, 0.19299165748742805, 0.08528500144999246, 0.012402512086204081, -0.29706121991029477, 0.29527188632890294, 0.38598444806446786, 0.02352531467764121, 0.18989826248819858, 0.05777387107177362, -0.037351598625670085, 0.16485811055533664, -0.45107290123565236, -0.24519970348274645, -0.06912680259172636, 0.2284910470842736, -0.04556730889244876, 0.14624452777599578, 0.31144634525927006, 0.2812834299708447, -0.041054822209869266, 0.09398405771040277], [-0.30154418845280634, -0.09209684864319428, 0.26792870781847145, -0.31930015692416763, -0.10734154514339372, 0.5240058461526315, -0.3819046144746973, 0.36469648114046616, 0.015462622127805659, -0.06216415414882447, -0.16890505093976194, -0.2606184023722595, 0.13481301194713013, -0.10848160736502017, 0.3566988108096015, -0.06421262345399577, 0.24832625486937865, 0.04954253218008723, 0.4489629177238487, 0.44024744058441, -0.17570420144625265, -0.31797244376290307, 0.00048703099357923153, -0.29332759228772826, -0.04437645385449667, 1.4657812722116388, 0.11145431138774838, 0.16430281669448665], [0.37524464901328625, 0.06417617930991729, -0.27028481711452595, -0.0740034384146018, -0.3500099914976389, 0.3715303336472315, -0.05012635621195759, -0.18213186954283217, -0.40390432184048525, 0.25053882746958633, -0.20927498933255245, 0.2941640371215568, -0.03908981006741659, -0.4355595074530841, -0.12949263905661396, -0.0731270820016472, 0.10764318394540204, 0.10085988215638744, -0.1691024666841421, -0.14619268779845535, 0.23346372828545187, -0.10762502374837733, -0.02617236752144075, -0.07651857736426149, -0.006407851445056118, -0.12901745094286393, -0.035938452427083156, 0.913818377333773], [-0.026320337401788425, -0.03404311554915663, -0.0361013281029261, -0.26392353752911557, -0.10695632566914304, 0.3331022720568756, 0.384852896017306, -0.17777479653915026, 0.047272737206033276, -0.444900614633293, 2.1327775180042616, -0.08923508103048826, 0.9116825264883386, -0.24455849745342786, -0.2966201380961228, -0.140766161357517, -0.22726039913318152, 0.04647109707237589, 0.2875879038653489, -0.12877085555207082, -0.1133969474600358, -0.0761962097125183, -0.198454904285571, 0.6135841719746931, 0.22749574378228046, 0.011202992370925834, -0.031664321554346536, 0.07923840951047781], [-0.08251145589305028, 0.09109850154092797, -0.2160128079400468, 0.0010593995165087337, 0.009455594439799413, 0.7317411562606658, 0.7711690108052549, -0.07013244043770629, -0.04283754345637406, 0.31907900146335466, 0.024628663052034865, -0.040112760044894086, -0.04400663511127037, 0.2882093662462681, 0.026104680907810828, 0.05348882172719788, 1.3090126650762177, 0.05907615797778796, -0.4276666992083347, 0.078322594251528, 0.2699198834731925, 0.0017363517314557188, 0.27284043573857497, 0.16065133422002187, 0.16716976464531008, 0.2859898053747493, -0.0318370222829254, 0.5640706967541453], [0.2222682384092838, -0.008588506056890485, -0.8724579519805922, 0.319034888230165, -0.46059203150423544, -0.4284268162967218, 0.15920089009159638, 0.03553960888557501, -0.03494940715416029, 0.2519718390411268, 0.18657518137740223, -0.18723503486661847, -0.19734794735772263, -0.28282558700636595, 0.5305460845619473, -0.02171153144426596, -0.1309615489300918, -0.05961875530447328, 0.31686563733445205, -0.3444517050492286, 0.17829261998659773, 0.2863962782259165, -0.24242382396595036, -0.1339562799329259, 0.11125074846201186, 0.018971235661445582, -0.11577983178469378, 0.0059053888612920985], [0.9263304869707387, 0.07229515365477074, -0.09025092863601152, -0.11341543628196618, 0.744405868051046, 0.05676063277788764, 0.29176347127742264, -0.19544602433239264, -0.4270036182324285, 0.010052792368175316, 0.1551033016639932, 0.015280367485499883, -0.002458198364698868, -0.1862984221209137, -0.19195999594333008, -0.023416905798628068, 0.8120067242460229, -0.10017315313675376, -0.3101248862791335, 0.08796698279138507, -0.3064650639235315, -0.23393542862566616, 0.08514960894274064, -0.034289249709321123, -0.0252379049497135, 0.08491937307294103, 0.447403095804134, 0.03082627317609337], [0.3855483409243368, 0.20608505271151253, 0.3637449800562441, 0.23879991288082505, -0.14308386237873022, -0.0493551673645135, 0.16917426908058833, -0.5215717665334673, -0.1440558582949588, -0.3606757971369744, -0.13688320354998965, -0.06203026000504379, -0.1956888597099477, 0.19834248565125576, 0.28116655362993914, -0.10386956499805296, -0.06520747152098588, 0.08848601495440962, 0.042447261072091486, -0.03746137382642128, 0.7779501193239189, 0.15792880893366876, 0.5127568785860905, -0.23424212912829045, 0.18034273018241917, 0.24035664233451776, -0.059731798587670776, 0.25304510390455054], [0.471453006941879, -0.02950738523977903, -0.313355441960053, 0.2782489262025445, -0.19423793618338353, 0.3759357925011861, 0.6465897004683699, 0.39373843525096985, 0.10201857147513808, -0.06029665435554956, -0.16689697955445304, 0.32687868231553163, -0.400142353411771, 0.20267736716163662, 0.3160673057478943, 0.6744502348213327, -0.0921331186117513, 0.04144859526463836, 0.18247932951216228, -0.17025270396516573, 0.5652576369378647, 0.02306943938618741, -0.11370955425790855, -0.2051259949267504, -0.059917431981320934, 0.263349052503296, 0.36278733913468036, 0.17513876222952815], [0.3616812948283169, 0.4651197116665754, -0.21444144542661958, 0.1902964949621515, 0.3566290184477949, -0.2088525333253662, 0.17176960633656696, -0.5118995160250144, 0.06027555208778299, 0.027393880963678258, 0.7258467070923261, -0.07833705258954454, 0.3545604449818013, -0.0419806273751512, 0.023318606370684208, -0.013701711081285048, 0.16211198245498842, -0.010290186935581471, -0.1462713430142796, 0.2920129906258398, 0.06276504888148209, 0.07630299576996465, 0.08889818503214247, -0.007007540699268207, 0.1181161464214768, -0.1427161510281327, 0.2706334013727983, 0.02898625225331026], [-0.2798115914585852, -0.34914295980172555, 0.24315601435255052, -0.16022869925443622, -0.28506329156395016, 0.20052754524976382, 0.14073835695288311, 0.63520666524494, 0.26495424720696087, 0.24508482259049202, -0.024029427592930575, -0.22041587127414228, -0.3417812864364945, -0.2558929761336867, 0.4724880862531068, -0.11888914511937716, -0.1545442747502707, 0.06422045659016101, -0.3061878849605428, -0.10763309188352445, 0.050940141579747994, -0.32146315000228176, -0.3542784462343459, -0.20627282462288388, -0.2653536064698383, 0.4160476662133643, -0.20195329108585236, -0.12103703017951112], [0.3701369373808757, 0.05644168860780324, -0.0884477455714013, 0.16824834087295368, 0.21831828893187022, -0.12402381169777711, -0.16451055656287644, -0.10923319589098356, -0.1824933349623156, -0.23669796713800081, 0.891445809749167, -0.16092631987271377, 0.04315350960993544, -0.1090140656429922, 0.12892830940729127, 0.06619110679968578, 0.26248923238763416, -0.1117266848506894, -0.8042409734616999, 0.43287082441499164, -0.5108236965297681, -0.2319678700197061, -0.008290891155944967, 0.17843626087007455, -0.11189149791391959, 0.4824284646328561, 0.09470946505196956, -0.19046893251761587], [-0.2735010027694293, 0.2610306223751315, -0.11239282972801799, -0.08818624379567049, 0.3206450510749866, -0.253683047405581, 0.376724197324702, -0.1868881266666976, 0.11621151212710935, -0.6827871180742127, -0.11527537097992831, -0.0981068221523438, 0.270206876313354, 0.11718674896153772, -0.18430991161777635, 0.6049944089015743, -0.17627369695078202, 0.07972292942562957, 0.010213375686975692, -0.26446676157295107, -0.30177198227245156, -0.11498402096797375, 0.1566496550379591, 0.12845450939148947, -0.01754870995171658, 0.33853689180655494, 0.2072969760866875, 0.43301615122616754], [-0.7943029615414414, -0.045821364191358745, -0.4535955554888369, 0.34816385239769104, 0.2763549256082907, -0.06505289293677725, 0.16548441942891434, 0.16921594203231247, -0.3060970592950278, 0.32822506627759557, -0.20600432607047275, 0.22688386700155527, 0.6213981385091923, -0.1677975225999075, -0.2453676702434703, 0.23866029553833412, 0.003194083004365051, 0.26928737631386934, -0.03400987590076942, -0.16736380987466612, 0.20022786504870602, 0.5701017151100036, 0.09496893103085492, 0.022640231189488217, -0.017205773643679798, 0.13076146974499328, 0.27893647199383875, 0.06698961595350739], [-0.10619357237229239, 0.334331595633388, -0.5584803176170529, -0.06368723978360284, -0.17394792885170982, 0.2985568915341473, -0.2741879365132693, 0.1620054167145495, -0.24487146116400604, -0.0035916164356572427, 0.24989501649423157, -0.03963156408450583, -0.28518521962262844, -0.03631161671761126, 0.0030303358495678665, 0.612619845714067, -0.12694899000538393, 0.15709601705767698, -0.004799839410458843, -0.21162627520295768, -0.2948645847029182, -0.27963743444493233, 0.06694914028965226, -0.04676317731601612, 0.03660823470695042, -0.22949740079088674, 0.3624016556417206, 0.3953911957097378], [-0.4035924450390859, -0.15772702804019584, 0.32682959938692896, -0.5156904888558975, 0.12485569547982414, -0.1024103718793982, -0.06423758558207605, 0.33164312311015304, 0.3628448423864073, 0.13741114761905238, -0.3694351381371738, 0.031248876979087774, -0.6788994165885323, -0.2692330724030671, 0.9103004210045215, 0.08822236556275938, -0.16272255682201595, -0.14810869880670005, 0.14404810388254743, -0.04612029377150149, 0.08064555723567515, -0.32292108747388243, -0.27038313985055107, 0.7477314873720329, -0.2689338960824456, 0.32361924260980607, -0.10243735931430195, -0.18978279218690342], [-0.06489101961442782, 0.4567670104600564, 0.12213693950064233, -0.0599130515835534, 0.001080999220870581, 0.6440503417134847, -0.10569753970669009, -0.19194236884069182, 0.0271691846681198, 0.06878428584618293, -0.1305938586817906, -0.001279486529975373, 0.24109911831715244, 0.2924236349140175, -0.22543505849515433, 0.1289673049062203, -0.10489691016061577, -0.05005992249376137, 0.2354327763315928, -0.060189787168956135, -0.5911665296395526, -0.11254332663295848, 0.138637007362367, 0.18844264310574754, 0.07824080879011003, -0.14724339415682608, 0.1138738292153258, -0.2701850513937294], [-0.19028458996415257, -0.18186474344042203, -0.31251473882045644, 0.05371044541484298, 0.25042995834519755, -0.496175578709255, -0.26504166824500164, 0.25374209093542194, -0.43773150162510976, -0.21045138295155727, -0.37364337783323126, 0.09682750896944368, 0.44233612711009096, 0.013737757541947589, -0.22830659723523425, 0.06851149001392816, 0.35891507709917125, -0.0807448092502412, 0.4395595441554826, 0.12731261746381795, 1.0102090305955087, -0.06973555190781464, 0.1516443963729988, -0.06921521371582125, 0.42481931139051027, 0.1798856350895182, 0.18890618168603937, -0.07850736949089175], [0.35945075617111677, -0.2153554001653997, -0.2233256069331908, 0.1294231696781727, 0.3863412769565772, 0.39551663496950773, 0.1622739884626536, 0.15781774000900206, -0.14160478684885602, -0.05332619319283473, -0.002281159430711903, 1.100860706372845, -0.653733659298787, 0.6623054565930908, 0.013387631719394983, -0.03954425167338722, 0.26384353748100686, 0.054472648959124494, 0.13416109201713658, 0.15703839333505645, 0.26072570002324125, -0.28902446467502046, -0.13912448277616338, 0.17441722325693648, 0.22543730410550053, 0.12679473252955653, 0.030859621208114023, 0.12058781207942035], [-0.380245405351846, -0.34470639846302054, 0.5260239468061093, -0.4814197830503166, -0.11530565187038848, -0.7687387136140873, 0.22709761525639408, 0.16143372481281834, 0.15831768557872472, 0.38233994607407024, 0.16536043129114922, -0.11309502714164113, 0.08542808599915835, -0.3880986541086773, 0.36598890270148887, -0.1491909827983641, -0.2683397789927704, -0.11836232471903191, 0.45851948193895287, -0.06082314213917454, 0.0003941402987695057, -0.3765124629684922, -0.2717863180652877, 1.4422458018645743, 0.05901518206560322, -0.49330757010387544, -0.21286152364835736, -0.03315789709251219], [0.004536010226515317, -0.17210693483832834, -0.1555742687125478, -0.17262664803518424, 0.0996710999758787, 0.010742557157672247, -1.747199403555919, -0.47144086296404497, 0.0974760547716732, -0.20641754280000793, 0.011565099434145836, -0.07347728597150364, 0.08035956655972296, -0.016381760606312603, 0.5239342836396135, 0.18480621174109618, -0.169841091620524, -0.10373367085339741, 0.35560412579379586, -0.12680783234397178, 0.5929844558208403, -0.17678580182764772, 0.07527533610106935, 0.5286531675112901, 0.10905234921380656, -0.09342811122722743, -0.2060076894732979, 0.239907892311564], [0.18256352714330776, 0.08221851643508665, -0.4149631185728593, 0.5801494642526762, 1.7297022616229827, -0.2357590426887563, -0.5114029751796003, 0.11153611934223734, 0.18328322727186347, 0.0892788578303221, 0.06806406246494186, 0.020842795562558736, 0.19588645186987141, 0.6247369371481101, -0.28273625540909675, 0.048519238069773506, -0.31552753848532417, -0.14347374837690827, 0.2643249836679038, 0.0816574051741377, -0.6821448635308144, 0.4892538437932858, -0.07276728142306442, 0.1321995231856636, 0.14696336568001522, 0.014639489310573552, -0.12236753467574059, -0.0026337932522994094], [-0.3030332697319778, 0.45443145022885945, -0.2137010042590712, -0.17851882820718237, -0.6500643027871357, -0.7259585790567364, -0.4468952511189082, 0.020208402371161754, -0.2591930375491196, 0.007060915672298215, 0.21470278122845654, -0.24309657137131968, 0.10600554791898019, 0.3958600501941003, -0.12075838217258127, 0.041075844618061706, 0.3851287963166799, 0.22674357010140272, -0.07035107026452056, 0.06277669249163739, -0.09335595173660322, 0.11710647368077279, 0.5273517690608844, -0.4107448046514137, -0.00824552890957961, 0.2678283591232952, -0.03546735086413501, 0.7056391786317526], [0.2912114925976196, -0.08545200474836617, 0.07120523234843328, -0.040716990624075695, 0.009582786924913354, 0.24650745593431048, -0.5042158325168107, -0.3239785397196889, 0.23640624517443956, -0.03245279001489458, 0.8349074795026807, -0.15637147702166637, 0.4011239723270908, 0.23446122353981264, 0.34533400032061323, 0.03352157524704902, 0.42868124668960056, -0.09978889375274225, -0.00744743648127401, -0.5951910659697504, -0.3167942488409361, 0.47933816929336215, -0.3082090631738171, -0.017381080047202988, -0.30670098257491907, 0.270408469201438, 0.07340165594986413, -0.05292322021183264], [0.11820567261363418, 0.3309585890402068, 0.20702437988089345, 0.03687679519798946, 0.12681016936692077, -0.25831867262685126, -0.29008810145214525, -0.00543052135796307, 0.19353279544537633, -0.12955254009376518, 0.5146295453526708, 0.022991483401144132, 0.006304560959959514, 0.07866228037901314, 0.49167285509827874, 0.15714173571761483, -0.12473302635607951, 0.4182297667359365, 0.3110769747849498, -0.44535958868827213, 0.36350736934648464, -0.10875508312700484, 0.05003932557874325, 0.018906422291792076, 0.5861566876660035, -0.020298473511376352, 0.06267789678780655, 0.21221236186207382], [0.16543411995234972, -0.21649831598221828, -0.40910435938843814, 0.28482888978777676, -0.17306266291733274, -0.2115742214210778, -0.5689035065882849, 0.4823981650892397, 0.05704805965441284, -0.14216619223664004, 0.03978927457951669, -0.04033592125349643, 0.0162951962480916, -0.12126046979768748, 0.29710812913951273, 0.0537245565337855, 0.13225641443253086, 0.2755407043293624, 0.5578903308327623, -0.3610860410530597, 0.0374539084214861, 0.16688918701150865, 0.035076085210124446, 0.14220230985596333, 0.4190991025603235, -0.06890245414399013, -0.2009074962190104, 0.02563028604999044], [-0.02417259518032369, 0.018224657901817338, -0.12048802639740422, 0.46478084862251445, -0.05473894191137407, 0.7576826381095714, 0.37884416176498975, -0.8833793903375777, 0.09466689966099225, -0.2052986921421111, 0.17876197469877633, 0.1746485737196744, 0.37550804466831367, 0.114592077176596, 0.08001335063162122, -0.4306688605779056, 0.028682738106351847, -0.04635122859330307, -0.12816868626313174, 0.4166682997346806, -0.2542103850000917, 0.23639010619739256, 0.2669632204288643, 0.1550393588157312, 0.16652904400779006, -0.058417639664169074, 0.07592623710643583, 0.18312243107648532], [0.7845665998802673, -0.08016039788251098, -0.7562947665314345, 0.6133716178311119, -0.14213387949771683, -0.28867476347060306, -0.2641028367390338, 0.35148548049739137, 0.2677464714144889, 0.3343538937290611, -0.34163199977809566, -0.5058649419522608, -0.3705531398110354, 0.23086097280830667, -0.022133192707024667, -0.1419539085868874, -0.26943542195140713, -0.20904169921754576, 0.33829066875580593, 0.03172249717563436, 0.20990267902565782, 0.6359705708797412, -0.1571264854035336, -0.285472361903206, -0.2867221813307544, -0.2593166973180918, -0.2770764917774731, -0.3615800147721204], [0.36399761626964944, 0.13461805047521963, -0.09918828656692764, 0.42872747394028293, -0.2341902310371812, 0.8340995806021556, -0.2813164943367942, -0.16595965184966502, 0.2198245613480474, 0.2996229594767338, -0.09633946810891642, 0.2809273735816096, -0.6038223628420882, 0.7474923404399647, -0.0386850573794576, 0.051054988183367525, -0.062318148358400556, 0.11496649509569619, 0.32395089781305203, -0.10754621596308413, 0.28467428507771025, 0.16317994267594643, 0.08509459059425022, -0.141100769623297, -0.08154389601981633, -0.21369117349426783, -0.08149112795166973, -0.07753249547168556], [-0.24418509135561967, -0.06477304022823138, 0.3080140399128888, -0.2641367200722922, -0.19258443119953214, -0.40219214147915305, -0.3294118297850775, -0.38932373225354344, -0.3825314193483125, -0.2498157162657868, -0.04171289906112561, 0.0331841921331263, 1.0511907798245201, -0.3835348271661964, -0.25953295325485704, -0.22721596025496285, 0.030784283281957737, -0.16464263763888254, -0.271701296777762, 0.16979568322487862, -0.3338615827384199, -0.11514555065844304, -0.18535931475554612, 0.08409575127547662, -0.11468165642767301, -0.10828811701928326, -0.14200462159024294, 0.8129783781417665], [-0.4926981547675796, 0.20681324216915098, 0.0013816975559841228, -0.24810888378617377, 0.4376440220165649, -0.3657490902703856, -0.7918185584391262, -0.7558790510772111, 0.26338823755447655, 0.3538709291028735, -0.0012974940980274854, 0.11780761115383277, -0.06622937401079383, 0.2052394511366022, 0.1859539137429924, 0.14084241274924286, 0.09756976324109408, 0.12219400364924103, 0.45420279839677413, -0.027969626184408403, 0.8282570095786786, 0.059701071820466634, 0.39904258574660895, 0.22133446118666258, 0.1061589506220408, 0.035441440778752276, 0.2368095543049155, -0.22439915513966616], [-0.24913825997697922, -0.09850018922756716, -0.42111475047879643, 0.4175106257303707, 0.32012086092502, 0.39579921439552346, 0.16397468001996127, 0.3709661318675119, -0.01062803885982486, 0.04757997140253706, -0.011627555158267024, 0.8439649808288028, 0.31372334086066633, 0.35937494584763674, -0.3161483487153085, 0.01106155914846302, -0.09188841328078212, 0.20966997909879295, 0.29433458997405015, -0.31458850585715165, 0.5779329137312132, 0.5713359285563512, -0.3262364587875291, 0.06187421660313965, 0.19063915526624062, -0.0047272152748125355, 0.11214092302255561, 0.051469786686166454], [0.4528566631767668, 0.03218324529906268, -0.649571830497681, 0.033077738677973784, -0.23896195789067115, 1.211201018149386, 0.6072326246543971, 0.4314993770511965, 0.35821520639890636, -0.118717150980146, 0.11175639078050137, -0.05523575652242672, 0.30685316870922436, -0.1186784736832057, 0.08525561682120969, 0.006961488438225557, -0.026337219395873985, -0.06784575526851312, 0.21178418663683815, -0.24415814730147886, 0.5266024803694762, 0.45417487978595095, 0.04891595248986429, 0.11985659102021905, -0.04362956370895309, -0.01430932119399084, -0.08553644902138363, -0.28721870346972955], [0.028864025017155587, 0.01695509335831011, 0.2806120064699211, -0.06255346041431824, -9.657232807645723e-05, -0.20938308006127088, -1.3121681223055108, -0.4195003168151947, -0.42864202968697296, 0.6436192071826663, -0.015031261622781901, -0.1897356780441757, 0.22383608672354607, -0.3117366746831034, -0.1260596243357377, -0.10033383928880152, 0.5252172945182558, -0.06032964399040991, -0.4944694769949314, -0.18233811220484125, 0.02977644748366782, -0.016208933776078883, 0.25981033384711344, -0.11531886940314297, 0.3387453569984864, -0.05811301854226623, 0.46425761908860325, 0.1521456348381562], [-0.3688503876667509, -0.15514911554374464, -0.37285470123622516, 0.6336287180693819, -0.3691942032792995, -0.013540705216007618, 0.28435806989349915, -0.12730270917282702, -0.2257791947874405, 0.1188926015144939, -0.20979451567449958, 0.24894107950384542, 0.07813623786091435, 0.6566721408457982, -0.2908175594149739, 0.33406030432235867, 0.09989078160392381, 0.3645707219732641, -0.06110681669906011, 0.07898064112644779, 0.23758904546842372, 0.1782920985916672, 0.2271486113336789, -0.2652670499324383, -0.08032690868565617, 0.0097608509548331, -0.056870202361303766, -0.12178932213913114], [0.36455351015478576, 0.17735691000060366, -0.1565052068216501, -0.012438551254969305, -0.18905638848785256, 0.08603300481491444, -0.15233583289495, 0.3878843756054865, 0.045749949043018545, -0.45116521692015765, 0.32370081822410113, -0.10273695617957353, 0.19568841882278185, -0.14578923672057764, 0.46892956395314805, -0.09707505075611476, 0.12406343999867026, 0.19941412903935507, 0.3467627842386519, 0.21398898434800084, -0.24478590399045008, -0.07134319724882666, 0.35341132607208325, 0.1367286397397419, 0.37341943166118613, 0.19626715115852494, 0.2753548843512778, -0.022154820089169695], [-0.12863511928667584, 0.12455806357007404, -1.6007125627017127, -0.3503708361203969, 0.009243165186343957, 0.46546770483030936, -0.06357388099210035, 0.0363462257711336, -0.0012299929835935385, -0.6165723665478002, 0.6689543302738238, -0.09710128318674419, -0.0043235676716466874, 0.028736692482067023, -0.09847927372999785, 0.07443404089979662, -0.05988492528098666, 0.2258672647150296, 0.23341290130901549, 0.20139024429544164, -0.29750100750800035, -0.39165588716723626, 0.30640830730817087, 0.6868624913303347, 0.07459951104725294, 0.1877936727574086, -0.08125908197016798, -0.023144854737085236], [-0.5345410564422809, 0.07196862249477172, -0.3666216289039435, 0.574774188359986, -0.3142344784019918, 1.3006176712233268, -0.40898980099484633, 0.10524117012090785, 0.01982688110936041, 0.46377174798009513, -0.03914712086785305, 0.28464551392838344, 0.3226693944026558, -0.21825801672114795, -0.17438835874727443, -0.06283254172996315, 0.2053446849808194, -0.06985650521624133, 0.36653222740957314, 0.022681073482439126, 0.209707928680908, 0.27525750296525425, 0.13279401010312747, -0.0670449442644396, -0.10093615480394044, 0.10313499299400726, 0.16445280897777934, -0.057449501350117976], [0.6556132145476941, -0.07228457987593871, 0.6815021392161964, 0.4360924874457694, -0.26786335306399445, 0.6650139276645617, 0.15071032289658037, -0.7622326969246497, 0.19767617484328712, -0.11933393340587482, -0.12622754768845743, -0.24857185721881953, -0.16082233667635995, -0.26233902375314627, 0.6958940195551276, -0.10255688839754823, -0.23436558974945834, 0.5203298888873222, 0.4847607184478695, 0.28993122541366184, 0.7562865181680739, 0.40443009182738554, -0.19596163149885784, -0.019254983885675578, 0.10157915863652796, 0.22023622629693182, -0.24268308559221452, 0.22121035778382916], [0.4190882963807588, 0.22717159410749133, 0.11250039146335895, 0.3517697996353995, 0.8207998754531622, 0.9996205094791055, -0.15503757566758686, -0.0651883183085722, 0.053358230753664006, 0.12210629161070136, 0.35069663697356507, -0.4004485492319981, -0.054074170036170384, 0.09533707302785058, 0.04172995844145995, 0.577830106978737, -0.04853244140624818, 0.031185878192564385, 0.0487246305443162, 0.1814665690449077, 0.1750463762184058, 0.3304390473978837, -0.10422515962190032, -0.1815906708923382, 0.05975382342313531, -0.07282516713477999, -0.04468248160010615, 0.09456044100444676], [-0.11757277896349375, -0.21841671291745182, -0.6272125426092982, -0.14748675257285382, -0.20453118722376903, -0.2619006699774646, 0.27931001648231707, -0.4067916314726796, -0.5621429232140162, 0.5422637335903266, 0.8124213075866566, 0.2638845505570556, 0.03516672220334431, -0.2031985638754672, -0.12384458711104054, 0.2062802974301616, -0.1396861244131073, 0.48873055780344704, 0.3400809575414092, 0.18203328605483865, 0.04470347107105044, -0.13034859530545567, 0.07867081933947423, -0.18051809970909657, 0.23503678329789937, 0.06040013597848495, 0.130044274638211, 0.8594640337698508], [-0.03808761517496871, 0.5342721532405071, -0.06293393215853171, -0.07909292943460008, 0.005611298068996006, -0.3107288315008974, 0.03164597343673895, -0.1257341383742044, 0.16883854402825846, -0.08534539893828633, 0.6956432305241304, -0.09985676917708657, 0.039558194291650015, 0.6014089484642061, -0.12539405292659064, -0.12586552987970287, 0.011397708828224272, 0.0794067308389825, -0.05935695246605625, 0.6628090420816778, 0.7494867588976524, 0.20921979086519174, -0.025539886692477805, -0.11790250495343628, 0.3523854536478198, 0.1234485977190972, -0.026914334806897106, -0.038668952341266175], [-0.07637175194670975, 0.15029811397647214, -1.2040555695904616, -0.11353788895751238, -0.0004041770338350991, 0.5993033845118428, 0.31633712988290763, 0.542984118816704, 0.4758052597355531, -1.1085246309355423, 0.6239530029100265, -0.31216066384334057, 0.33058321153720377, -0.128367838710948, 0.03464055106310692, 0.02394482663026623, 0.13727790772812476, -0.04898889507939743, 0.3471914504460699, -0.20701162587701225, -0.27309477938894905, -0.16602300448294677, 0.12907476794478936, 0.992282141824955, 0.025336445655734223, -0.1398043057978568, -0.12801083119542894, -0.012656588715565553], [0.03593823759203882, -0.1614724549768299, -0.02386655513522592, -0.012171213128761836, -0.09469855416193633, 0.21366503419623734, -0.08703745070359964, 0.3487024917322099, 0.3294069274971978, 0.06660755227625065, -0.3222393972989069, 0.5848770338584627, 0.5926000432292865, -0.10693602697102224, -0.2737929484054176, -0.2170974577950533, -0.023082151890489202, -0.2517688463676267, 0.37145678779146135, -0.006587446710135973, 0.6129843973685233, 0.16186496488824956, -0.11363602550546793, -0.16457463361639638, 0.10788139861461732, -0.04010405415374991, -0.14167235882934873, -0.43602604257290345], [0.010314883268404476, -0.04036033063549224, 0.1184730751932602, -0.1509044199927122, 0.5745099176553253, -0.2244992339288551, 0.019096946164233738, -0.03632481856804973, -0.5445643323331457, 0.2657015296397292, -0.11610583457685605, 0.03825910094564115, 0.005081226761634905, -0.2362701209995994, 0.17888645793408728, 0.3848302535916311, 0.5002999058291085, -0.17552441643425334, -0.034942262515498354, 0.022303990653008747, 0.024868274199811233, 0.13074571577344302, 0.09745204557008114, 0.17044171850981302, 0.014569502901140475, -0.18713873934114855, 0.247867091874663, -0.1865708723203681], [-0.18578357555241595, 0.04682902887845564, -0.03787982504944584, 0.1497363622523404, 0.05780126994319356, 0.17196773381766403, 0.20623946841968682, -0.08278306124311192, -0.0064014830965820006, -0.06300699196133176, 0.04200504040622157, 0.31373800473382857, 0.22900135685675382, 0.11841134823945587, -0.0862337040777011, 0.383142611664532, 0.08915486452322977, -0.00575133832832789, 0.17401759866361904, 2.4966392090203695, 0.28528969896645257, -0.2195658827464485, 0.2666816713060523, -0.037304329947779505, 0.21548989045055528, 0.3590686542335768, 0.013776439521051708, 0.16950447588648776], [-0.2651923761508633, 0.03529994037126128, -0.22977316454493393, 0.09754975908067957, 0.06708280644906449, 0.18655694229402833, -0.02596259714551679, -0.6365589448032728, -0.3151817852953032, 0.3689311410246588, 0.7199460254753673, -0.11749029720756629, 0.14020287005207194, -0.036844514434916355, -0.1456975280028522, -0.009195610726565821, 0.03555564682929422, 0.9960030492251704, 0.3507086948360368, -0.17105976364935882, -0.15644024006687543, 0.07999897239528839, 0.12599262477972725, 0.09513088356837769, -0.015558058982127712, -0.02162208835018128, -0.25595396576129437, 0.5584585770416505], [-0.1827191594044137, 0.012243119561362889, -0.13180663528366937, -0.23950041486846918, -0.3803366961127707, 0.03471631432672961, -0.3410453537970493, 0.14877521322911483, 0.0312574137701547, 0.02052804246931824, 0.1331780086419482, -0.16163677961974196, 0.15307882248628418, -0.09494747348301256, 0.4128858383629109, 0.16646632052277668, -0.06234675134021037, -0.16621871966483825, 0.06290461570680234, -0.2808151747429424, 0.0654198485751724, -0.08815816879920098, 0.03249041723233789, -0.44224638687064827, 0.05346117052237721, 0.08963257049014581, 0.14471930977742956, -0.055912296886684545], [-0.2225240814227832, 0.29465395788045196, 0.0721090085868352, -0.26443094838073355, 0.5084654593119085, 0.455396006516695, -0.044951835209441286, -0.061558747848381286, -0.15593721598702687, -0.167317034646279, -0.18729564546538818, 0.08923383022727317, -0.27799163805967986, -0.1995585747645841, -0.10340918095299043, -0.3779966038374872, 0.04639978979321215, 0.7868306441563877, -0.38928942915360604, -0.09578891862931199, 0.8202529439693288, -0.07763325966639052, 0.1171745986841359, -0.20267209072134026, 0.1497677379038861, -0.12816216078248552, -0.023713244342261377, 0.15456465939272013], [-0.25457345276429927, -0.08965224552324041, 0.23258071602589034, -0.22096827000000668, -0.10396336721164885, 0.07604192556831008, 0.23397690426164394, -0.10241008925542215, 0.010054069087193373, -0.6373161655695928, -0.001918146152259156, -0.11404858080275089, 0.25841103334857807, -0.46576587585754536, -0.38629789174486734, 0.2548163008434761, 1.0462263191458672, -0.04504615843411363, -0.1556057534105353, -0.11674212383431211, -0.3316288662028532, -0.17502230332304666, 0.009995458439765197, 0.5503867954908777, 0.015204142871977248, 0.33748457123285386, 0.01643239516462391, 0.0622885864877198], [-0.13598867599829, 0.2543446182116779, -0.040751128698961345, -0.03265250034545256, -0.15509700065198323, -0.23243436054782407, 0.15739042618475593, -0.04106065115065249, -0.019660286328137544, 0.04957911264722653, 0.24614138831339225, 0.16987960258342596, -0.2355145419927269, 0.230955728888956, -0.19311574399231565, -0.0756090005278831, 0.12641964608773418, 0.14874267199858907, -0.5331737805085339, 1.7709604234234653, -0.14566082752971427, 0.2372614224293609, 0.29944394308609146, -0.004745953807095975, -0.14371432332613185, -0.08130738261593452, -0.06565105502676855, -0.059899241027918035], [0.08535122916735363, 0.8174103077441525, 0.17856931146419897, -0.25988609375523664, -0.6923624956008392, -0.2669481272975681, 0.22601041934083704, -0.4154962657077451, 0.08737417554631541, 0.15624741199256864, -0.10711264317498081, 0.03811744405975306, -0.07372539839281687, 0.5745588251517264, -0.17601693223932358, -0.07759391392097152, 0.030832708635464348, -0.10043205211361134, 0.2915245685277507, -0.1714706407588098, 0.23150169965984183, -0.32476604525365743, 0.8309741244964974, -0.016359051646795006, -0.05512086608564546, 0.024542580466403584, 0.11478999552080185, -0.19802144734785068], [-0.018429012989405674, -0.06412103263949394, -0.3804890124644869, -0.1003250030999227, -0.19868809696058284, -0.4812354854078322, 0.08217779622927099, -0.4044808576473087, -0.0873052072788367, 0.13308416324570382, 0.6785971344464887, 0.04611456454368734, -0.5237801728385798, -0.045583208177037385, -0.05775096351379845, 0.12287732388791199, -0.28418147882991784, 1.6371647834831902, 0.1756674762271884, 0.025601305281115663, 0.4358199621882933, -0.07199797818354943, -0.21734718563618183, -0.13473319408190032, -0.15534406474738727, -0.29070994123073424, -0.08221179999456202, 0.508655723206333], [-0.130644407823272, 0.4336288234625762, 0.15004556178306144, 0.1161688137122844, -0.4516687613384372, -0.3965914175966464, -0.21640610669106358, -0.1517931231292561, 0.3037328374115429, 0.2809474604151539, -0.1368324536171039, -0.3549865436657175, 0.02625751658731715, 0.5004409721271362, -0.01074028005137624, 0.12956678467305938, -0.390675203579391, -0.027680540516054206, 0.17417356562174727, 0.2137182101246221, 0.5774203235546854, 0.1360109660775305, 0.335298023196935, 0.40103791407215716, -0.07926111531724066, -0.0898360400453417, 0.1743833308631049, -0.1854109548734644], [-0.19988780350852983, 0.02242357453675692, -0.12909072927072265, -0.3729261179379114, -0.25972399440481253, 0.1076352033887231, 0.2130987550212261, 0.4767149442999272, 0.05902434643893095, 0.1796395083427827, 0.6451258164436389, -0.16355647967073306, -0.022623445984240948, 0.21981884791539766, 0.182877496566323, -0.15433348227744148, 0.15989646302764957, 0.04694507197673336, 0.2591703124757505, 0.06118005018611252, -0.18533024277954124, -0.0787426662214667, 0.10456641332090783, 0.6158399448261913, -0.11703167766492562, -0.2249995982713116, 0.6835581165250995, 0.07344599658945643], [0.05332614761491828, 0.32119653135993453, -0.05158222074812303, -0.4113227018891416, 0.28398412810295176, -0.13871173452814184, -0.6244732321736651, -0.05925381293841781, 0.06308330792924981, -0.14994037332252133, -0.07489577337839513, 0.13149110729037342, -0.24362027539410205, 0.628420903063605, 0.21570232330518074, 0.35746885266689643, 0.12599174299348545, 0.09832264561821262, -0.06755703596385394, -0.1506587139803554, 0.3246100497702132, 0.14196473237119983, 0.16187025899210156, -0.10898345702884993, 0.024656160286423458, 0.3953958127928097, 0.14697397062812037, -0.09676280943055693], [-0.37962675781577737, 0.0709958865911316, 0.16314901412089236, -0.19178022585994642, 0.07704409806782374, 0.6531765745260354, 0.957826227030586, 0.1816169128641401, 0.1867018918719107, 0.14318705520452052, 0.2898537037275586, 0.058600607694576444, -0.06590705568907719, 0.1192611308003381, 0.2965446122069319, 0.1889115288686021, -0.006871350717772259, 0.12983160399117105, 0.6183008205867343, -0.07727432795516025, -0.37491353654246684, 0.05948628221083959, 0.3781951926061867, -0.46142985373411655, 0.04474657263936599, 0.9364259316341543, 0.0776923200486404, 0.01515997160652496], [0.3544903350013398, 0.40112092759490325, 0.06816402073139637, 0.05577897446977181, 0.00528217141758305, 0.13952633906416645, -0.13519859798220885, 0.22587251344045337, -0.20175308556714464, -0.19477513697602766, 0.37820959574320373, 0.9056354607191154, 0.34353661153667053, -0.07496443577204888, 0.09924682410115294, 0.27802854399595756, 0.07396495440137014, 0.21219428834592335, 0.05720252210718363, 0.10041844242830684, 0.4007493609597073, -0.023061944417479014, 0.04066976149298788, -0.27164221963291585, 0.21484778550474878, -0.006047246925945064, -0.04965462456751432, 0.10993379814901146], [0.2338654270437199, 0.1543818663468255, 0.17473817545818993, 0.3376937205992827, -0.9168865314653944, -0.36894570538197985, -0.17982897793080893, -0.29652770398924105, 0.01491935457435418, 0.023430079154397907, 0.20620867279506183, -0.1211830142896686, -0.33078122624526174, 0.401059417225816, 0.0816197143854348, 0.27215873852947303, 0.3754713192330676, 0.09782318695687411, 0.3339526729860696, -0.10904852346462394, -0.7679814486388475, 0.32026729278430505, 0.13545499322411905, -0.03308689714930833, 0.19489131413861754, 0.06885568833879827, 0.27305617925475145, -0.006248159828249547], [0.5352204760662844, 0.10996879475072793, -0.5459432496484505, 0.4213404883784184, 0.07310621596356291, -0.0863225618304465, -0.4037087379129509, 0.38093219783501914, 0.09803037276006057, 0.4997582662152024, -0.24739192792067266, -0.4770795493925069, -0.3452943371798339, -0.08406785604592083, 0.7544235824657082, -0.14439994269864054, 0.12023801986218317, 0.08032075710118143, -0.016607546977340164, -0.23180946427370652, 0.3794684541902035, 0.5385610948307619, -0.43996505287498117, -0.042097633932560996, 0.03149967245065458, -0.03502616698900482, 0.0038331133198154983, -0.13168706843753092], [-0.23790422975764433, 0.6791138690606677, 0.2129400192274568, -0.31389089892913813, 0.3122303719404665, 0.6628166301717673, 0.10113428803604423, -0.23339978640882428, 0.2966202960926542, 0.11977021738041721, 0.08204562377875228, -0.015611444285906407, 0.02402735497727784, 0.47928422963539663, -0.26582118960956946, 0.0591237770543377, -0.11977166386208207, -0.23779788114665246, 0.024424315546930062, -0.38647857730218776, 0.9962702158063681, -0.290403606010717, 0.693406781682943, -0.04228482197764066, -0.27471739299194003, -0.014042725531404135, -0.25999311489980453, 0.08267426870760024], [0.053466403749158446, -0.004668417509828985, 0.15001173227955988, -0.20007482510812888, -0.23313259783757231, 0.4380090116674381, -1.8005453328290866, 0.2063714010597416, -0.07293501774443976, 0.2290350765045426, -0.3098410745699748, 0.3340319983214273, 0.45617704287061944, -0.1009844701098952, -0.3334149736215033, 0.20614160599648573, -0.2775451688104125, 0.2050300344821939, -0.287253443152743, 0.41365331666962, 0.1455129021997804, 0.01590520320279441, -0.10412076365938765, -0.2008769646337048, 0.3537642670419743, 0.3338712248598932, -0.19684692953914756, 0.4197120451092668], [-0.43528065796238125, 0.023569169593781643, 0.025702765646218702, -0.3177975838727512, -0.003517338644310511, 0.6245054272500201, -0.01146229360947281, 0.1741159163577211, 0.10815750822918863, -0.0033577988494436026, -0.005259952495971749, -0.21121805828060877, -0.12304479931005835, 0.05568131878674717, 0.6938043790082276, 0.026622402089193992, 0.014093752974469204, -0.022759036150320332, -0.5463465651699979, 0.2496993368969284, -0.16366939120706234, -0.2728851608905178, -0.11334567197541834, -0.04333778039053834, 0.06461691446628999, 1.2548058077668984, -0.13801707997868978, -0.04052391943490578], [-0.3461609664434272, -0.07381133597477235, 0.4845638865240607, 0.0638088382225143, -0.7772548745931376, -0.22968625801020393, 0.48598128296794324, 0.2668103411853815, 0.022962310484239825, 0.145063386912989, 0.1465617056485334, 0.12570751371735917, -0.03854254142937036, 0.2640870838421968, -0.2111368860887213, 0.09582507929298782, 0.3462303459488027, 0.3473345993363369, -0.13256603586339402, 0.024621100440836718, -0.10044326771827615, -0.28935555839850413, 0.36962852249870576, 0.1555232815711601, -0.18202190788227876, 0.22534526834190424, 0.5208189824698584, -0.26139554721571967], [-0.2755965326607835, -0.010864366090778423, -0.16009893509038123, 0.4854195270069955, 0.36247160989601906, -0.474323845988917, 0.1539928293615453, -0.3032340519927444, -0.03828858927115094, -0.011171117469975182, 0.053822111190827, -0.005420257941137679, -0.1098641477462149, 0.12009853643504101, 0.38670072704565145, 0.3895305304117182, 0.2510189694363911, 0.20053577493664915, -0.18144726184175688, -0.33767651925148656, 0.6756972855363435, 0.2235706967169952, -0.1774824276980032, 0.10737885149061452, 0.019156066791052657, -0.007394750590472361, -0.02713807568271228, -0.04867689680124099], [-0.1920608319999173, -0.162444629463424, 0.19285670336296598, -0.17561149096656087, -0.8554809298042606, -0.18489984644512236, -0.5440192038128377, -0.8907761418398039, 0.10898825927363644, 0.07971239038962637, -0.13457199924281354, 0.07148611709691764, -0.3056802954513451, 0.0036935992232336842, 0.2870196970676052, 0.16536364779933382, 0.5190773000620035, -0.29451662597443923, 0.00425677569857373, -0.1258508460313481, 0.4198224177924503, -0.14126022811922112, -0.24321076833995894, 0.3581342582849378, -0.029205074231860587, 0.09794413646243619, 0.2191063036130194, 0.040292978819986044], [-0.2684080005173013, 0.3337417479522681, 0.12791862422030506, -0.2075463562334575, 1.5107521802966397, 0.027085510315246836, -0.1359039518254792, 0.23459920653057356, 0.03262576318678192, 0.28915567502266054, -0.2858314023917025, -0.10455943549010094, -0.10319498914352951, 0.2285753624045978, -0.009029069334615442, -0.01546194709753112, -0.09213246972716582, 0.21430389400187885, 0.25685658781950227, -0.23752639247644466, -0.2555669229877783, 0.04935758761817872, 0.1719494616684526, -0.10935410412077712, -0.040215272952516964, -0.05215881262062223, 0.19039966660940053, -0.10125779176378395], [-0.26217402529951905, 0.06179814812223642, 0.4474637294152902, -0.3187108547062184, 0.13697994312709927, -0.09533107707249718, 0.05062613618512799, -0.2337218445439478, -0.5672988826497435, -0.40609127665428363, -0.9926446451035552, 0.01670643094872032, -0.14240288843667845, -0.21298641318587294, -0.5533457544633152, 0.1108899993552888, 0.772516259500639, 0.18296080691679914, -0.2549693833616632, -0.26349426134332565, -0.2093297213202493, -0.2937645850523482, 0.16267401665610637, -0.1977454392336561, -0.03334348990482297, -0.07764268505373868, 0.2887269200364809, 0.2035295527825186], [0.6930778550320928, -0.21801936781266407, 0.7041318320864869, 0.16555086757507181, 0.376297260386977, -0.1020715004734972, 0.3815463880798122, -0.7310461169431263, 0.021194583744891533, 0.3206011739653096, -0.25792045869687563, -0.15428599740486695, -0.11455965944811171, -0.11141797114695878, 0.1299268430627514, -0.18725239145683414, 0.2436885760005602, -0.2728735787560665, 0.10720793138968528, -0.26555558340518054, 0.2079297280539468, 0.16604209985766968, 0.040751552927664365, -0.14224687030871574, -0.1235061628188092, -0.07447701263847796, 0.18392685708236584, -0.26240361872619034], [-0.21262383643180832, -0.10200152928435367, 0.20549576089066765, -0.3170053061172506, -0.2115348464457466, 0.29473755942638413, -0.14272823879915902, -0.2436634640877978, -0.23617712833933588, -0.02189847707192605, -0.032737789851073625, 0.032974721458209275, -0.14931892336469083, 0.04082102994142798, -0.1300789731178741, 0.29604291013602935, -0.010140233172146839, 1.6620652486305014, -0.2652382674983473, 0.005567786954585555, 1.3659108742519057, -0.18835317364255222, 0.2607045129994607, 0.232811605664979, 0.04818587456966206, 0.13249145528688483, 0.10939437337302473, 0.11957776247708321], [-0.49925203037838145, -0.17819615363892866, -0.08780116185345369, 0.201913217503236, 0.04794950175392325, -0.08787625142780531, 0.28631989695760374, 0.24078063908489394, 0.2438591530564884, 0.3359829209532162, 1.402469284788665, 0.312611370769705, 0.4278583689964536, -0.18013069406873075, -0.47001460231932074, 0.08824896395500018, 0.06060193104636723, 0.0910589934477106, 0.1019995408341021, -0.034899141888926274, 0.08022988073354745, 0.10726886562494428, 0.1591651355681421, 0.6378373108578267, 0.1680138897630246, 0.3943855522684488, -0.05969764484300482, -0.11520096350793213], [1.2355366154128833, 0.18089332377523828, 0.27343520866137827, -0.10933955630431225, 0.232812955042557, -0.30084112695732484, -0.612201554641083, -0.05777116175518307, -0.3365369747968403, 0.024501842422305044, 0.176501660108061, -0.32458613647051715, -0.37599018494085246, -0.08448983960550122, -0.029201718195445685, 0.12868204374139156, 0.3125985046831133, -0.09080847298772068, -0.6431904538010815, -0.25757206264596433, 0.4090336701308165, 0.07926873012471619, 0.02472955204908585, -0.133583558328198, 0.038764109854206245, 0.25845734717242214, 0.4140796623882591, 0.2215615767754089], [-0.14895427905815362, -0.05434421832467748, 0.01531232878794203, 0.13485918623406132, 0.3238945666578186, -0.36508031908990657, 0.3549657707809777, -0.909667502603122, 0.035899995709950526, 0.24586103810642665, -0.023518321968815085, 0.5705279344405028, -0.3154223371116054, 0.33421344340578557, 0.2262908713087399, 0.003886350347271334, 0.08845881810222085, 0.043854324968610955, 0.11617338091181825, -0.15269918849209957, 0.44686195126533546, 0.4747432367948715, 0.07731176405169032, 0.34880574222629346, 0.1820331665261998, 0.2262032359773435, -0.039728755239101764, -0.08215230884734542], [0.40361214042456156, 0.17554539753493076, -0.1027480726085503, 0.3694025070212005, -0.34228956175063985, 0.6905753628400947, -1.3762636849298937, -0.01831516424494942, -0.0433362097611033, 0.17415215561443748, 0.023026244344832605, 0.4260534969548332, -0.0022618489057777583, -0.4811963056788211, 0.5309645914352198, 0.04707147457375384, -0.30254602979194434, 0.199145109623224, -0.14035712738568615, 0.04353491347508985, -0.5806567609310864, 0.3621873935102892, 0.17546414283778, 0.3620986109972831, 0.1232121607861887, 0.045577121387364014, 0.13777989944073418, 0.07568092740456742], [0.2911036989011832, 0.06438425326127122, 0.11280866333763978, 0.3441810484364042, -0.4618080700420621, 0.17501336875508858, 0.14264414186276986, -0.4557798693650545, -0.2688282237656912, -0.14821486384882085, 0.18423464989432045, -0.14088813266029804, 0.3691976949787528, 0.0924074562849634, -0.3550414144412529, -0.06978848282985566, -0.21987392402406564, 0.3155519075591603, -0.34693242677226194, 0.23473860191455695, 0.32466342470561277, 0.11541457479484714, -0.11149355184584236, -0.01098577574197763, -0.06325082083247263, -0.06799290577047434, 0.08540233377610175, 0.17121790841798662], [0.03560393481520738, 0.18560678675084324, -0.16889496891535485, -0.001601577712707005, -0.10117240251849552, -0.056474175948658376, -0.10013445385241612, 0.32791580117855235, 0.10619886240236755, -0.22689910466775234, -0.35314340449630455, -0.2762197041993019, 0.4161328144169102, -0.06454001950023407, -0.2349310161690839, -0.0963344710002999, -0.1764762245336684, -0.07698291167554988, -0.05008848151106456, -0.0924981548261618, 0.32925753051844864, -0.15990320032406333, 0.08163461632865852, 1.3521586361659155, -0.02532055545784964, 0.18319316944868588, 0.22064843721835084, 0.22777361758800546], [-0.01728393710387776, 0.4674733284535448, 0.2822506932749613, -0.09908228735975229, 0.31627290397301727, -0.8044615923259866, -0.0979784654839729, -0.2725432960605492, -0.03223013414579235, -0.154878708748709, -0.45128257497411084, -0.05461290098619527, 0.21478871107057115, 0.3295612936956363, -0.2765961990702509, 0.19950465764976122, -0.26561999962227273, 0.2039971875815928, -0.01886089887094753, 0.34661774721355054, 0.40549841231794476, -0.3179846220361969, 0.20430043124761876, -0.1311983802111801, 0.005684414916228099, -0.07573437329782295, -0.36550793466953246, 0.024483912689358237], [-0.2726782829286135, 0.34215890295449447, 0.048975384105333405, -0.29948818113615666, 0.013294317679620665, 0.4935885307578596, 0.19166422457877375, -0.0862514141031555, -0.5259475928377809, -0.8708410773546487, -0.02077483812915268, -0.3264530170022596, 0.02043218031283852, -0.0804921349558032, -0.12553139921139822, 0.9155653955123693, -0.4994230080008516, 0.7174169402392949, -0.6448636618478394, -0.06829545684565456, 0.20430918596203435, -0.31931844913630775, 0.05112028926107119, -0.0030212425931186574, -0.17251473242451879, -0.043815024244829824, 0.16780408422404006, 0.6650864829000468], [-1.0071521580261167, 0.09800308773399773, -0.6909228169414174, 0.566605319835103, -0.12381146514975641, -0.14085519402027602, 0.1568347774598584, 0.024332429545166283, 0.21920760140570633, -0.28377304026493283, -0.07227537932847257, 0.4794525562266128, 0.21363590415691397, -0.3746635589390603, 0.4548245549899062, 0.03628971107882643, -0.03213957491612657, 0.05336584866428175, 0.44101159883741775, 0.4652926222310516, 0.8587602752006305, 0.21394209499012942, 0.00342196845248406, 0.14966161739978992, -0.08979989661431373, 0.10630631941676222, 0.134499011242713, 0.04588231980132285], [-0.5223336989579912, -0.0468620065742129, 0.12252322498302183, -0.11924976195297914, 0.43742238580955256, -0.2014919667178745, -0.061936625345205214, -0.3953441354153607, -0.47662599244906173, -0.03834073944346015, 0.11403360255354987, -0.07611916490030679, -0.3627032577697485, -0.27526179373951426, -0.38441995421222064, -0.1157440063198798, 1.2078273289572006, 0.05791316037026997, -0.46283709844374205, -0.08364848626222478, -0.23725763714185838, -0.1191653396515255, -0.3869546157355888, -0.020040138489583758, 0.07513502701781041, 0.08657413387575129, 0.6874590775826269, -0.378004632913136], [0.10289432056425334, -0.06359075695728791, 0.2794459234100858, -0.24977765581447342, 0.7175835708377503, -0.113011104934619, -0.17943607505271722, 0.04755841997870832, 0.07789950523640779, -0.15811517473526301, 0.956338961892708, 0.06288639845522778, 0.19540867614813032, -0.10682085518302536, -0.0956192870940387, -0.05162546676799171, 0.27875956889936077, 0.216387053299456, 0.13551374983307596, 1.0025786153646317, 0.9258492315254492, -0.2910740145302777, -0.03293557458165444, -0.1409221622312275, -0.006493560230003923, 0.3049768627516373, 0.1485264920647214, 0.07966058803970612], [0.17984438191751706, 0.20377326607102564, -0.18352319229752317, 0.2715672973888005, 0.018881495338095095, -0.5680403637453897, -0.6053259326174054, -0.27109345427490755, 0.24406385300733144, 0.2503211346727859, -0.019948384021684924, 0.10395595005227191, -0.13710468975910461, -0.4023338037257497, 0.6403714683820171, 0.015130301150895411, -0.06143560020708311, 0.0558779338955317, 0.009213337781676026, 1.1829780153141842, -0.6736823349254267, 0.3168973210811721, 0.13146120259348335, 0.08286310538964198, -0.07215906744087186, -0.04090049420442121, -0.10185975569067708, -0.03414011960445965], [-0.1170071783202479, -0.18113015046774728, 0.05666136623950836, -0.2700877989783875, 0.2804366207183968, -0.01471145556297129, -0.028733744960882726, -0.46631630827942316, -0.7800346094943381, 0.023042518665396614, 0.08708964075570705, -0.06383642860275449, 0.03129187779261821, -0.15894713123904172, 0.5582955802530893, 0.08622286710158662, -0.312893177835279, -0.23003121933623483, -0.6066651515532133, -0.07210148275538299, -0.16077210217874893, -0.3200762899301104, -0.33509066140011223, -0.08693658033303052, 0.0717405401717038, -0.06589559299290645, 0.2967862613873349, 0.6318716322668113], [0.06448878589770725, -0.07468265107392467, 0.2819841800265291, 0.2100996952261649, -0.21263952208369738, 0.7341051424320392, 0.26459438568226623, -0.6979429359927906, -0.05889558926516556, -0.2439964690714638, 0.04608097800721387, 0.27101990329506154, -0.2815120015668843, -0.17204980147569632, 0.11255935262587896, 1.3414371499044944, -0.23760512035301634, -0.12053453980654348, 0.05579537238106266, 0.07455505343946509, -0.0022117725273380455, 0.2302231606229123, 0.0718283614308596, -0.023892957754854872, 0.211654338196911, 0.1332224829474516, 0.105192392590075, 0.17931706199150774], [-0.33904948273004076, -0.14213500957176237, 0.16768757140125112, -0.2254032891995452, -0.07146794938447304, 0.06959506275743405, 0.5723335937293048, -0.08775327053016514, -0.4709802079896086, -0.8566295443269555, 0.11160713169752795, 0.05991495335193158, 0.10038776099322708, -0.28676001563923514, 0.046845147836322244, -0.11615578548533627, -0.2525700133588983, -0.3095797597691403, -0.3670986299182004, -0.1481857561637648, -0.03498553978054997, 0.05799997920963609, -0.21317596345622625, -0.36273068165122424, -0.058490275151534134, -0.16781070663531175, -0.12074829215775927, 0.7200565732955293], [0.3008626072959624, 0.12913260748457572, 0.13582576004807353, -0.06117865586782517, 0.02062673465816137, -0.22425003605020777, 0.13348185476499463, -0.3306809946859584, -0.4537111364470752, -0.5215768069250905, -0.3026499622663006, 0.28094119935705153, -0.014669770977626652, 0.07917447795272779, 0.25241125571665746, 0.9146200387726373, -0.13043457949750292, -0.09437639567878305, -0.29353246333971955, 0.20590493791187503, -0.46287279759820316, -0.23123060818109478, -0.051211211439233004, -0.12850554818229085, 0.20432965243872667, 0.0587934934270047, -0.3364335809432093, 0.10904226348054064], [0.1120311787168438, -0.27814133583906925, -0.6231591434314303, 0.4190759214141829, -0.1828533736725078, -0.36930557494844823, -0.16567724379240564, -0.0016305903502599154, 0.03650193590766532, -0.01911135339994664, -0.07239976744095322, -0.47809385063338344, -0.3486863190631075, 0.7520907298057407, -0.3554334762798154, 0.11998542746792346, 0.2221413558942057, -0.026335944607944736, -0.7792816778464526, 0.2289497191009697, 0.3027053286790562, 0.4661847096072911, -0.2514793424769006, 0.09362897827359555, 0.08199520962610185, -0.07736143864379501, 0.09785803448810136, 0.021322522251014994], [-0.22100485947274318, -0.1635181895736036, 0.22144073341822845, 0.04985485503376716, -0.21728072086416614, -0.054773306646873236, -0.18661136793483427, -0.20861485634542007, -0.41870019778174267, 0.38599698253322445, 0.040498939970234835, -0.30324472327677965, 0.8809439891988069, -0.13322572226003723, -0.04214026422670572, -0.0037196766259030936, -0.27390863851197084, -0.11954305599459887, -0.47624345863762235, -0.022273745067659414, -0.16210760310983155, -0.15458845733317575, -0.10789893466477257, 0.013481930338664733, -0.07872255149161907, 0.21131078235890197, -0.13747133946449716, 0.6859116688582548], [-0.12243321993366472, -0.18668549497595668, -0.6759457975338106, 0.09639685848095243, -0.5501316003629445, -0.6351679048727497, 0.2820243843966906, 0.05139115193641309, -0.699741901717172, -0.15033812307794672, 0.04645599972198677, -0.21195592031490926, -0.026240256833316794, -0.12688429601280743, -0.37221708819011995, 0.041130999311778146, -0.070968897621469, 1.6008230171214421, 0.3143884781320998, 0.007376240793763937, 0.11397716758321651, -0.0776592386570684, 0.06249435242210054, 0.009035529893333255, 0.2521619825739171, 0.07356491624470414, 0.05828018265056654, 0.790313238296432], [-0.04080712095036246, -0.3416610093883867, 0.09710967515111599, -0.1183682213767034, -0.14392365895318548, 0.4650577785295862, -0.030364461298598964, -0.16634680447192932, -0.28173264563428563, -0.609860313355186, 0.11265375284887041, 0.04031113460352861, 0.06831281611245449, 0.30534451548936703, -0.20240931140558094, -0.4949568626552104, 0.014421855800104126, 0.5109559319002503, -0.18270715429626588, 0.36912607217234394, 0.8668341930299587, -0.26625018881428075, -0.050864915314251205, 0.3233172418479106, 0.03630214001178279, 0.17301255361572504, 0.1285305181251785, 0.08577149771442855], [-0.07953082529999174, 0.12237365956991253, 0.2593119346913442, -0.08914252417645037, -0.2818893882671831, 0.43929566440868584, -0.7342207303204638, 0.015435306867722584, 0.07313189309886955, -0.006170058882317232, 0.27362074255957664, -0.004296127138781619, 0.03942891639421663, -0.03802529855806174, 0.5067671240103035, 0.04779248759750898, 0.2498863343696258, -0.005873430059596386, -0.06044827956685121, -0.21390464325985176, -4.5765322203238204e-05, 0.20687404100141127, -0.05572004758564631, -0.25177478807725623, 0.0016248232120325441, 0.8310936703364523, 0.12788757253404617, -0.2767035975803174], [0.1264857988590674, 0.6354848578198767, 0.018895991134209752, -0.03549286194857308, 0.07391765508889657, -0.22565436313450996, 0.48824668374649666, -0.2665474551823427, 0.07620094384038438, 0.0824781974123144, 0.5533655146494868, 0.14907875246961305, 0.4501931306687074, 0.29746248216407495, -0.0007544428891598171, 0.34845323220889673, 0.22906469179756403, -0.0025701208214346234, -0.004822819775252118, -0.10508342898586102, -0.5683216644334217, -0.16242809448312262, 0.8280985941456794, 0.3466060778264194, -0.05102075394002679, 0.001631762735054335, -0.18955482967232037, -0.030950210056126453], [-0.4779256002726052, 0.941080363244281, 0.46200644958510956, -0.47014352094150746, 0.5286367961636381, 0.19450880836514794, -0.22571196900389828, -0.6995974268001783, 0.3168264412160322, 0.1594456703711351, -0.22081381199107586, -0.20757798486182835, -0.325443352594249, 0.7194245317759932, -0.2728167842988203, -0.021729677876709697, -0.11841922534920585, 0.11749773531073349, 0.3322610860812829, 0.2979150866389263, -0.3726359765535502, -0.2929217898180081, 1.0600653220014917, -0.05668910925477108, -0.038225745916800495, -0.14197178025456633, -0.1200407837430132, -0.021109758942179504], [-0.11281487241617219, -0.2721518150624018, -0.05868301601611005, -0.10318810020399316, -0.34041535694731634, -0.14886523331659374, -0.45625478326149627, -0.2696679185197796, -0.23369363637591248, 0.2045078826754851, -0.30422900610050274, 0.3891500752122897, -0.053084676608928065, 0.08644471341618301, 0.010351793344825578, 0.36777763522504564, 0.652898906769272, -0.031180689172697052, -0.6123390512927583, -0.05540795552975143, 0.04719625539716145, -0.06315499987285855, -0.12150651445687773, -0.07423688873215231, 0.2718828421057887, -0.03858077392399874, 0.9890495831894955, -0.5091851294858797], [-0.19017325355684706, 0.36646598376755, 0.032341994739636795, 0.009154215124217347, 0.08941192245664692, 0.1920927292644774, -0.08510105755493715, 0.31957724885058414, 0.22328187017902704, 0.0928537171546321, 0.34762047181736183, -0.005603906163256533, -0.15831229681153053, 0.06811913482446318, 0.504628053672658, 0.02899272863959856, 0.03454718836253038, 0.3636984541071281, -1.749849532812664, -0.04894610726923447, 0.368526194026555, 0.010441529050397358, 0.3716259222780107, 0.0837253442198686, 0.18051577778552388, 0.14813682886496451, 0.08692305166569786, 0.0485621247900478], [-0.09306788131315154, 0.18113502321586103, -0.05403601829770254, 0.1705604168637495, 0.06076939415904882, 0.12375464317088436, -0.12175277360112371, 0.3342947052923352, 0.1626149860025667, 0.11139796040641806, -0.21047145069417042, -0.0802888728681787, -0.3427943766259937, -0.1154556840378374, 0.4746956835317796, 0.30667320119862757, -0.05030184198982429, -0.12395978015424777, -0.8430104497220048, 0.13798227132735688, -0.7967844977228975, 0.08165215249712517, -0.1340972716595671, -0.04129551563829622, 0.3572227382322766, 0.2440196452385273, 0.04777289620027895, -0.11980181737934875], [0.8052915148342804, -0.16944200159690231, -0.2485695453222936, 0.25424487078364616, 0.1177153007668878, -0.10387296606097071, 0.4376797161940676, 0.13097889043632216, 0.08016722943273334, -0.03340734083968457, -0.1417059571257562, 0.26198821104275766, -0.35301143657154754, 1.5602174491996836, -0.8142768913354503, 0.00718532857923109, 0.04473658873222286, 0.2528116617492499, 0.08453126966845348, 0.11679116112529578, -0.2538843806921551, 0.446488620092395, -0.1255887835565465, -0.20677583133922628, 0.13986400029102866, 0.23105510409689642, 0.02865058897678769, 0.01656091778410101], [-0.068442784297092, -0.02692752511669074, -0.8684697544457574, 0.3124157523031883, 0.3223811576823427, 0.13843991155852878, 0.5464909390423012, 0.18354273821020164, -0.2492976150401383, 0.09956461782891238, 0.2782969509112216, -0.14504642186370578, -0.11975305734205954, -0.24863439927538605, 0.5367727225059266, 0.32562044256001166, 0.04217736237997092, 0.486637640758513, 0.8811915902810931, 0.07388987714059007, -0.6193803887716002, 0.10064479707766989, -0.033836702646835554, -0.2734514879443827, -0.027950896067788087, 0.38170101320654415, 0.21295759031724315, 0.23138733250108567], [-0.012398988938898934, 0.050978939021839, 0.35423407271953405, 0.13256627658167328, -0.05106692142966201, 0.006486296174648724, 0.056765024199968435, -0.02185810809407967, 0.012397364391057795, 0.005105925227963319, 2.0071682068514707, 0.41926832328006136, -0.25013351173917214, 0.28093687532262573, 0.06260096784859234, 0.26186160168658784, 0.22131444744499928, -0.007463904950602632, -0.04201466617917159, -0.332852796346356, 0.3657525723295134, 0.26087273602124966, 0.11648480145801778, -0.09822335287577355, 0.5177343926853617, 0.08658352268596006, 0.056756009132989026, -0.16750193512436473], [0.18366482861339614, 0.18204248474364013, 0.022124031962488813, -0.0791091374763589, 0.33487606987874075, -0.6836688516735248, 0.7998932064803289, -0.25937267874351955, -0.5234677805806549, -0.4578464268491344, -0.2872503592781145, 0.007814050020636693, 0.4186716208329554, -0.010442314499294808, 0.2940803218043159, 0.08084353032978189, -0.09586558543474259, 0.09394337503788196, -0.23592511238168049, 0.18167673261225614, -0.53679580106185, 0.08619001039252618, -0.012989229572953754, 0.15735262991999585, 0.03738593433854761, 0.11852360260672216, 0.48454550935469676, -0.05672105551300468], [0.6764567440256332, 0.10283207301838494, -0.2783655668792552, 0.08738180612846921, 0.10973705069357875, 0.12902769459567193, -0.4720955808748209, 0.0677020898856968, 0.10183619882939542, -0.2589220838592439, 0.29179946136223234, 0.11753284643784889, 0.3565999732187747, 0.4358307346380703, -0.1179097547526025, -0.11541914488437309, -0.21802775200136834, 0.34441542581481377, -0.3018062514982021, -1.0729640663570117, -0.1498907553345962, 0.32939064154885417, 0.18801157236299817, 0.16300789746612127, 0.20011207122461777, 0.206094791573873, 0.08694133153609347, -0.14125773004561412], [-0.12483316284566415, 0.12701204735342628, 0.1933399545183374, -0.28465087483759904, -0.6823505019069357, -0.36656986135370523, -0.03865540888454022, -0.24877002374730167, -0.23333052462688056, -0.2503216297363406, -0.13025380160735106, -0.10603279338618647, -0.4962707427116058, 0.3876502880993331, 0.9308354940558178, 0.17600399091808117, 0.25375352224918646, 0.021212993601678894, 0.1936236472215495, -0.08395501466746806, -0.1818087473958071, 0.05998541450821517, 0.24678147158350827, 0.5602991646835603, 0.22201626387288825, -0.03663600204717282, 0.23090797265423404, 0.2108809547454143], [0.5013125035562455, 0.027160220162313696, -0.020350959478846048, -0.1506607899595093, -0.09739293685008708, 0.5432463132052997, 0.17622219239975487, 0.2784041352495464, -0.05450169903960231, -0.1376823670260122, -0.7748291945500871, 0.5108180888743914, 0.21362582982891803, 0.12028082534298735, -0.19712370168558824, 0.007129216389825763, 0.475353690920372, 0.13898214459825967, -0.56249983935664, -0.00823951377778081, -0.20723990394301744, 0.03094215444701439, 0.2500686272562709, 0.21459820244528363, 0.17180029205947464, 0.3625524276367135, 0.17785581027295524, -0.00563362108128429], [0.46455080154879774, -0.04981351235121942, -0.46830955763184795, 0.12119059232339904, -0.38103256057071333, -0.21889691349538154, -0.27347322617484277, 0.31102218300319234, 0.09942524250674642, -0.08810747604598532, -0.04352491759968891, 0.27913908787699776, -0.3767900968309056, 0.6290358523663798, -0.06552515275094023, -0.02882122268778079, 0.05017613822250452, 0.11691817276847646, 0.602981595056791, -0.21356912330641886, 0.481650795152748, 0.5593018566512391, 0.14858310259849244, 0.07663477567392253, -0.0783387765289772, 0.13001503342283235, 0.27589306410156067, 0.19076848082120684], [-0.1630681312080402, -0.1727483507874207, 0.0668382367276722, 0.044003758752003484, -0.24665890730619378, -0.3858732998348465, 0.07953476584934274, 0.40796006938187385, -0.10836106834864549, 0.3007408996388035, -0.0035333830715655384, -0.15014233248561587, 0.26584963369173364, 0.04636947604412783, -0.39726532206887394, 0.05796260571909214, -0.3385771809601755, 0.20496804377436992, 0.2110207177151625, -0.2533129645769182, -0.8879040559035295, -0.0016066938108109398, -0.11495097391599123, 0.2105933899434505, -0.15924018863954617, 0.14680013880265025, -0.056280560181454845, 0.2454125682815125], [0.46961850398642013, -0.38694842807927854, 0.10955006552600459, 0.06732401220309912, 0.1753852967678493, 0.24677277551594434, -0.4060836411045543, 0.3217924433837708, -0.09268861090004932, -0.40291188535609446, -0.07232747378576236, 0.163532189857609, 0.05821173440108286, -0.2618388745767067, -0.09638597729423182, -0.039522995534345434, 0.25497750729969015, 0.10377647670807584, -0.4516970088610006, 1.46271341821333, -0.6850318911464798, 0.028461307970861622, -0.10852896880096644, 0.32208003941397795, 0.5851685596010856, -0.23552342289885936, 0.2214787927657754, 0.26337017972647636], [0.23541288097086746, 0.08211130174360207, 0.2292175797807186, -0.08585867288607814, 0.29941171599486255, 0.09650266449050875, -0.6391841715667586, -0.3410108556097238, -0.1797400575075404, -0.20635402924252658, 0.24341289472180055, 0.27295489702981035, 0.047092138013802215, 0.2402314390646087, -0.2526223081693464, 0.09054415678806278, 0.3181593125595054, -0.11168030605539028, 0.1395916184940248, 1.9089348292371675, -0.11932734984568391, -0.3405277646460407, 0.32040213998648825, 0.12120911664832766, 0.18302472457906, 0.011185413872642911, 0.5211958828517796, -0.1783299488811515], [0.17812979194321948, -0.0970539429692655, -0.4040465546604884, -0.15062959908856477, 0.31783668869472764, -0.36677792045917557, 0.08670683844811478, -0.36660995457004975, -0.3538768940786203, 0.25737511658799045, 0.5891142195523578, -0.12269279827250912, -0.3680719543258451, -0.06809452615422847, -0.4136841458285398, -0.06410745707018815, 0.08392129769964626, 0.6018634367742488, 0.15415767926172455, -0.034138336195291406, -0.19275535905206762, 0.10425526797860972, -0.10553578548251424, -0.06605552725944212, -0.09907387227294123, -0.22724765691747884, 0.2716550714255813, 0.2254742107510457], [-0.6284894796104998, -0.2862131529230086, 0.4228412828684142, -0.22890372001363624, 0.02478209743773646, 0.599102304708369, -0.108907531766849, 0.38844631261607615, 0.1954297090499642, -0.9794466636655759, -0.21317251047988076, 1.2369114218700175, 0.5226140851812098, -0.18898980783359712, -0.41167078850709266, 0.047303702048152964, -0.048242484001673504, -0.07598126085462646, 0.534423213086609, 0.024091267304269953, -0.12459715952124095, -0.4052957408582891, -0.15212778170237862, -0.30108443735309254, 1.513802494803806, -0.07096625137026, -0.054658079135114085, -0.24584343891108318], [0.4606593275649541, 0.15692192677778652, -0.20063831380925892, -0.3718136831690915, 0.19717290670318938, 0.15986016277915127, -0.1454403856356327, -0.08807019786125249, 0.08041378784815591, -0.15848349481729518, 0.3928340928278328, -0.11633097385304605, 0.17806805697428266, -0.06675019219889403, 0.31353252997481773, 0.29381241479981335, 0.3568566024792083, -0.1593685874577476, -0.19464768391934228, 0.7857104578844104, -0.14719663788496093, -0.0049967304622982045, 0.018178481878731414, -0.28135458482733156, -0.10819663884009313, 0.14736367427383693, 0.4509657989685965, 0.3481740875586757], [0.5481814638854722, -0.0865034929625445, -0.5132100963298984, 0.21207384419129627, 0.035490189702344715, 0.5496471743813108, 0.2132136566495588, 0.12731618630234562, 0.04928078000896102, 0.2066302087010855, 0.021340578163006857, 1.2526198497081962, 0.5233263831533023, -0.08617224311241413, -0.591260338562683, -0.053854438956015334, 0.05420106610055456, 0.05781480577831755, -0.28327703874440563, 0.0059957383044037145, 0.24004842789841724, 0.622107491607474, 0.01763644349393415, -0.08969138189618485, -0.2650350737339279, 0.04919651765452284, 0.038475603277272084, 0.21762708311423876], [-0.13416068444509582, -0.1293435679836396, -0.1714726095288688, 0.1190378472951496, -0.12075938839800134, -0.12605113999236967, -0.34852660044081746, 0.3089481572900912, 0.062350435723657595, -0.8884865503070918, 0.04420420710159865, -0.09100165332604053, 0.4924375803828469, 0.04739917018858307, 0.12493056943793511, -0.07651493925777593, -0.0724665776056093, -0.13702978168036428, 0.502096723420757, 0.37651477739831196, -0.6294667711163178, 0.21800474601575429, -0.10967727014160217, 0.09820329820828555, 0.005495321829173716, 0.09709268902902464, -0.16843410911017026, -0.45727966233564904], [-0.43101585137873305, 0.1220546982710642, -0.13947519564066632, -0.042973258049080046, -0.17929023423005772, -0.24056422451458187, -0.21568934723348443, -0.094994553302331, -0.4512836283990786, -0.06776631680772449, 0.30790847039492253, -0.24194886752814032, -0.24331525038735838, -0.17000943178423086, -0.01045426166048361, -0.09817381266554746, 0.4586924079675645, 0.04555662442956118, -0.035720475664236584, 0.2764241254760693, 0.03633685617223056, 0.023157605700339794, -0.14348747847596818, -0.11182338612853492, 0.007142220371874495, 0.1880519711329031, 0.7933844912503027, -0.21230777961451566], [-0.2741226718729917, -0.018746108317759996, -0.3103988207820382, -0.044466526126553586, -0.06305350479475785, 0.4863381348583484, 0.0568816028587271, 0.4550776776877849, 0.1898804606451926, -0.09299833329811205, -0.0010595741172832014, 0.05168468833007949, 1.2670632695580988, -0.5481742173823752, -0.293808002660121, -0.1893178536647641, -0.11479361887389686, -0.08173139601320883, -0.02889155529176117, 0.577758128720753, -0.09304678340003242, 0.16155209743954, -0.07679918427422917, 0.34205393480138185, -0.17087084070790703, 0.012057828393882607, -0.20073399600554837, -0.07785957815544194], [0.019156986560881183, 0.17344667864061988, 0.17091041882747424, 0.33267979349182797, 0.024869861056823834, -0.6173929414465561, 0.19130124088201672, 0.45259896396419336, 0.20539724212372726, 0.6152549434636038, -0.06808649728360991, 0.19034261981249098, 0.7306179945626613, -0.23980058121516634, 0.10638515513402148, 0.2677554079804039, 0.31851250893600325, 0.10466094108783991, 0.5072454680461025, -0.18127798982191817, -0.2565756014929747, 0.28732393908692844, 0.16742136657552598, 0.3038892559088393, 0.05887649584967117, 0.273195672415152, 0.19068201133578028, -0.055775682332663834], [-0.454960777297711, -0.08857457520951258, 0.2867517252597105, -0.25622681788364304, -0.2561189843609473, -0.12171573085430305, 0.13322476684218662, 0.09455964223007422, 0.07713566693664015, -0.2175549277979496, -0.3278781547033579, 0.20033778226741403, 0.2945229019947223, -0.1088967785584739, 0.06625870719027782, 0.2863727906437297, 0.20721408187184887, 0.572375669160106, 0.28147508625930023, 0.2749108321847873, -0.038557464805763234, 0.2529364475548684, 0.8020193865761889, 0.19075660458158625, -0.06673138044940931, 0.21866792107462793, 0.09172197638032849, 0.22496844252911175], [-0.4564729850684455, 0.1854101032069419, -0.3160679166082763, 0.437164231055232, -0.21197728740944272, -0.0834400849837068, -0.19004951442968465, -0.31860146890509283, -0.10076838480359411, 0.1927903523193483, -0.002853892733495802, 0.3387999585042939, 0.800154963557772, -0.17951027147190118, 0.0150882537254644, 0.3204370634363461, -0.2713877309177456, 0.19545396567927478, -0.08202698599774771, -0.09813504274071508, -0.4386608463031068, 0.248935250382684, 0.16114835659394486, -0.3086456496055527, 0.09220468379912096, 0.1711376750527766, -0.22331972202988778, 0.3436019278191585], [-0.38792891935424634, 0.4347296732248811, 0.11088908519035717, -0.23437091608827468, 0.4395158103576195, -0.4307532719739822, 1.1312369923351864, -0.28111813555656723, 0.12675835438509508, 0.21540188670020802, -0.04105516183104573, 0.04623902568093731, -0.5703944025098141, 0.3322273287300252, -0.1832901764542463, 0.1564432118234401, -0.049014226411979035, 0.08574112467252093, 0.21003184183189214, -0.2248439600325505, -0.06414426244734338, -0.236334440590133, 0.4022280641077426, -0.25109245887278225, -0.13140082415749932, -0.039662692424835465, 0.14267263675667677, -0.14023519674040313], [0.817328804375037, 0.06037362774475261, -0.34301855772086165, 0.664133249128103, -0.03445295183649295, -0.10699876061568643, 0.12964531806541063, 0.3141092678930772, 0.14527245149654425, -0.02763843854834693, 0.07835009558201417, 0.2786381155088474, 0.49793457534484914, -0.004966512046039549, -0.26895616075268625, 0.10281135391555506, -0.2058609366817662, 0.13373941719827653, -2.0297962688593736, 0.16211015831766612, 0.46661506276240927, 0.47368826237325634, -0.023517967314340936, 0.15262420844476743, -0.01420466352941206, -0.033932593317525434, -0.42741923157350403, -0.0658797760627621], [-0.43629738982679594, -0.1955198815814152, 0.348066138655651, 0.18983901887017002, -0.3283138535950026, 1.1169998286424083, 0.2760835049249009, -0.6060479003451871, -0.3888931386457808, -1.150931283493613, 0.04242399848506775, 0.15534196134951606, -0.46758090996760593, -0.23259176870655446, 0.04887072688532775, -0.27299683975502165, 0.7189581295062372, 0.2697915153662272, -0.59392631996028, -0.19219204786065347, -0.2408314458555926, -0.17758356382803897, -0.017272281601900214, -0.047849503195799385, -0.05656405196240619, -0.06359497661890991, -0.32730462817627876, 0.8194820395609502], [-0.22596457671795403, -0.06969140691387181, 0.1959272371168987, -0.09540064062705261, 0.33312118336242236, 0.5864750601896961, -0.25844490706203943, -0.2151618573849203, -0.545005669125253, -0.4655316164846054, -0.021896832497573578, -0.02711467349755499, -0.20034406199058133, 0.3106659898548049, 1.802497844410111, -0.24464484851318175, -0.05895525277457539, 0.14761797673122518, 0.044583599257145494, -0.1212932352356561, -0.30326855922865065, -0.11586614572944798, 0.2261111827785175, 0.0905169993784844, 0.09236534873861629, -0.06664383417279071, 0.22856804231761677, 0.6679055152319116], [0.13489597287880303, 0.2570630976802845, 0.19924626417051045, -0.21751192890072973, 0.9897015231087739, -0.6818907165498483, -0.031153972939267034, -0.11027921533630927, 0.2775742338097003, 0.3338924295924384, 0.45768261537083954, -0.01640660644932713, -0.33469543531804674, 0.13313129820031153, -0.0711522973945583, -0.003388063394270658, 0.41949353736554634, -0.09859033281951224, 0.10060474810197846, -0.08343586739734758, 0.11540986803899535, -0.25016506966257374, 0.22903581492198716, 0.05805598490333187, -0.09354060576844866, 0.02303511461604988, 0.01102282831558099, -0.16874305987552854], [0.09334698589180047, 0.14550538410627328, -0.16797075020659188, 0.014248080433577228, 0.1364923774265062, -0.08510103985818049, 1.629710175035128, 0.2662490474865519, 0.06067712520858749, 0.13221854592607682, -0.42113400428631853, -0.05511267773999059, 0.17899343485821922, 0.3308497003098437, -0.22946160795669532, 0.04076829501645304, 0.0586985720228024, 0.0009732009064867971, -0.04313004020661715, 1.4285057412269249, 0.10089866689656082, 0.02556101029291909, -0.013596506116230153, 0.23260267652801062, 0.28652337468713174, 0.07449455880106451, 0.5126593120454648, -0.0659888737659548], [-0.06228299706162906, 0.03410296154551085, -0.08768363139371706, -0.06394579680877562, -0.09484837970096123, 0.05555578756344013, 0.3769150114473204, -0.11121763889331486, -0.08907759829345745, -0.4082437430995206, -0.1425104732788521, 0.20459816903881625, -0.3239003329275863, 0.027254821611889735, -0.6728678064382649, 2.505019185085917, 0.08981649652832593, -0.20396736733708667, 0.10498243949727752, 0.1566634988861221, 0.09108447355381952, 0.01623254851209965, 0.11492382151518411, -0.003145523717834921, -0.03269534577492073, -0.03979308236110825, 0.09385726231053534, 0.41722720517037504], [0.2783989676398717, 0.0835811979648049, 0.12156444840804838, -0.2773523154621799, 0.30662861066946123, 0.4555753777889275, 0.4641795199749342, -0.016742782285022545, 0.14375864826533327, -0.23529350524223308, -0.050253687883955456, 0.4433445582426784, 0.38845072375444556, -0.18986341817226776, -0.04868328297391024, 0.15193409971310876, 0.09997400281338202, -0.16631072690932397, 0.005994276207767987, 0.03270263183427083, 1.0619919080095181, -0.11419730739253531, 0.28819534936441965, 0.13187096361419648, 0.69420991810155, -0.07804729446200763, 0.018583096537971633, 0.07277191067747364], [0.13331565703805173, -0.004942747329285716, 0.44574255549239267, 0.20632234539766667, -0.06262034977062025, 0.08330593660651972, 0.4899643930741287, -0.3728391562470896, -0.07334127094438929, -0.40119859737857744, -0.19768661383618694, 0.251888128796536, 0.4425693340780168, -0.3503605413442081, -0.38702921863802636, 0.23698950521668538, -0.5302012107478768, 0.7076831694493889, -0.4122689514589804, -0.11646197605855146, 0.653442012224684, 0.3348745959388897, 0.0022469778821042575, 0.05270079181268638, 0.06537687329348954, 0.029509888796532664, 0.026429022396025, 0.3591768719495855]], "hidden_bias1": [-0.6590079249942113, -0.860708373663591, -0.5030141148972106, -0.4217637243843417, -0.5686464058010254, -0.41600913153233127, -0.3197778004055819, -0.727591146361229, -0.2278501678644478, -0.22788974921534125, -0.5236299451202121, -0.09439492674416045, -1.317352548621706, -0.4068454949795391, -0.3284065814932289, -0.31174933820637907, -0.21997142068419995, -0.9663103877519182, -0.8022173735255138, -0.409899169267861, -0.4625035424869476, -1.077481019744865, -0.4027459288546938, -0.6954906319888752, -0.4024269180538755, -0.2510135101131811, -0.3800007491050875, -0.6544614076517725, -0.282653106417799, -1.0666781525702873, -0.8991044261407599, -0.6200380637700132, -0.45874529140142206, -0.529757546771975, -0.5974658694479391, -0.8665258768598294, -0.4046965819249249, -0.17840466784615594, -0.2778977568219703, -0.35079783626692085, -0.8650805552635109, -0.44242775035183024, -0.41935058249486457, -0.2835149366939904, -0.790745007820936, -0.742598776384736, -0.31975742742864716, -0.22180667357693437, -0.6461112319906546, -0.634721707688301, -0.23048030866538374, -0.7516337796098941, -0.5360395057470283, -0.6929359507753197, -0.5769747147241053, -0.6132764273207312, -0.5547971175816565, -0.2725467756228642, -0.7341280683072821, -0.18707554277595453, -0.39994501240001823, -0.8639104371102663, -0.7341745084975738, -0.5158612488222583, -0.4634764763908737, -0.5755345461610347, -0.10562747603903366, -0.8274539566709965, -0.3478540684620326, -0.7092179881821866, -1.0832968525556774, -0.8151621371959298, -0.6673734038545905, -0.2898398908749524, -0.22309036011251585, -0.4421796202867183, -0.27516304727630686, -0.39739961561904136, -0.607398589277355, -0.46755842403760806, -0.38314869448325267, -0.6019817498303194, -0.2878845818557543, -0.4561396645460963, -0.8160756206276428, -0.41612133334984014, -0.8547347585539298, -0.23775964830416307, -0.8086857900770044, -1.018967267889099, -0.8290307195679617, -0.6055099226257286, -0.36755283656145693, -0.3413738655948446, -0.7843541839961106, -0.6197781820300399, -0.4424874009738034, -0.5200045022735837, -0.7725295525695685, -0.3321465841119537, -0.2693125439027981, -0.31204965461495476, -0.3925116207893329, -0.7524975352340482, -0.5272064294213292, -0.6606735449737676, -0.4964974683352799, -0.1236703013301281, -0.04528500554900265, -0.3907500474785465, -1.247040329508159, -0.2789376146972417, -0.7071972514925402, -0.6174432559472095, -0.3995172031160568, -0.7244173240970839, -0.5695486653729234, -0.4168987143922403, -0.65682639299898, -0.7035510642945116, -0.5541866976808283, -1.1963589409150899, -0.4102186603237752, -0.09359670825944337, -0.40576982935460953, -0.8155839765263972, -0.03623842080120868, -0.298018127272426], "hidden_weights2": [[-0.031214311274389537, 0.4359351524499037, -0.03697202924212571, -0.20376807295061972, 0.08352357228008789, -0.18995230221155734, 0.21622003582656935, 0.3724634797542326, 0.10137001941814283, -0.16039351516246497, 0.16251434869064046, -0.1682539620980555, 0.10000955071127882, -0.1369434803858914, -0.1822846895780332, -0.006233618065063079, -0.022839341662474016, -0.17846924243848478, -0.20487813788754322, 0.010265164675693331, -0.3125058440165734, -0.18122646533658593, 0.012135041719644895, -0.3195540529785545, 0.01759356034606667, -0.04447287867823743, -0.13608948473298996, 0.05862736831224433, -0.18422739005341723, 0.4451614628820699, -0.00673623113357647, 0.017849236535144666, 0.03230165429834453, -0.2798137684826759, 0.44165145849479387, -0.03051934101905211, 0.16745979694297866, -0.07243436446871464, 0.06431748814637332, 0.01985181538164528, 0.0398200188440576, -0.04792547966858137, -0.09465490887726243, -0.07400452092646541, -0.028416011583172703, 0.09017551147962445, 0.082523967406442, 0.2645388818092001, -0.157433244613144, 0.22563049839605442, 0.17052264110569423, -0.16481440808405037, 0.22430269597672853, -0.18154063513767604, 0.07402293630928361, 0.04803982194076954, -0.21534064486648052, -0.21833468739069053, -0.19809623180981084, -0.023641606102695195, -0.11565538984035896, 0.5213344149261084, -0.3481294614696353, 0.042361698856323876, -0.11789070564887268, -0.2807871618900738, 0.07942062732060601, -0.18797180432398614, -0.1994926070505151, 0.1794202526165308, -0.05583011862264168, 0.03467878461408872, -0.03467384530238935, 0.14024512105134182, -0.05088395141855703, 0.15623595848067331, -0.05433977366229837, -0.06367149889955734, -0.026114028486992454, 0.015781623640291224, 0.05060791406577116, 0.07642671383303491, -0.1511644356036491, -0.23379933456209814, -0.1347575185084374, -0.2577981412602238, -0.16641449196562869, -0.0006940900903436148, -0.07350908134010926, -0.1324145855878473, -0.05857648001375318, -0.0028751710109340494, 0.06161954675540595, -0.10958936717805443, -0.2422155697113005, 0.11887440639691547, -0.008199205705479808, 0.18046919045594478, -0.25658019327786413, 0.07540355699965232, -0.009571834885977022, 0.10381260438486273, -0.07631013809748582, -0.19656690355150438, -0.2636808855077335, 0.08530999422230127, -0.18458305772365752, -0.11532959100845394, 0.3425274432313899, 0.2740325822547953, -0.4234969337265215, 0.1444699820362561, -0.32273877128750017, -0.014246419254745558, 0.16022351822976993, -0.3076819752813685, 0.12901540976997414, -0.23527357022190404, -0.2784769818810762, -0.17268218221099949, 0.14339601205621044, -0.2502775947875523, -0.2644201901306772, -0.1259590425204608, 0.0900293531254062, 0.052202463155241186, -0.004925000708489469, -0.18100537629436644], [0.02382776087057834, 0.06332952770807669, -0.08967676394351654, -0.2778505656345573, -0.003802173916861997, 0.21516427325176393, -0.04073370294938957, 0.08061269059336013, -0.09452773321695351, -0.09766408545025371, -0.33098257424059885, -0.2475817122303654, -0.35478302939476597, 0.18311359479053219, -0.02321200564527695, -0.15286462663930755, 0.04987824269325769, -0.19874538093018476, 0.1285032225327073, -0.25308781402479114, 0.0018221259026286439, -0.3127761314906758, -0.189927794010427, -0.09345452430576079, 0.015555266909151018, -0.023632004609399515, 0.1300180609043573, -0.03650654389935717, 0.1507776909590144, -0.20820365773150556, 0.09695068715271453, -0.18930351345705354, 0.11436343374754485, -0.1367774091234719, 0.09075213877328016, 0.04798964445636626, -0.1732941736665775, 0.05936026768109628, 0.25145028080473947, -0.08225963413024875, -0.019640543968322773, -0.19735791835613367, 0.2530101815274488, 0.2683961131149243, 0.5836342532053741, -0.11167766647205613, -0.021267016108897526, -0.17659098578105734, 0.14005935712095177, 0.12785476921047462, -7.44103546345993e-06, -0.05359077342300707, 0.005897621848932159, -0.08188727273373417, 0.21978444495519553, -0.3911364099352265, 0.01776749511030473, -0.05476140243357953, 0.0805972115106709, -0.03541936091562164, -0.10720842817929381, -0.14188223698966415, 0.28998371242004156, -0.2082916042227713, 0.04953384591737426, -0.20539618424669623, -0.11850259476984218, -0.20675056433894562, -0.39811908619464353, -0.39011169204966933, -0.06113696799926928, -0.014186452592922233, -0.03965422149814226, -0.06929344553402761, -0.2112134170097365, 0.055994401329192756, -0.12422203705280588, 0.06593731139044977, -0.4580485966052551, 0.053337936599642234, 0.10484864704787178, -0.03987110969426743, 0.21461738495782748, 0.10316522065446425, 0.17271346772460883, 0.024804279874999672, 0.13882653844716283, 0.16775601568770876, 0.17373261423956557, -0.02888752672626761, 0.0901015268266126, -0.005292911526331678, -0.03022443392587177, 0.13429340230687634, -0.030561891998089855, -0.06790854050754525, -0.09270944644038695, 0.0008775002761084797, 0.05469954636617774, 0.2850841051843881, 0.3991693350213859, 0.15831296161522432, 0.1324481572204513, -0.15773903165807876, -0.05702238766630231, -0.13349754303901312, -0.08072002254761541, 0.1415432480696268, 0.02081441454082569, 0.08575373822036954, 0.0006277884271606403, 0.03363582864032198, 0.10456573788946648, -0.13787871494586862, 0.016833782023555087, 0.2287383341005859, -0.5374872361478799, -0.23352532014816393, -0.019878459070386396, -0.06240625893204156, -0.08572631338513369, 0.12842389180492012, 0.29900563137229774, -0.2859154951133263, -0.16148424430819835, -0.21955106097296404, -0.11544885150649623, -0.20122491050146135], [0.18719372373924267, -0.07316102860101775, 0.0373483500377755, 0.0386116108511522, -0.02285109135656529, -0.13897267060903007, 0.05196686187706094, -0.23191926231953877, -0.35908551166338704, -0.14480670494427855, -0.0067082333379984566, -0.011583606345758557, -0.049974233741338435, -0.034030668744402984, -0.045646471349546476, -0.10555727633401073, 0.0747071822498825, -0.12902137420617693, -0.27790646643468186, 0.1420610344848262, -0.027106454123556584, 0.21509002896863166, -0.03547873412679035, 0.10852901657313578, 0.04106083547206907, -0.0008851518263878388, 0.12794119611722596, -0.19024392595230658, 0.01437628098616926, -0.04078624634574251, -0.02631912124992151, -0.04326822192156723, 0.09460970951348921, 0.08367938016383175, -0.09446945257560722, -0.06820013046385742, -0.2879073497964946, -0.03753534484924285, 0.061535587604011135, -0.13314255703309835, 0.013747430246530473, 0.05573393252507221, -0.01253088060739109, 0.12695161075056896, -0.022464813875143114, -0.04108067357160701, 0.10333679684367249, 0.12481154421080241, -0.21266062693206045, 0.10459185747637281, -0.035812003195971914, -0.17216524267964955, -0.028252676803864906, -0.20472715413316425, -0.008985289281327215, -0.1923602630552404, 0.05377432430250304, -0.006460036840237144, -0.018274427935285092, 0.02519868968314718, -0.1516766791742334, 0.08596573370883431, -0.1470593893185152, 0.22495767088204474, -0.2314022352018961, 0.03267220387604968, 0.01274224244670847, -0.11205401660697917, -0.12305193741942327, -0.07660964029853841, -0.3306966207529843, -0.11615067209755331, 0.07311235371867847, 0.11362155892814378, -0.20977661033421746, -0.096984778779553, 0.04631436601342588, -0.17072275314838675, -0.10980591779129988, -0.005368518030854322, 0.00843116490618367, -0.009266329637334036, 0.11853388145581589, 0.4087988524576802, -0.054849637515505714, -0.22154567930168093, -0.14243383003220633, -0.0829906943289017, 0.019299595806790668, 0.034012357797129265, -0.13336895870825308, -0.12199525828619273, -0.087736702352427, -0.08527463326958412, -0.15573920698749383, 0.008079888094852914, 0.17532675262877426, 0.10317691415584479, -0.31141149845659105, -0.008644217946075283, 0.0034108671842303538, 0.1464029135875149, -0.09366522327517504, -0.04574526012087859, 0.041192328677105976, -0.193090863736583, 0.0005468526237291596, 0.17443852269476756, 0.1607282805479739, 0.013741252237749534, -0.08459286816325157, 0.08836398333979265, -0.08217880477893526, 0.04180224104374727, 0.19987874027977645, 0.024231642205057462, -0.12062282535002052, 0.029953969303062686, -0.06344784439978522, 0.04643971723921003, 0.086173429583724, 0.005462855377428704, 0.001368948179810004, -0.12006447985294638, -0.09850299432005662, 0.06360390670423514, -0.06291057188359633, 0.10622217682010075], [0.002069713606907031, -0.059460507187022685, -0.39707245890964776, -0.2621464318222533, 0.04307429563867648, 0.012889455641045301, 0.051764578579273766, -0.29674472817929914, 0.2234112360724917, -0.16791594990232023, -0.04215264232667362, 0.04735066755659138, 0.01256279838377748, 0.1858983397535368, -0.050465449074854805, -0.10190938502479205, 0.02784226863772721, 0.14691513272444146, 0.256325743325019, -0.2554883983695889, -0.01673177492628811, 0.2526053479252116, 0.2914865366972375, -0.05330754740028763, -0.27594740701800724, 0.10817769653123512, 0.034336777789395596, 0.01874598915350265, -0.27825308720306613, -0.3272383263487692, 0.1818793581738412, 0.007563431119112348, -0.03627723638900752, -0.38879569422783744, 0.48591840311848855, -0.09998881725816856, -0.07819110109953235, -0.04025089519051031, 0.2850807798213117, 0.15058113727424965, 0.18522170282512612, 0.43188347636874613, -0.2425041626151933, -0.22670195996216216, 0.3173893889190614, -0.16414515416510347, 0.0026507302840714617, -0.10929483416257837, -0.09639522741873376, 0.0018711565803854217, 0.11346427192809261, -0.18978480286703267, -0.06555851478658424, -0.32723883487948996, -0.09979932141773172, -0.17675746073566698, 0.24473309192088555, 0.012760699151547034, -0.11419302384280855, -0.12421408292905435, -0.1322509318810031, -0.03593588417783876, 0.001925513829971733, 0.16672490747421742, 0.0706887538980014, -0.19124443799883328, 0.08831527617836707, 0.24951118788269855, 0.018417698487633728, -0.4653841088030169, 0.0264917845286076, 0.1538627144846673, 0.27060454562470626, 0.05247137698364709, 0.06871161709396179, -0.004309599584570187, -0.06988016464988893, 0.06465409530643054, -0.17268729976329, -0.06396672888854683, 0.1428414173075153, -0.27531613313862463, -0.04855062771170634, 0.022589115509518923, -0.11156360526757707, -0.1877690795232027, -0.09359546831040803, 0.14428806992580478, 0.10950447035374732, -0.2961786700569248, -0.21299359127248774, 0.19664522816165375, -0.07846813223993158, 0.21030495436080018, -0.029288731550393993, -0.1190946813430767, 0.052492216121503676, 0.058890984976113656, -0.45626923292689575, 0.02049044245600226, 0.0761672746835488, -0.07070790917333493, 0.08761132557133969, 0.14252774037851842, -0.06191193183537227, -0.38341831560063083, 0.0873399800324727, 0.3757292718324092, 0.2915205824178675, -0.056717292900402894, -0.17922091465678336, 0.18109190732606736, -0.06515348988276981, 0.17955235121510532, -0.031175312212788107, 0.18537057010477426, -0.34441650915806366, -0.12970686241057108, -0.18788198361372666, -0.09958038261929399, -0.31323341679732264, -0.05330064901602621, 0.2769250971308034, 0.21395376183061474, -0.1783707551924816, -0.23981978589411956, -0.21750976211694298, -0.25315168589684484], [0.09224957661823498, -0.008011316770958959, 0.056756737650774186, -0.236370719561703, -0.21845515403198326, 0.4215238794574916, -0.010286286143304214, 0.033442550288538715, -0.06324224537045327, -0.3047617641131282, -0.11672702912196636, 0.04207959317553927, -0.02765101902696116, -0.19081890520240452, 0.10117770991283015, 0.17725517236084604, -0.009222710085986676, 0.21165327748545548, 0.02103866749432931, -0.10164798641038596, -0.018015784554219087, -0.16097276749302095, 0.06405989546944306, -0.11583009145912784, -0.14466315842979816, 0.02154093805076131, -0.07540413751407976, 0.07338490912959447, -0.039739558511619345, -0.5403048606737735, -0.20833581254037906, -0.037892847031456796, -0.04882376272771159, 0.1320559340890298, -0.0952958788978286, -0.08166510942720066, 0.3234043641893055, 0.19843367196979178, 0.23340984155297914, 0.049829557128654785, -0.13492868608049216, 0.012655502414529016, -0.09710076708055256, 0.23363444417672977, 0.33087469344685244, -0.008352508391976368, 0.13170030419216316, 0.0013131943121739633, -0.20873969467521375, 0.0036759384156308636, -0.089369824330657, 0.08170038918305567, 0.08521346541608861, -0.20946560886163543, -0.054667475140065196, 0.06765090205339651, 0.011159038550303882, 0.10840071153045441, -0.16771110897579614, -0.21260134347383486, -0.21946962261499742, -0.2431224014598833, -0.08803279812268994, -0.09234444176874808, 0.07038197529251165, 0.036045314658721066, -0.03165841735008107, -0.06804978838184356, -0.013281648172098556, -0.05378363539824818, 0.03593168843940319, 0.05772259313916303, 0.20955126627978818, -0.41989817948278507, -0.2206639292335903, 0.028590260316061294, -0.04493900981814602, 0.3365472314963213, 0.01937863482939729, -0.028764858551266807, 0.5831361909181142, -0.14651758285955238, -0.00958956006750002, 0.0009991228321878443, -0.11355091677786099, -0.15566190696902793, 0.15357673737924407, -0.11618308308866752, -0.18757935025814257, -0.1573543252550527, -0.20336735820802168, 0.03863388660406095, 0.04363249712382606, -0.14782604041234595, 0.02338389562428574, -0.015424381837727463, -0.2580968515469861, -0.06032284149569069, -0.30865229462434834, -0.12205223629118776, 0.11018383044644157, -0.1672741343348546, 0.003369653155425389, -0.08091394210182039, -0.13710339520406, -0.21941559669239785, -0.025949281397848026, -0.1132372658960307, -0.04890189655435166, -0.0935390009265519, -0.5459842722261267, 0.11791445235777047, 0.07273075260763519, 0.1267577500083838, 0.1737445593544281, 0.18694825493396505, -0.21631912275536982, -0.16802019686780212, -0.008400694944007674, -0.035567865789353795, -0.18804326231806315, 0.027907400664458765, -0.02829287141115464, -0.12560469431843418, -0.20967361365251813, -0.21045111128345423, -0.18204410950651617, 0.11862580441780367], [-0.1558434791563799, 0.40830336191549876, -0.1788887287347383, -0.22619076162406335, -0.20809097030675427, 0.09039542908016682, -0.17123521204251765, 0.14298516498306557, -0.07768720400140279, -0.1838408987309809, 0.0033029610237900195, -0.30038258032313875, -0.0471910906266233, -0.04737899202229452, -0.40112805694462117, -0.025691244942704018, 0.0823989050198614, -0.1886602345362563, 0.1502164735534343, -0.1434263741652345, -0.06628848429137764, 0.25350299626125083, -0.04007740278684648, 0.3397440931663646, -0.1212967248057408, 0.0430533618368899, -0.2029829233401162, -0.028231432769437886, -0.15722242930977456, 0.025719278237360945, -0.22755883783761052, -0.24985645998299572, -0.030277297968943392, -0.04169436691677202, 0.0985031657962844, 0.25673989603447406, -0.052004211679997116, -0.13774656090420312, 0.10105521027487481, -0.19242133897096036, -0.2898637918962847, -0.2754251995348479, -0.04664588879211777, -0.3006830606350042, 0.016250903245620063, -0.2013792453961732, 0.129621369582924, 0.14035917863313055, -0.23159748422356263, -0.3938618238040962, 0.1347208730887142, 0.17237112558254836, 0.20811990895044535, -0.06673558676247668, -0.12013730168651643, -0.3134744512176245, 0.2547403028944531, 0.1163093865313443, -0.05078485641956256, -0.014119912116918262, 0.16474044854165806, 0.056247482835401146, -0.17431422756464504, -0.1182373761913205, -0.17364869980446365, 0.006936783676021423, -0.2196904489853541, -0.02577223087264562, 0.24114393087967015, 0.1348149367815152, 0.008781218073217526, -0.05006635295803378, -0.001635350041753973, -0.02539579232147696, -0.163066823563486, 0.16439774506092442, -0.2818829422725373, -0.15031280784931864, -0.11735640189049996, -0.23605877324598173, -0.3215799762252781, -0.07072493832554784, -0.45901506306388906, 0.38836527461347836, -0.18804400238880065, -0.02390591498660176, -0.20146976309319173, 0.0678433688360795, -0.033987235327201035, 0.10688500549718397, -0.27299632025257103, -0.3097893171902027, -0.062028901557949295, -0.028915437195695497, -0.21590673738010221, 0.11596538058401581, -0.1600306502827776, -0.0017869266774777686, -0.061584287843446314, 0.3350828979783021, 0.03478458880563652, 0.12234006770935854, -0.0002894970214357298, 0.05038628329082509, -0.15540420487188122, -0.21557777816615173, 0.17557835662981616, -0.03872852343991161, 0.0004135658972171379, -0.1295430531576533, -0.42709715764331163, 0.004280914986336697, -0.18889524110234285, 0.17302792586854354, 0.004284366683012725, -0.07915410459965583, 0.05890862787222549, -0.029842726458700074, 0.009016208884446882, -0.19215869238104114, -0.04080230368173513, -0.14991674886163603, 0.12540227279990204, 0.05596910393586084, -0.0017983191713174026, -0.014025688277074457, -0.11563930980442194, -0.29705595599547885], [-0.09906738381492956, -0.14317131329923902, -0.04940354998399996, 0.14776690993646718, 0.19718263019385393, -0.26396830751157885, 0.016234705460346503, -0.06847566237522155, -0.13430348481044965, -0.19455908412021894, 0.20788718976237078, -0.2440213116246333, 0.31505698189708836, -0.156682135323037, 0.18826663791630024, 0.15912452693373072, -0.16453821011076974, 0.11253626524620829, -5.02510623895065e-06, -0.07791838282629686, -0.2605771461630878, -0.3461082854138683, -0.12888761005556562, -0.2503662836294724, -0.006420119767339205, -0.01752050580001488, -0.1823494675963141, -0.07785001362874032, -0.10582684867913955, -0.19259528771657453, -0.33392252153914204, 0.10045501334450789, -0.16405285036799944, 0.033668132821837206, 0.21522278384090243, 0.055780282816654835, -0.19879295030304078, 0.026636951143814182, -0.17794938707750463, 0.12412213840954645, 0.013223646855922254, -0.06536414561979209, -0.3301366670388733, -0.2318246041587056, 0.013882884580802965, -0.1478629877808783, 0.19849838577308257, -0.16011038538756073, 0.023397714900056245, 0.0543787881485639, -0.09236992206737153, 0.0374095759617363, -0.1896060820466612, -0.18193296636357859, -0.198540397065002, -0.30445864978823595, -0.07570667669138169, 0.23364524296259861, 0.08848334607574282, -0.06197043998930324, -0.1622934827223982, -0.2055218815515333, -0.14049614469943814, 0.20389734735066803, 0.2376633220337256, 0.1743619813939567, 0.004395717275132981, -0.019301845254537063, -0.19224583852883223, 0.24039381765337178, -0.009202115795129933, -0.031963917044418214, 0.19516442607934925, -0.09265380353404253, 0.004354827689623663, 0.037851801568501015, 0.08328935842396061, -0.04249282911481336, -0.010130519875134589, 0.24492711859926838, 0.15296917879407818, 0.02915751439858114, -0.08191383269349663, -0.22701164595499917, 0.25645574322004905, 0.23021444567004115, -0.015803199132741717, 0.18292989505174773, 0.0927310795244741, 0.2465247504672969, -0.0036102547765815536, -0.0596992837604362, -0.04720013887248352, -0.0821320370673609, -0.26535971357577137, 0.26088519839667396, 0.2775284157132842, 0.07254915520486006, -0.33418428626736435, -0.3159827636300991, -0.14974915024447127, 0.07211379586239759, -0.060230984278615916, -0.15207081567969175, 0.09575533660349256, 0.004625062963166752, 0.022559038641421673, -0.34526136045973516, -0.15554756376670523, -0.23523909556037487, 0.18799593683980767, 0.018637079245701727, 0.201327034694014, 0.08772950743759608, 0.12959575021576383, 0.17689296148768927, -0.03165864090687546, -0.018376461393950598, 0.05109218095056703, -0.02273998420826553, 0.30873515337557367, -0.2427057323134923, -0.1650425299041852, 0.0421999996294748, -0.18787987269840625, 0.24472115531405114, -0.08589545773955144, -0.028041252062547088], [0.05808226489139695, 0.003195825386687134, -0.04587525243695331, -0.09529366440983325, 0.03895112219602465, -0.2393506345005597, 0.04978319552959635, -0.35799365264699595, -0.11568117886656655, -0.21683912613623124, 0.05926724097553445, -0.07514505828832158, -0.14972582261156162, 0.04489024156610954, 0.00044288301666105896, 0.15279656126371152, 0.14843843419227715, -0.14838472870928132, -0.17073214859215202, -0.05870573114534444, -0.03076327777022791, -0.04476907003020108, 0.006583837532357459, -0.14381186213021602, -0.0015594809147942102, -0.026321321598798988, -0.23318647340449142, -0.08756965285620927, -0.0050190739232516, -0.01562600147303509, 0.06310135390382682, -0.0396241728681843, -0.19744896506612847, 0.15728634857907098, 0.2828213124437651, 0.2235336429178552, 0.04488617928677406, 0.1472595299484409, -0.14262764259436503, 0.28407455601723025, 0.03900689695753246, -0.09535849285908148, -0.07971369843124676, -0.2691337806141658, -0.17807008058804416, 0.20205051519134692, 0.07004806898477156, 0.13031721259433524, -0.10183353494049478, 0.11180905573789537, -0.11630616294711141, -0.04857262821921655, -0.016197786575960136, -0.006593517069800439, 0.09102154809941344, -0.24149520243374126, 0.2756695456829439, 0.012535810010654631, -0.20570312316948078, -0.19479897908194144, 0.18393472309504877, -0.3116325253413074, -0.22132445325312117, -0.09256871513355397, -0.259920482289771, 0.22621174395563795, 0.029190309816981168, 0.31524706357737964, 0.047641949572417804, 0.16520823130757575, 0.2227255453545275, 0.032875191830558974, 0.016793569584112503, -0.1514748874196438, -0.1444925209227425, -0.25580434047928813, -0.05750344780423427, -0.03675187377520495, -0.19192659326595934, -0.1302918528843211, 0.08363973646584791, 