{"hidden_weights1": [[0.023398387404400676, -0.010388448339274329, -0.10246028213681366, 0.39334535057666664, -0.19554080853097652, 0.5304852824340326, -0.00020968193145928847, 0.2560498398175804, 0.19868330793917469, -0.23105059422952723, -0.011308928640580392, 0.11628431409295352, 0.17623130336342527, 0.7908301738373704, 0.10595437041979555, 0.05089878123338765, 0.6908512459166026, 0.12491451715041187, -0.0385581586071539, 0.16110489452455445, -0.011373222768137677, 0.08710063878761266, 0.10924768198525986, 0.16521465949242956, 0.06781660792100878, 0.16284448567603618, 0.24534168038178356, 0.25429561128714057], [0.3050983676300027, 0.16944097134351688, 0.08099063423331833, 0.03759106777442843, 0.17624344992325097, 0.02283974159843371, -0.2039080764626922, -0.35775111034856244, -0.5420944254906792, -0.4409517332298736, 0.04699133657563616, 0.15522542852667282, -0.01316985979730382, 0.25134883034494954, 1.63345803282589, 0.28471815285742125, 0.2769705268783823, 0.3228109356493238, -0.41213557102979526, -0.002959077922392151, 0.07462778555340789, 0.196845911707565, 0.2916106378722344, -0.26991425267175545, 0.03918114815694184, 0.05090817019225297, 0.18733237502042874, 0.2968839300416708], [0.16452314637842957, 0.34336221399262523, -0.17685825219562082, 0.097553136448941, -0.716977455729499, -0.3124112377735872, -0.5252592752946874, -0.034639084494134706, 0.1093184552884375, -0.08143487102967124, 0.002788723906477804, 0.054702454149500396, 0.028333978890318273, 0.44763198794551745, -0.4319458798389498, 0.017446888792498196, -0.13953967113253882, 0.07415907755266546, 0.014308893859158888, 0.07744090196272525, -0.02381781722075848, -0.1662455182271486, 0.37259661746992556, -0.2703133832562146, 0.14109216625482288, -0.11023528344137434, -0.26829292839397156, 0.01930813397286744], [0.12412187570452962, 0.24435761566251432, -0.4466792866162815, -0.146167804687983, -0.0852794764107083, 0.14546703507788072, -0.045828648874788096, -0.4786500010266538, -0.08642135721442412, -0.07867069527155862, -0.018771913814493595, -0.01623334169545332, 0.09468241848047736, 0.041364667457128794, 0.2682466480735522, 0.15222380631361954, 0.42419906894289894, 0.2267754165962475, 0.23391876442021525, 0.0012687755024111975, 0.13074762151466598, 0.4766721757814774, 0.03176559519461595, -0.20593717348085067, 0.19719969027136142, 0.03185639793312992, 0.20328436723863522, -0.037775998955545356], [0.12781712326926264, 0.18518396805496262, -0.10279281017730664, 0.13255729696237925, 0.5786184106108143, -0.12573890345666572, 0.45571770134983824, 0.11181344825128653, -0.02935899155412807, -0.18588132136586427, 0.31767857929349336, -0.09969047927209349, 0.07818927845462634, -0.14218024749786087, 0.10992246550361993, 0.5432511583021933, 0.06628469980661564, 0.04331580618419628, -0.42768342418382743, -0.0026115146538942154, 0.3364276394103394, 0.309224654181949, 0.4483233695701429, 0.25981044964893535, 0.09888514651623709, 0.45654042502555714, -0.3392576159321447, 0.21669136981363482], [-0.033738344255847146, 0.26326715703406295, 0.08080707683710645, -0.27157547422613937, 0.06999252645923362, -0.3452750318604048, -0.19003149342126824, -1.03374541628407, 0.34305650415677297, 0.2879101311065966, 0.8013111737043561, -0.1476487751122061, 0.20159720725626648, -0.29424701742179654, 0.35920262492018307, 0.16264069475072657, -0.12018747927148068, 0.14108229123875507, 0.3221564450247608, 0.01263413850348018, 0.09615668923961515, -0.2225944866405323, -0.1312699668359978, 0.7890615256012051, -0.06822855280830309, 0.18537475456560104, -0.06272776054746719, -0.3967922934104277], [-0.26817768081821847, 0.5077690780633818, 0.3285572865718756, -0.2976035199109438, 0.27120253271361494, 1.2738876141083804, 0.3433386913796434, -0.361598005742336, 0.20536310635662067, 0.22933592613385412, -0.3322573690617176, -0.1492298196504401, -0.2668506865092778, 0.35608179252809435, -0.2820387073014737, -0.2097517455201319, -0.2461408769592305, -0.1385959917812007, 0.2752197931772408, -0.4712006820901552, -0.09546085316522746, -0.30550738457084103, 0.4525005705419882, -0.18200992401866795, -0.12726230842481281, -0.09899455592922231, -0.3191682672697871, -0.2952200205039681], [0.1246241612042871, 0.06388372883325034, -0.3940286560446176, -0.17289980509602643, 0.1502607578249717, 0.2277185093612112, -0.08251047783637756, -0.9793913973949893, 0.29291267884176986, 0.046786369073783654, 0.09591309943361029, 0.2839518548297591, -0.12992664772538332, 0.028557360097595325, 0.6137925490170915, 0.052432262052162566, 0.1802486247302563, 0.544002140614539, -0.040366966693008946, 0.07378255958922571, 0.0506873564017427, 0.38247935413035533, -0.13389843449085348, 0.47203061582528033, -0.008126004523209567, 0.007562434584562504, -0.06709538123918236, -0.03754122011016663], [-0.21004838942667758, 0.12959429071888517, 0.2254829465893395, 0.03367849964081739, 0.03579057745750608, 0.16923780439977593, -0.3718909919069537, 0.34722700218709895, -0.031575994505367036, 0.17861142831819493, -0.21018841478618128, -0.053417750238400646, -0.16458267852637412, -0.19770088990865703, 0.4257813356896517, 0.23924173053085573, 0.08115575557661653, -0.004379475004043392, 0.613148864790553, -0.04558726126343826, -0.15193326159228182, 0.004986390040162877, -0.1301427403234572, -0.08997406241153047, -0.1647109895707453, 1.1930633819962244, 0.36133633482208594, 0.0562110854928046], [0.12687362487000628, -0.04048817775617868, -0.07365695310755035, 0.033552977071678716, 0.031005658153255837, 0.3836380255342477, 0.14315367545749894, 0.2664879463133391, -0.28589212759241267, -0.6355153125006962, 0.05481213429298906, 0.05316677450266419, -0.3402049364526456, -0.25982912628295446, 0.31132166672504413, -0.24409522914022408, 1.388251433084943, -0.11876406772843845, -0.2033468654401532, 0.1026292475589233, -0.10443619089941081, -0.02678804698745441, -0.010196673382486938, 0.05477571380729201, 0.07040183348741691, 0.0050021369959797, -0.2011082837675091, 0.48252098119368636], [-0.25593655562073026, 0.5118364927471811, 0.05108583205891108, -0.02908951562044444, 0.09370023597285033, -0.3752777567850436, -0.3293597789937686, -0.1869318728139089, -0.09301005409632021, -0.8688639807540653, 0.5717393668778719, 0.3199797149520799, -0.02039784702761434, 0.2895587006860893, -0.012926377270741059, 0.9832347097767449, 0.03386474931443294, 0.5852531262652083, 0.14639706391701152, 0.1669390135786528, 0.1944469018420032, 0.13406855294151154, 0.3322804009141911, 0.008197924231441035, 0.6768073715609125, -0.03771643222059588, 0.06461120503359107, 0.24139560868285556], [-0.11191859386111119, -0.10677094318078006, 0.4199495131666642, -0.0444309738618623, 0.003508053055674382, 0.5633892642914141, 0.28886535475194247, -0.22232691069486063, -0.308260214137118, -0.3757174143293667, -0.19479386810853533, -0.3135150878386232, -0.2619341426040378, -0.2753264357585711, 0.7811240981936468, -0.3758642222614703, -0.4712895566795815, 0.5011579670642213, -0.3003953831219772, -0.2973092579085884, -0.3615356822753937, -0.37260558703339963, 0.013844489846395597, -0.3777549045287035, -0.376571751719203, 0.06875390285824697, -0.25621383437131945, 0.5255451268614173], [0.04992835439837561, 0.28416471270244115, -0.34969568069869045, -0.009777777267857932, -0.20564159661808906, -0.160635425933176, -1.09891903621592, -0.06283977925526064, -0.00837589377251062, -0.38508659093031994, 0.3238478528165522, 0.11736203486022173, 0.14779584555249214, 0.16380121093062658, 0.17280228514166351, 0.32010340512044716, 0.24757029106744674, 0.41943186846472885, -0.01810944756715606, -0.0721219020598504, 0.15240325640803817, 0.17169292874228315, 0.2349990840902131, 0.509881614344252, 0.041770392359150636, 0.2610563066666247, -0.04339349745492467, 0.48124856445369696], [-0.08485097637083472, -0.10159834332286331, -0.11237660724642012, 0.4808122891457207, 0.7271273682543938, 0.13923167627005265, 0.5880540350437469, -0.10110623732402756, -0.02469133415789111, 0.005603584608590043, 0.3158051444191442, 0.548306180671565, -0.11904788935512246, 0.29799465120631663, 0.235906166507689, 0.2973695914886409, 0.057007580686228104, 0.5266513735268044, 0.17677234634801614, -0.13204694862950023, 0.09939861659045418, 0.0003383377876485271, -0.06005915611919005, 0.16720164888551156, 0.3737713299413415, -0.1515291986556329, 0.5332336334525862, 0.20930216392387951], [0.11291162938399608, 0.17169656610219805, -0.07887728579505711, 0.08535228070012399, -0.06062550798537574, -1.7240440277519458, 0.3187510252159392, -0.09941572746478892, -0.12295739106858199, -0.4761719752045282, 0.20212262974769982, 0.1042203275868124, 0.0480069051098014, 0.07507007961045037, -0.08389866034397275, 0.1808684270537266, 0.15344767241751794, -0.15563043274284571, 0.068870903470886, -0.0882536626201231, 0.09450481351799049, 0.12521471958735503, 0.11372508547413834, -0.016566011073739763, 0.17206698391450373, -0.03166314006949656, -0.03358433320714315, 0.1653930676531859], [-0.3698239569983023, 0.8817058963300841, 0.19191706986915383, -0.17952795285183934, 0.789706204807676, -0.4643872443538693, -0.33382165183526613, -0.4609269758164434, 0.31580360395422574, 0.3066436304999891, -0.1853365508593457, -0.29324221061247974, -0.40993742145109574, 0.7926690103247961, -0.2848072867043313, -0.319817195856624, -0.3292804910944014, -0.19017905540111088, 0.4372543914920699, 1.0264533715623052, -0.2807492296024325, -0.2641044172771263, 0.7266882797377083, -0.262498373165972, -0.24656651454264922, -0.2622343253285033, -0.2186939550282295, -0.3673187989319389], [-0.177984916996091, 1.0791799849700088, 0.18176453025225806, -0.21342757369214183, 0.6522718192814286, 0.018951232083505402, 0.17627404782418515, -0.5430428454872347, 0.3273301171447307, 0.10699319219862878, -0.2307826192435962, -0.13011294825439146, -0.11889862030145687, 0.7720321853304729, -0.24382046324546425, 0.0263565579313471, -0.12194979398699786, 0.006823486966173102, 0.2666297000351017, -0.0493588033490202, 0.3148581642840104, -0.22839595887299283, 1.166146119739956, -0.1567134879413871, -0.0741280162480484, -0.03608355876247747, -0.1846927332482168, -0.1165726080201476], [0.8139117486021524, 0.20706314483570593, 0.06037039670116835, 0.3092016809603147, 0.0919282663632794, 0.44174305491525806, -0.07473775179315935, 0.27977462160032085, 0.03697214734656347, 0.09791248192257423, 0.0856959275646631, 0.0037311248651406333, 0.527839830461155, -0.21187254074872194, -0.25604597932210066, 0.245558270050044, 0.2786400116334246, -0.2029823980795896, -0.15846622494215606, 0.07976465526085383, 0.5239927479707462, -0.043134321061642854, 0.06267190567363021, 0.05788470970076328, 0.23682824647252274, 0.12616618116862088, 0.32059843060496485, -0.08747370917507145], [0.305863953200536, 0.19251613281762267, -0.5170419703534258, 0.5535834913880749, 1.062719334754078, 0.5905007669868181, -0.054853079748157854, 0.12061444737841902, -0.25049957116372157, 0.09351164541865577, -0.21853727886529106, 0.047859931550006105, -0.17107659338053302, 0.26146895420516664, 0.32303263662008763, -0.14785358902591125, 0.16606248083186573, 0.06493294391891799, -0.39697289071129116, 0.17121023340999308, -0.35532294609207493, 0.49363847870680416, -0.08947302593315169, -0.15959146994836532, 0.028303916514047966, 0.08276898843293377, 0.018873431050357506, -0.13941065652241988], [0.11695402540048723, 0.06374339938830863, -0.2450535136966397, 0.4370103788809802, -0.031963132250153084, -0.6699169302319335, -0.0613072261211542, -0.1016699611354961, 0.10913783899101304, 0.11194243269437656, -0.06877376594026542, -0.09482248538440767, -0.06644216462260641, -0.43839027392971036, 0.1796025990629275, -0.18631357979035063, -0.09028507859760354, -0.13732923954837659, -0.3785929521184708, -0.5611606872326662, 0.7203013064831936, 0.42987942151968583, 0.001279073728477461, -0.10102078838543796, -0.2592326209510529, -0.0708152477011825, 0.002789292541873046, -0.11232899031138929], [0.039586490770696744, -0.07351095107122163, -0.10614460226768249, -0.034009114935941206, 0.2942379179298588, 0.6897491695719183, 0.20799135115161171, 0.23576280195759475, 0.004638974928000992, -0.13438406317995838, 0.10832699361529725, -0.08453244853743319, -0.19605862360632764, 0.08272789476565219, 0.2804965350558711, 0.07057988955493989, -0.02628619249973858, 0.06903841874614285, 0.7873809421908569, 0.03047954343775, -0.07332690028768017, -0.09494993860410449, 0.0858449231704149, -0.19188283850249457, -0.08548533456210974, 0.26244932308017155, 0.03885214769563808, -0.12303234811012984], [0.1196154829071611, 0.11883281884478356, -0.30640026915458185, 0.26259350595128805, 0.14034098024632896, 1.0331688086931519, -0.2505367288447769, 0.3084286366594002, 0.0032936134292956792, -0.17561070729513026, -0.03896108979993901, 0.05164952309819808, -0.3590552440835204, 0.3112535124990708, 0.16273991008797487, 0.09198491744635293, -0.10774892454070976, 0.027087154893564516, -0.05726623895130758, 0.15086212708180347, 0.23925357231259137, 0.2891519583025623, -0.12952073714904494, -0.15162039586354364, -0.09160694643962583, 0.04099174413447889, 0.2821132175545928, -0.14171800529263454], [-0.24428979208736348, 0.5233160851299784, 0.2237086318078246, -0.1262296173592298, 1.0434836780289662, -0.2160078180380184, -0.4214148735432171, -0.2665479313577057, 0.09969830362236366, 0.28000475591928914, -0.23081043213981747, -0.20195501078355416, -0.27987695910063043, 0.9069141785570158, -0.26793393770925117, -0.1300638468734635, -0.200608156934883, -0.08623476776457127, 0.23619824328939917, -0.26782480157766786, 0.15398646997746893, -0.16264692710164713, 0.42703849562618856, -0.35812065477784366, -0.21563326788196502, -0.1506322206160144, -0.11641011401579668, -0.2882897915172714], [0.20538815106190944, 0.10821577985595866, 0.008971509339886177, 0.09537540236519229, 0.16341143504668784, 0.2542679485012891, -0.15851991305271915, 0.15267514206572164, -0.17395343805483418, -0.02132420526515056, -0.10519421367540972, 0.9540890046650496, 0.00950494316683203, -0.23004233089968928, 0.3654078299725048, -0.02218441262722006, 0.006082605250241092, 0.8011675570652571, -0.8797457078510844, 0.25678629995481306, 0.35281730237972264, 0.09616424823004835, 0.2317658245558905, -0.22743672302345133, 0.11394553948279208, 0.14741263157320963, -0.03910040086086989, 0.03148165095318498], [-0.022356072803686997, 0.20251681823044618, 0.10663459384529898, 0.012016417704099029, 0.3412510586182192, -0.8749113856970129, -0.01752524129166489, -0.051798408470172065, 0.11860044194132605, 0.3118306417397069, -0.345597858978112, -0.004905257614323884, -0.12747178566849998, 0.1798219159946669, -0.14030483983413303, -0.06465158934920648, -0.07202072162219109, -0.034965138404241106, 0.4854453273441548, -0.18522677010706126, 0.7586984867680955, -0.05184426401305987, 0.4258085708536586, -0.24067358999170588, 0.2138932427100713, 0.000802423267792654, -0.28373960571289897, -0.17755924248551444], [0.4077452027672004, -0.10872071075440265, -0.5153633663036078, 0.5463980712383192, -0.05630769182922693, -0.44035801140095066, 0.8239209831339832, -0.22701139973540058, -0.26102354861544874, -0.11765809496979508, 0.0700534403760253, -0.08549699659357218, 0.25123547716991723, -0.28533399294831335, 0.06354343383252829, -0.00030182191760750633, 0.0028741820607038667, 0.3281382143377201, 0.5243697386339621, 0.14694370021609596, -0.25506727070881985, 0.64456148308972, 0.05154473132890338, 0.03929705702661176, -0.29538682410393247, -0.2850786188219606, 0.04356887247550831, 0.40913685159140867], [0.6951334210628328, -0.1375023706595019, -0.6067700419806888, 0.4387196420344934, -0.3386168149475973, 0.6279503005450058, 0.03743138909757445, 0.32055215259625947, 0.33463208123731614, 0.13989803755235747, -0.34848896254140466, 0.9181882441652389, -0.392294862765997, 0.9754842667625695, -0.41482354492393886, 0.053850666239500876, -0.17161805318767065, -0.07599781440045016, 0.0938811972093777, -0.20142728675972318, 0.6543032806260728, 0.5360292328864038, -0.2748039632068248, -0.30294087176146905, -0.21443023187001373, -0.1658328812228238, -0.19836737889892087, -0.11904655833580312], [0.15299173819564338, -0.21776852170774572, -0.19379001866052142, 0.057562693511890556, 0.11080501254024012, -0.49887418036781117, -0.1592301860420503, 0.033747516606325065, 0.019446071707197247, -0.09474304033004348, 0.011766230197388995, 0.015426462491576575, -0.05323273494142514, 0.20418744336733585, -0.0017487999933420285, 0.08931126345029201, 0.18813244011239344, 0.07276226372812418, -0.34493310302612346, 0.14444415499832836, -0.8515513400745025, 0.023281259524919887, 0.2627726787257701, 0.1131722947549079, 0.43667132416641846, 0.12472320612497127, -0.2988751092784233, 0.18139882159787518], [-0.21998000463031833, -0.26497685062636267, 0.29637339880352787, -0.38613987775260816, -0.3969048149121315, 0.5459651233207018, 0.21762706363842504, -0.4667529018725034, -0.90936457602341, -0.46287337675830836, -0.34133890713017123, -0.3524424126590077, -0.7258319018636911, -0.4175261846434632, -0.6721104531156398, 1.8165412578088895, -0.3035197632879205, -0.17624536562383541, -0.45142823231940055, -0.1352173313443873, -0.32483897768173114, -0.0492012635814752, -0.26606766728105485, -0.21619347459554084, -0.15974768464620062, -0.09459187322246101, -0.08106219088320059, 0.8554502987453035], [0.2405802137148263, 0.12190328858189527, 0.11727695769190906, 0.20813447597590898, 0.123111155842004, -0.0936801766540702, -0.43583686874887795, 0.10661661006752832, 0.29854266906314925, 0.7096015046616596, -0.030878599988298016, 0.1904888075225446, -0.2843991978271798, 0.004411888020425901, 0.2512533767732011, -0.1480407327894625, 0.18853463522234457, -0.28606533628873015, 0.24637745599560304, 0.15382835019748825, 0.13873038153872763, -0.025842747762322957, 0.15353797450883913, 0.04277254613928291, 0.18418129341423387, 0.14946727839978655, 0.16393113804271667, 1.827327164198343], [-0.14090684554417593, -0.04737969816404227, -0.03181849012875199, 0.0434529592709883, -0.10250226699878054, -0.03496042960775793, -0.0775143219679167, 0.26009447261824675, 0.05731644320782261, -0.11455071619782659, 0.3418125833375257, -0.1466080118941715, 0.21295873489352957, -0.2703155452649564, 0.49269505614251735, 0.2986783653581007, -0.17178267874460365, -0.0032563805480473485, 0.3528473775986635, 0.27135604668366947, -0.24712809010938142, 0.013646982350793842, 0.15540117587819868, 0.09992828177772792, 0.32086140593139195, 0.38587493995609967, 0.3431494584604663, -0.0944617618447579], [-0.05560750839681854, 0.06126307485517203, 0.011246216697470088, -0.038929936118521594, 0.012031665383157515, -0.13017257173510066, 1.8965799676507489, 0.029949332732471697, 0.15032556742560801, 0.13271868103855788, -0.1161772737975089, -0.011660193062091885, -0.17914631770275807, 0.2425191337949617, -0.023092850690239516, -0.11197127125454992, 0.06267024420690759, 0.03112476239736458, -0.12473005662780612, -0.05063270866531013, 0.030807164402898646, 0.06072189717362196, 0.14611353652089235, -0.23559322822279272, -0.07637873316917583, -0.06688323634511652, -0.018769408197443813, -0.24622395935751681], [0.670936342398184, -0.2145142496054059, -0.6395676955174798, 0.8365647252318107, -0.18565560143569695, -0.2915369453870722, -0.16640223706487928, 0.23081334610343845, 0.257233961775028, 0.2478225115068673, -0.0783317158735792, -0.11275486921350993, -0.06647135698603451, 0.0233630881123187, 0.04704333625900983, 0.09447092732356482, 0.07560450786716406, -0.13427660665498653, 0.15370247616993893, -0.23896648661832945, -1.3605751072303558, 0.7821971687095877, -0.2882210288490028, -0.1375928476103507, -0.06485089031845377, 0.011555911359218908, -0.17856739591594048, -0.20066194821203018], [0.07465452269630785, -0.0681226470465135, -0.06478652819182218, -0.03986815020709536, -0.060466094392861394, 0.16017234395909338, -0.15157227620296063, 0.12240852940107319, -0.2767940249129592, -0.4096441766890844, -0.23378255643810558, -0.22048296866436332, -0.17269322468588902, 0.30053968384363666, -0.09350472846097699, 0.031233770131372938, 0.1976210684675665, 1.2116882316996094, -0.4910008428821872, 0.10685516383741119, 1.1008467716107935, -0.03626417636563295, -0.37167182959312123, -0.1837010314296335, 0.14649323836302852, 0.11768799480270593, 0.03141360917228441, 0.4374012366954962], [-0.07753388932938926, -0.17466843896663956, 0.14843109464559529, 0.2440912946064278, -0.038671743471317244, 0.24570976509793022, -0.08890432238434917, 0.21744728540882965, -0.13603868769240027, -0.3400657417798674, 0.7278914975092712, 0.45254327570982844, 0.05971948825602621, -0.23195297702427964, 0.003950260232798396, 0.45874361235203176, 0.15618575117895908, 0.5611368172862146, -0.30514980589945073, 0.1720458920238891, 0.1597578979604855, 0.06434003021144763, -0.17688596425388556, -0.16103561517626253, 0.24805255690233394, 0.28648262337873975, 0.3586974506173717, 0.3167311040831332], [1.0030503302681, 0.23605992887826835, -0.47815987396892545, 0.21739402290759197, 0.1817377239899376, 0.4919543632919528, 0.22827058265621292, 0.16747601535802567, 0.06949066885109625, 0.2133500346990148, 0.19674645160470478, 1.1688289282204907, 0.05226570680666493, 0.07774957382192571, -0.4695760858809233, -0.1673504380778696, 0.09675337777643386, -0.04206743919208009, -0.13896266468455237, -0.054886376723790556, 0.37886023661014356, 0.1609769093707116, 0.0949900615661457, -0.04182597305451107, -0.21740077194175536, 0.14634560839393737, -0.03275557966989684, 0.2855636829646754], [0.6609027492893239, 0.21338758849229694, -0.19107212417483266, 0.34903909493440916, -0.032306013988983036, -0.12973999446281187, 0.0896046772980019, 0.12187794656416323, 0.1957702481586958, -0.03388803692999212, -0.27197377763105507, 0.009370556132316344, 1.044925624120338, 0.10262297907540581, 0.09278076433612611, -0.04930218191283519, -0.13933018379380593, 0.07590219338425917, 0.3104336579629702, 0.1637542930210412, 0.18858416635239783, 0.32563298800254015, 0.16463595943315829, 0.16329999734453476, 0.12874111289810763, 0.16768262404450848, 0.13291127778197587, -0.11768063620344547], [-0.08851322779679634, 0.12284955346426378, -0.11277714573800025, -0.024824452328231238, 0.49884258541265114, -0.24485462700423574, 0.16540220079277393, -0.4247120157401498, -0.31989823907966064, -0.10644392043101492, 0.1261211637756406, 0.004621519185014055, 0.03980346900712408, -0.1820026770227439, -0.10461290756513816, 0.10564187379337674, -0.03955244975676349, 0.27851164689551994, -0.31178891466746755, 0.0626977464906841, 1.0917961643551761, -0.23496796032487857, 0.08589669350675237, 0.5842167032225015, 0.07191707097909841, 0.10151412669531847, 0.12332992245231737, 0.47614914660521435], [-0.8195575773142061, 1.1321486110787367, 0.7406732271683066, -0.6279976870178491, 0.5411568434933458, -0.42243784644869886, 0.05651716986933843, -0.9021558169719659, 0.7221098348989234, 0.6881160410163181, -0.6491595004194785, -0.6457217828512999, -0.7434729195482707, 1.1106147294473199, -0.716336792842168, -0.663834944209107, -0.6061782593673553, -0.7032004873317107, 0.7176585042427547, -0.5625902252920564, -0.12826612974395654, -0.7274967896652795, 1.1152651265348104, -0.9446745798742021, -0.6396495175925908, -0.6024943589045576, -0.7141471110834592, -0.6685498823979896], [-0.016519052582780795, 0.056797274506294675, -0.23790265054835397, 0.3890267294029193, -0.030003601621945916, 0.4612663011438158, 0.02501797867117541, 0.07133009633318008, -0.16769470574995643, -0.6766176700680724, 0.06367930216357358, 0.010947051803357132, 0.008869589706429997, 0.14881060840393334, -0.14779204546566735, -0.03990683672306249, 1.794940256227402, -0.2129444657791394, -0.15510387818510563, 0.05983620719195271, -0.20256535710165088, 0.03181101870703287, 0.13179376042992558, 0.10495007810361028, 0.04864746427615137, 0.5239526497707735, -0.3799527072266982, 0.48360673566456186], [-0.35855430693991686, -0.2641400547919204, -0.14650106518457812, 0.3436269238014395, -0.36594447790351314, 0.0831261035169388, -0.04497692051037891, -0.13688848973429985, -0.015546014885386084, -0.05466438905000037, 0.07356250300928857, 0.10357027014648479, 0.1016334937646103, -0.023299638195175106, -0.012435992438938377, 0.1446859011685963, 0.38315093596764505, 0.3592953411069909, 0.10897005836814384, -0.12113970613996672, 0.1893055715529956, 0.18428620410294855, 0.45219321452195904, 0.43210483465230753, -0.2563695571553511, 0.5627295434603788, 0.6305823334841971, 0.1856452934084816], [-0.048096036042598336, -0.15998048675931356, -0.23511363319119116, 0.06635005649522094, -0.0936174880676017, -0.11372031426356226, -0.1943046717390108, -0.47064675208441675, -0.07265893161772878, -0.25337582591475816, 0.9741691698245162, 0.11340826213529917, -0.10314218028047065, 0.2919751809600279, 0.48163849875104237, -0.13979478092825504, -0.37394960054499315, 0.04900843669647275, -0.1195811875261912, 0.1380363669368484, -0.287790636190373, 0.2605223336791953, -0.1437388859803283, -0.06496394396060658, -0.008259697048927653, 0.24071850274250822, -0.08952246820937404, 0.7314780431765148], [0.3816550345471874, 0.031826207501916344, -0.147013587048799, 0.2661115193666927, -0.21726745827625177, -0.5401045656317909, -0.41353277637231967, -0.03757692984251544, 0.0655944053684653, 0.19442286530267813, -0.013376366515824342, 2.436052179548923, -1.0254361911309409, 0.49450914754074904, 0.37214184057190186, 0.18403572660863007, -0.11485389843599941, 0.039998988888137035, -0.012601952234030244, 0.42194347239356284, 0.10435086608999859, 0.06048948855048386, 0.09986627345197878, -0.14478026015460904, 0.05092797718869346, -0.005578527234043628, -0.03556551166591092, -0.0163165451498274], [0.07628336690248874, 0.3035459318687125, 0.09489604879373294, 0.11901352936118602, -0.5045084787435803, 0.027108855922680357, 0.056024369076342395, 0.1544047792750789, 0.05379188136967682, -0.32863218060926086, 0.07936554701442242, 0.013198840409266246, 0.09587993006302174, -0.11953278721803866, 0.33979605660990775, 0.2890033414890421, 1.7732135839561207, 0.17326379983273496, 0.1669251307023189, 0.2821640040155527, 0.2774774156863117, -0.011701576510344926, 0.15163683377965592, -0.021885505780114625, -0.13064906765300655, 0.01227480705714389, -0.645368058874061, 0.15196350899534972], [0.12490026409071761, -0.2407565029947125, -0.1574429127095948, 0.26272486703314396, 0.08688137378212507, 0.09468693695045058, 0.6596620372270199, 0.09297123053804007, 0.09629932792561167, 0.07218726873529326, 0.16977125381969999, 0.5141054599848178, 0.05513242162583299, 0.8475152873883838, -0.22498725651340634, 0.22534280770151283, 0.15357885312441943, 0.02958781165952058, -0.5607589310545803, 0.7556682784567114, 0.21477105792788162, 0.24240958595578058, -0.0006948813102493165, -0.12771907674983243, -0.11697457254754902, -0.03600790961212658, 0.21978245543304717, 0.08562076485749281], [0.22520847281665074, -0.34574253815176154, -0.31097824138950203, 0.3285463435456524, 0.8327112377966995, -0.42572161741252257, 0.3897539758861285, 0.28088596537042826, 0.1900532398524214, 0.2550897467511489, -0.3537071900008174, -0.24162653745156495, -0.29011459958722446, 0.3550070567344734, -0.22321719569530257, -0.23696017802657435, -0.3163272801524303, -0.11451413035015257, -0.34906452739273197, 0.20638092405833042, 0.3900982864795583, 0.3037196404064832, -0.15944955734843858, -0.2670967340135256, -0.13150184229367534, -0.28865745063222537, -0.10044690760993195, -0.3084428942404938], [-0.10479800451783373, -0.14311934392615364, 0.17831984770287457, -0.22756370203013127, 0.24557625262343485, 0.008017480505109816, -0.06445450722762976, -0.19639007483376789, -0.030326501701422294, -0.6828690079989143, -0.31091525349201465, -0.1744991433844287, -0.09975909931670689, 0.058981602768850575, 0.19761202486139426, -0.24338777694780264, 0.14795037620684104, 0.8637369959397526, -0.7544864498356874, 0.20460692425077837, 0.34246093689356205, -0.019345690894996766, 0.05982636006802698, -0.001886819767999969, -0.07259853360527693, -0.07606657201836083, 0.0239370599050996, 0.14992757828003372], [0.6340876073283592, -0.38552557390740555, -0.6416994352681173, 0.7843418072620909, 0.4300235316878109, -0.2797546402187361, -0.4018267385659865, 0.5910931039900893, 0.3594366975062832, 0.3692410336173651, -0.3147293740807534, -0.37614576918073506, -0.34907496366810054, 1.2042234493670427, -0.9222399288278846, -0.11201649452516696, -0.3012046916136103, -0.2776431488288698, 0.12948146877630734, -0.30440230049531575, -0.06148196497196758, 0.8969844590193653, -0.3404851732307974, -0.38280851270733085, -0.21392785844540116, -0.17647271262053885, -0.2898689103886271, -0.22316630893320827], [-0.32864421904776586, -0.013671554181655138, 0.3382566327050432, -0.2950174258929513, -0.08106042263260196, -0.7018151597527101, -0.6998773847261005, -1.0623883796456435, 0.27409816515660645, 0.20801752268409607, -0.22969570633572947, 0.01610114831210099, -0.07231953267451202, -0.2535342467505291, 0.7290218917735516, 0.07814918653187587, 0.10727865999303053, 0.07735102301427571, 0.43539490445110496, 0.18651298802359056, 0.22566274425397118, -0.18120337470212372, -0.039618798635478195, 0.7463021137553628, -0.005258473870466483, 0.09109872715399148, 0.1581817607766915, -0.08823657699252258], [0.2356698600287113, 0.17580280778868182, -0.1109887804641768, 0.24794226753837356, -0.0283795438100583, 0.32208063093995326, -0.21841314002174125, -0.35778712643727095, -0.05149853690958076, -0.27724352198500546, -0.22591557414284932, 0.0549357473405787, -0.26100168798283724, 0.1660212786034404, 0.18702317958717476, 0.08298099314835831, 0.20723267153385255, 0.18832264835669735, -0.12946045766756725, 0.018785472877043713, 0.2545411339838622, 0.15487272598648588, 0.20137924128913628, 2.0749313855965275, 0.22416210658686472, 0.334282231528594, 0.1541014959453802, 0.10582706559372432], [0.42391186685852844, 0.04476524721428682, -0.5394905625805987, 0.34779821338863853, 0.035397460465912085, 0.22209563002560614, 0.14565278676578053, 0.08435545506050278, 0.23040704579332666, 0.15260606173139743, 0.14483184746720118, 0.765540831592561, -0.27354400310861715, 0.3359466740769634, -0.4372877478560135, -0.13419334721247678, -0.04774513101273717, 0.0667095116202615, -0.007093251461259696, 0.2665975413337163, 0.23693656801170143, 0.48855493729136024, -0.061382768699614246, -0.02167112399556623, 0.039179450211249404, 0.04145452700980823, -0.14230035183927134, 0.039781772003555496], [-0.30414789389975566, 0.05756963294112662, 0.07550565820193317, -0.223999772455372, -0.0667771056572645, -0.39704173319684627, 0.20447915150189602, 0.5096573631523917, 0.17625790678468323, 0.597817823303819, -0.7056083299850295, -0.16735947992865455, 1.0867291732936917, -0.33408342605582597, -0.7522050822580894, -0.10589442756290597, -0.13393702802985807, 0.05334720688134107, 0.396459291196427, 0.018647791974181132, -0.17625403565790512, -0.10671489248034294, -0.09987816185711218, 1.1254858994209325, -0.1943014223542585, -0.27243455238903913, 0.07886994536521881, -0.29469844790247407], [0.07373337852423625, 0.0886183356535982, 0.2761296469605502, 0.11406665907857892, 0.15838188562476574, 0.0664878964417969, -0.09406299142407747, -0.07327445837566768, 0.14058895208974984, -0.10939153567410609, -0.083417350317802, 0.08412731708008213, 0.10602041898066833, 0.06583629688587204, 0.11101606853214183, -0.014317290968165725, 0.1511546435573332, 1.7935626480299613, -0.21285230830613341, -0.05105029457056133, -0.15903106177888665, 0.10879660046182484, -0.1459076396468075, 0.19715813548506256, 0.06623929174139308, -0.024495671578845114, -0.0012745005901238261, 0.003437605033394648], [0.2880868253440458, 0.036612615416667535, -0.3739427731171054, 0.369567093836047, 0.0006517863658302494, -0.30010006930581073, 0.11789589167715812, 0.25757836402568274, 0.13175508545165587, -0.08494827791327532, -0.13977573979483002, -0.14877833235260052, -0.06835451651989166, -0.2708274372884236, 0.6529179115813513, 0.32176046081255133, -0.006805780453725575, 0.1359689613445574, -0.13975367276431744, -0.8085855976865964, 0.04232586414549138, 0.5042600589341713, 0.09149532632952033, -0.10212681894709377, 0.04473611040785932, -0.015605864911039715, -0.12363767594637531, 0.1403928567333024], [-0.06524781120348905, -0.00012754746439377603, -0.0015242391581920547, -0.060874220028607214, 0.18057196120003163, 0.08998239612982582, -0.16128655941880765, -0.04415622055428464, -0.044007618493833355, -0.0988969838373416, 0.07717194341163014, -0.004230135235055145, 0.01924808308049114, 0.008386803447646531, 0.05965250111695424, 0.07850554519468066, 0.07201006841776414, -0.04740237477319407, -0.11151134260703079, 0.08277168307666725, 1.9841908171493787, -0.056298381185920045, -0.023013467452795783, 0.053831747682062975, 0.1274171371507729, 0.1796591879097301, 0.15721502572947102, 0.07000671305171799], [-0.4177976120241755, -0.08817953145585368, 0.15185577902619796, 0.13433309878416644, -0.5428140104225783, -0.2542901427485273, -0.15929345516757823, -0.3087850009224779, -0.4965626626894632, 0.15631887009616005, 0.08969873873378628, -0.08413101824810319, -0.05308663704421552, 0.012769251408392494, -0.028247023736169767, 0.03972944166265415, 0.6722627610729547, 0.20736707982209188, -0.29722389641481073, 0.11634254669077207, 0.12900813404428893, 0.06613423043470872, 0.12738185856341258, 0.25738135776745896, 0.1476595384660435, 0.15505118616727612, 0.8538794753394977, -0.1626506480510762], [-0.11800747457807503, 0.20366483278399808, 0.08206270683171764, -0.4170501223741343, 0.13836352787961076, -0.14753563152848484, 0.1681353238602068, 0.1231907272872632, 0.14474504732083526, 0.19002461636611342, -0.3350265890737253, -0.19027148299025679, -0.1467803326959807, 0.2689363763877453, -0.09526248704732129, -0.27454426097442736, -0.30228555046004946, -0.39271697821341056, -0.012338539516463097, 0.04363815594135084, -1.3344714957094184, -0.03461780179949428, 0.10864122352374259, -0.25961254041283516, -0.21911061331468112, -0.13421199907795128, -0.1518046460589801, -0.29177013788216044], [0.16753894667451938, 0.044585204158394856, -0.21661515799250208, 0.305611333140914, 0.12750377644473643, -0.03630292566611901, -0.08336229135476002, 0.18018106390961994, -0.04164840436298681, 0.0784801000033707, 0.09918256691076495, 0.0745829507091596, -0.0024087228009921427, 0.07138663554159416, 0.35792670011622796, 0.3090539401781401, 0.21041460053158947, 0.02925913728842498, -0.710840569306847, 0.46770053344680235, -0.34512515278198796, 0.14255037804882537, 0.04560950361198288, -0.1635113270153312, 0.27478076202401863, -0.03785869237656435, 0.07113996097299324, 0.13349071301290832], [0.40847568601436474, -0.16070044067270386, -0.7655661025436421, 0.7400301195579344, 1.402338208053303, -0.18004075028551256, -0.32676517341591355, 0.47648865202814117, 0.049265207096630695, -0.0072778369407039915, 0.2149212321817518, 0.017583379869206023, 0.024697805067463423, 0.2903744174034465, 0.29105222158083444, 0.3364487731237493, 0.023616095361846938, -0.03771075122352058, -0.027270881789041638, 0.3318318283574403, 0.2593784748811663, 0.8261007442045457, 0.02557778193030302, -0.042913154069717525, 0.1297730697761064, -0.12006208353204796, 0.27325993439211277, 0.03273613724829005], [-0.30190133430355925, -0.23550263932565535, 0.4510692445366657, -0.49158356603647374, -0.39407966892128843, 0.6169645431457439, 0.31827908669388744, -0.46321382575989994, -0.7381250448176692, -0.8356995390472969, -0.27052491945727103, -0.5191752409873742, -0.578425203960878, -0.46368816924504436, -0.5968052186554929, -0.31769255964576004, -0.126518197461967, 1.460648910543469, -0.5617049638725562, -0.3349390382229861, 0.8551901593064553, -0.40738058784310016, -0.3574863034824073, -0.2633729129369881, -0.13404442689331697, -0.18463403281712118, -0.2702812668189453, 0.7617083070443368], [-0.09009405610756796, 0.12431348474301032, -0.0751512858383712, 0.04531859780541562, 0.17270660181544936, 0.029140114330820657, 0.16844352509786475, -0.19687598654012464, -0.140586533339648, -0.22838969905738246, 0.1607452005180357, -0.06024910897260809, -0.21445627598859668, -0.11109488138317325, -0.0367946751036801, 1.4988340789668486, 0.5252053614850034, 0.0733977326813151, -0.027182628723342428, -0.06377918337155866, -0.06392555330645489, 0.027911240331690956, 0.029728813635176442, -0.07857707464176877, 0.1754162966325622, 0.28025844900633, -0.1769398689103787, 0.344993655405317], [0.04419272759469435, 0.0031894485423674492, 0.22516400289611374, -0.2175745900188626, -0.1634188021554891, 0.25963692811857714, -0.7972455928867737, 0.6778163555856506, 0.3472341403178562, 0.29201606621418935, -0.07105206298035048, -0.11961632189771186, 0.2054438858771026, -0.2016961575633494, 0.6047578509428896, -0.10339859986511626, 0.23212106612412325, -0.06244501232277265, -1.071595494135522, 0.6137890138061357, -0.44032863667262834, -0.3057904972196547, 0.054784335074816205, -0.1656376917156201, 0.02700744503825971, 0.5642427592268617, -0.0780102275628831, -0.2773120035185864], [-0.2812562345727977, -0.32002538708996137, 0.40885227453290385, -0.3890537927933593, -0.15075254090045798, -0.5767979306892058, -0.522008827251603, -0.6598605008443366, -0.6011348356287989, 0.3776927507143528, -0.13825677299117542, -0.33874890542728664, -0.6033594721865182, -0.18039479936598143, -0.5030748893332878, -0.375801687143002, 0.8867136179035175, -0.09962917403434565, -0.6510024083944427, 0.007437914076696087, -0.40515223007209267, -0.2585573158662674, -0.39357775668389894, -0.3892778609468228, -0.31318482842454975, -0.21364860016406817, 0.8644441618349873, -0.568509274489854], [0.08336353990794469, -0.014192798586263933, 0.089973147388555, -0.04308208249310238, -0.14310433728003702, 0.07555735584442314, 0.14237910344916208, 0.3573978059630769, 0.11062888978347026, -0.39496978166753943, 0.9933917915779974, 0.5706612161672409, 0.5456467345083811, -0.27743874951078407, 0.0004934403419093736, 0.01439062514342319, -0.07060497591210291, 0.233848880290007, 0.34442512687965393, 0.14131081149725774, 0.8081820936152873, -0.11252485028574169, 0.10640121487969728, -0.15967020882223823, 0.8449159695047457, -0.08927098810955718, -0.16323567046791942, -0.20274569014852525], [-0.026279925188467904, 0.32739994251421745, -0.033851074471288566, 0.0814011161386717, 0.21798556670952768, -0.31536884547272537, 0.49678939924030513, -0.12423957186461011, -0.3076693538185792, 0.30472285437017976, 0.05894291452762843, 0.015241762345788142, 0.04487527912033175, 0.10575439134247154, -0.03249489251529709, -0.013113266016162844, -0.1554459135812428, 0.5679047172423983, 0.14967449514230508, 0.10023155456435794, -0.4006793666072675, -0.5238268984768638, 0.5136443749392495, 0.0850499537967703, 0.1689091676337035, 0.04213331657808625, -0.19664669471671076, 0.09323461478066884], [0.25476381664415804, 0.22474560763042417, 0.2533001700036897, 0.2500533820855037, -0.20171315023223285, -0.04205467858182242, 0.1806444892639156, 0.7974251327320812, -0.06950588693531891, 0.23262643114396847, -0.038643690735028664, 0.022481682911784415, -0.4053538957189435, 0.25155327835099384, 0.45554538840706144, -0.0036339232273023066, -0.22253953690829867, 0.18375539121355264, -0.03654858407469642, 0.38876962615549854, -0.9690521220589656, 0.012372694882134974, 0.17315666258590684, 0.8279994593075869, -0.04431386613209085, -0.08544212969936962, 0.19673960338215293, -0.21829073048936318], [0.0990360243738735, -0.266322824853148, -0.08428020753313394, -0.06002966756855588, 0.12551646626956192, 0.07990955055073805, -0.08989975523024009, -0.00025699359779561776, -0.04641039771810078, 0.021780962240069167, 0.08273749347017552, -0.12891950500579616, -0.13026384550610376, -0.06645718121707456, 0.0535793007031148, -0.003863964055100756, -0.08345005660851128, 0.5440755047978617, 0.0695321454644077, 0.1664824843753364, -0.06134804385620081, -0.05778000737353593, 0.002399372402918232, -0.3723141830742427, 0.13411736321612155, 0.5297922984693848, 0.3298275474999965, 0.013338048615987351], [0.368147620427319, 0.10106919461476559, 0.09434873753814135, 0.04724096212341872, 0.3095326264487942, -0.2752731935698437, -0.41265767655845964, -0.1619921283527643, -0.06581337961434044, 0.09447237641667358, 0.27120724141537594, -0.14080308764842786, -0.17563992277912405, 0.08820594776110642, -0.00835609928602674, 0.12310929628659831, 0.22411102569951344, 0.11790280591098287, -0.014733191433090364, -1.4562270311499412, 0.024845374860365012, 0.19030447837440273, 0.15262582170463457, 0.06980648518058356, -0.06325336064275758, 0.049062547254946534, 0.185182994766214, -0.19656237575352467], [-0.012442628942899867, 0.4028191603488878, -0.1392307852922463, 0.0915934579036084, -0.5420616750396748, -0.42595946821437664, 0.1805692437398127, -0.004085380264265118, 0.07089229762472395, 0.008443964373786325, 0.11892091008318145, 0.05321557939206503, -0.1337679218854548, 0.7307945695880721, 0.26363497091183535, -0.035162445422837384, -0.08580279988350432, -0.021534852142213994, -0.2215177811614932, -0.3785700159166714, -0.5825258571991234, 0.09880334213851585, 0.31452794874909884, 0.1527048277049018, 0.00848882888956726, -0.01741056936492701, -0.2008300925484161, 0.003544961078303812], [-0.042355350770759886, 0.12266461868132877, -0.7486389776824456, -0.21802428287592385, -0.1304375668252683, -0.3414820655430496, 0.03538916018661731, -0.3227853920226908, -0.6680706532444086, -0.1022214321887653, 0.42608988536794895, -0.24370064104879657, -0.20706833335891817, -0.09833873088606598, -0.26547287692227595, -0.021539156584806554, -0.07339387516360801, 0.8734816024779449, 0.8866258973492329, 0.25190948078896946, -0.3372637896748757, -0.02157307267283557, -0.21808002786393912, -0.030615428780598305, 0.16967396658838965, 0.22322152728605488, 0.1856758270347829, 0.8025272314794517], [0.18921311105645347, 0.007103008057752653, 0.034704876707745136, -0.11210957029945287, -0.10692198845155396, 0.25569257459310446, 0.23471090314957224, -0.2602532279953914, -0.2725293565881534, -0.3783261231043337, -0.46201326916621727, 0.28864597456709445, 0.07085392370022703, 0.008990959518119596, -0.08609512146447434, -0.16080792904469468, 1.0547422934422537, -0.2790670920100317, -0.17163634883060822, 0.1971148971820179, -0.20593934641767456, -0.1569948414131884, 0.09152944601665867, -0.09616530769781895, 0.2688688765722674, -0.10823258758218197, -0.12701770374132074, 0.5311251656169079], [0.07871449948529145, 0.10589689926463551, -0.03582231451821751, -0.09121401218467433, -0.326535012388462, -0.5170784183049224, 0.39295278737867445, -0.30219478173571934, -0.2521116482063149, -0.6369370147886905, 0.2868607996421833, 0.13104639919253208, 0.35505585503587106, 0.026877368110003887, -0.3338000302819404, 0.2616690097338803, -0.046397913645622076, 0.13309809556610216, -0.4140711360069518, 0.13607412583239537, 0.634380647595907, 0.184702736965295, -0.1252559645294018, -0.10452828867199128, 0.05783321756808056, -0.09912068555179532, -0.17365959591176297, 0.13984402193691717], [0.12834415276578662, -0.1727694646476473, 0.19178351689020146, 0.21710692450432068, 0.11970100448913948, 0.2114401329533843, 0.08494084498194794, 0.2418155767163308, 0.09345951752621685, 0.1436532544508612, -0.09770082267135032, 0.3164958682547623, -0.2845596309026229, 0.31937661633424885, -0.11340664916115656, 0.3879572703885778, 0.016919905104059295, 1.0667712460911698, -0.009610210777456957, 0.16777376284293025, 0.09853644113657319, 0.15760597180550004, -0.12292656504359734, 0.167619424072671, -0.07556464605988111, 0.07615803728198199, -0.04253851005184413, -0.15046271136760123], [-0.16204454965928428, 0.10878728569789539, -0.18476501266785986, 0.1655433248299457, 0.24220097974282281, -0.1878672367511696, 0.1535200671681434, 0.2502575915164593, -0.10180575003148692, -0.45253492565469683, -0.02441168198971102, 0.7678583254946737, -0.004836125571045349, 0.3271023517374381, -0.03673664389700687, 0.04328535937518478, -0.11539180009540513, 0.10054111560535729, 0.1638708356208519, -0.6356205635330565, -0.20760865274924878, 0.17440110468924508, 0.19534078245830117, 0.22396661261418077, -0.12880188562885972, 0.06444150747694144, 0.048062881181521196, -0.08573268091190665], [0.09661778547685775, -0.11981827993129263, -0.18172121765309432, 0.08955765152420335, 1.0957251286216916, 0.3268801854913698, 0.25412564190332065, 0.1972741247229819, -0.12442096390353383, -0.3183196439019166, 0.09387274889381582, 0.19790731742275078, 0.15297328727390483, 0.1435137778559001, 0.06219024120371449, 0.34563078784171675, -0.07591551946282, -0.035600121224839354, 0.3607439778296338, 0.024458723451143624, 0.1615403751309302, -0.12092345865108042, 0.0069890180914753755, 0.07858799625235949, -0.019011726249153746, 0.6478921531195412, 0.029201944452084155, 0.15403316117051682], [0.051983750425181025, -0.1073725481072405, 0.06538725371916387, -0.16506010870012028, 0.10187017451375883, 0.1316881311988575, 0.14905426899706792, 0.054209386527695816, -0.18549884539721556, -0.18403662253160724, 0.03644782139905887, -0.15117394728966133, -0.0940013595180124, 0.07725965655122108, -0.2537356549808335, -0.06855146281606589, 0.19462928826783363, 0.1860999928707582, -0.3309750029616635, 1.5642977920333387, 0.2896291886450572, -0.16107892321416523, -0.10692133942517269, -0.06394373046163711, -0.062305226713246176, -0.0985368012554593, 0.14771580949386795, 0.21088915754250565], [0.14123400946528414, 0.08416477488694116, 0.27064220329619393, 0.25183515941123114, 0.16526964726818683, -0.09502215061322686, -0.4836831987661112, -0.04579580556773269, -0.029386771791454935, -0.4010245872585681, -0.0038684104517660955, 0.3747850349172507, 0.303974760835393, 0.05155672581829913, 0.21242263056552185, 0.33701346781079894, -0.040631245882522114, -0.07465731135674254, 0.3362550663825446, -0.26112594850711884, 0.07202264729453708, 0.30560781786838037, 0.15865958545739842, 0.2775752857949625, 0.5531033190377447, 0.10332666304753002, 0.12559549731401376, 0.21067736303969586], [0.2566804812661913, -0.14203946968117057, -0.3336912284117502, 0.4786954283649258, 0.04196088572433924, -0.1326566885405823, -0.8508154900373358, 0.3848958025697399, 0.35867358419051626, 0.3679498669201993, -0.22291650905175497, -0.24068797981922974, -0.22344994647117183, -0.3170147542532245, 0.43793310514018297, -0.22675124733076613, -0.22653066364101174, -0.3086034896212883, 0.5867876428930968, -0.2437581070877304, -0.4044484490018707, 0.3533836285019794, -0.09893872528606111, -0.3225063000500712, -0.24311178441556597, -0.3055279644429542, -0.16175585224293823, -0.44534283328128244], [0.15997967660630236, 0.06148998338750318, -0.4341896257999345, 0.24267101417575423, 0.15610796937375232, 0.4559084609315607, 0.6356707033340467, 0.2503119969495107, 0.014994743879611068, -0.11379218194579716, -0.060663378769769655, -0.09086433338540541, -0.14033088541552666, 0.5328953966609996, 0.3848706019857899, 0.20366681432395672, -0.043878049589748426, 0.04711136804332984, 0.01609213035517522, -0.04335905744777926, 0.12302372175739275, 0.16490386844547664, 0.292163972150605, 0.1622829997850368, -0.14196346188296216, -0.2117403907807938, 0.10857064569667786, -0.002463917076876164], [1.2127452394216263, -0.5277433917735053, 0.700466609806886, -0.7908800593418367, 1.1281959938685657, -0.7549966742001475, -0.6281199693721965, -0.6524678898204125, -0.8905804004655762, 0.6465998159725691, 0.7362673984284294, -0.6608326591328136, -0.6720603712195683, -0.5459116447046625, -0.7266226934763379, -0.7089756902453972, 1.110256232371447, -0.5470823224357805, -0.7121368775329197, -0.030749794047832738, -0.6687322082837578, -0.6869532142870792, -0.6605784083522082, -0.5012716860767596, -0.6345885382560825, -0.8608069415592395, 1.128895556121009, -0.8159303424797201], [-0.11623803011881803, -0.41483395931644657, 0.2133290046528083, -0.0964736575631762, -0.5619231441479223, -0.1466131413879327, 0.4193312685992042, 0.21243246504952876, 0.39395722437390274, 0.3157267440392207, -0.5031710914945446, -0.32083898720815274, -0.2561207305623943, -0.42268766797173607, 0.07841817039907929, -0.49163152956865425, -0.6079799027526679, -0.4854406063271139, 0.3662496198913724, -0.5169490539536191, -0.1256168753109317, -0.25619956434765223, -0.3725342332400522, -0.18947062429325817, -0.48198702985860437, -0.4197380285302626, -0.5929762920903577, -0.44069682011844413], [0.07891896437995129, -0.32992534470375806, -0.5317657903484188, 0.42858579257064155, -0.23870871446096686, 0.33954486685992924, 0.3577076267736338, 0.38919352827530074, 0.528410030783909, 0.3304064154341584, -0.4215747187441431, 0.6190192760700232, -0.09110525298984774, 0.4392041179041579, -0.43177217081224484, -0.4979129271300306, -0.4647269258104641, -0.30208509950245804, 0.7454456520241769, 0.20603297654346167, 0.46574178197733285, 0.5423665825244361, -0.3557176821842, -0.2234585394718326, -0.31610329462196035, -0.3011846671060201, -0.2931156786611635, -0.1078345016530349], [0.1970455126349222, -0.20931428691985152, -0.258918655251407, 0.3962043607637287, -0.05417196584945642, -0.09938445345286934, 0.39522045963881836, 0.17101916854321975, 0.09004982119235883, -0.31030780849822465, -0.12926607434635182, -0.2720396797311544, -0.0016226006553696872, 0.868665410453792, -0.3384633446306363, 0.04894518415706199, 0.10836475016638057, 0.022677242443579163, -0.23129802659964116, 0.7693606197712048, 0.23461809751679993, 0.1927475630727943, -0.17284825658861727, 0.008778151981325824, 0.15867696519345184, 0.18245857563077347, 0.10105370417193679, -0.03909798517616284], [-0.028309831921032255, -0.4005492099244792, 0.25834154699001793, 0.022825861682104185, -0.07997627337990408, 0.24861752141100343, -0.020299542089241587, -0.5218147290830578, -0.8034306677760885, -0.8107013323045648, -0.03632356658956146, 0.026661575018536693, 0.15438402841029855, -0.11180614911374288, 1.458454986813273, 0.1408595577455795, 0.37158621812300213, -0.15246237678154112, -0.4430381428216586, 0.1767503206677249, -0.34559411592813555, 0.1833165359642902, -0.11203747416587795, 0.07616307760347626, -0.15500797855256393, 0.05934803060782425, -0.03413377460300564, 0.7611221307361379], [0.15032296263655684, 0.44258281030497226, -0.6531886372365663, 0.043106677638445404, 0.02199523132499817, -0.21433380326894055, 0.10347262580243839, -0.011050730077780482, -0.09252720465773655, -0.28919753303017126, -0.017637112228894428, 0.06978848544734433, -0.06676291946215898, -0.31963796742173445, 0.081886692529958, 0.3059560405604176, 0.1607835702302728, 0.7361440012846335, -0.3793128499896333, 0.065141583183653, 0.5023961031981015, 0.1295931960549132, 0.18965517198905738, 0.1102969582122661, 0.41258003935311705, 0.05749852951885312, 0.07495797807073039, 0.19345545537660086], [-0.11759229872935142, 0.16869781771185233, 0.07170803199594862, -0.18723668337700392, -0.11913712875138968, 0.6406912358005655, 0.18543100135064153, -0.2143464532423721, -0.3094886812640159, -0.5134090785864286, 0.5997521111561455, 0.07032418609758573, 0.6911833800803233, -0.07774572850200645, -0.16243179498513557, -0.07739600781399054, -0.32662105031703187, -0.2912514243463505, -0.11018331781818942, -0.21405078422809634, -0.2115805256560605, 0.059769517124736625, 0.011902707970219558, -0.12799276638240936, 0.6171959329332265, 0.013905360253751236, -0.015940837393011126, 0.4270638301709188], [0.11220483650402097, 0.0592961456407575, -0.1049578088480491, 0.16261255552577955, 0.27336393322231917, -0.5546602964042394, -0.21060561238397843, -0.16876045418134025, -0.332825065601612, -1.913974554133927, -0.17798420935042986, -0.09694662048738352, 0.13779123941575527, 0.03336718578801968, 0.01729875368006445, -0.2506387245087016, 0.05333139322456476, 0.020206814018390078, -0.0011331299423464434, -0.042861866905960215, 0.025185209285609904, 0.07432030959775218, 0.02001945011242106, 0.09922330180735835, -0.19524686345070194, -0.12737789296243984, 0.2610635948251815, 0.21617825376223926], [0.08062362069510709, 0.055584409479074365, -0.048696034172459365, 0.09834753157683462, -0.1204162136800371, -0.10165630533228055, 0.8853788039330669, 0.14781935621896833, 0.02619787862408791, 0.09456124219180832, 0.03451050371678857, 0.4956983187617013, 0.10119502998131573, -0.016908020668044286, 0.1801558658316471, 0.04887336142389574, 0.130116759198409, 0.34436461793935125, -0.2545641408425609, 0.5322647092043893, -0.1026625818509295, 0.08547865679153403, 0.08043059300512831, 0.1143155930557435, 0.517993223407367, 0.1917379943829199, 0.08041917634434974, 0.04447273721477582], [0.279763338769219, 0.08398247642340459, -0.43421181532671593, 0.019735102769176022, -0.07113314587686236, -0.13695561491118885, -0.02513851431890684, -0.036282370525210404, -0.3925525224800246, 0.17685187784756295, 0.3984256623006363, 0.017097103243643642, -0.11025814288892154, -0.03952964910131953, -0.666018734892141, -0.027089506653049687, 0.11842619955460555, 0.6756607472523293, 0.939738119178978, 0.22375567889487266, 0.029494425917535618, 0.22671856135902493, 0.31978718520681965, -0.3613149553528803, 0.025194370731064474, -0.3471575391537249, 0.20039824316868102, 0.5504616944389639], [0.5545568976312296, -0.09948452063846122, 0.00959887563856955, 0.019173741379405758, 0.41841683665766244, 0.4238478650883539, -0.14101728617061093, -0.596960714856046, -0.6572877826730518, -0.4809017583831704, 1.1981138645301899, 0.19346477609931434, 0.5198114331364417, 0.23601482033950583, 0.1255396593249553, 0.376732931084513, 0.26863110430162807, 0.0682713942185291, -0.47276538102490173, 0.21344824457872968, -0.05377285005816483, 0.11388646349588447, 0.2954057440236792, -0.19275441714751504, 0.26399680095612793, 0.21194935286513286, 0.11105277911912956, 0.17583143719675753], [-0.2791561123533402, -0.39344623578858345, -0.8527946970880251, -0.4789883380783727, -0.11125759591219436, 0.48253520216580215, 0.43970170196576497, 0.4959687796856087, 0.4858243061240821, -0.8892347321090117, 0.5933478578585363, -0.4957948594446766, 0.37236937503898193, -0.22456298511076564, -0.45367185118562364, -0.3015153305713765, -0.30595093839854326, -0.49880757610831095, 0.5467875716761335, -0.39462315587237917, -0.5361358544699136, -0.49652251978729683, -0.45863865293806133, 0.7438142685155943, -0.414630312792404, -0.32967710855304133, -0.376384351193612, -0.49959498733969726], [-0.20810964471097174, -0.09166685779715765, 0.20842761494649667, -0.3290537060780119, 0.13223341653471948, -0.03704232924146682, 0.22267843451612385, 0.1653667714296004, 0.1182954762354297, -0.17818846541345765, -0.9688597307164855, 0.04915729490631078, 0.5014966131219074, -0.07131480184794646, -0.015926116464908054, 1.1336723720881978, -0.058982760768679886, -0.04426370546085677, 0.05662667621264884, 0.07423425855579847, 0.011377228561064658, -0.06764812205518023, -0.19949728286424334, 0.33865854569680537, -0.03218815179982937, -0.07561137288065084, -0.17310239349762013, -0.1266339798786585], [0.029662314174358915, 0.09264260759973583, -0.006134536529839922, 0.3731402901285146, 0.27903014356589584, 0.5427553751702073, -0.4712973244103787, 0.2649066816020366, -0.24066265106626497, 0.42115032988404943, 0.22313548431093955, 0.1086191215597036, 0.3986964763449909, 0.00022188473505125087, 0.6748532849360093, 0.4287498794512267, 0.10271098490002582, 0.3584431576179998, -0.13158301965816005, 0.14467083083347623, 0.0916483321341695, 0.0187235467913803, 0.1310027563473318, 0.28506933882111934, 0.08117609359798508, -0.02885373353157062, 0.33327704421002, 0.5991672001691324], [-0.1701410902878265, 0.153859647901538, 0.0656276817465711, 0.05192075781331205, 0.20791217338092008, -1.0017885562582964, 0.3075709327099024, 0.05222412549207236, -0.014339513495447745, -0.7007129731735877, -0.41643007181888586, -0.019578464184569298, 0.6685235104990771, 0.06839800834754421, 0.20706619178824245, 0.0720177475259936, 0.07777489156656836, -0.014854240460269612, -0.33472167210849174, 0.1211895578112855, -0.15229530712623662, -0.13037474257271545, 0.08972329932244702, 0.022446493509965974, 0.31635624448671096, 0.44810194199572695, -0.04585033464955394, 0.2729797040686505], [0.053404418502544945, 0.043975813252558164, 0.2088790924856411, -0.2172950053231052, 0.06378606612692729, -0.322908180975601, -0.2704261256862498, 0.11968388116212951, 0.010013829715497384, 0.056640223905706805, -1.0279602268026702, -0.4052536925439497, 0.07067459117652836, 0.0462206675552895, -0.23080588090196555, -0.042401567227203577, 0.06874109656532508, -0.10253463652827358, 0.06094036071086222, -0.17009011607544658, -0.21011839552405834, -0.13986279591515638, -0.01369835735958969, 0.6602888540716951, -0.07732547111260701, -0.07652077512186148, 0.4540994014810038, -0.07654562937917772], [0.055398616492642314, 0.2124965682372568, -0.10147776104711337, 0.1668983402606192, 0.027794105593489497, 0.36538035639083805, -0.3993636040669128, -0.1478033709159332, -0.11787494546370944, 0.0795509253695826, -0.04573571133366922, -0.07311803963194517, -0.2511510599291052, 0.3744250377931949, -0.34614950618986945, -0.13299459245125236, -0.004022453349977708, 0.18470255973362462, -0.26738179947926827, 0.06871622670292521, -0.2618929851119787, -0.02337665108524546, 0.15449409340436548, 1.2161918624135033, -0.09076471343807811, 0.04558504501669976, 0.09758844558530173, 0.20455067780817163], [-0.013424453729708798, -0.04690294343526497, -0.12601890493637755, 0.05489051624019568, 1.8050893867855167, 0.054115914357822544, 0.2777321494705953, 0.08940837883712392, 0.12095261403238765, -0.05093764380175667, -0.09037592399131465, 0.07146075855630887, -0.02498424997321957, -0.06101233563536287, 0.24781203030638896, -0.19194093179378133, -0.05759285776023656, 0.06414395861957818, 0.010716010384568243, -0.03592657265892646, 0.26000374188780195, 0.020217361269183016, -0.20012483231152453, 0.049032056990549966, 0.1129539523043244, -0.06417615448719174, -0.05292066784810155, -0.05349159978353007], [1.8333313848120025, 0.08434937236641706, 0.29157835830455436, -0.30985226445536207, 0.020055541943605752, 0.1334252502243437, -0.007666929551734463, -0.14054953727775177, -0.09853573909916329, -0.019413594708117324, -0.2988270473135845, 0.2964455849526455, 0.11991749316411539, -0.17492097050366384, -0.16972680666242926, -0.0004197687708961908, 0.1733042665402188, 0.035797809884684714, -0.12516342973887262, -0.007275529842599228, -0.024090316101668924, -0.19967637601455657, 0.0419052682190994, 0.010965858731757717, -0.052009633911182865, 0.04609959970055986, 0.10834602793022413, -0.019392904797342073], [-1.1573021809389197, 0.1765963275314382, -0.4428443124191267, 0.7794330993384961, 0.25898336540385575, 0.33132163239395146, 0.03413308117476102, 0.36046193187096276, 0.17598168635183256, 0.2654442673846331, -0.03727182499843982, 0.6950381551663304, 0.7526280566878468, 0.01262262435612419, -0.11911556942313822, -0.02715909299499378, -0.13344066711541863, 0.20614785558732665, 0.1990469080237853, 0.005220318581694213, 0.3667142553834134, 0.8082792019697568, -0.12301128464856338, 0.16937504000423348, -0.21977944197332083, -0.3287168634289624, 0.1669905028379627, -0.23673542966763153], [-0.67450732166102, -0.5767880906445184, 0.7322049986434429, -0.6471203807154334, -0.6631118638418888, -0.8353694234262217, 0.7781956656923935, 0.782245894384277, 0.661714234918101, 0.6787208511514078, 0.031189317037114396, -0.6432021724762934, 0.8046416778740951, -0.6864698211075861, -0.5398384800884389, -0.46225006251532236, -0.712022154114853, -0.6429820258806629, 0.7801568893287023, -0.5264676869490748, -0.6943998106558532, -0.7634542999033244, -0.7324354896526388, 0.8921284627202362, -0.6611559263237472, -0.705665867853789, -0.6023979948276512, -0.466369780432713], [-0.11573202777375996, -0.17722091481772168, 0.4662709230607374, -0.2697347549006558, -0.06706766834970977, 0.3035991683184964, 0.657526290831848, 0.3400186286778378, 0.10737154562938268, 0.007790651467559297, 0.06516731807825574, -0.12408461184016924, -0.12993507127994866, -0.32575532714190447, 0.7683575514357597, 0.0681548281209961, 0.04044386102225729, 0.003770558285848415, 1.3840877123821447, -0.055469005386428655, -0.37293603208504567, -0.2594080986996834, 0.042793413263682474, -0.2357904720879565, -0.03726943606495791, 1.5192987651015268, -0.10590224948768777, 0.02471833624208382], [-0.38492796653799416, -0.29434880130041546, 0.637892402725229, -0.4348633449329661, -0.4967974778946367, 0.6124169422391486, 0.5271102134906981, 0.5037551273661951, 0.5909769490222969, -0.7815813127391418, 1.3084347097303088, 0.8455148123604027, 0.738445599176461, -0.5963690257614837, -0.5897705909748332, -0.2918850354360297, -0.3424773568609468, -0.2801804505963722, 0.4342470664398789, -0.4573025170411956, 0.9746815484135758, -0.48652749653344957, -0.46911717365649513, -0.4547967591052843, 1.0338755589054514, -0.4815637973810577, -0.4033151587284746, -0.5457008615770449], [0.3246665310224197, 0.04883427497874106, 0.07370328920108705, -0.12816501899810318, -0.2841929647113717, -0.2042675350746952, -0.6691085471474063, -0.32639821266585983, -0.5659970654063416, 0.13868210481470103, -0.3929191609058601, -0.010008250969552114, -0.164130537674476, -0.14328065979362542, 0.008593300196326899, 0.24275568153768035, 0.5592900356631416, 0.45216271303792205, -0.37998527368536933, 0.013264319639444537, -0.04879509223776356, -0.10737355066389564, -0.052556026085749906, -0.11212221355625528, 0.06409688281395655, -0.10314057223179317, 0.9499289172304791, -0.17370524233918322], [0.5953841398204914, 0.0007709280028036431, -0.021864851632302444, 0.23873485361673658, 0.23744349155865552, 0.2566925154181922, -0.13032788722771538, -0.07598139804930383, -0.06443977272814279, 0.07750003395610607, -0.02357202531731584, -0.11288899186468562, 1.2311768544277926, 0.3419861280040099, 0.2100803632544728, 0.12766580149329804, 0.02877382810550394, 0.04729300542494092, -0.45516391617099955, -0.010163428852485142, -0.05948551728784859, 0.09932366855779198, 0.12931023186970123, -0.2737927944908838, -0.12424985702967328, -0.03472935230706485, 0.27902289845216444, 0.1557231187288234], [-0.8739206003861525, -0.6818102545197368, 0.8210183471907311, -0.5774942713776366, -0.5001432767632256, 0.5813156373527681, 0.5881102245474384, -0.8633887772395534, -0.9219040968178853, -0.9703080068464369, 0.7209289391153998, -0.8074679230511737, 0.717509116718917, -0.5436025293968244, -0.9915754308957216, -0.6136503050718947, -0.5582940428203459, -0.5343873145068454, -0.9178855579987595, -0.7844475694044603, -0.6219789890227083, -0.7822302537710675, -0.5066521710684989, -0.5907180754312077, -0.6170779182362919, -0.4973917610686776, -0.7854240235176959, 1.034376495797142], [-0.4093282170771141, 0.027348169334549602, 0.197941449010706, -0.2161940152494265, 0.8196822747160319, -0.09786154314210183, 1.0319572327789437, -0.2526440455724614, -0.24107071896516533, 0.17999106025071032, -0.03823348003257492, 0.09930650490130347, -0.0508543082696155, -0.15823198369311614, -0.42158321046938835, -0.10177978118821322, 0.4952429403215535, -0.06993738081818027, -0.16061762067801819, -0.21566772145984708, -0.13172633167786255, -0.02267967756463208, 0.15075890003421286, -0.0693280912287946, 0.08386542556905363, -0.09127053424812571, 0.8195219726405427, -0.26971346387070555], [0.3008044408797112, -0.21386078922603857, -0.05604144873054455, -0.1773462504277169, 0.32151619065000475, 0.09404445926521318, 0.34890891025781073, -0.2043660938494489, -0.36104888276401903, 0.016872950498600246, 0.05066645710483838, -0.14596533741403575, -0.12527800040824452, 0.08477376321557678, -0.14772516010159198, 0.11458670652347153, 0.3859669496996359, -0.19501082727484811, -0.3193026360928961, -0.47373526325632553, -0.0306828962144088, -0.07925969529693043, -0.04050699334970429, -0.23901674262462244, 0.007393477678877802, -0.17231201753431935, -0.003845362145638085, -0.2805795365585086], [-0.039772949041779145, -0.016871091965765014, -0.037089566409250825, 0.37630442062637576, 0.09077400066733742, 0.21680551736188114, 0.19916335853700937, -0.6346953587423967, 0.18414345891658554, 0.0818142777126629, 0.018138926013419942, -0.13070290452734273, -0.027814169962238473, -0.1966839824791817, 0.5171642608461143, 0.215588467593481, 0.33861353002967703, -0.029943162261025426, 0.6120820359625644, 0.44996353146488777, 0.11396805684270161, 0.4326419839937895, 0.03163833467035265, -0.08369156600964707, 0.05208886724307542, 0.1022093159913796, 0.1819254243397368, 0.164215109220583], [-0.010283740555381322, -0.06280288239120613, 0.1641345479901033, -0.0031808007662198746, 0.058961790044834365, 0.280216967452979, 0.6095215552232898, -0.0005206090493782644, -0.3313617525190817, -0.209818611026614, 0.3338456683440653, 0.13060529223021208, 0.4428962009381741, -0.16099618505002158, -0.058674541887275805, 0.3222902753569201, 0.2425309424430869, -0.01826073774583403, -0.0028802322782753745, 1.7110814286471596, -0.09290316765021438, -0.09044623534341927, 0.0484325684861592, 0.08734566763197435, 0.06571908217447796, 0.19271170653394634, 0.4470770039085474, 0.04328035661979905], [0.02976027143485212, 0.1365584311222901, -0.11443437776525864, -0.22296489433715908, 0.462560316479344, 0.21150222127467755, 0.3522104127183703, 0.46413294290285745, -0.05886585443309968, -0.37351094887959985, -0.05435994193542898, 0.25293574496877014, -0.03333768575845699, 0.0654773817531414, 0.06648847699040807, 0.007399809928841707, 0.9035974808773171, -0.07696921529763104, 0.07829184573799483, 0.33010109134697185, 0.06599828743834833, -0.06773518398303639, 0.06977031242173133, 0.7790257748625663, 0.18241574771461352, -0.10014205501297505, -0.3325780003888898, 0.3308672551949791], [-0.652481014787922, -0.4119474656171211, -1.3386922835868384, -0.48085674531117034, -0.3548396168391675, -0.8733110403135023, 0.7642687965511873, -0.682001871801192, -0.8269216787940703, 0.8590008470032888, 1.0194073942180957, -0.5295413911638478, -0.7422722156789211, -0.5121034933370707, -0.5360847821961624, -0.5253232678933528, -0.5779738443944632, 1.4401272771111782, 0.9472491669050387, -0.31028900465704695, -0.6905120167500839, -0.5755270496346075, -0.27457362944146435, -0.48341497604839073, -0.42101571070473337, -0.5547291636362803, -0.3281006528130197, 0.8424834811627708], [-0.06159083832698913, 0.4177703503248588, 0.3196418834812806, 0.24631647685734287, -0.01987872877656538, 0.22799386602222974, -0.3464941330339495, 0.012602909789801909, -0.31061208231137416, -0.03292331041910557, 0.08396573080499697, -0.1431043759543875, 0.16097184744028864, 0.5517143800658828, 0.07913234442185486, 0.09326617525627882, 0.12444423013367208, 0.6063702186442828, -0.3637788945299212, -0.22915307024330134, 0.3452209501152331, 0.04769773846816376, -0.12081955130544977, -0.020587110868383246, -0.05700372734850536, 0.30161919807716636, 0.05612338273479768, 0.6690623612583638], [0.05561651407593966, 0.45803380868511423, 0.027653794419175096, 0.09401355371023727, -0.08804970290044357, 0.3313049044278238, -0.6548982885352866, -0.22726523334313237, 0.024911336425525617, -0.15130627022629983, 0.08900461918262005, 0.3936394786226485, 0.10518082406849631, 0.15676578096073235, -0.06102800900837532, 0.19343341827446348, -0.1504512846927809, 0.06917372106732557, 0.2608257437221938, 0.18160926182603712, 0.38174041437029116, 0.0023622664413934067, 0.4437261251866314, 0.03331186720340731, 0.018297040065443762, 0.0515619474427538, 0.11237595106179492, 0.024523159360158198], [-0.23128883948470658, 0.136350616417922, 0.46758778531194584, -0.04356780917375127, 0.3950451444809667, -0.10626265067752588, 0.2464219936884918, -0.12905931699446807, -0.3184381744146697, 0.048423590376410364, 0.4001513853889049, -0.09960318614327157, -0.06177056664174529, -0.011526349729348379, -0.2684391756834159, 0.3124244449702963, 0.13692117948192006, 0.1661944521147574, -0.31331420520791503, 0.032253733910225076, 0.7393199993525071, -0.10764438873503861, 0.2696308671643476, -0.24801570091062905, -0.08353733663829668, 0.13929583404180923, 0.24365933360314465, -0.11429892933596875], [0.38071631197910677, -0.13483575828337963, 0.04779370623250331, 0.2340104054751612, -0.19071361730127584, 0.28922036125856504, 0.692745131983002, 0.1693756145146757, 0.16945993491568756, -0.04835402566847676, 0.059004347953675644, 0.03891893420628906, -0.16611500322234765, -0.03169374597237001, 0.35955930893293236, -0.1965825309673238, 0.01763267833371014, -0.068659388281796, 0.3043051455801623, -0.22152144984245878, 0.318938161320235, 0.10738620778602986, -0.28710348815312353, -0.18663356966852365, -0.0387193760545978, 0.029352648902696673, -0.3878576536004926, -0.05701800324594613], [0.0048276289889164934, 0.018792390759050558, -0.1437686787988814, 0.11782452503969855, -0.052177273193903334, 0.12711344918362635, -0.20452460397073904, 0.022057074765359584, 0.06610199192659817, -0.20318674630521552, 0.10881248803058449, 0.6687738046572721, 0.16463095800153937, 0.36718427072852794, -0.2458589498078148, 0.1829135786024614, 0.2995791201585198, 0.032482343228307904, -0.0297868542270684, 1.8386029319709012, -0.04155916564290455, 0.02948444113640395, 0.07046955047327355, -0.03563104558522471, 0.4604536686371951, 0.028811956673445577, 0.10053849495758772, 0.06738631927548726], [-0.19928395393035622, 0.16514061398990326, 0.18088563644127673, -0.11581472836156474, -0.041686602047380526, 0.4811825219336198, 0.63018160347534, -0.14633175305937682, -0.23034154092337186, -0.4286022516198449, -0.45553533028222615, 0.1408443768022601, 0.8359171365498834, -0.07696284421681984, -0.31120342313252514, 0.24977902772847083, 0.001758378432388524, 0.6994425533548904, 0.005815656337946965, -0.005887001393043449, 0.2977825675285651, -0.004650636755313095, 0.09539840431712836, -0.01788549582062243, 0.13951841699321868, 0.3877837191160286, 0.28673460024245506, 0.26003678859183543], [-0.5155635252033794, -0.3263823966886912, 0.5173258712275868, -0.6476877093756078, -0.5902345490637465, 0.6642027699116626, 0.5034622260982172, -0.6618205810797118, -0.9290094029099426, -0.8460638293996017, -0.6019961356618223, -0.48797975934125276, -0.7796644020002779, -0.481847405383036, 0.753026731353287, -0.11937065001669454, -0.3222534367601155, -0.4503620057407329, -0.7203605681876694, -0.507825660564682, -0.5347070747174809, -0.5041725620745016, -0.44301808769668966, -0.4652914076645913, -0.37948390242969243, -0.5379273373461873, -0.5985761937907644, 1.0058101429540485], [0.24891025139718773, 0.42457417468718645, -0.2743758202415542, -0.19536514354168746, 0.27879691242590543, 0.30723445865255017, -0.13062524338477774, 0.05993668320326175, 0.19517143479229232, -0.05740731438499486, -0.0947424347254249, 0.2487414764646573, 0.07448713243578624, 0.02060659651261862, 0.3367575968823856, -0.05063947026499463, 0.5859956550176245, 0.2535554147810802, 0.10201461570351823, 0.1393478825466671, 0.03982666638717268, 0.21116027198480966, -0.018892019054127525, 0.5053396265451701, 0.327270523691422, 0.3005964774548058, 0.18595744182611004, 0.7723965200438098], [-0.12085766278483671, -0.0026032674426765814, -0.025524125084558112, -0.09260280480130378, 0.03697592869863383, 0.3019878192716901, -1.982627041075023, 0.12768140282694987, 0.012509974842908837, -0.10685488518125373, 0.1392857091662813, 0.012232921807417698, 0.09140761486160565, -0.011686689745394063, 0.07761974134440595, 0.02642153689969943, 0.07486328719786833, -0.027923328304376393, -0.12188249540339319, -0.03427595379027241, 0.18528013995688164, -0.04782646966642405, 0.027594938221458455, 0.11967920456174991, 0.0850691944576639, 0.23463030233131332, -0.03356088350532834, 0.014186569097061133], [-0.19390468748409598, -0.33694476630945047, 0.4919840441736764, -0.41395891733335044, -0.12323287087108185, -0.4903996472488618, 0.3965690948678241, 0.6393795758457739, 0.3788778582494415, 0.2758102745732983, -0.15217423464529098, -0.15816645816547756, -0.9048798472959333, -0.15120083014604627, 1.0800069170368394, -0.06821282277168261, -0.03489844634055161, -0.06940184517475924, 0.3475661262734159, 0.07516278547885384, -0.11298649034572261, -0.4037166460651935, -0.26844581603231926, 1.0200824563877882, -0.1958447673155999, -0.5993700486645932, -0.15962207892992827, -0.2942884990191369], [0.8819416635101607, -0.10516658135121867, 0.7029086395956191, 1.2502307771481058, -0.17528941609955181, -0.09951811000070723, 0.09900743656015813, -1.339236117781041, 0.10876502754236124, 0.09967854318928712, -0.15720832662571002, -0.06087342173232874, -0.3002293406914138, 0.1298242643886728, 0.3929702056063326, -0.3364895864281878, -0.27532270958629496, -0.3436431766572481, 0.24453782414901126, -0.09552782232191057, 0.29733579560416423, 0.8009506693050694, -0.1663622387282698, -0.278309862348285, 0.08806473900735848, -0.11078500066298687, -0.2794842027106285, -0.27642179922114296], [-0.061418198432032764, -0.03223962304030087, 0.220608013229751, -0.03277435141228116, -0.05617603144051481, -0.10228210293720777, -0.13420379292458445, 0.21897225390131053, 0.20895728779620742, 0.13973855081057657, 1.9182547731049393, 0.5456222401434716, 0.12131617235183167, 0.341848799002948, 0.16888675648427312, 0.10080896251794837, -0.11719574524904605, 0.11300841161382674, -0.21727383782125465, 0.5647936383667036, 0.4948246591763307, 0.1077428948350227, 0.06567317717435363, 0.02421991840968241, 0.6441819934806347, 0.10976316595413105, -0.1665735756521335, -0.05178109762503681], [0.07152890292048053, 0.017014668779922047, 0.11935608475790173, -0.2545877356408637, 0.3202105389641974, 0.44057407393032255, -0.08271758134429665, -0.21880876139164937, -0.35171505950475473, -0.7932415024242836, 0.6612832676789298, 0.15472039171926857, 0.4707592486688326, 0.03711860099992959, -0.09894286007515747, 0.39991928060302673, 1.611281129696717, 0.28635746589849653, -0.5411713979403238, -0.03364554650901843, 0.34990112705937815, -0.29171759971615707, 0.05945608540901511, -0.04296636426307913, 0.2769605741714432, -0.04184788615689445, 0.12595987710764545, 0.919190657558528], [0.7043644869226254, 0.12194676509454566, 0.17976298161289297, -0.17294989991482995, 0.23996672805544023, 0.1344579349446207, -0.22783485921321261, -0.19766897332837507, -0.28338925993378583, -0.0539934215444538, 0.8389879533393061, -0.15132079229807413, -0.07493829387689491, 0.13283671391948615, 0.1873550926931905, -0.04566695292257772, 0.4153247149621001, 0.0661832153548143, -0.8210835470938864, -0.3433075947557281, 0.1094314444922318, 0.024948262926555224, 0.07847221275826935, 0.06431121763273326, -0.09750992798133185, 0.09445366940466393, 0.3682502336065452, 0.06653778057355833], [0.08177394204603598, 0.03514321304203227, 0.0949306022463465, -0.0402954513634643, 0.17124249066357228, 0.06673326989077578, -0.1776604345663783, -0.16126730570539427, -0.13781625992796784, -0.3670467775270171, 0.06186683611575435, 0.08477096623958631, 0.28576837402630284, 0.11652231536330211, -0.026872301538404447, 0.2249469488558661, 0.0626656969157053, 0.18817788193152443, 0.0644602369716166, 1.15117147216197, -0.03638585197602356, -0.25281695997504877, 0.172549221740767, 0.09522169046332847, 0.2115910163698264, 0.11252444508511954, 0.27955030253998586, 0.21433658481510118], [0.18855510784680854, 0.09246838659594848, -0.2319758429297211, 0.08536977581818819, -0.03657555100307563, 1.6534888379497317, -0.3498717134790357, 0.00934984825762479, -0.017219042897275327, 0.2646357154028656, 0.182113380556974, -0.07634502561648351, 0.013009274930855986, 0.23849046506816907, -0.06992753298289509, 0.050180717683049304, 0.11492029714573852, 0.15504729262800868, -0.07799216449389015, 0.08314978418381647, 0.05188548597178574, 0.2682863992925825, 0.05884763358015511, 0.023868611132831806, -0.17441110632547854, -0.23730476032811357, 0.019338598464730676, 0.047379536067990814], [-0.4908972518043383, 1.0704166545528102, 0.5469705363286912, -0.48586146429865923, -0.9255878136894694, -0.23314081559083444, 0.1383148714482778, -0.6362498797095625, 0.5556593437832367, 0.6302204930246128, -0.4337747171205045, -0.5671763067320424, -0.4508720387964705, 0.8977807261197753, -0.5951266288019205, -0.29351838755986104, -0.4867053115538364, -0.2570503616655995, 0.5112624895715671, -0.33740418451785575, 0.9291644891485492, -0.5051496205172016, 1.097441989939622, -0.5288164505133025, -0.5024531177952606, -0.4988035112904758, -0.47061857409676466, -0.5732626820285418], [-0.10549376727701949, 0.07477030907278705, 0.0996505797836875, 0.04161595021828403, -0.2909746397151883, -0.03807161514102857, -0.2736199128430766, -0.029299454489312867, 0.16659023847411944, -0.14105983808754935, 0.04935945623475555, -0.08205187070793596, -0.0757199452213085, 0.044957817099260104, 0.1109399304238623, 0.6762378837712153, -0.22940801086635193, -0.14419638290651995, -0.226838266229964, 0.27236642901818514, -0.12315003919556097, 0.05359047141971246, 0.629791129001777, -0.3845504991529283, -0.13046586489869863, 0.13620906122510557, 0.07623191607041531, -0.11937354493606951], [1.0554493877338662, -0.043903880526954465, -0.07513683260936542, 0.4563877677396984, -0.039044140345894686, 0.07094572706006794, 0.11297550261693827, -0.2595193323418258, 0.22328723369866674, -0.027884176870723098, 0.1792072492355443, 0.2385705471155393, 0.9857736892011805, -0.21860337467968782, -0.2748341434130744, 0.18075943727292018, 0.10152139065135929, 0.07944984628127208, 0.24809454903640285, 0.2813293234837505, 0.08681305430339853, 0.3835961164707007, 0.036862169997564496, -0.16646227185748402, 0.27690931612545905, 0.0544039717380425, -0.18739239969972085, 0.18607008571366968], [0.4608500945958113, -0.014866329835868353, -0.34676134673086234, 0.15384611319632832, 1.4305066478472006, -0.04840104767621385, 0.2089723912175465, 0.41691489503490875, 0.06079549889537276, -0.04145598536225042, -0.0039024616322337006, -0.13487831147951415, 0.23144199443464067, 0.04209931318594319, -0.12269852176347562, 0.061865246482057545, -0.14817203275472365, 0.2169784910004953, 0.018352548785700838, -0.005113688350578058, -0.026537750411495902, 0.30130461821289556, -0.22161375688559218, 0.16429456612923068, 0.13177571376768438, 0.19983267214166267, 0.019077735365767092, 0.07955516590670131], [0.9408397246387621, -0.3958888815051185, 0.8760698277381079, 1.1931175754369392, -0.27671109437905256, 0.7777915918717437, 0.6080925213241248, -0.9425554810626702, 0.5425213873948527, 0.40907061513820253, -0.21732073032428773, -0.4862062031610476, -0.5252004511706958, -0.5567905288616659, 0.7629847543487234, -0.26971019821206726, -0.29077348858791335, -0.38154660396357326, 0.5134337807995075, -0.7051890543031529, 0.8146348410231659, 1.1300878443266573, -0.20138383679270053, -0.5044291728951531, -0.3667624465573311, -0.33192051174689086, -0.48600472381431326, -0.6324661093282334], [-0.22728805341271027, -0.01053830434111267, -0.06336723098517691, -0.03982366831461158, -0.09554584144750873, -0.9499476240938866, 0.3914306590281717, 0.5742071205690098, 0.26941422320158936, 0.0913521486106302, 0.02865859606931053, 0.03748978753541096, -0.46638598608902154, -0.05180823794409997, 0.43988710594008423, -0.17432568252232136, -0.11381937518306003, 0.5333750879503094, 0.14087829303984792, -0.1692748415529474, 0.29209132152095735, -0.06277696171263066, -0.05544509533144535, 0.37391697920697436, -0.11418392375205107, 0.12574978999679162, 0.005692271668865292, -0.11079052468066744], [0.8176659092400516, -0.1648744096821331, 0.1857222618908386, -0.02033405030551027, 0.3683067847312424, -0.2667088387856378, 0.6487690313359867, -0.22534092041264742, -0.6776305063022731, 0.03763863619413301, -0.5471751545231165, -0.08405480234769486, -0.09491309536435535, -0.036189374661546786, -0.19452584542427614, -0.05635601346893453, 0.5019361314469859, 0.04192800661371059, -0.5703547579879885, -0.07392302204560915, -0.14206862533945158, -0.037445442830515444, -0.10565833362923896, -0.02483468658939915, 0.07211646411407681, -0.03447601047033308, 0.433305369019793, 0.06806347683973456], [-0.1772317547587692, 0.6704723966373011, 0.22302716655493546, -0.11118392585026696, 0.029744873175104457, -0.030513130927621472, -0.35348358853733325, -0.4040192262182507, 0.12829771145346025, 0.10536465039987501, -0.04937436489317747, -0.07331596438360798, -0.06320707686277334, 0.49823216807810633, -0.22716653579256066, -0.0924455093996339, -0.064583783198179, 0.07717939424077988, 0.11461322358729126, -0.08925723560986781, -1.444392060905284, -0.1610719811681833, 0.7229380385591042, -0.01882351180503961, -0.11317976590885523, -0.024716980281248156, 0.04281135274445632, -0.1278064717131755], [-0.5687143763702454, -0.35904888335192114, 0.1512645769217137, 0.4275694637684316, -0.0007908289735480264, 0.0002645512211132792, -0.21554635257294139, -0.05010585919461843, 0.12401652352941461, -0.166406948917993, 0.11300912952088217, 0.21294642231586297, -0.1628085614121014, 0.09741264323571931, 0.14423604140132984, 0.587389147589773, 0.2461389976517013, -0.11070892682595224, -0.1053191190038311, 0.060219307057828866, 0.09161594671336044, 1.0072102784106614, 0.17487263293909908, -0.07303525167193348, 0.17722802415817668, 0.07786709583402315, 0.13059575321664138, -0.10807512534904426], [0.07598374196086433, 0.03292901497865395, 0.15700511578207912, 0.050411090245741086, -0.030006038983862768, 0.12370145980348102, 0.40313318695809686, 0.11395929319856866, 0.21969701127757046, -0.5880607386987943, -0.534449674620613, 0.39979508986385365, 0.21891196066800225, -0.13062951428671676, -0.1095494779363152, -0.15604736349883364, 0.05489386809148501, -0.17783278375303202, 0.10791661884329555, 0.08213094846356685, 0.6466390316342602, 0.08326633244290028, -0.2777233663074137, -0.2581313517214972, 0.638634266470025, -0.14416690130226012, -0.20031171756466812, -0.2533833284314677], [0.07750379606791914, 0.14865542006808882, -0.28344630770481327, 0.24884904582740824, 0.08780197293772767, 0.11953262950375393, -0.026691516251640547, 0.1702003082424023, 0.13963310096626633, -0.04414120710382872, 0.3967566449697727, 0.313032500315689, 0.344071851344484, -0.4356774470580549, 0.49882933787865336, -0.03656923226322711, 0.11870956168754691, 0.02547962996475841, -1.521518810915505, 0.22557202524493983, -0.1479113164070577, 0.3888191248328299, 0.21233758923814194, -0.04770601217696281, 0.1667844437244811, -0.023573861055803426, 0.04050241605443233, 0.0766445822603486], [0.49618477498533653, 0.07985531729069113, -0.12395356405305265, 0.2850468478456361, -0.10166429329824349, 0.04137297575312094, -0.3281872944796406, 0.04515766558015714, -0.02138915634554866, 0.07424477720309247, -0.12460068960766875, -0.038136973184670665, -0.23973968753249392, 0.28691192881232513, -0.22363189583698984, 0.04953680825900161, 0.08913840817604363, 0.07232133328386142, 1.2048129553378921, 0.1973330940352991, -0.06947958868838083, 0.1771524063520343, -0.00010992603436356228, 0.12843321657153114, -0.023910046819802556, 1.2068980494532886, 0.050145371091100344, 0.056860459801552], [0.8929458912207681, -0.696142126269155, -1.0036967100657754, 0.9025105165415119, -0.5939358234901164, -0.6104537242839884, -0.05649011929024351, 0.6478220284656137, 0.6481494360836849, 0.6401237295129502, -0.5911356152799695, -0.6346350067758372, -0.6336902473296302, -0.7371590621228479, 0.9400010165973895, -0.5709163043325636, -0.6289071946000532, -0.6566596712452397, -0.10522366003441569, -0.0512208291844328, 0.07836346585750115, 0.9326756660905721, -0.5741456941922002, -0.6240561264053498, -0.5227101766752954, -0.5969870154125766, -0.7057953522491143, -0.5779671941518031], [0.539439932862969, 0.001757426978606536, -0.42555044399083525, -0.23058329161484986, 0.10553385237059237, 0.21703374769615053, 0.12911155977235847, 0.41066077147186586, 0.14013893483589399, -0.34118340658292456, 0.2061056838001384, -0.04141512341212613, 1.1939627645970694, 0.14269956319031316, -0.2662380811992463, 0.2139467194302702, -0.11318920333406325, 0.0823527743493058, -0.27908603020461004, 0.0006967856397645021, -0.34049357504333005, -0.08969422662142475, -0.03574739088140763, 0.8107982663431631, -0.03671473891001602, -0.0495721834087529, -0.02905759046325152, 0.30628340605081544], [0.041482890527031926, -0.03706515556416551, 0.10740886016302374, 0.07275853463703186, 0.1290308649048778, -0.0790411098046354, -0.2614466789718382, -0.20590464660758168, -0.41287423770001, -0.3692634493132199, -0.16288316875135983, -0.060476079771488826, -0.23680316782014868, -0.0546942988553068, -0.050935221105076374, 0.2223565539513422, 0.06585997286362925, 1.2071290734080629, -0.23081414319611213, 0.3359166361448369, 0.7107404672281197, -0.044545666699967706, 0.26628609994529956, -0.12696022784009675, 0.24944770615637768, 0.07779439561110155, 0.3095970438917941, 0.30108268801791216], [0.41622771384950236, -0.09866799155463186, -0.4529693705836886, 0.42840972028511987, -0.4387495355061095, -0.3428386157873425, 0.43980905098296924, 0.16351441906039696, 0.2737657403035101, 0.21330967286982336, -0.18468932231325547, -0.26482583722076536, -0.3655383262358733, 0.5983698015591498, -0.4065932629251017, -0.04709998311048378, -0.05611444893106744, -0.07823180818087148, -0.5472575453151118, 0.3649470228572149, 0.7066078888817849, 0.4659094875263915, -0.1635095729189606, -0.23513344718856655, -0.33399024370691643, -0.22055485757134996, -0.10695390246574572, -0.3344234587568475], [0.09927378845448787, -0.030858897951369525, 0.032976927850912954, -0.14200751087571475, 0.12198865248456803, -0.13397557248944306, -0.5471685466350024, 0.21199768796923843, 0.011066319534313935, -0.19840444828732448, -0.0028916110181085855, 0.08384294199304072, 0.3827390250566642, 0.009243618093024758, -0.2550098830731115, -0.056454596800632986, 0.1447687441687508, -0.1100694896757615, -0.11584640213946389, -1.1742079192675716, -0.13836551363351565, 0.11762059891274626, -0.13544877497718988, -0.12882773152864813, 0.5559290333024124, -0.03373267319422992, -0.04553219250483234, -0.04899182701102795], [0.07425042526320824, 0.19238900253870336, -0.16035385093139654, 0.10024001556569923, -0.4173892364565064, 0.07796634012643722, 0.24670514209775468, -0.14470734608868144, -0.03265983661576586, -0.215214456870076, -0.007662237911504156, 0.17867779450154855, -0.018757196798675227, -0.20610401809612708, 0.38555822235122306, 0.2899740658317101, -0.0025246038808191804, 0.1556698726733331, 0.02698414800573801, -0.1545620448553891, -0.852326295597961, 0.01073500685005665, 0.05318022722137162, -0.16571418765785456, -0.04725933243534074, -0.11485461243320236, 0.1738478774055211, -0.08011173798880275], [-0.6867175741929082, -0.3317830372201013, -0.45934450772993524, 0.6600065922488245, -0.2460571749172887, 0.31880989549162136, 0.34948281839829953, 0.45068116198681213, 0.1938950444104167, 0.2794767904048934, -0.28774624086096484, 0.5463844839766238, 0.617992204903113, -0.4709951201299809, -0.4581473686215527, -0.2730666024151207, -0.24141965994097103, -0.20608862230556843, 0.5790988465470576, -0.4440078360826607, 0.3977037266030567, 0.4567969698430943, -0.3262360125899536, -0.3416267076836131, -0.49658986606670574, -0.44291878517084343, -0.4120648719012999, -0.2574095998603228], [0.01617408814443408, 0.10233525611843929, -0.6614549480565074, -0.11735642192810378, -0.019994749495853916, -0.3130703296233796, -0.27162969205842763, -0.30712475015171364, -0.09865667201225872, -0.1766219922075391, 0.3010232050989235, 0.04576437113923949, -0.008677189938559371, -0.22031722818116217, 0.0029857382138581776, 0.9896865264315158, -0.018846169734057033, 0.3091970675963412, 0.03855550344694966, -0.17249935399653238, -0.0521605362015285, 0.13832686313913475, 0.1507855799219267, 0.5781570929861034, -0.13200833449383387, 0.18018194119604747, 0.0329956096113843, 0.4155741476143], [-0.12885589268183822, -0.14262956359655576, -0.005590273303381649, 0.05926484310048228, -0.10318352159921217, 0.8111976939209337, 0.1745264803664523, -0.20903777988574948, -0.3102568275646641, -0.24887945723863658, 0.3088986900439343, 0.02923216119308117, 0.47593506771710914, 0.4255964961838772, -0.3375800001804508, -0.09297709480000606, 0.4264930764685925, 0.3645597741202581, -0.4227459832894008, 0.12012486854977682, 0.27886778038725757, 0.006454729203638889, 0.01709238779667382, -0.025727980092788646, -0.06151629428234877, 0.24388582457574268, -0.07017019558697953, 0.4102855016866304], [-0.0822326783820367, 0.16905441014727252, 0.07268345317227684, -0.18638048952705177, -0.3394004956415731, 0.4814589422356022, 0.3225614945653258, -0.13007137623684142, 0.05818946599076873, -0.1605314714718196, -0.6009917208304509, 0.2273427639051516, 0.08729810981251247, 0.33115939516376386, -0.31330401708448347, -0.12601385531226503, -0.22761332056135564, -0.0879725442378646, 0.32772451658471613, -0.4589013664668046, 0.7762091818952075, -0.3316570646005895, 0.1105906389751137, -0.10501978064191672, 0.4142209559717931, -0.11939292501470668, -0.08397320649497876, -0.09465894801370586], [0.3424500683177285, -0.00815894524522544, -0.056055755154355916, 0.11591147526995475, -0.1082685259725007, -0.37238469567362287, -0.3563485266306262, 0.12351188356370717, 0.10242491026190394, 0.17870839182146592, 0.07991715814364665, -0.17811816027444086, 1.2421944246459091, 0.3255598606299524, 0.3210628154090931, -0.02923569206887888, 0.2357448175223058, 0.10010482448940243, 0.18858076624056966, 0.3358180806104555, 0.18982638463767626, 0.21672254694630116, -0.11322085875636012, 0.11499052000073412, -0.07385624327984462, -0.11454202822769528, 0.09876861985865812, -0.1526700835372395], [-0.2750705355281092, 0.016985999486647228, 0.2978257245617181, -0.17839786604647798, -0.13862198971340128, 0.4715918477195955, -0.048760175227846925, -0.5716731990126428, -0.42863458597561027, -0.65933732788152, -0.1618588920250911, -0.16209106497318648, -0.5475026508049322, -0.33675090764948007, 0.03197320216962552, -0.2205966143852789, -0.042696729738165844, 1.0164889127829035, -0.35009482315006935, -0.10595852755476769, 0.8193569637768192, 0.032630263755652145, -0.11698099374804195, -0.0709855616608271, -0.15123549544236525, -0.14123437977916523, -0.10165645129998728, 0.6236339068626897], [-0.06237880538725564, 0.251098170671657, 0.05701249248382974, -0.17206040908822495, 0.08788840954934578, 0.032110404520098224, 0.14993780838574355, -0.17590672154972184, -0.1626362034945654, -0.06797804392377081, 0.0589627724246385, 0.09413382525412807, 0.2666522462312931, -0.029165347801313996, 0.182909347316334, 0.24304834158639896, 0.04474183700599453, 0.19335980788544538, 0.21784496144047563, 2.3337095918000217, 0.11032221263591661, -0.015342292968169644, 0.2663901810315095, 0.2742720173672828, 0.17299720843790178, 0.45259217540747804, 0.10154939170020462, 0.16998247423713309], [-0.4806835360531503, 0.39638000037053145, 0.10733905856715237, -0.10454469922408549, 0.5765660328055175, 0.16812694924016547, -0.13272413531545274, -0.15995332959580583, -0.21553327362491032, -0.057842851967480895, -0.033488250215238734, 0.08691617044445728, 0.09481985263502322, 0.22298747914472497, -0.0894008743897078, 0.16541611996775982, 0.26183694644486705, 0.16463062650533739, -0.039846597684547236, 1.4830285626822162, -0.23405259854556315, 0.09310953940234509, 0.4136045101308693, 0.04496146318402589, 0.05525632827168723, 0.12532836334742187, 0.17924724199401793, -0.030065296797551495], [0.3370748705851115, 0.44417548259845485, -0.5286355110315114, 0.07407269306608007, 0.24192337184952092, 0.10581148527692895, 0.07323927855464149, -0.6597129874044715, -0.4430755441972219, 0.1309714205346931, 0.26178328439021703, 0.19445420124390458, -0.08109786284428368, 0.2859036097343634, 0.14491222636570122, 0.5783342374923344, 0.39163774294283915, 0.15824338233306467, 0.23660482363751636, 0.22400814849039125, -0.14539588176828727, 0.44753168398229387, -0.009005223319512985, 0.2788538126358747, 0.009920732331476917, 0.0687595369640126, 0.10462702401060742, 0.3347129578752556], [-0.3023321048734643, -0.1326298541176277, -1.0319472758523767, -0.22091292814787813, -0.22290874076857567, -0.3554934544587346, 0.5153132141831248, -0.5952041669955733, -0.7156842826109828, 0.37708928299998046, 0.8881291364840926, -0.12087413398187448, -0.5135911459774902, -0.31904542261462304, -0.2605164451520649, -0.31028415779448615, -0.07376494446268766, 1.012885956805561, 0.5247889792106769, -0.29891881021776207, -0.067428008887993, -0.4864029605377298, 0.17489641981392598, -0.47507292310588217, -0.11308163317920161, -0.25050731517015407, -0.3346217553913271, 0.6166230918292215], [0.14931156058741524, 0.14416828346536836, -0.21104217771476197, 0.2977010656795105, 0.09975197116240835, -0.03725613769238547, -0.4079281681455491, 0.214520533627574, 0.08681673963524984, -0.24245400385433716, 0.1405520523883826, 0.6042006546818854, -0.03613337107869771, -0.07063991689367691, 0.16276939887065173, 0.14908561459606554, -0.01664127622028592, 0.1404822140826129, -0.44569068125842437, -0.289413018236053, 0.4623629194818383, 0.1380406195389473, 0.14007457297370457, 0.28251936688405827, 0.7188011885328585, 0.13768306014613185, 0.3191559440673388, 0.2813331615050348], [-0.366589690581097, -0.34638904262167425, 0.35142650170842227, -0.1781904002946621, 0.1309202937506614, -0.710706663360435, 0.08059095663479665, 0.3623858723415552, 0.30071269935093714, 0.40937577183043056, -0.12001128777050152, -0.25092367541187355, -0.44147811629499134, -0.5117134386994175, 0.6686874850205543, -0.08875610529428622, -0.04640327506115563, -0.24169555989948724, 0.382063743470089, -0.2951210035041793, -0.42252402840935555, -0.24956192298150895, -0.24915476315759078, 0.4746201521351793, -0.1912193202567574, -0.249386698989126, -0.1829782670735993, -0.306208669452676], [-0.3119125728415811, 0.25382772441752793, 0.2704523218713362, -0.06932278402862137, 0.2651284816557569, 0.057513876291179114, 0.28435646325417974, -0.2263254438768977, 0.13622143285828206, 0.22438225410432353, 0.1342902175873561, -0.09584118489479752, 0.0681908555780428, -0.07542076926583943, -0.05221249737649871, 0.0736805474816572, -0.1825069160855907, 0.21597613338641833, -0.9665594284531589, -0.06759940473161719, 0.07639132335172336, -0.2413992287180696, 0.06075629067315582, 0.06540871845961511, 0.20553302218064973, 0.1928432698193559, -0.10222867325643337, 0.03851415459228652], [0.22188422851514084, 0.2162554234043442, -0.10003558851513453, -0.03717960517108104, 0.12234548900725721, 0.584721409694905, 0.7053697091502277, 0.09817178315835667, 0.05968391662665804, 0.024372131019284187, 0.3584859792024823, 0.4254930781963104, -0.0756599677794421, 0.13420816557642937, 0.09869769783622699, 0.14043130227588194, 0.3641138609599975, -0.006500207629969933, -0.00409500260757889, 0.07923633766542895, -0.29731435266860123, -0.018102641872992375, 0.4896623398145618, 0.3834662794657714, 0.28867374216514313, 0.22476623632762185, 0.7638902292118045, -0.21263955591906705], [0.04362892978023075, -0.4360689081093216, 0.5279377693850639, -0.4327372215032074, -0.12181847941200122, -0.6815274919156508, -0.4923529978588567, -0.5874618082003704, -0.7871832949520334, 0.5463006561888385, -0.6819523279877951, -0.5083115349751679, -0.6304114693806918, -0.5949203990896995, -0.5105913075193008, -0.4461242447853303, 1.0099375848799192, -0.34598734732287206, -0.6360489478492113, -0.4923128649148575, -0.3353576408218387, -0.3724155490072555, -0.2976179055180176, -0.5849642966068511, -0.4012210650011467, -0.4865790947412772, 1.0650783884108943, -0.6780344212546042], [-0.25573696928511674, -0.2878626866439281, -0.8006252099678564, -0.3130977151470686, -0.3250478146838654, 0.592940632694259, 0.3062453649584906, 0.5299524418731234, 0.5183045878714744, -0.6392128750713651, 0.29976260793176845, -0.2568856890283184, 0.37792701198601336, -0.21186565646529068, -0.5465790924785346, -0.32011966310864665, -0.33501311359595015, -0.41108064712924014, 0.44759284231972307, -0.22550140334602653, -0.22282427584668207, -0.32429255781858185, -0.31481121491248815, 0.4391162015070554, -0.21641423774016819, -0.35510801648609375, -0.18673050760825158, -0.5626426912524589], [-0.1540645898093596, -0.43711849714583156, -0.6017062017905089, -0.1850280823890044, -0.2073860394154246, 0.10511016693137389, -0.31626641401214206, -0.16330805180277452, 0.11497145022456148, -0.7861996848918329, 0.24079498396525573, -0.09902390770841772, 0.42154752242026416, -0.13621333539070268, -0.0643103833851947, -0.2077684069063698, 0.10143946626856595, -0.03528711690836078, 0.4522178099085093, 0.07521100090893804, 0.501472018007431, 0.048225774615289485, -0.3675102662916452, 0.6440816094011482, 0.1176097954853105, 0.04371577077921981, -0.1344816016883828, -0.14348508942423033], [-0.034673236388335305, -0.11899053798207736, 0.15807271060441708, -0.25289646501325613, -0.06299968288909899, 0.4840949744508695, -0.47198239509320794, 0.32081907521846476, 0.18659101515301318, -0.3955977972980256, -0.047682541088850866, 0.39687062456114736, 0.27885187863784255, -0.2415197731095309, -0.2450377249022529, 0.17747857805700917, -0.2179321918802913, 0.11064547094772634, 0.36469216960645756, 0.7315013847357223, -0.33939095889640636, -0.3092728804719631, -0.2510322117040358, -0.2383324110340714, 0.5531477701067349, -0.017754630538493098, -0.19772992056828098, -0.07854182964412165], [0.9721952634625196, 0.08262975013491157, 0.12287322614590297, -0.31272945906658467, 0.31907154836816076, -0.24207359265660103, -0.3378314523045083, -0.11525296946719032, -0.31239538539780853, 0.13601771151213904, -0.25673537016483244, -0.1589996346764893, -0.2880727158097332, 0.06416010968041087, -0.0944673182236364, 0.0491214476542597, 0.47662987629280873, -0.03886192101306187, -0.19268462868113065, 0.12762686778075158, -0.058490433921031725, -0.1453585389675023, -0.0008979488925536072, -0.1489410187741334, 0.09368259723950506, 0.01974515052173615, 0.29950808328544176, 0.03994943193720567], [-0.6615345542548393, -0.4435215543797822, 0.38618772248379685, -0.5201216622526028, -0.07989833706237763, -0.5339602946002696, 0.0036930928274600556, -0.373721649721324, -0.4262660687057939, 0.3969907024698469, -0.4409511850969516, -0.4690768048938013, -0.4823265784099666, -0.4273019136044585, -0.5742370905491765, -0.3809047136522028, 0.3560996419945169, -0.28237743480168975, -0.6405102001053398, -0.3553083505093461, -0.461777533233635, -0.5985007388894396, -0.3671802920271449, -0.5415162347044143, -0.4425040037229181, -0.6092846831219333, 0.3981124542633085, -0.3438169107608647], [-0.4510534078849343, -0.08976646974553956, 0.27364582667584114, -0.3467006077445867, -0.06515141387092091, 0.03084498673298848, 0.21601818450117732, 0.44635907131424685, 0.08014605417692543, -0.09237692622830275, -0.24603449619417453, 0.7757584957892218, 0.16997993673138118, 0.011449615382760106, 0.18111481602945662, 0.014450237354678118, 0.1821144111930831, -0.28637626530138816, 0.27405848397392607, -0.16721829204427602, -0.8313753730123206, -0.24927328491542572, -0.21363074021622216, 0.08277268019680166, 0.2758093281512005, 0.1994368395918853, 0.1340785461325318, 0.09155515228828899], [-0.42635463045676175, 0.1716166704735874, -1.7760377533790233, -0.4788578999726161, 0.034975832040028486, -0.14397880912991282, 0.08586714129278479, -0.03675755041167142, -0.18427986016252884, -0.33675690326719177, 0.10289220779871572, 0.13646170422914788, 0.343300071723915, 0.04971966231983183, 0.0013309521972978324, 0.10453737641866083, 0.1364860265845902, 0.02789358447364635, -0.09601510050968992, -0.039816633064478905, -0.27035831294869017, -0.3557398241688438, -0.037683630435414596, 0.3403440636166488, 0.3368079162517007, 0.06831134779519589, 0.05225728142181801, 0.08003981671202721], [0.42021532332056505, -0.1300309831181109, -0.17853181953322148, 0.5107967430699526, 0.05387490132577984, -0.16588034039326782, 0.9854768480856799, 0.20380084333251663, -0.03369740460175981, -0.25365081231731723, -0.01456973413365953, -0.18985794325789834, -0.011920880501982369, 0.4445625269610693, -0.17971923502365336, 0.1408979595524359, 0.060393322441746417, 0.21172660577080454, -0.1483209310161383, 0.4369120911459598, -0.34141649616011366, 0.2564121285179531, -0.0411388341385941, 0.0976654427575011, 0.3536711354986385, 0.12680767508086094, -0.10991877503128754, 0.2075449065143506], [0.4442996986072872, 0.0647800721022545, -0.15378073554259003, 0.006001838529172277, 